{"layers":[{"out_depth":3,"out_sx":32,"out_sy":32,"layer_type":"input"},{"sx":5,"sy":5,"stride":1,"in_depth":3,"out_depth":16,"out_sx":32,"out_sy":32,"layer_type":"conv","l1_decay_mul":0,"l2_decay_mul":1,"pad":2,"filters":[{"sx":5,"sy":5,"depth":3,"w":{"0":0.49284739767838265,"1":-0.2850801494973552,"2":-0.5341701833191606,"3":-0.14625486320388648,"4":-0.4591120443133004,"5":-0.3707243276961733,"6":-0.26666059005387344,"7":-0.2526543437770877,"8":-0.23531345852836094,"9":0.19011605693535183,"10":-0.05854988357465991,"11":0.6219449633475395,"12":0.12494769851315647,"13":0.4330849852216907,"14":0.568062852095021,"15":0.06660351526738752,"16":-0.07756129010158197,"17":0.05489546625767415,"18":-0.34336477256940684,"19":-0.1885248372865692,"20":0.2523781457518033,"21":-0.27444532728751414,"22":0.11113001565339804,"23":0.28893412236384797,"24":-0.3796833882053168,"25":0.23569650089293054,"26":0.3961346640583512,"27":-0.015268479108233474,"28":-0.05610830335151755,"29":0.3294266592421317,"30":-0.06046569016602611,"31":-0.5173019173446242,"32":0.08300634650124986,"33":0.19215535201648676,"34":-0.013422347058800764,"35":0.46245213409498737,"36":0.13788937734675255,"37":-0.0007445104271558161,"38":0.8333206297093916,"39":-0.40153490189966373,"40":0.136335101579251,"41":0.4170912643067545,"42":-0.44774635186076167,"43":-0.22954087446201255,"44":0.06158237248548474,"45":0.19864640283540264,"46":-0.3202955553196926,"47":0.055233274477851424,"48":0.2815158712766312,"49":-0.29495951008163535,"50":0.23017209268508465,"51":0.4030491519055009,"52":0.05266641307009189,"53":0.8245818201878952,"54":0.33756244263259044,"55":0.12667688552887887,"56":0.303061934024963,"57":-0.023775822966080582,"58":-0.13802172947485622,"59":-0.15952400189458715,"60":0.1878033427289463,"61":-0.25586045340331925,"62":0.16226597663968476,"63":-0.18214964582409707,"64":-0.4711655959063259,"65":-0.08623870162660428,"66":-0.1233717209497199,"67":-0.16300887184931653,"68":0.06154108060054532,"69":0.16964401554649686,"70":0.028828191897564626,"71":-0.06471977156427895,"72":0.06181270948855425,"73":-0.16698565540422294,"74":-0.07255499887477139}},{"sx":5,"sy":5,"depth":3,"w":{"0":0.023533245700065708,"1":0.0434695597409983,"2":-0.17048309700715886,"3":-0.2064079880933262,"4":0.24830927507973097,"5":-0.01719318538384582,"6":-0.37331661178310316,"7":-0.22588072821644473,"8":0.2860673867176501,"9":0.06306091771366398,"10":0.008293145750445678,"11":0.04129062629282693,"12":0.5027695008017792,"13":0.010387455378956143,"14":-0.25488833662594246,"15":-0.40924984130105907,"16":0.2990231322630765,"17":-0.24370465907685995,"18":-0.5486520435735739,"19":0.1849955589361427,"20":0.4445584647410769,"21":-0.14135158358494082,"22":0.18753749768837785,"23":0.6572636009606402,"24":0.346701727768937,"25":0.17517147137884964,"26":0.07141064999834723,"27":0.45989767305803786,"28":-0.3651409582864257,"29":-0.9626795752676791,"30":-0.5432003974985032,"31":0.3349592031326313,"32":0.2690532279970349,"33":-0.4572949170244098,"34":0.4582383431932708,"35":0.7670248437319519,"36":0.1437399204068431,"37":0.10666917619162797,"38":0.5818016228503458,"39":0.2583985702042944,"40":-0.5830637182283054,"41":-0.6421653335829092,"42":0.6069161863818144,"43":-0.2712929715489246,"44":-1.0540763367440669,"45":-0.591516680639582,"46":0.4130575868793249,"47":0.6816206420665814,"48":-0.1642017113900357,"49":0.30685939193860473,"50":0.7730019772328178,"51":-0.1505447190668264,"52":-0.30331248841168157,"53":-0.08287631174966169,"54":0.13531868399459152,"55":-0.4830323740870316,"56":-0.6495681062911723,"57":0.8622726462240845,"58":-0.16219877998438356,"59":-0.6523898412316276,"60":-0.49552138383347155,"61":0.5087253659961555,"62":0.610377885245998,"63":-0.43136063316133233,"64":0.11150054706492173,"65":0.2802382418698744,"66":0.10137776113864198,"67":-0.5164102943818552,"68":-0.21365727899220524,"69":0.3982394507191397,"70":0.04307917664981348,"71":-0.26762635101432497,"72":0.40956443022294003,"73":-0.1324611336437953,"74":-0.30904023484713894}},{"sx":5,"sy":5,"depth":3,"w":{"0":-0.03735629573075358,"1":-0.03914586868651584,"2":0.22254080174241322,"3":0.23752147961209563,"4":-0.18372678121651165,"5":0.03243456601743438,"6":-0.07226545117201322,"7":-0.13684153663179918,"8":0.3339083426709209,"9":-0.3121718562899358,"10":-0.0038280006006590913,"11":0.525381279503677,"12":-0.5692402778321427,"13":0.2763457124445404,"14":0.6203021311021925,"15":0.7655487815170865,"16":-0.6556746523567477,"17":-0.5310843995973547,"18":1.1212831803605723,"19":-0.818712065997465,"20":-0.755035368681213,"21":0.9557243435420001,"22":-0.7305242704505353,"23":-0.7404874377442647,"24":0.47978744768531106,"25":-0.4108891529305403,"26":-0.33597166595088096,"27":0.13184748233055021,"28":-0.29596900102042895,"29":-0.18650574223566527,"30":0.5209223235660295,"31":-0.4248543149075238,"32":-0.19834278174218486,"33":0.8301304498215935,"34":-0.749472964162171,"35":-0.33507087688555465,"36":0.9157460166383699,"37":-0.7904503391046095,"38":-0.4582146108855553,"39":0.587669668428805,"40":-0.3892460330609031,"41":-0.2707124493337911,"42":0.1506224051788278,"43":-0.30327453823807804,"44":0.10107181842812758,"45":-0.1264091035476577,"46":-0.25692867666303704,"47":0.061414041229918996,"48":0.04963981218096967,"49":-0.2585906333091811,"50":0.1519217652496536,"51":-0.00031942620856064503,"52":-0.16441510434959036,"53":0.19041297170066004,"54":0.03751357427258386,"55":-0.21842745981289516,"56":0.2569518810993329,"57":-0.3177848849607576,"58":0.022572964064522198,"59":0.20794675641066696,"60":-0.5921368058362748,"61":0.2736887477154682,"62":0.42665045480253355,"63":-0.6423897895497506,"64":0.4387705639033934,"65":0.6117965621938722,"66":-0.6982221470088459,"67":0.3000646202026789,"68":0.6475020971017946,"69":-0.6021390635464849,"70":0.22627232849296897,"71":0.49589025250434665,"72":-0.577260657128549,"73":0.01946672129086067,"74":0.45123129858195776}},{"sx":5,"sy":5,"depth":3,"w":{"0":0.7020612415898203,"1":-0.25827779438421955,"2":0.048463254688184944,"3":-0.24864930808190097,"4":-0.7918711799165297,"5":-0.1978258478661805,"6":-0.2751970520491887,"7":0.03239868407891437,"8":-0.07525431527012699,"9":0.11492605877767541,"10":0.3556178647177461,"11":0.12224666650755125,"12":-0.15958813758755536,"13":0.3537609160821491,"14":0.09687864813434185,"15":-0.06528205711855109,"16":-1.0820266514698913,"17":-1.0329106702582536,"18":0.2819675745386062,"19":-0.47309636436312574,"20":-0.08182765984287832,"21":0.5489632128277694,"22":1.1527035764445477,"23":1.1590468700194638,"24":-0.3547520607183187,"25":0.09255370980970891,"26":-0.10961108114347398,"27":-0.24415928554392907,"28":0.23775951348181687,"29":-0.24354019108872424,"30":-0.2117112766290024,"31":-1.357043445433709,"32":-0.934509954431058,"33":0.6851914878987213,"34":0.15166066575630865,"35":0.4065925959228764,"36":0.4370154325227205,"37":0.7663213285964534,"38":0.7312634910602235,"39":-0.3372724942506622,"40":-0.1692182328049282,"41":-0.09630825189354782,"42":-0.1406097000814762,"43":0.230296104897444,"44":-0.35916607849797794,"45":0.24270588129476542,"46":-0.3932617826283662,"47":-0.19790591998664073,"48":0.27300021805643826,"49":-0.14180272795895874,"50":0.18453133859750495,"51":-0.1999543421757363,"52":-0.013497147846947997,"53":0.1696949163558044,"54":-0.013205064917825611,"55":0.3358606501862512,"56":0.2625243597308789,"57":-0.37612156138057407,"58":0.20519899554992233,"59":-0.28769368513626475,"60":0.24834025628118503,"61":0.030936858928917045,"62":-0.05984170545871999,"63":-0.24715254275738385,"64":-0.07266153834139447,"65":0.1673024747438942,"66":-0.5581427410664531,"67":0.25879417097356444,"68":0.2111648661348796,"69":-0.08237485201980271,"70":0.510500758629775,"71":0.00651726442645707,"72":-0.17829329833650437,"73":0.21366749298387186,"74":-0.08055498860853633}},{"sx":5,"sy":5,"depth":3,"w":{"0":-0.4346876038803228,"1":0.3185020256062608,"2":-0.1464769119494926,"3":-0.3460408376047585,"4":0.9284149068893972,"5":-0.6199318686910843,"6":-0.7840663236662885,"7":0.6918746360423625,"8":-1.2600131609033312,"9":-0.3897895559620899,"10":0.6665496809064225,"11":-0.4638957772889298,"12":0.23846157874277288,"13":-0.113829453438191,"14":0.49330291095511053,"15":-0.1889144158854394,"16":0.18799114273619366,"17":0.008322731039080105,"18":-0.05328251896909675,"19":1.264275538167441,"20":-0.28852442214982504,"21":-0.002934284866762956,"22":1.57419602065907,"23":-0.32876754954522014,"24":-0.45192424944204285,"25":0.5667018676556941,"26":-0.708770595234317,"27":-0.27017863728338365,"28":-0.07384130616729105,"29":0.04431575672652283,"30":-0.09543977577382509,"31":0.17321324317541778,"32":0.29243231609299347,"33":-0.9917210254033667,"34":0.09468654939451268,"35":-1.3038709059923028,"36":0.1200706277822905,"37":1.1293303128362928,"38":-0.3963640093093836,"39":-0.060555989090229446,"40":0.5681422880576058,"41":-0.43231319826954573,"42":-0.10699981695217617,"43":-0.008493869217014473,"44":-0.0001004689159722384,"45":0.22784897595496664,"46":-0.0674347064675325,"47":0.7463937191385699,"48":-0.17576274102730022,"49":-0.1182716124823554,"50":0.06204484030734939,"51":-0.1396680343456505,"52":0.3424342742196176,"53":0.03126871793558594,"54":-0.5727235150958587,"55":0.07132536405940317,"56":-0.31641173022599467,"57":0.2113345191214797,"58":-0.1301632837215771,"59":0.19605430668339996,"60":0.285063657706305,"61":-0.842991497606638,"62":0.25162494222592124,"63":0.3010849650584563,"64":-0.19565126088652093,"65":0.34121793713686444,"66":-0.1817368806963063,"67":-0.395425613285828,"68":0.2792057720287956,"69":0.06211516951242591,"70":-0.06358192815851199,"71":0.009885134284343728,"72":0.21603012039852826,"73":-0.24688616294514604,"74":0.4094802074221285}},{"sx":5,"sy":5,"depth":3,"w":{"0":-0.18392575257584767,"1":0.2312898374484648,"2":0.010645238780317244,"3":0.2015635722893934,"4":-0.3465332140015176,"5":0.1966187308838703,"6":0.11064842849402463,"7":-0.45589494823661963,"8":0.12006060479249368,"9":0.3518854368448719,"10":-0.02184499023674846,"11":0.04719050023023535,"12":-0.1962651484286407,"13":0.10019306674939701,"14":0.011004381960707313,"15":-0.18264587873989135,"16":0.12870425024042723,"17":-0.2068809720157447,"18":0.218726490881617,"19":-0.20691936777365888,"20":0.4348271142080189,"21":-0.4273103164102602,"22":-0.7334334565366243,"23":-0.24247410397723754,"24":0.5644993143953816,"25":0.3149695857736936,"26":0.3424191406429666,"27":-0.45225681485795266,"28":-0.17440625984997582,"29":-0.41081344932449637,"30":-0.22709321289011633,"31":0.4931406183042869,"32":0.04248993923020975,"33":0.2322939293310003,"34":0.2576142779498528,"35":0.33691461508371096,"36":-0.7715195461504412,"37":-1.395349744433121,"38":-0.6861770582109435,"39":1.2420421950452898,"40":1.1432056882918988,"41":1.1411660837994186,"42":-0.47258893672314467,"43":-0.03235980934935551,"44":-0.6247315997449462,"45":0.21803233991420234,"46":0.3939903750890724,"47":-0.131732461228142,"48":0.03502779264209005,"49":0.038935295510062605,"50":0.459682933176105,"51":-0.9068633680735357,"52":-1.4499194173433574,"53":-0.9054166794790717,"54":1.5942388612362994,"55":1.6108582484229377,"56":1.0159243901107515,"57":-0.85975892116618,"58":-0.3654780320483742,"59":-0.9112013484957905,"60":-0.29744733215727126,"61":0.34597027263935054,"62":0.21718961676020246,"63":0.12260891751179906,"64":-0.09741053617597618,"65":0.10143538879787335,"66":-0.5286410846737634,"67":-1.01277102485055,"68":-0.5123369532921818,"69":0.9816959757951433,"70":0.9702590968114091,"71":0.7792317658849113,"72":-0.27343827922127767,"73":-0.23207514828858147,"74":-0.546398241998476}},{"sx":5,"sy":5,"depth":3,"w":{"0":0.4118044944771849,"1":0.38738600333175005,"2":-0.16225811922762373,"3":0.39155910172312824,"4":0.3032529116498424,"5":0.13339349775177986,"6":0.6432981081125999,"7":0.6009903633142324,"8":0.3882609113894105,"9":0.26993683983326905,"10":-0.1287633867368827,"11":0.033786893067718045,"12":0.43728261951794334,"13":-0.02248182542686654,"14":-0.2298726374787572,"15":0.22491327490602098,"16":-0.1482456598983061,"17":-0.15917343396481629,"18":-0.15762016718068847,"19":-0.06121473765059429,"20":0.03942996249398776,"21":-0.2161119025089766,"22":0.016673362986264748,"23":0.31438387522666117,"24":-0.318963938220149,"25":-0.036146646965903736,"26":0.3325120638733839,"27":0.1995021859825398,"28":0.37070789307225355,"29":0.2776019414602475,"30":-0.2058569244443965,"31":-0.5097613603565762,"32":-0.4689863668086354,"33":-0.48376983703756765,"34":-0.2940722457579907,"35":-0.3883008913816571,"36":-0.2844968062225733,"37":0.10390666173187511,"38":0.24634753308429727,"39":-1.0114184390101182,"40":-0.5485619744123529,"41":-0.028964574552905582,"42":-0.7268787282957095,"43":-0.2954690625634623,"44":0.028495463222793126,"45":0.2646645804168688,"46":0.019248251033880896,"47":-0.1722984485829262,"48":-0.1252139456028282,"49":0.014447029910583975,"50":0.016731771695470778,"51":-0.06212704818300603,"52":0.3799671453429632,"53":0.5187406006525815,"54":-0.2855762682099537,"55":0.2096003283264853,"56":0.33803903484642267,"57":-0.08962398032516908,"58":-0.1187170264841695,"59":0.013909042063280119,"60":0.08478888339649504,"61":0.037452036684943374,"62":-0.06155135964752228,"63":-0.04293091560470801,"64":-0.295262447059635,"65":-0.2562439179794882,"66":0.07109666212155488,"67":0.12471858152528544,"68":0.2425270875116009,"69":-0.20041863043528926,"70":-0.057686813393969714,"71":0.11867772554298879,"72":-0.2950843959907571,"73":0.1352401137003863,"74":0.11239086156262264}},{"sx":5,"sy":5,"depth":3,"w":{"0":0.06301229370988372,"1":0.01064388489730267,"2":0.047812319385480494,"3":0.006919863573134171,"4":0.017994059443606946,"5":-0.07927093366719118,"6":0.733910783793128,"7":0.47474493434964415,"8":0.3643185712349855,"9":-0.33216809884000065,"10":-0.007010217047502343,"11":-0.5027637244780465,"12":-0.7004469182829143,"13":0.47353108304674574,"14":0.09369770196938394,"15":-0.23901943332755268,"16":-0.397736216588836,"17":-0.28255529633490656,"18":-0.5001740380018214,"19":-0.9601267485289293,"20":-0.27370821687973096,"21":0.06748334342800363,"22":-0.11560722862410194,"23":0.1958900537058011,"24":1.4627947406852908,"25":1.4699737746471233,"26":1.3686677042479445,"27":-0.6168025562523497,"28":-0.47204645668468004,"29":-0.7709112765555338,"30":0.545903069119644,"31":0.3478751144455936,"32":0.21485593380261714,"33":0.11843121974876553,"34":-0.025703483959733407,"35":0.181029782055059,"36":-1.9566353146333042,"37":-2.168460298462794,"38":-1.452440468389929,"39":0.34954133664768106,"40":0.07815020330441702,"41":0.34759796986037034,"42":0.8767829267514411,"43":0.7780467469082534,"44":0.6372710118268746,"45":-0.04871650938230099,"46":-0.04562300483431819,"47":-0.430146117867442,"48":1.0761563087063586,"49":1.007629606320254,"50":0.8153349221290316,"51":0.1631263276417843,"52":0.14231357470867623,"53":0.20701800773739915,"54":-1.2126824248487507,"55":-1.296672386493093,"56":-0.8854638504429572,"57":0.2164906535601074,"58":-0.05755079876160948,"59":0.28970753838980906,"60":-0.23539748753130182,"61":0.17776824839333918,"62":0.1147339999917585,"63":-0.1447898145865788,"64":-0.2836818688845421,"65":-0.5795077409937576,"66":0.7355783902327225,"67":0.7105871044712877,"68":0.4588435854279158,"69":-0.12268977674031799,"70":-0.4362398922463,"71":-0.06917122552207201,"72":0.13441082305849708,"73":-0.29495202273160426,"74":-0.030525877535642145}},{"sx":5,"sy":5,"depth":3,"w":{"0":-0.1483970737782178,"1":-0.046479627827575504,"2":-0.44642239258842575,"3":-0.44082873903742964,"4":-0.2119854698551984,"5":-0.4877469325889215,"6":-0.07696571112099629,"7":-0.026903134812137488,"8":-0.1097824735402028,"9":0.13632438686707293,"10":0.2329222042378926,"11":-0.023517201010156485,"12":0.1569658834454929,"13":0.13639434495622355,"14":-0.046604367698620315,"15":-0.2604188832075875,"16":-0.008946265197060472,"17":-0.31922643578799664,"18":-0.1307576090588351,"19":-0.1839267008343759,"20":-0.545501566036503,"21":-0.15215401358001693,"22":-0.1866591454041771,"23":-0.19906127196571557,"24":0.21015049659701557,"25":0.10277924267795818,"26":0.2500259981437386,"27":0.20382541097773674,"28":0.20682948305820256,"29":0.14469519933290922,"30":0.088761671651266,"31":0.08195152019335965,"32":0.14640842147734748,"33":0.3246360500161206,"34":0.2607806455504692,"35":0.18716753712822912,"36":-0.003910782369004251,"37":-0.1610537008565007,"38":-0.15948948466859444,"39":-0.15459549263413008,"40":-0.5008926656366701,"41":-0.0018987121287951216,"42":-0.009793258132017441,"43":-0.010723091065068295,"44":0.25033183717772134,"45":0.29484632995389864,"46":0.22172331627371253,"47":0.2667082383241423,"48":0.22196593428589917,"49":0.283454823395152,"50":0.6027255301585325,"51":0.3701761044446217,"52":0.1925145745410221,"53":0.4670299066220141,"54":-0.31874706055725754,"55":-0.4915474074219462,"56":-0.17400673218131446,"57":-0.4706662491636006,"58":-0.5786107051709517,"59":-0.17026406112614656,"60":0.049170050976653466,"61":0.15740718964668565,"62":0.2565420070928585,"63":-0.0659808941376783,"64":-0.023172337262101977,"65":0.3284168813368282,"66":-0.38988262311923305,"67":-0.30810419602365585,"68":0.2012617565090147,"69":-0.48485936302934396,"70":-0.4761006861523362,"71":0.42932870303766335,"72":-0.3103613795435431,"73":-0.2645250577915232,"74":0.5953971013880938}},{"sx":5,"sy":5,"depth":3,"w":{"0":0.09325732205224496,"1":0.352420785179087,"2":-0.08740046869883696,"3":0.3128238520359661,"4":0.4076417037878775,"5":0.08406112935978656,"6":0.11381866381959323,"7":0.100433852789968,"8":-0.10456647862426328,"9":-0.28963812680780787,"10":-0.4276802825537085,"11":-0.08013235448240028,"12":-0.14663035327853033,"13":-0.15160026595301818,"14":0.053715684788482244,"15":0.05098808478513893,"16":0.020265267250051927,"17":-0.23766600882374328,"18":0.08959230870936909,"19":0.29696007108465516,"20":-0.03635288045525385,"21":0.3562865649707257,"22":0.2489055209922531,"23":0.24192241204082524,"24":0.005963064564616873,"25":-0.15388815186815744,"26":-0.11543138313389344,"27":-0.3110684327846247,"28":-0.4549270300087221,"29":0.17814355270747234,"30":0.20298540065066345,"31":0.08822037901613249,"32":-0.4772167144581564,"33":0.13161251880168984,"34":-0.025969234045892794,"35":-0.13752544238105394,"36":0.22676050076122997,"37":0.16794468632019602,"38":0.27328382023376663,"39":-0.06556407947092213,"40":-0.15162681103682102,"41":0.3351814050961211,"42":-0.47361377816065675,"43":-0.5041554330355665,"44":0.2642405399245867,"45":0.16070871540266143,"46":0.203292691152533,"47":-0.45348069931008506,"48":0.22982624498553592,"49":0.11621108631454118,"50":-0.3350803535074065,"51":0.23922828894253778,"52":0.10568896227044566,"53":-0.08392201859925208,"54":0.015679451119618156,"55":0.11476487799761892,"56":0.5209035358028674,"57":-0.7290193384825164,"58":-0.37168076562290653,"59":0.3253583407986789,"60":0.15384940384067788,"61":0.12167976340907165,"62":-0.4730520875662341,"63":0.11411476055116464,"64":0.057269252710477704,"65":-0.3462117671888627,"66":0.29212711864451646,"67":0.06802581899510783,"68":-0.09758354845435566,"69":-0.001896912581838331,"70":0.18260105028899284,"71":0.2215213363413905,"72":-0.5920809899927036,"73":-0.13607519281916397,"74":0.5529404167642954}},{"sx":5,"sy":5,"depth":3,"w":{"0":-0.06850657293667443,"1":0.0706938225975635,"2":-0.4055427474028939,"3":-0.2258526245851777,"4":0.020156276272946912,"5":-0.3475027036773568,"6":-0.024215003007422124,"7":0.11996168486486826,"8":-0.2773632757596325,"9":0.8117161540072776,"10":-0.06085495208768687,"11":-0.4470004646702095,"12":0.5681783752947138,"13":0.0010643772828868479,"14":-0.6069159477697755,"15":-0.20643751769597146,"16":0.09711841760173018,"17":0.3329306977333143,"18":-0.29941035502186286,"19":0.4625243318180136,"20":0.7189475432704839,"21":-0.1297842537164845,"22":-0.13453261211074924,"23":0.25168211093723214,"24":0.2753983206888287,"25":0.134948217768917,"26":0.1892010952701416,"27":0.30311128063354015,"28":0.06031601045451385,"29":-0.4909161587821611,"30":-0.5800712437326186,"31":0.12475536181720404,"32":0.2303869672717235,"33":-0.6516111313290894,"34":0.10691093006179313,"35":0.35017209161663143,"36":-0.9581010238845125,"37":0.052193175127281125,"38":0.5168523252320084,"39":-0.1795695455288144,"40":0.1864070738651122,"41":0.08944233970153648,"42":0.38039891176809276,"43":0.046236606533362805,"44":-0.28784161808481384,"45":-0.4816752990105581,"46":0.11481473680212817,"47":-0.036868765812659555,"48":-0.590296917540426,"49":0.060550620173504245,"50":0.7136712564195461,"51":-0.7185701444588413,"52":0.004558543935164594,"53":0.29871270907486797,"54":-0.2746687874083392,"55":0.027107725512612164,"56":0.2547023787558492,"57":0.19398231530773885,"58":0.21969603183993236,"59":-0.24327857249168683,"60":0.16905403790323445,"61":-0.08607869936282929,"62":0.1919354873894947,"63":-0.48558882958118743,"64":-0.13586351370104255,"65":0.50605107102735,"66":-0.407363445740753,"67":-0.41041803857402887,"68":0.5808362357067741,"69":-0.1440671732164066,"70":-0.16908188700028645,"71":0.1370407891165879,"72":0.31689199901970866,"73":0.05675276606355197,"74":-0.04379533937904538}},{"sx":5,"sy":5,"depth":3,"w":{"0":-0.2741214300847097,"1":0.027335786072056476,"2":0.3620098621508603,"3":0.08931287485809755,"4":-0.05248039658255323,"5":-0.31983978095169147,"6":0.5529212722243221,"7":0.17540245158264647,"8":-0.24512690776228954,"9":0.690196236899189,"10":0.09300248125973631,"11":-0.022470634831835406,"12":-0.02075445547808829,"13":-0.08678875699235575,"14":0.18193216779751312,"15":-0.09333910991833716,"16":0.09709865555094356,"17":-0.2480275871210892,"18":0.3612032233756271,"19":-0.24473912060478117,"20":-0.6070484730839962,"21":0.9111876198759328,"22":0.46118399263676396,"23":-0.03909411598328725,"24":0.07797576016059768,"25":-0.06472764243086278,"26":-0.08830125917002081,"27":-0.43242771000174846,"28":-0.13834242853738846,"29":-0.0023706700468377343,"30":0.23363351767980478,"31":-0.5017848280536658,"32":-0.6533729645045027,"33":0.9182963860257686,"34":0.229572381997436,"35":0.04551531863146735,"36":0.7357946208345476,"37":0.2761312589239397,"38":0.2991729220897792,"39":-0.7560269955879299,"40":-0.8337223323668985,"41":-0.2988747931298581,"42":-0.29985633923723176,"43":-0.3272356869247986,"44":0.3303911027287383,"45":0.470958263177407,"46":-0.1479013028030691,"47":-0.09113595309013423,"48":0.5143150034291151,"49":0.42669857074691175,"50":0.5778629088440486,"51":-0.6569177269009767,"52":-0.5258783558879018,"53":-0.3187611944020155,"54":-0.9297809064893902,"55":-0.7585209522202034,"56":-0.22053865740130094,"57":-0.04494684282362259,"58":0.10671930274416505,"59":0.5585099772926673,"60":0.23129544221958753,"61":-0.06327815451940969,"62":-0.15448563241547228,"63":-0.27021583648798114,"64":-0.3421192622854955,"65":-0.06977607236163906,"66":-0.8884503147989706,"67":-0.19249874596651614,"68":-0.14239763647466677,"69":-0.008859888980057178,"70":0.3283128602423814,"71":0.6583934675933384,"72":-0.0547317704402123,"73":0.2732380604083643,"74":0.44277398008655844}},{"sx":5,"sy":5,"depth":3,"w":{"0":0.010796442847254515,"1":0.00008233805808288076,"2":-0.05972718703243685,"3":-0.14223813741969327,"4":-0.21631652350863695,"5":-0.40087965734388686,"6":-0.8773058385386259,"7":-0.9042639093400823,"8":-1.2788577359307898,"9":0.25979671364419155,"10":0.279404345696539,"11":-0.28996929783793507,"12":0.3040788050770494,"13":-0.054510708721534316,"14":-0.012171321860534975,"15":-0.04406722865401356,"16":0.12035158093491352,"17":0.007362434290928529,"18":-0.16448075316298064,"19":0.18062405766819148,"20":-0.19095623800489375,"21":0.9505132306352116,"22":1.4237857855609244,"23":1.0877159761729398,"24":0.9336153604043177,"25":1.2089354122046911,"26":1.1787813108269423,"27":-0.3722234815792719,"28":-0.5124722544303052,"29":0.009480260807619986,"30":-0.13331045812494768,"31":0.2996072706592597,"32":0.04541847983376859,"33":0.21706609007072894,"34":0.5138333131963927,"35":0.16167378053940548,"36":0.2892267797975662,"37":0.5289167283336531,"38":0.49227573491196985,"39":-1.2398821644141094,"40":-1.101846960756606,"41":-0.813086002228801,"42":-0.27186388498908826,"43":-0.397530646186073,"44":-0.047719268663704816,"45":0.03387997946874385,"46":-0.10139200669578702,"47":-0.005682597670898168,"48":-0.1082138029720113,"49":-0.0605781316197882,"50":0.045062572602703646,"51":-0.7628971628893186,"52":-0.8572928271222009,"53":-0.5075276418422523,"54":-0.18552727146650524,"55":-0.3438027426398364,"56":-0.10699618829296376,"57":0.5398370022063832,"58":0.36095074648448977,"59":0.6394888601698809,"60":0.16905361822907772,"61":0.011740588259818942,"62":0.0201406642276899,"63":0.25539729350806506,"64":-0.04666068602969312,"65":-0.008895288700556388,"66":0.15362991203859658,"67":-0.2137216900991962,"68":0.0578745553207667,"69":0.4295651067888971,"70":0.27233950518334943,"71":0.2859408258957616,"72":-0.062165301703474556,"73":-0.3580734191130414,"74":-0.2816577337976965}},{"sx":5,"sy":5,"depth":3,"w":{"0":0.12690647659316684,"1":0.11151087702121604,"2":-0.06341698910220778,"3":-0.27585774449876177,"4":0.000865908047690895,"5":0.3029582025131643,"6":-0.13028766223940896,"7":-0.1723251484557483,"8":0.20884063498063973,"9":-0.04331088776229254,"10":0.07232113315626088,"11":0.22171837266691002,"12":0.09955037012099115,"13":-0.06857439948154428,"14":0.2720258755158429,"15":-0.22663232184697402,"16":-0.014276059347121036,"17":0.2890115345329908,"18":-0.03373007528514366,"19":0.11074735298571357,"20":0.5572224713139586,"21":-0.5469230595119992,"22":0.07374160647736984,"23":0.2526066259082288,"24":-0.5082827609092759,"25":0.012290035736076463,"26":0.05151147114507024,"27":-0.17961722275296602,"28":-0.21042594426143718,"29":-0.17154961145387942,"30":-0.3080047696027424,"31":0.06067239773021771,"32":0.3645284227316653,"33":-0.6849557608722082,"34":-0.3343833644895149,"35":-0.11716053124169039,"36":-0.8787017792329845,"37":-0.5341107598064705,"38":-0.40727492469099574,"39":-0.4342072674029572,"40":-0.17612696847162615,"41":0.19141738393971294,"42":0.04708411995949767,"43":0.09281576396498789,"44":-0.05706435797515542,"45":-0.29102430401384766,"46":-0.1842333179067208,"47":-0.05261180464659042,"48":-0.20128937125215468,"49":-0.12651195949727828,"50":-0.2817827736093949,"51":0.20315755736553825,"52":0.1657892905947654,"53":0.2591087245687072,"54":0.29583065235831574,"55":0.39370703264989476,"56":0.2890133982813806,"57":0.32873959441046785,"58":0.12478660867050073,"59":-0.24447343336584174,"60":0.3779257157019317,"61":-0.12929118076499949,"62":-0.09382785833408204,"63":0.9366572866451895,"64":0.1808509458894083,"65":-0.25719059152136636,"66":0.868736241135475,"67":0.3313471337608952,"68":-0.4265844615104524,"69":0.7018639887965816,"70":0.09987051157298169,"71":-0.5157786074434793,"72":0.6768772961528691,"73":-0.024629086057035437,"74":-0.3851333740282062}},{"sx":5,"sy":5,"depth":3,"w":{"0":-0.5285905598697995,"1":-0.3652754216609195,"2":0.24493864604917445,"3":-0.31985614498162873,"4":-0.6518335287808452,"5":0.06986887935311298,"6":0.42013047669444137,"7":-0.020987918540658526,"8":0.5063027493187052,"9":0.22803028604617506,"10":-0.40796038908974436,"11":-0.18434236929231346,"12":0.1716747840711878,"13":-0.012223086358080979,"14":0.057572743178538985,"15":0.11310973125266074,"16":0.1943049895561898,"17":0.39721731982548064,"18":-0.41399654532083674,"19":-0.6850689211853118,"20":0.022075797751223387,"21":0.24676968684450096,"22":-0.06185441719352022,"23":-0.11489144624941883,"24":0.645372973167731,"25":0.06425955075305172,"26":0.449322777740683,"27":0.5350594676769072,"28":0.1115207671727669,"29":0.1729089680470326,"30":0.19888310616701868,"31":-0.1662207996514183,"32":0.025469243489505047,"33":-0.24286243727223344,"34":-0.16028791081970917,"35":-0.3303970300331476,"36":-0.41476328064628654,"37":-0.4999011203742404,"38":-0.5673404224063161,"39":-0.219620765406243,"40":-0.3510748855851415,"41":-0.30012716668865475,"42":-0.24020399106114185,"43":-0.6451641102569206,"44":-0.09888504843584736,"45":0.08228284969486184,"46":0.3826216285841377,"47":0.16280257535793027,"48":0.18615247634859414,"49":0.03852131249091546,"50":-0.0077123166567370375,"51":-0.03741449197887903,"52":-0.15627377144464646,"53":-0.3227693278659387,"54":-0.18578778672810412,"55":-0.262631388150168,"56":-0.44850907130114986,"57":-0.28002234631501133,"58":-0.44958280128177797,"59":-0.20462318534974752,"60":0.17838776752975516,"61":0.18284746922119988,"62":-0.0960792776188806,"63":-0.032831469957608675,"64":0.02444203619947574,"65":-0.09026475713637756,"66":-0.2744974952078324,"67":-0.05756561059353565,"68":-0.35709566573476104,"69":0.15853477091862386,"70":-0.02134037173642428,"71":0.19148043121410083,"72":0.2498551364182968,"73":0.023660600242086507,"74":-0.15210396309666574}},{"sx":5,"sy":5,"depth":3,"w":{"0":-0.28186878300035156,"1":-0.05104517437646267,"2":0.12733380392274843,"3":-0.4597181080935675,"4":-0.32196036224844926,"5":-0.24826520063238622,"6":-0.3794247674270869,"7":-0.17850129443285376,"8":-0.28788602773803856,"9":-0.01685935261661071,"10":0.06321929695955313,"11":-0.22059635412042772,"12":-0.13608509001281324,"13":-0.034868573989751066,"14":0.08461955064658798,"15":0.45683960856708294,"16":0.25780416964078073,"17":0.4398188360870405,"18":0.436316274394328,"19":0.354409742202755,"20":0.46168940830515065,"21":-0.37091598706211143,"22":-0.16337941584193852,"23":-0.354154842436118,"24":-0.32539819651273205,"25":-0.33646338171687296,"26":-0.6710537316550889,"27":-0.2286825785461022,"28":0.029111581792544014,"29":-0.19774963014401145,"30":0.2936839601320319,"31":-0.18553316556004185,"32":-0.012650619991493669,"33":0.5171404887323641,"34":0.4079907342279187,"35":0.4280178995958129,"36":0.6010053370241777,"37":0.4014324689502447,"38":0.30258621543303704,"39":0.02416215018764942,"40":-0.15276283219845724,"41":-0.35137238227003836,"42":0.01663788753364366,"43":-0.12488639315409568,"44":-0.723815038906651,"45":0.07795808999868846,"46":-0.12238964731013066,"47":-0.03990611064879386,"48":-0.10122577678527074,"49":0.012647877974687385,"50":0.012768200186017122,"51":0.2735637325135424,"52":0.07209790530031727,"53":0.38465212824237205,"54":0.46705822960443144,"55":0.1560445270388665,"56":0.349547058059924,"57":0.39493462069472657,"58":0.23360141659608002,"59":-0.09406235364080538,"60":-0.3101710638063779,"61":-0.22778298431242447,"62":-0.03088419572023481,"63":-0.3367777775176253,"64":-0.08825229747960676,"65":0.17737687958677292,"66":-0.2264445339894501,"67":-0.17036144455190358,"68":0.14010627396492514,"69":0.013331490277515,"70":-0.12445969843763038,"71":0.09980018871069254,"72":0.12844170651293293,"73":0.005840476217808714,"74":0.030139205935616167}}],"biases":{"sx":1,"sy":1,"depth":16,"w":{"0":-0.3223462767869307,"1":-0.14610981704031475,"2":-0.5872193139603614,"3":-0.22581623660533334,"4":-0.237596642599722,"5":-0.15535497497603906,"6":-0.3780482003397332,"7":-0.20784607704445063,"8":-0.4126136871661514,"9":-0.13078982519447138,"10":0.03107513791363375,"11":-0.2636800500804834,"12":-0.254229818499394,"13":-0.2057309630923975,"14":-1.368715372869955,"15":-0.2926531144934777}}},{"out_depth":16,"out_sx":32,"out_sy":32,"layer_type":"relu"},{"sx":2,"sy":2,"stride":2,"in_depth":16,"out_depth":16,"out_sx":16,"out_sy":16,"layer_type":"pool","pad":0},{"sx":5,"sy":5,"stride":1,"in_depth":16,"out_depth":20,"out_sx":16,"out_sy":16,"layer_type":"conv","l1_decay_mul":0,"l2_decay_mul":1,"pad":2,"filters":[{"sx":5,"sy":5,"depth":16,"w":{"0":0.19326199372528377,"1":0.10751550500848557,"2":0.0641906250953474,"3":0.02904303063462327,"4":0.18265963362771484,"5":0.06562051176307004,"6":0.1878936861857588,"7":-0.10977366237769744,"8":-0.14058793868131275,"9":0.0674164390933428,"10":0.14522069515154926,"11":0.21279556955610027,"12":0.17368408507030492,"13":0.05286641850879433,"14":-0.24547543753465575,"15":-0.09153846285609646,"16":0.004718896932319313,"17":0.3054773268853725,"18":0.1070656424623361,"19":0.2637046724703935,"20":0.026672031826887148,"21":0.12984545534108166,"22":-0.10485182058549686,"23":-0.022609506504966615,"24":0.04610993726736104,"25":0.02701998123097471,"26":0.06116694057586674,"27":-0.11275947424292276,"28":-0.17103146738049416,"29":0.2027680896906821,"30":0.04741487219983458,"31":-0.18630447717459828,"32":-0.14583106017776798,"33":0.23991413287419813,"34":0.06422697297031954,"35":-0.007241432094380198,"36":0.09672162897846329,"37":0.07157182993927076,"38":-0.12782176021075578,"39":-0.19388598722370706,"40":0.2124233913665945,"41":-0.012639868922884245,"42":0.015980635533358066,"43":0.3698014070028797,"44":0.018480451458100924,"45":-0.05876850520392019,"46":0.32114734674532086,"47":-0.2746661953879337,"48":0.036586420566383046,"49":0.07483244662606875,"50":0.09050479743341362,"51":0.018429896910341227,"52":0.13235550749425362,"53":0.14588549946822077,"54":-0.3058918757335678,"55":-0.21690008712584027,"56":-0.04081500145451697,"57":-0.015578431202853349,"58":0.18194082389643979,"59":0.33266592424244157,"60":-0.10886261266648993,"61":-0.01750128759475405,"62":0.13760806139217685,"63":-0.17695395884531845,"64":-0.0376717860695629,"65":-0.17748958402876322,"66":-0.08949244042518949,"67":0.05455437933290351,"68":0.08971457792085573,"69":0.021645044020102262,"70":-0.09290560686578955,"71":-0.1217562836350497,"72":-0.26854466831324186,"73":-0.09949505431192164,"74":0.06955619448528398,"75":-0.1373678788927022,"76":-0.14745338486055456,"77":-0.07289904479637184,"78":0.08143279127952655,"79":-0.12003613914056033,"80":-0.15006978521801304,"81":0.20651653932150543,"82":0.1542518561042972,"83":0.057724757398701754,"84":0.2705062341123554,"85":-0.11920931110370273,"86":0.09846823539703188,"87":-0.14141647069876054,"88":0.11532279405042636,"89":-0.07320340789868353,"90":-0.2090397789241915,"91":0.14307418428124272,"92":0.3007429386569578,"93":0.16759521153530027,"94":0.30738024775940115,"95":-0.2669196441623061,"96":-0.2518486541745924,"97":0.11131846860460054,"98":0.06847685327932446,"99":-0.09267194142495734,"100":-0.028992035599707082,"101":-0.20451277715570915,"102":-0.17466171849818588,"103":-0.5281804214928724,"104":0.12640261926174667,"105":-0.08205332911156024,"106":-0.19068715393236116,"107":0.5433983212708824,"108":0.08897224046208191,"109":-0.06827077730253935,"110":0.31518954458346243,"111":-0.482697148264257,"112":-0.1670849904645196,"113":-0.18278814396863174,"114":-0.11555429699444883,"115":-0.11907610269085182,"116":-0.12565822763732942,"117":0.03363414212569065,"118":-0.18154550783099496,"119":-0.40674431836309316,"120":-0.08285162467747884,"121":0.03509009845106355,"122":-0.21180814636704223,"123":0.37549102551630953,"124":0.003911020398211599,"125":0.25596660782820213,"126":-0.03619359707796597,"127":-0.30636516042147843,"128":0.023899114971768266,"129":-0.010075629966384012,"130":-0.12723694810161,"131":0.4948980666895426,"132":-0.17995852741503046,"133":-0.1363102300838879,"134":-0.09963422197802006,"135":-0.1129050776100532,"136":-0.14906092956165357,"137":0.030104071733591118,"138":0.1722674912930158,"139":-0.2472153312474742,"140":-0.037997660614204294,"141":0.05134458903004979,"142":-0.19960001834941568,"143":-0.06653070794985066,"144":0.0953330603595345,"145":-0.06615872086606035,"146":-0.11648417647947078,"147":-0.07739941610058573,"148":0.06774584398707889,"149":-0.03816547574740666,"150":0.2071039729829843,"151":-0.17336946957721008,"152":-0.14391138559652505,"153":-0.017051004597685597,"154":0.15972755297247707,"155":-0.18020317364417435,"156":-0.1614109635639591,"157":-0.353881724856049,"158":-0.16256142806221274,"159":-0.043890577452845136,"160":-0.12154741875898048,"161":0.10988532991670295,"162":0.11432687945620197,"163":0.0003735232229107151,"164":0.293133845130794,"165":-0.26639734828643047,"166":0.088480635580791,"167":-0.23877652677272118,"168":0.25024415009883466,"169":0.10749089213514296,"170":-0.31821695276045386,"171":0.24161887202511353,"172":0.35639058222744274,"173":0.5895142171413493,"174":0.06291948725141211,"175":-0.2410608584119841,"176":-0.1901371113865047,"177":-0.03440303445288388,"178":-0.06014848768023316,"179":0.14762514095101217,"180":-0.23289100718643468,"181":-0.2632887787100039,"182":-0.14769312953344377,"183":-0.8007881047045653,"184":0.08529307765251311,"185":-0.026845439203366843,"186":-0.17279875814435755,"187":0.43890254230358167,"188":0.29084713048900057,"189":0.41258583647291813,"190":-0.13593110790791146,"191":-0.4701680633355629,"192":0.157480689833706,"193":0.09083032320944041,"194":-0.04157591027359837,"195":0.6948022343934505,"196":-0.26118625385309757,"197":-0.18285410467707552,"198":-0.0800884565798708,"199":-0.49413408029471073,"200":-0.06177155406655228,"201":-0.0418934626421122,"202":0.17472713649757307,"203":-0.03174971065014934,"204":0.041878481674682805,"205":-0.09535866212912676,"206":-0.2250051827996371,"207":-0.3759228598460705,"208":0.033866044147126816,"209":0.14984601515741744,"210":0.0302395868522269,"211":-0.0923381061872533,"212":-0.04027491180497684,"213":0.0007840230945150108,"214":0.03170281128822713,"215":-0.2588949601749578,"216":-0.07944400279741595,"217":0.0218654708959104,"218":0.046917003081145284,"219":0.2013305896474045,"220":-0.199831245117955,"221":-0.2627891766516487,"222":-0.24154471589355192,"223":-0.3437113719438673,"224":0.07210315447749625,"225":0.1197693676661992,"226":-0.1693372838676678,"227":-0.030585119523769858,"228":0.12740889075830303,"229":0.08211246644875243,"230":0.1824823853707271,"231":-0.012829370260919579,"232":-0.14424702329962386,"233":0.09821494414230335,"234":-0.06413480072139448,"235":0.23703160600990156,"236":-0.2008503662184991,"237":-0.26738239115816087,"238":-0.17663666392586552,"239":-0.2423159567050664,"240":-0.1962312136395313,"241":-0.014236000976376983,"242":-0.2543113961611033,"243":0.06379933915766633,"244":-0.2956192155649558,"245":0.044169028969075416,"246":-0.0895035604542947,"247":0.00003199820207152316,"248":0.16355074520360793,"249":-0.17843824818238124,"250":-0.14273629149979808,"251":0.09796968883381037,"252":0.28189049873680894,"253":-0.17664303176794052,"254":-0.2638913394014403,"255":-0.026836876261191196,"256":0.10012566608969108,"257":-0.1186008528258238,"258":-0.04970614689854873,"259":0.33322454658122,"260":-0.30966909380897906,"261":-0.1965686725565771,"262":0.0614713972024444,"263":-0.1147760158685333,"264":-0.13791317300105738,"265":-0.09268676109593768,"266":-0.08235483963201641,"267":-0.2087684617892459,"268":0.12277290668611426,"269":-0.1390850383343096,"270":-0.04386464259486599,"271":-0.17006816201378933,"272":0.13619817312989776,"273":0.22550626335036333,"274":0.05480412673842078,"275":-0.18668839140986332,"276":-0.09980842595348206,"277":-0.1519734517548219,"278":-0.00009917889027578012,"279":-0.07562541100130665,"280":-0.355174671220507,"281":-0.05583225539099982,"282":0.05810072139646311,"283":0.07438999051005875,"284":0.14792771324960538,"285":-0.03391219524247734,"286":0.025539901796556887,"287":-0.22960232229527947,"288":0.18855557343493998,"289":0.09996719312194559,"290":0.07042292787095836,"291":-0.26347436772059996,"292":0.010059732991041357,"293":0.05099588050663123,"294":0.021445413951832394,"295":-0.12226182993744206,"296":-0.018490091986292985,"297":-0.02934846489222158,"298":0.08137396917180129,"299":0.15056445646921882,"300":-0.3968646063018645,"301":0.09261981882581558,"302":-0.06085635142192809,"303":-0.2510655918971288,"304":0.26171255058734455,"305":-0.002176566355351983,"306":0.046273208693176186,"307":0.01063219657788897,"308":-0.049192829819757984,"309":-0.05489898414633008,"310":-0.10732251344136137,"311":0.020428896055694635,"312":-0.11736594177679,"313":-0.04150425345537452,"314":-0.009487404525322879,"315":0.08508594831982423,"316":-0.32285181601412954,"317":-0.20412806542406345,"318":-0.07242263547632949,"319":-0.153238636882592,"320":-0.18867881338267137,"321":-0.064382988737396,"322":-0.05236367923132753,"323":0.2816187174471476,"324":0.069940476980252,"325":-0.09247629522599209,"326":-0.11877577843095019,"327":0.10200602574009317,"328":0.34111635417504166,"329":-0.05791573050221303,"330":0.12263870025601335,"331":-0.20612561493154666,"332":-0.014644967671797914,"333":-0.2123658419011131,"334":0.2960707899804298,"335":-0.04053364593681575,"336":0.13510629398369564,"337":-0.14226408641563862,"338":-0.00980974158574857,"339":-0.0017892938960076693,"340":0.0874998931865702,"341":-0.08050643531800371,"342":-0.009192437722071544,"343":0.44384810741868713,"344":0.10687436692973558,"345":-0.10851250769429241,"346":0.04166477281734456,"347":-0.2970694558733183,"348":-0.15957386876315444,"349":0.006544399592214454,"350":0.18388563393268897,"351":0.14889160980097443,"352":0.4086990766341164,"353":-0.05122636430692553,"354":0.13289321438958282,"355":-0.1795504354605105,"356":0.0780442826748341,"357":0.06117185811682099,"358":0.148611926246508,"359":0.20993114366789775,"360":-0.004210600071964501,"361":-0.12198006267930535,"362":0.012520798843996454,"363":-0.026655730492072913,"364":0.023667724259163688,"365":-0.039256604728234494,"366":-0.12669693594408887,"367":0.16829791255168566,"368":0.10276621120722967,"369":-0.02989066590589088,"370":-0.06423409737627712,"371":-0.09463926054333087,"372":0.07200556474441824,"373":-0.008439125287992252,"374":0.07100454847415866,"375":0.07347354488222903,"376":-0.08083283430470518,"377":-0.06476195757792197,"378":0.006605618915847803,"379":-0.03668363806711208,"380":0.01257055469710532,"381":0.012583938546414142,"382":0.013922250219772428,"383":-0.16389201302040665,"384":-0.03879070766491848,"385":0.06143611706736005,"386":-0.006645983622543343,"387":-0.03564991693871022,"388":-0.04899835063038431,"389":0.046681539421415084,"390":-0.13285859399098007,"391":0.034682893413577325,"392":-0.018544041652465895,"393":-0.09620857378947359,"394":-0.17175491482399893,"395":0.19064025906672752,"396":0.06451179018389522,"397":-0.022615293339026343,"398":0.05024785485200376,"399":-0.03900691363197658}},{"sx":5,"sy":5,"depth":16,"w":{"0":0.1328175138770888,"1":0.3691355028392612,"2":0.23981650731791648,"3":-0.029781135273884356,"4":0.036444998083312065,"5":0.13956820201763798,"6":-0.037346354564017324,"7":0.23784212169845884,"8":0.07326120137876602,"9":0.27175382099197165,"10":-0.2073564411668318,"11":-0.025868423253670447,"12":0.0525751032360489,"13":-0.15517958721049055,"14":0.0760072876004308,"15":-0.0499856481632251,"16":-0.015526657431267934,"17":-0.1177316084459599,"18":0.47622657368931076,"19":-0.4030164649861208,"20":-0.07693459194190945,"21":0.04798616854330324,"22":0.07684490175042136,"23":0.04716573853793966,"24":-0.10002894545778976,"25":0.1575199679282444,"26":-0.07068347275176709,"27":-0.15393942551030432,"28":0.07642988593367031,"29":-0.1574461757838486,"30":-0.048930734220179066,"31":0.08473083204467788,"32":0.011351259210822794,"33":0.052867175527975485,"34":0.46997815141361987,"35":-0.4843334074303437,"36":0.018516451380378298,"37":-0.0914364502145605,"38":-0.008846910209447,"39":0.06353959031929608,"40":-0.2192690210865658,"41":-0.10528703200679919,"42":-0.026778768344326093,"43":-0.023207794237969894,"44":0.018676573466047168,"45":-0.025988345757834177,"46":-0.0405641320778851,"47":-0.02728423368895089,"48":-0.03660892831371618,"49":-0.186979646242395,"50":0.29180236120637343,"51":-0.18195250973026683,"52":-0.049477618292916914,"53":-0.19364678569055388,"54":-0.020344574192660857,"55":-0.01881795279479103,"56":-0.17518223026531782,"57":-0.18753450224796703,"58":0.11737452131828122,"59":-0.040227170840133955,"60":-0.012417033504462986,"61":-0.022476256155839792,"62":0.11248146953351804,"63":-0.11518743958679378,"64":0.22209304421114445,"65":0.01080595319075696,"66":0.2822811460972406,"67":0.06567262188491801,"68":-0.13730837184201594,"69":0.007332713125596696,"70":0.0473849773013369,"71":0.09485987108842875,"72":-0.31988922878516357,"73":-0.2980238317460087,"74":-0.044277025057567476,"75":0.2675331853246294,"76":-0.022731766935454884,"77":0.13031936582451292,"78":0.11458126002767616,"79":-0.058545839909455874,"80":-0.10090797491363877,"81":0.45082234120592984,"82":-0.13076577459970912,"83":-0.0612465451513356,"84":-0.16558355071351927,"85":0.14866681793226166,"86":-0.17465416810644865,"87":-0.07985812676135803,"88":0.16609069636665288,"89":0.369226717525239,"90":-0.19264153429371186,"91":-0.031339886455936036,"92":0.023470004292020792,"93":-0.06388424575703101,"94":0.12103661481965497,"95":-0.10349880922957336,"96":-0.19212441699024624,"97":0.09214726591618169,"98":-0.049557332008391845,"99":-0.37624617668518817,"100":0.030289104043513627,"101":0.13496885546313447,"102":0.34914445214277456,"103":-0.09638384946542039,"104":-0.04414433859558593,"105":0.0801785624527093,"106":-0.13018589618083723,"107":-0.08439489449826706,"108":0.16449898471425667,"109":-0.02143581503153487,"110":0.059660022977135664,"111":-0.14386806909093902,"112":-0.23310874182128355,"113":-0.021939725073875288,"114":0.10133684966825844,"115":-0.32082732785975276,"116":0.1355296329995891,"117":0.16009483264473276,"118":0.4962589813357308,"119":0.013405180970394216,"120":0.07989794005443791,"121":-0.04991627758355333,"122":-0.10159231899594454,"123":0.10280380274501703,"124":0.11603021117270844,"125":-0.023321270989573643,"126":0.21039207012042052,"127":0.042080188684857654,"128":-0.3978188011047128,"129":-0.13160931428308958,"130":0.08585577721242185,"131":-0.2136222322626907,"132":0.052721106990932666,"133":-0.24868250526435307,"134":0.2988239195391382,"135":-0.025105540769649957,"136":-0.10306343493920117,"137":-0.2927615905617025,"138":-0.08440682752506254,"139":-0.008341719114717379,"140":0.23159192764486472,"141":-0.016547509266185645,"142":0.09246547800018655,"143":0.07547974084956698,"144":-0.16207159348368685,"145":-0.21828339313791736,"146":0.20914646174083687,"147":-0.10533131937831566,"148":-0.014719537594204763,"149":-0.16713135039671528,"150":0.22322291379588807,"151":-0.1577121991906068,"152":-0.1833292677976338,"153":-0.3063642448571387,"154":0.10755294081747262,"155":-0.0017983712626817013,"156":0.05710752400580509,"157":0.2044086202232715,"158":-0.04581301284141263,"159":0.20134620897542332,"160":-0.04420086964893525,"161":0.05835813861803361,"162":-0.3807502468132891,"163":-0.0034276401114019975,"164":-0.07408834336856544,"165":-0.06491099132680353,"166":-0.041086905300711116,"167":-0.12706106419528299,"168":-0.027669856655688035,"169":0.3368933695630726,"170":0.14585040521542247,"171":-0.12121640271184604,"172":0.0862805463630598,"173":0.2176412380057603,"174":-0.15755247370962705,"175":0.22755705396234677,"176":-0.17419831276871817,"177":0.2139494834100705,"178":-0.19269532280658122,"179":-0.327939806501798,"180":-0.05970161584492963,"181":-0.09740003683169558,"182":-0.2761980436128998,"183":-0.4225697008960398,"184":-0.02052807108209807,"185":-0.05116714800260943,"186":-0.031303399023415765,"187":-0.06826944158103122,"188":-0.007833522161523148,"189":0.017900994772566008,"190":-0.03765140376101228,"191":-0.1983455265070424,"192":-0.16946401049591844,"193":0.2158139752155926,"194":-0.056397745053660985,"195":-0.18164938816732681,"196":0.22924370055245977,"197":0.04354791515544294,"198":-0.08650149334744822,"199":-0.20586693249189028,"200":-0.004131266187823275,"201":-0.025228225524123772,"202":-0.07667416796279297,"203":0.03527795533002759,"204":-0.06560688167403252,"205":-0.03393860508938671,"206":0.16072182152130404,"207":-0.023549144828469353,"208":-0.2557038616673192,"209":-0.040340721592642154,"210":-0.04162808908161206,"211":0.18021171160741098,"212":0.1073839256075475,"213":-0.242500119775948,"214":0.10278516616804179,"215":0.008152219660492906,"216":0.023306852704889955,"217":-0.17525719753335198,"218":-0.16192410208491434,"219":-0.035020194667880304,"220":-0.13287869526886098,"221":-0.046466922822000156,"222":0.26564973256611496,"223":0.04069146038491521,"224":-0.08812283534304069,"225":-0.32063090256880783,"226":-0.031497300198831256,"227":0.13163314643951843,"228":-0.11466726662316992,"229":-0.09057298494364932,"230":0.3079080712611011,"231":0.0784793220635987,"232":-0.22181399205444743,"233":-0.15167403469183277,"234":0.18938835129273618,"235":0.07248417554811952,"236":-0.0662183291700998,"237":0.21662202980281398,"238":0.047772017738665726,"239":-0.10206328179086807,"240":0.08769112958433231,"241":-0.10531934956261109,"242":0.11524846279082139,"243":-0.027135942795461776,"244":-0.10229102163105944,"245":-0.11550080730135745,"246":0.09678463088604014,"247":0.16989633870739654,"248":-0.054582433458115906,"249":0.0574575812326798,"250":0.1682633848840267,"251":-0.06846236099776165,"252":0.32570894070905676,"253":0.23838397521044297,"254":-0.0857316602680809,"255":0.24271660780844662,"256":-0.08619863722803096,"257":0.011202975297106068,"258":0.04111181871925615,"259":-0.20601994247209554,"260":-0.13403422307118001,"261":-0.14599870870463585,"262":-0.2602915718939203,"263":-0.2129702298335019,"264":-0.059798000061123985,"265":-0.07149914159490148,"266":-0.03379714062842015,"267":-0.11274958990712612,"268":0.027129968660690885,"269":0.09655098672073381,"270":-0.13107344775709437,"271":-0.023120086138333957,"272":-0.1770562769564405,"273":0.014465887397127732,"274":0.03457841139194677,"275":-0.3179251533523374,"276":-0.009132035684692417,"277":-0.29254036796416294,"278":-0.27678717453671886,"279":-0.25071708467318304,"280":0.04412353877729944,"281":-0.08443018363645202,"282":0.006211020194798185,"283":-0.15877155762700704,"284":-0.14006809621914063,"285":-0.060209277182912205,"286":-0.19842498553616145,"287":-0.10703849569527803,"288":-0.1869742709616136,"289":-0.07994914743826455,"290":-0.05158460788375833,"291":-0.1980540499808691,"292":0.09204646524525527,"293":-0.05836234916667621,"294":0.016449922469663307,"295":-0.09864164272782315,"296":-0.005708688007383389,"297":-0.14926984357445888,"298":0.03211439787879781,"299":-0.15572981251387547,"300":-0.2522078313404838,"301":-0.027685331932594034,"302":-0.11970157758821305,"303":-0.06266931896477,"304":-0.008124904698994023,"305":-0.33020511677395653,"306":-0.16153189361159473,"307":-0.07087817104610274,"308":-0.0927022633238521,"309":-0.0934904073870474,"310":0.020395951806776714,"311":0.11001194128514354,"312":-0.06180475911226136,"313":-0.2856808438220451,"314":0.20749084999906867,"315":-0.18329078576673558,"316":-0.1307100601859713,"317":-0.11633259226698621,"318":-0.151433951693909,"319":-0.0003957809767107298,"320":0.006653659706124849,"321":-0.3643319635827123,"322":0.06549226555710247,"323":0.01991283488019984,"324":-0.09797730134921116,"325":-0.28912733014835873,"326":0.209400847244074,"327":0.16539451173669328,"328":-0.04577613590716807,"329":-0.09286282989602779,"330":0.043767692566723436,"331":-0.018045700718847174,"332":0.14841542945487435,"333":0.1506995499234992,"334":-0.028301945178290364,"335":0.03992037114706434,"336":0.0677071271555476,"337":-0.33201557990291464,"338":0.05234615332598725,"339":-0.1826268843418105,"340":-0.08184312592608689,"341":-0.19873327738216134,"342":0.05113017408918526,"343":0.00004652578599146658,"344":0.03600543516877764,"345":-0.074035657823694,"346":0.06545598795779269,"347":-0.1259432886581355,"348":-0.10565206143784388,"349":-0.06278313221028811,"350":-0.17077630814351527,"351":-0.0592054632389651,"352":0.08334270496168528,"353":-0.317727208728184,"354":-0.01864025650724997,"355":-0.13162314041337525,"356":0.01716264190175967,"357":-0.12239865942518845,"358":-0.02155399486084673,"359":-0.006471258924339521,"360":0.07421990996502842,"361":-0.07209239152509161,"362":0.0763141372102431,"363":-0.15083619567119552,"364":-0.18667468589038744,"365":0.045018202387781696,"366":-0.18956048041399798,"367":0.027850661818792942,"368":-0.04825898999516895,"369":-0.13304187849606608,"370":-0.03832904385696554,"371":-0.036265331297608665,"372":0.10317945013253517,"373":-0.08799004376266939,"374":-0.18765551669472308,"375":-0.1329815135464623,"376":0.2194378279377068,"377":-0.22958364746828086,"378":0.16405484897864564,"379":-0.277924006954726,"380":-0.18801160668288858,"381":0.06763224068199142,"382":-0.15474483487097726,"383":-0.013797756087933837,"384":0.20247388432811125,"385":0.037742541583355764,"386":-0.04907730825202352,"387":-0.08964540499842487,"388":0.019315763333003545,"389":-0.07848506774357697,"390":-0.054997288845262504,"391":-0.15658995152532038,"392":0.22512497932775224,"393":-0.2434927041765184,"394":0.27754627018537037,"395":-0.34545667226813115,"396":-0.10234253728107291,"397":0.08776686194904569,"398":-0.11910458393414809,"399":-0.14261937178288386}},{"sx":5,"sy":5,"depth":16,"w":{"0":0.17956639956126003,"1":-0.1349827231044387,"2":0.20028025105056646,"3":-0.04999314521021939,"4":0.10875973152130591,"5":-0.02548606167180009,"6":-0.11728881248355458,"7":-0.07196772862186089,"8":-0.12506564744901474,"9":-0.29609000329938706,"10":-0.10116845939437975,"11":0.16607885472873474,"12":-0.06715439640407504,"13":0.11606706126665868,"14":0.0193155301703355,"15":-0.042017680938201386,"16":-0.1063357293190529,"17":-0.31774225478473056,"18":0.14860839000397633,"19":-0.13905201668556705,"20":0.1628227862424953,"21":-0.13375840076983975,"22":-0.06157051623562784,"23":-0.20575797232650384,"24":-0.33113301000727535,"25":-0.21250663796281155,"26":-0.0020783554286276404,"27":-0.21568671221571384,"28":0.09070792492439611,"29":0.1477810096876179,"30":-0.24144893452696684,"31":0.061018800025398896,"32":-0.2160448684637888,"33":-0.09234716554759104,"34":0.1347216866819187,"35":-0.20530256425972984,"36":0.19678229937811023,"37":-0.2013790566238016,"38":-0.10467014335367118,"39":0.03183525193579909,"40":-0.1643064990709343,"41":0.026497604032116494,"42":-0.04306532700442386,"43":-0.3309519622135209,"44":0.15479305855303244,"45":-0.1792547573432455,"46":-0.13490395353439266,"47":0.01654273016483511,"48":0.07233043982150793,"49":0.24587928667584735,"50":0.009391197401643929,"51":-0.036737718049016856,"52":0.00246702513584224,"53":0.09664580076422395,"54":-0.08429620096177076,"55":0.19153850978712825,"56":-0.23342934967155266,"57":0.047064091607043716,"58":-0.04292452502806163,"59":0.12317795844459502,"60":0.0040020200892296465,"61":-0.035821337292588705,"62":0.17299605583783215,"63":0.014266436615565144,"64":0.003952799567401232,"65":0.21014598215894031,"66":0.0017397403174162925,"67":0.024243420738457904,"68":0.054675926889986994,"69":0.2075458808834523,"70":0.24872886228707372,"71":-0.22863310494565675,"72":-0.19149129154668593,"73":-0.08983208623782327,"74":0.06161955749902782,"75":0.013466414234456978,"76":-0.004792059023380987,"77":-0.1065688873310318,"78":0.3346233498425544,"79":0.002957458611582178,"80":0.26700214179313736,"81":0.26932711380866603,"82":0.1339141213307119,"83":-0.011129759829785575,"84":-0.20124500610053975,"85":-0.11748872372101853,"86":-0.08116732490924917,"87":0.01986163709115047,"88":0.12055707015623494,"89":-0.021637604551416542,"90":-0.2568483196713003,"91":0.24493966879053317,"92":0.00891910672732018,"93":0.12833320445630447,"94":0.08526349435874674,"95":0.14406917821440407,"96":-0.139785518145254,"97":-0.023053672884128927,"98":-0.04795582008279065,"99":-0.07820313833412171,"100":-0.05860096779022575,"101":0.02115700369026753,"102":0.20169233179575238,"103":0.25282175127473183,"104":-0.24468659143989077,"105":-0.4004116697529372,"106":-0.026418107052361587,"107":0.4461280819430628,"108":0.11222731485414954,"109":0.4273179293239071,"110":0.17369610662970594,"111":-0.10463141742711225,"112":-0.4240162223907889,"113":-0.009506560708887741,"114":0.05744418834509332,"115":-0.16083082043584168,"116":0.2768891478002357,"117":-0.09285892159335236,"118":-0.07715901210835217,"119":0.1393613029658797,"120":-0.09125160749265591,"121":-0.004034159839802865,"122":-0.1957167104235744,"123":-0.07978714269336683,"124":0.1636172315968636,"125":-0.0051073767282787345,"126":-0.2759749994058487,"127":0.04158397789829176,"128":-0.1746582537881135,"129":-0.11883670329294321,"130":0.1397269037428572,"131":-0.11540373330336527,"132":0.22073897667727124,"133":-0.16672644536129796,"134":-0.2983187004383309,"135":0.04750675966632268,"136":-0.1764973850366569,"137":0.34690347487723666,"138":-0.2561095503127186,"139":-0.15013953061738833,"140":-0.07979866304628218,"141":-0.0873761946765062,"142":-0.3462824063203798,"143":0.02615014705757781,"144":-0.14194578162975066,"145":0.1123303378106685,"146":0.18824892947027574,"147":0.11493889357504601,"148":0.1665867710511891,"149":-0.04487538212118756,"150":-0.2034388052973007,"151":-0.3011346230967997,"152":0.06037921873274156,"153":-0.01276559985784845,"154":-0.1408723169556023,"155":-0.26542631072111905,"156":0.10687786068276282,"157":0.0423892856465973,"158":0.2742412541993402,"159":-0.26046321225924496,"160":0.061992505983685095,"161":0.14029580530599678,"162":-0.0673264350417149,"163":0.0010593116350371189,"164":-0.3648728436960877,"165":-0.07137361163603638,"166":0.045520271697070784,"167":0.10957013078594008,"168":0.009392420054267648,"169":0.24285017206953,"170":-0.13699213327164486,"171":0.25700093810086416,"172":-0.2276593538459015,"173":-0.003461000350415813,"174":0.10244742542248225,"175":-0.017271847207349252,"176":-0.31665521830790133,"177":-0.1648561758843911,"178":-0.30163017898477373,"179":-0.038571671531959686,"180":-0.6755217901913835,"181":-0.01775061981212356,"182":0.4282558883691035,"183":0.04248308800134866,"184":0.010564608583817001,"185":0.013161328468215019,"186":0.1236387226381673,"187":0.6014044553449575,"188":0.14553310561643396,"189":0.11460185959083768,"190":0.3965661850063825,"191":0.10945083401437991,"192":-0.12946118485894456,"193":0.012979391715883542,"194":-0.38756485346733033,"195":-0.009250920584511919,"196":0.18169803530457151,"197":0.16157286372515253,"198":-0.02979370604644961,"199":0.6382951840141595,"200":-0.08036509849932502,"201":-0.052149233931758944,"202":0.04360816714199701,"203":0.04215668129746592,"204":-0.03423127173989311,"205":-0.09210413234939649,"206":0.42885666298236347,"207":0.17406487084604907,"208":-0.25762143278707245,"209":-0.1778390204020408,"210":0.11486576437962115,"211":0.35091986200957165,"212":0.26375302481843355,"213":-0.046525092126544154,"214":-0.15082739493275826,"215":0.0042756119263114,"216":-0.07506769127587416,"217":0.019325337793192086,"218":-0.11168081258103552,"219":-0.06932879637318552,"220":-0.31565026735644514,"221":-0.416915040400399,"222":-0.19808955055553545,"223":-0.23243089093745203,"224":-0.13911865338257548,"225":-0.14567286892946513,"226":0.11874647760910345,"227":0.06791321979646292,"228":0.4624941876296391,"229":-0.04498127438889531,"230":-0.27014151631457783,"231":-0.16365817981946001,"232":-0.04031653434766157,"233":0.0924703041275766,"234":-0.21338359209908153,"235":-0.3471705457570643,"236":0.08409001522147057,"237":0.02010427551331894,"238":-0.3468524512601908,"239":-0.049881337395974,"240":-0.014452156532467737,"241":0.12845743576043597,"242":0.1887287169853953,"243":-0.10183871139443301,"244":-0.25269374887162843,"245":0.15377673979239792,"246":-0.17878729214531158,"247":0.2902912218255512,"248":0.17907723036470236,"249":-0.18250981481063963,"250":0.08286749527598554,"251":0.10751416148461694,"252":0.2078909823456279,"253":-0.17848863218595426,"254":-0.23906595830430813,"255":-0.1174246786013069,"256":-0.5152961007969732,"257":-0.15735181749424834,"258":-0.27025304913237685,"259":-0.076327337282216,"260":-0.523487678874855,"261":0.2146795510192672,"262":-0.3845870978775813,"263":0.2910458569628915,"264":-0.12631353307264975,"265":0.2150448252208417,"266":-0.09153597602568284,"267":0.0751684301620968,"268":-0.19835136822722266,"269":-0.1525428196741695,"270":-0.3655346060179704,"271":-0.008357201784665605,"272":-0.19817895317276585,"273":0.026291472121002146,"274":-0.6348063240001487,"275":-0.24622514435808368,"276":-0.45882835502223296,"277":0.005205458047340474,"278":-0.31804524433954684,"279":0.016388752453498776,"280":0.33814386221306414,"281":0.12329494045984991,"282":0.10425630679613329,"283":-0.17884608360868173,"284":-0.2852407599863718,"285":-0.1936414645079309,"286":0.34719742266508946,"287":0.032728901419797354,"288":-0.13894789398776616,"289":-0.1376652915725297,"290":-0.1826926778624967,"291":0.03293622329622547,"292":-0.21756485754389718,"293":0.07221839598609411,"294":-0.1409058870590462,"295":-0.10053905519903161,"296":-0.15365831754804543,"297":-0.1631357262022048,"298":0.04523706281134536,"299":0.17139812465213047,"300":-0.12381026073072675,"301":-0.02874532579447066,"302":0.4344041113259713,"303":-0.12758359479029308,"304":-0.13140526514801418,"305":-0.14006365558489314,"306":0.3608039816981449,"307":-0.0010249992207954106,"308":0.1412650104321127,"309":0.06318066564254993,"310":-0.19981388676550607,"311":-0.1711047668981455,"312":0.06521350851604382,"313":-0.025198859540937726,"314":-0.12977089328831545,"315":0.011650375452216595,"316":0.3171360000539196,"317":0.0715824753722379,"318":-0.3403761162011907,"319":0.01887025854204296,"320":-0.05395792664023151,"321":0.02005861091222259,"322":-0.05012846457021167,"323":0.2029289918585231,"324":0.23697715024894125,"325":-0.011143114820085084,"326":0.047085139174385934,"327":0.21703072609151228,"328":-0.030654551526067414,"329":-0.14671510691999307,"330":0.3031400833398753,"331":-0.11965006671277846,"332":0.08612126760150886,"333":0.24663717332146212,"334":0.0505599459749246,"335":0.11291771811395382,"336":-0.24883446590321348,"337":0.3957434318865756,"338":-0.14682461740578232,"339":-0.01053631669054366,"340":-0.14890378536235893,"341":0.005127602363621794,"342":-0.43767899704037116,"343":0.1697801593132684,"344":0.04373244537560096,"345":-0.13879549514083778,"346":-0.10628014906346521,"347":-0.011435894030026726,"348":-0.22587095693348141,"349":-0.057318805850718586,"350":-0.302909482538009,"351":-0.08170958987758815,"352":-0.21618696618126318,"353":0.08410538533817048,"354":-0.4141528595520143,"355":0.18563049533806109,"356":-0.6913933329491599,"357":0.19736301356304256,"358":-0.4251015914975111,"359":-0.02084636092782413,"360":0.19562104647807885,"361":0.1660820186844719,"362":-0.26467989482912674,"363":0.21426680252485308,"364":-0.3705092367780479,"365":0.006685009782302225,"366":-0.14340726962279454,"367":-0.25534172502758423,"368":0.033189555115143564,"369":-0.03158821465426851,"370":-0.26788104226713016,"371":0.21308747522413451,"372":-0.2996399443666048,"373":0.01342365338097265,"374":-0.049518513094190114,"375":0.02606969252798843,"376":-0.05741918283305182,"377":-0.16259795870572902,"378":0.04993153481199834,"379":-0.1219526343859615,"380":-0.1101365614795269,"381":0.02843333739309584,"382":0.5473885013153628,"383":-0.04938530781866297,"384":0.32604393798926085,"385":-0.05302861953865636,"386":0.2062656973029142,"387":-0.0828503242034483,"388":0.2112625772212616,"389":-0.05050704541690566,"390":0.06890729032109795,"391":0.0763523473297764,"392":-0.19776462899385583,"393":0.004568264198658706,"394":0.13260285943138755,"395":0.046469679622057974,"396":0.1504942106670193,"397":-0.1358057535812169,"398":-0.20340332146137563,"399":0.1539214166881401}},{"sx":5,"sy":5,"depth":16,"w":{"0":-0.004893304290683841,"1":0.0880514114600112,"2":0.2457992264803727,"3":-0.09994351272323243,"4":0.33263451747459194,"5":0.136235402280437,"6":0.17179015346131948,"7":-0.017713919116349015,"8":0.0463372982193601,"9":0.04686891624243007,"10":-0.04286518978589837,"11":0.2225065193232035,"12":0.0038320691979730056,"13":-0.013540123864048854,"14":-0.12532141191591042,"15":0.12098116007833978,"16":-0.23983428307067772,"17":-0.16268131976914144,"18":0.2687779703725425,"19":0.0750005697938791,"20":-0.033265482847854,"21":0.1295242571717119,"22":-0.0844397004411945,"23":0.16719520015184586,"24":-0.07510718168321454,"25":0.20167292404513495,"26":-0.1727380563746512,"27":-0.02214314092436818,"28":0.0737657069511506,"29":0.07215113944500326,"30":-0.5264990166242879,"31":-0.15111534366100257,"32":-0.13101679213022552,"33":0.2014970161705076,"34":-0.2551508198378887,"35":-0.287126919658017,"36":-0.4906351313132677,"37":-0.002400699190528004,"38":0.005010354717974588,"39":0.19044402259683996,"40":0.2865555689751201,"41":-0.019413650593220762,"42":0.13771109043485608,"43":-0.3930416983982583,"44":-0.08421196218431423,"45":-0.09754973426203677,"46":-0.0708917566154923,"47":-0.06269289793322078,"48":-0.05508284732116511,"49":0.3708930939333818,"50":-0.11016101601836288,"51":-0.15762362585167747,"52":-0.0744333680227491,"53":0.142542876449661,"54":0.2274811103806616,"55":0.186790019823757,"56":-0.014364633039617205,"57":-0.11564257344543787,"58":0.4441745600213658,"59":-0.1842098660734077,"60":0.048407598241718676,"61":0.09204050355872606,"62":0.12395253570880044,"63":0.18218281668913752,"64":0.041525835428168976,"65":-0.0010078034076768949,"66":0.4376215777522731,"67":0.03126975418154156,"68":0.24016086136462558,"69":0.007776532437730282,"70":0.0895360313705535,"71":0.04518161324592561,"72":-0.06148291413378387,"73":0.008599315685448512,"74":0.06502370965083656,"75":0.053173131698657464,"76":0.04555798837924426,"77":0.08139809645154834,"78":-0.03531396241227069,"79":0.09176818247326901,"80":-0.03033413536976719,"81":0.11427691680767134,"82":-0.189755844278718,"83":-0.3198367694990455,"84":-0.18777491164207133,"85":0.15598361707045144,"86":0.12081674827716465,"87":0.05283321856642999,"88":0.31325536861776265,"89":0.1532459796730465,"90":-0.22098358148556502,"91":0.2572689259160985,"92":-0.09093384647433551,"93":-0.01929233208703924,"94":0.38525994917506867,"95":0.019148129031010073,"96":-0.3116051980540516,"97":-0.12988568009375986,"98":-0.14352376355825025,"99":0.04507696475747368,"100":0.30357550787264487,"101":0.44936727389983294,"102":-0.1461827413633792,"103":0.04178043678032064,"104":-0.03526457957039946,"105":0.10027600161054114,"106":-0.032797399037265654,"107":0.26836078940985525,"108":0.07158955206384264,"109":-0.27832055892178714,"110":-0.11291981607354579,"111":0.05440195443889294,"112":-0.4453524389025069,"113":0.003116299227689506,"114":-0.043541015589485754,"115":0.46898146992989825,"116":0.02928829959486787,"117":0.44677210320438854,"118":-0.31072087703784956,"119":0.4186675563127999,"120":-0.043795494023812796,"121":-0.004399875567566847,"122":-0.08896443427480846,"123":0.3629558106414286,"124":-0.06623095804839663,"125":-0.14216724072515924,"126":-0.6273141549442185,"127":-0.47768356540641055,"128":-0.06108011960978159,"129":0.18710723908045993,"130":-0.030711536177983303,"131":-0.07132223978258607,"132":-0.12241102967582865,"133":0.18294230169829875,"134":-0.17025959174684074,"135":0.17951309366034562,"136":0.07185563323502694,"137":0.03306616894562622,"138":0.012904855802643979,"139":0.12274660523279653,"140":-0.124605535095853,"141":0.0366424879855177,"142":0.20547750775486007,"143":-0.21175084216659645,"144":-0.09255748493882035,"145":0.041009703141683895,"146":0.014375007829085027,"147":0.007928909091615765,"148":-0.04493744737486525,"149":0.13607349742253694,"150":-0.010148007380491344,"151":0.10579801367493386,"152":-0.08874416422537988,"153":-0.08939311933094618,"154":-0.10887525435509107,"155":0.05784342467250781,"156":0.03925073376622575,"157":0.1820199807511793,"158":-0.0683705209928062,"159":-0.08329442778462988,"160":0.1289837316962516,"161":-0.0201215902419217,"162":-0.17843017240015585,"163":0.1098613581743927,"164":0.04253736275808082,"165":-0.35262804618992144,"166":0.2168999174525677,"167":0.22477371042957373,"168":-0.07922052235251228,"169":0.1469859667805886,"170":0.04909815369919698,"171":-0.16749725509107433,"172":-0.16077011179426376,"173":-0.2794317613986212,"174":-0.054447733477448176,"175":0.23828468368202366,"176":-0.05469778026249865,"177":0.015244555546347236,"178":-0.12703453342627435,"179":-0.08778800138799293,"180":-0.4559064138786174,"181":-0.5085068977847158,"182":-0.012737386907363504,"183":0.3640896709124471,"184":0.11725030015125824,"185":0.11457348796367871,"186":-0.06058957221258189,"187":-0.0685013510225338,"188":-0.05900016839047893,"189":-0.023794649620642667,"190":0.6165557489573119,"191":0.40446380048708,"192":0.020016734694687843,"193":-0.14006209628765706,"194":-0.09585650230587588,"195":0.18745674632537865,"196":-0.016283187093206718,"197":-0.28731692762169486,"198":-0.057292105733488405,"199":0.23212708220654188,"200":-0.2250008140302392,"201":-0.08824325298771027,"202":-0.20869447800153987,"203":-0.0244079418213572,"204":0.13745779711965136,"205":0.3898779123979861,"206":-0.04576600581866869,"207":-0.022069776624195535,"208":0.18627102031930196,"209":0.1562303078023066,"210":-0.116306085493767,"211":0.4877417122935909,"212":-0.2637081446560446,"213":-0.21655399544702317,"214":-0.10643313278017344,"215":-0.0032639485066583607,"216":0.051948011178055635,"217":-0.06561196429605307,"218":-0.22774947094377956,"219":0.05736037489145721,"220":0.012697736837345135,"221":0.3250119919069911,"222":0.0784880924246676,"223":-0.4039962166372556,"224":0.12633838967179645,"225":-0.10864467989948785,"226":-0.1257459050688347,"227":-0.011739511729596433,"228":-0.28949772878819785,"229":0.013935618918881952,"230":-0.05795224582411956,"231":-0.2533432733437125,"232":0.07576358214673107,"233":-0.08786083605717532,"234":-0.07428834854914146,"235":-0.0008059996835113358,"236":0.05186322204893901,"237":-0.13536693127933005,"238":-0.012055901943574074,"239":-0.1359522240870365,"240":0.11882924073939406,"241":-0.15713694438697268,"242":0.14055037194591147,"243":-0.08955848093019461,"244":0.2390312196064763,"245":-0.2895029512894029,"246":0.06158832139246128,"247":-0.27215932826068734,"248":-0.02385605835741435,"249":-0.2528010543937392,"250":0.08352873176896221,"251":-0.17731549376156192,"252":-0.10687399474449659,"253":0.1431644585152394,"254":-0.10024631054873478,"255":0.09114566155709236,"256":0.09196454545223308,"257":-0.35724759938867706,"258":0.056679949164198544,"259":-0.4157921866349321,"260":0.09861288002308896,"261":-0.8567582527217656,"262":-0.005537556376448422,"263":-0.5162868862772574,"264":0.0525704215225456,"265":-0.31870532881334496,"266":0.10511628021857658,"267":-0.24351374201455633,"268":-0.12484815527018112,"269":0.03821990406911975,"270":-0.02011917364271981,"271":0.17059620648549495,"272":0.27707220517564174,"273":-0.36700068473973885,"274":0.045519675912994884,"275":-0.5109880359550684,"276":-0.10771577654210757,"277":-0.6696100125160206,"278":-0.04064472831447422,"279":-0.3291439761338684,"280":0.2078492433670671,"281":-0.03399477054096794,"282":-0.08753025296656976,"283":-0.1528864285482849,"284":0.05485089160045383,"285":-0.0323874503741308,"286":0.0830353110216353,"287":0.30364413926395956,"288":0.21032214228274784,"289":-0.2998014149808077,"290":0.025365669377406058,"291":-0.4282824231264357,"292":-0.1192595936077944,"293":-0.5057760205926914,"294":0.1628335958553789,"295":-0.1581596044280297,"296":0.04276665685999583,"297":-0.07948807172626073,"298":-0.016430186608996592,"299":-0.03551210081188707,"300":-0.030225567263018796,"301":-0.04648964820199229,"302":0.019898989745139557,"303":0.07071253755457807,"304":-0.027940355250788525,"305":-0.04090407461866778,"306":0.04185416923855094,"307":-0.2529836751591438,"308":0.17857989539700952,"309":-0.15671560702641305,"310":0.06697952251173817,"311":-0.059053588029395115,"312":0.09608375552614552,"313":0.019104979501640078,"314":-0.0804514944214866,"315":0.04848141826281423,"316":-0.15694926966493078,"317":-0.1961698970560525,"318":0.17114904216230664,"319":0.0008944214560572273,"320":0.22658175859690813,"321":-0.16785308320137407,"322":0.014487099654812532,"323":0.0036693473081226917,"324":-0.08687887485905822,"325":0.39851331000494716,"326":0.15081292115780812,"327":0.19753649720991423,"328":-0.0035097920314718844,"329":-0.18203441909212262,"330":0.1964931417973198,"331":-0.05211678712554889,"332":0.1379089393156775,"333":0.17426600992688077,"334":0.051379081867366186,"335":0.1470585374286881,"336":0.06817271417286767,"337":-0.2705583674076852,"338":-0.023588263613037168,"339":0.06528834632378133,"340":-0.016149871267173495,"341":-0.30276357359132566,"342":0.030700361167358685,"343":-0.20620804242105426,"344":0.10529777575106974,"345":-0.20742018495114506,"346":0.20791337059325576,"347":-0.24928155704620478,"348":-0.24080932869740568,"349":0.09908560573828865,"350":-0.1236787410945344,"351":0.03249631182318872,"352":0.07900433551932563,"353":-0.2188748309008092,"354":0.14932640007829517,"355":-0.542075852280168,"356":0.10228687457591114,"357":-0.25794061095722326,"358":0.1414905049851655,"359":-0.20510610684078184,"360":-0.024333466321876204,"361":-0.31413129871804546,"362":0.08120143153311606,"363":-0.16121311584589493,"364":0.06235116145592938,"365":0.1161047689263285,"366":-0.20775534271757934,"367":0.05029610886631033,"368":-0.07294307542364975,"369":-0.20232286613153927,"370":0.0900479528140456,"371":-0.4759020849856434,"372":0.07458061567919472,"373":-0.05587987962040446,"374":0.012444854505919848,"375":-0.26914058468042346,"376":-0.13843911520693059,"377":-0.28938290178186044,"378":-0.027261389107106525,"379":-0.20919403981945842,"380":-0.01577933294922727,"381":0.18144755871946505,"382":-0.11935316910111814,"383":0.012113234613043724,"384":-0.026396613566398427,"385":-0.08334151830372573,"386":0.14960813928469474,"387":-0.5469777872886757,"388":0.19303198180545644,"389":0.053703524582116066,"390":0.06414080334886998,"391":-0.3049605367013269,"392":-0.04701113435759889,"393":-0.02916624602564654,"394":-0.06526569170180739,"395":0.0784675233308642,"396":-0.11815373595900328,"397":0.0064867310256305375,"398":-0.09567196480711163,"399":0.23478506658605447}},{"sx":5,"sy":5,"depth":16,"w":{"0":0.11376648621300398,"1":-0.09261215320452162,"2":0.1925599635122317,"3":0.10159703446760747,"4":0.10605968477598234,"5":-0.2661776761632756,"6":0.08985346991514687,"7":-0.00981652642242276,"8":-0.017525416204625333,"9":-0.24167763767499945,"10":-0.07202137166251268,"11":-0.1826259703661017,"12":0.20631612387228532,"13":0.537975516993588,"14":0.22198793644641637,"15":0.08340574867576152,"16":0.09880006406757712,"17":-0.3620212220089247,"18":0.12097464056500729,"19":-0.13785615746926314,"20":0.15168562369773606,"21":-0.4244972641608519,"22":0.0912371051944441,"23":-0.1145412531654124,"24":-0.18355068688400963,"25":-0.3872588893505328,"26":-0.11930434890644584,"27":-0.10158646306970541,"28":0.16208888682598388,"29":0.5212396106450065,"30":0.27559218772789784,"31":0.13357864148633045,"32":0.2327258046647357,"33":0.002997988055425417,"34":0.2014873783666275,"35":-0.3276779966260746,"36":0.21289351014412491,"37":0.05806593353061771,"38":0.029529489252531137,"39":-0.04293895080217058,"40":0.05026984687872363,"41":0.021071569555322484,"42":0.1522947629570539,"43":-0.11313367523162263,"44":0.1538727725657375,"45":0.00883527251511981,"46":-0.04475320920523144,"47":0.2955380475944549,"48":0.061624321366379256,"49":0.05600399861847998,"50":0.1817546977377629,"51":-0.2594907165468432,"52":0.08584119990954114,"53":-0.18632400327150042,"54":-0.010566992238028516,"55":-0.04075854923540664,"56":-0.03385584624247646,"57":-0.2107019845545158,"58":0.03997030255264646,"59":-0.21741665997883955,"60":0.009254786606329272,"61":-0.2533279896797342,"62":-0.2188018953457021,"63":0.2087891362834566,"64":0.16050307597103167,"65":0.10068341850203923,"66":0.08337719564168466,"67":-0.0018770422929278738,"68":-0.08631114817308728,"69":0.056212320702963114,"70":0.1919188366394744,"71":-0.042963085918521576,"72":0.03269735266451237,"73":-0.06610787414960356,"74":-0.12631102886097711,"75":-0.1717363885908574,"76":0.034672084972907816,"77":-0.08452395913901804,"78":0.12328163223174271,"79":-0.17871821199736898,"80":0.2861409499561112,"81":0.2292623591087959,"82":0.08778062893981549,"83":0.00771167448228819,"84":0.006704715319103737,"85":-0.27319312484373814,"86":-0.10608672309266279,"87":-0.3559514371550432,"88":-0.19604687448587668,"89":-0.2590313658424585,"90":-0.026818989366565384,"91":-0.09990917748902878,"92":0.20946150616748307,"93":0.318365889040094,"94":-0.07033921853208075,"95":-0.39014402917696045,"96":-0.04839832834503911,"97":-0.2742408442408308,"98":0.06724476689207359,"99":-0.13909002289323646,"100":0.11250262833732223,"101":-0.40185557680090184,"102":-0.05997088973616214,"103":-0.19970626470667996,"104":-0.10927732121892904,"105":-0.31577596124849017,"106":0.10329571313706856,"107":-0.2895662994769698,"108":0.19832558235761572,"109":0.21168258394522887,"110":-0.0754483173727974,"111":-0.30354512843124226,"112":0.033473569804272615,"113":-0.020897437282149257,"114":0.03482373375167755,"115":-0.16657527495238666,"116":0.19080907958027327,"117":-0.2075219375951551,"118":0.11389564910900185,"119":0.017315783708127624,"120":0.13777440169044675,"121":-0.023822079719589787,"122":0.10969221395364404,"123":-0.19276977828301908,"124":0.08089783387345724,"125":0.048892092189742796,"126":0.12552427379847572,"127":-0.1078494718957049,"128":-0.08615945279489604,"129":-0.19428145277246106,"130":-0.04358535912472067,"131":-0.39292081932386347,"132":0.10445186790380445,"133":-0.3388815061350705,"134":0.12511091140469888,"135":0.07587847778951004,"136":-0.026483684055450547,"137":0.154266499493947,"138":0.13797405272408514,"139":-0.39857106650760493,"140":-0.30998159067223563,"141":0.025275972860830255,"142":-0.1790611547773872,"143":0.13054078140731115,"144":-0.055609247474344745,"145":0.115129018583146,"146":-0.07102322560008185,"147":-0.11909999826255363,"148":-0.13567351009869613,"149":-0.2406268816521802,"150":0.09000192850496823,"151":0.24431831669254284,"152":0.1736459987881165,"153":0.04370807647248457,"154":-0.058212329295561666,"155":-0.387617158551156,"156":-0.13471368043436038,"157":-0.28405855130692326,"158":0.07277243892163232,"159":0.1071978889051476,"160":0.14463330605003114,"161":0.45570405223724697,"162":-0.10461239115252123,"163":0.05700572355624371,"164":-0.14843106788218072,"165":-0.07144390422335745,"166":0.08571387145949212,"167":-0.3528177142390941,"168":-0.03344326308224236,"169":-0.07731712778706758,"170":-0.19711952958377132,"171":-0.012450275635836438,"172":0.04851983515660139,"173":0.06527895982962843,"174":-0.17111751724703644,"175":-0.1899342578288411,"176":-0.05537138641029696,"177":-0.1485746435713573,"178":-0.04416466111973376,"179":0.39208884700663194,"180":-0.18047262023277177,"181":-0.07057181783618977,"182":-0.07757069136616122,"183":-0.26106136744386116,"184":-0.08041832847877933,"185":-0.2715662885457466,"186":-0.047290569053854065,"187":-0.1591813223024252,"188":0.07934368304281374,"189":0.11218244303049825,"190":-0.07199560861657112,"191":0.06124717521635437,"192":0.1665490123351703,"193":0.05003033315066494,"194":0.028313034043888113,"195":0.14038981965752587,"196":-0.07641581728072773,"197":-0.042559391288993005,"198":0.011942964437661047,"199":0.045000456569569976,"200":0.21344377082495622,"201":0.22289216771027706,"202":-0.005696827002490557,"203":-0.07179365440818747,"204":0.002412409797235576,"205":0.07941186356386602,"206":-0.14021328804925773,"207":0.509913204765273,"208":-0.05663698112728335,"209":0.019051298739763647,"210":0.04199182312994883,"211":-0.11692492083511431,"212":-0.10402574473509267,"213":-0.1834756127739992,"214":0.04733546197453564,"215":0.058638983607524876,"216":0.1681473488550953,"217":0.1683772808442915,"218":0.05761701643995139,"219":-0.030273188620615767,"220":-0.33152781614388704,"221":-0.047057085055694385,"222":-0.00296084531331205,"223":0.19303932075537725,"224":0.003814351420290259,"225":0.12870752480357212,"226":-0.2207311200455036,"227":-0.0952441558885843,"228":-0.14490385330714775,"229":-0.08923303000709493,"230":-0.046731294529718116,"231":0.11314852761656594,"232":-0.034410256940370816,"233":0.40436968154213737,"234":-0.030085244471685667,"235":-0.04631761077495531,"236":-0.37444943708365835,"237":-0.2743639109414656,"238":0.11544362304425779,"239":0.07974815431142103,"240":-0.22725872724574747,"241":0.22866889164391313,"242":-0.2395772782472167,"243":0.13496874562271496,"244":-0.13698465547443242,"245":-0.015784432266327884,"246":-0.2501687478859506,"247":-0.11027117588203574,"248":-0.10039674040707083,"249":0.05501992706364461,"250":-0.22776490700261884,"251":0.35715977552564904,"252":0.07894621260289186,"253":-0.043599746047879626,"254":-0.09100701859237245,"255":-0.036429205422525916,"256":-0.20225768698478788,"257":-0.2916134730081811,"258":-0.31147026993933524,"259":0.23901731723377917,"260":-0.30571174237683996,"261":-0.08567318942307156,"262":-0.15522740835716006,"263":-0.06231521380325932,"264":-0.2827509408288726,"265":-0.2067316522570009,"266":-0.18072334215095034,"267":0.24955707329274096,"268":-0.27570596691447563,"269":0.11199796943199614,"270":0.15446641468587052,"271":0.062160591553755945,"272":-0.09734431075121831,"273":0.0569062689765458,"274":-0.10366708801920885,"275":-0.03330973093239227,"276":-0.21023046675227686,"277":-0.07171829886696962,"278":0.02030351586140834,"279":0.1752826655580284,"280":-0.3908334004744446,"281":0.2689726359801892,"282":-0.2587143156642758,"283":0.296484402075313,"284":-0.4508468818065651,"285":-0.051256632018650876,"286":0.08036672259959195,"287":0.07709245493830025,"288":-0.09276246736532132,"289":-0.031034188803614696,"290":-0.05770436993722838,"291":0.28125884108458776,"292":-0.2896176061858168,"293":-0.07019005143473189,"294":-0.07836250960488882,"295":-0.023083979494891698,"296":-0.35887857453578165,"297":0.14849586178579102,"298":-0.20807843618283522,"299":0.10878870630814375,"300":-0.3421602003818559,"301":-0.30518918616501023,"302":-0.008733179485237573,"303":-0.17169362092975032,"304":-0.05339966273264825,"305":0.05492325970018944,"306":-0.12277698336129117,"307":0.004595281931521263,"308":-0.15794623851319844,"309":0.012261422266715134,"310":-0.17407830628218057,"311":-0.039966393969130216,"312":-0.32585411304241363,"313":0.34700155407238487,"314":-0.16624744304846747,"315":0.25147826631291886,"316":-0.2418492449112372,"317":-0.05294749421939283,"318":-0.019173659243070663,"319":-0.19268967675772297,"320":-0.34730345225490594,"321":0.13758741526177595,"322":-0.2767973808557907,"323":0.23993319815029496,"324":-0.17154750203322955,"325":0.16035760714358646,"326":-0.08018233970978374,"327":0.028039557838037483,"328":0.016776813037134176,"329":0.14953530257851771,"330":0.006603095548761471,"331":0.31047654582901396,"332":-0.29240966523234896,"333":-0.16455559397309094,"334":0.05280270525647041,"335":-0.15344088806530817,"336":-0.15661685231371614,"337":-0.13434802461263334,"338":-0.25339830860249285,"339":0.03320223794110012,"340":-0.28489941539341423,"341":0.14059781620563372,"342":0.05562365917459317,"343":0.13537560434055768,"344":-0.18020302972180355,"345":-0.16803220961037643,"346":0.11647169382393073,"347":0.38017119013729306,"348":0.01971054767201402,"349":0.4711948659117703,"350":-0.0192555094891833,"351":0.17936484025833263,"352":-0.16560887413774103,"353":-0.027004741176573834,"354":-0.1734913618651756,"355":0.006171698769003831,"356":-0.1494171960404493,"357":0.09261640109741155,"358":-0.031179549556153808,"359":0.15318810165577704,"360":-0.152926532458011,"361":0.04933205415983878,"362":0.026494215546653935,"363":0.29101622078086187,"364":-0.1390545278134392,"365":0.12081627288537286,"366":-0.13837184801503208,"367":0.12229207968990376,"368":-0.17294681667471137,"369":-0.030577702191209206,"370":-0.059959016476425916,"371":0.14211938227054843,"372":-0.1704251729829706,"373":0.16128267030216775,"374":-0.08812063124883189,"375":0.059588212774260296,"376":-0.06140867057869093,"377":-0.029005352501728015,"378":-0.04155404801196171,"379":0.14260989830316542,"380":-0.13823684235033415,"381":-0.3587318633494351,"382":-0.148550612385421,"383":0.0933464617190104,"384":-0.09527536043968768,"385":0.10616818098595501,"386":0.02184552650646328,"387":0.23950584043008108,"388":0.142624075484807,"389":-0.022059582312737146,"390":-0.13645303733194117,"391":0.1442778021176524,"392":0.018479948875117967,"393":0.07454163631214177,"394":-0.050574916147750906,"395":0.06279019549511886,"396":-0.4283528185617437,"397":-0.20146426230053707,"398":-0.07676163201877094,"399":-0.22550338744100304}},{"sx":5,"sy":5,"depth":16,"w":{"0":0.17880812586354974,"1":0.1496456876357351,"2":0.18669409461258765,"3":0.05416400355899845,"4":-0.19136951350985193,"5":-0.19258954268369552,"6":0.17650832616122855,"7":-0.09425429048958835,"8":0.012048827281618673,"9":-0.1873106595971014,"10":0.3206571643504814,"11":0.21257619446721646,"12":0.024623799397791708,"13":-0.14033106886463861,"14":0.168488497011559,"15":-0.3722628846959871,"16":-0.2971063957426396,"17":0.03805142626895728,"18":-0.10209879038304531,"19":0.35591183727179254,"20":-0.2681177615041917,"21":-0.19063715891685173,"22":-0.12070023268591748,"23":0.07550835666887425,"24":-0.04315677284605836,"25":0.15255413136086077,"26":-0.053420987135749484,"27":-0.16572461079993145,"28":-0.4134788742876403,"29":-0.047265296515412024,"30":-0.09424843135324382,"31":0.08387675940839176,"32":-0.07405445930885932,"33":-0.025452885986785065,"34":0.008011523322424375,"35":0.0843987481313928,"36":-0.1600276248600362,"37":-0.12929041108933842,"38":-0.3490482631892998,"39":0.1828392327022298,"40":0.24129629581230008,"41":0.15857360985194138,"42":-0.39542112387907263,"43":-0.15182248492341321,"44":-0.126667736365715,"45":0.04336231790050763,"46":0.29220581789498684,"47":0.15204049543011022,"48":0.13844437491812983,"49":0.26892908520129144,"50":0.059824253897972114,"51":-0.09967521256054898,"52":0.15342150119384704,"53":0.0456323646410581,"54":-0.045327042531741385,"55":0.051153702807420154,"56":-0.09975735692499607,"57":0.021555522886114887,"58":-0.0032900530264447147,"59":0.1409889579615471,"60":0.1483508331071075,"61":0.36824198467152436,"62":-0.15576353457391381,"63":-0.17765130362180473,"64":0.22019385925797075,"65":-0.0010372545273067408,"66":0.14030890719422834,"67":-0.0735318604312558,"68":0.302818660663646,"69":0.12601582261472544,"70":0.10233541225064784,"71":0.07067581211014638,"72":-0.027993432161789573,"73":0.3152366513604184,"74":0.12003750534480617,"75":-0.19754216402880828,"76":0.17968536849915603,"77":0.33441415139377406,"78":-0.13236587755069806,"79":-0.03756531484421708,"80":0.038434467066693435,"81":0.18651960606228077,"82":-0.004182915164622048,"83":0.11235820438642073,"84":-0.2191395875622583,"85":-0.09581566745457828,"86":0.2766011775923082,"87":-0.18352996212028821,"88":-0.06543717210407092,"89":-0.23604894463790496,"90":0.20817744937628901,"91":0.10214260325063942,"92":-0.26576556324450673,"93":-0.09939236453200337,"94":0.2672532706222628,"95":-0.4116139388409082,"96":-0.08797579075863692,"97":-0.004771446214606408,"98":-0.16903757569754005,"99":0.37328848654331087,"100":-0.3343355225895561,"101":0.017113120071281393,"102":-0.05478442236591943,"103":-0.17375581163126913,"104":-0.22953492328330652,"105":-0.03428610011781268,"106":0.11686725765263399,"107":-0.18877780868530158,"108":-0.6686875428496845,"109":-0.3840105270545063,"110":-0.0819144931294795,"111":-0.2866222977566279,"112":-0.16966572447771214,"113":-0.10262687246095506,"114":-0.21325516259373284,"115":0.15238425505109132,"116":-0.41560582581210165,"117":-0.07295051888382026,"118":-0.1134456341461113,"119":-0.17476923766526387,"120":0.13414676360247638,"121":0.12035929101450742,"122":-0.28136081373825805,"123":-0.136544201155757,"124":-0.4618632337370251,"125":-0.5191411592046397,"126":-0.2636375366272961,"127":0.21394907509783367,"128":-0.052954468313794086,"129":0.010773438485098753,"130":-0.1203889897258161,"131":-0.1738294752190823,"132":-0.2625900145008197,"133":-0.12750094850457652,"134":0.057001247697508646,"135":0.11238360530347653,"136":0.24276763794680853,"137":0.04882070195198225,"138":-0.04205486992158394,"139":0.0445889612903849,"140":-0.10217484661942541,"141":-0.2353390175925805,"142":0.1405583056231627,"143":0.21289646524016342,"144":0.23148296813925748,"145":-0.13324644392061025,"146":0.006139864811305422,"147":-0.17205807294792236,"148":0.02450610405060358,"149":-0.24909501240273713,"150":0.0733593794865164,"151":0.023589910440722995,"152":0.11009096076389782,"153":-0.06492691510127367,"154":0.3126505936368325,"155":-0.028444949314461287,"156":0.07325436328985857,"157":0.33680445206532916,"158":-0.26200773612712625,"159":0.10189196046370316,"160":0.0030364372094536353,"161":0.038349451880932986,"162":0.10497295391497333,"163":-0.025728853272477214,"164":0.07451115905759148,"165":-0.0035017013846078324,"166":0.1783968257818581,"167":-0.09054037822659658,"168":-0.03192729393119533,"169":0.010145406054333866,"170":0.09130781727108435,"171":0.16069011394473753,"172":-0.17399716179521837,"173":0.393255563139879,"174":0.4067894403240948,"175":-0.12067465565278064,"176":0.0013717046261847844,"177":0.14709886556018986,"178":0.06866839328631538,"179":0.246716448005509,"180":-0.36221351458953976,"181":-0.029441875267453902,"182":-0.2849943853127011,"183":-0.09311151826016463,"184":-0.10498584643428308,"185":-0.209151132876359,"186":0.14079485124971414,"187":-0.1133534654313927,"188":-0.44751550430500947,"189":-0.38304668621278304,"190":0.24240009347279046,"191":-0.4200643495522837,"192":0.10462137385263577,"193":-0.06588242528015492,"194":0.017728081057277214,"195":0.1560415216513458,"196":-0.4136145426806528,"197":-0.08754898813570272,"198":-0.1388582702924929,"199":-0.33787223859919685,"200":-0.1770308117528112,"201":0.12995881895918146,"202":-0.2579159627929879,"203":-0.17925329259635622,"204":-0.46039395603469846,"205":-0.5447025254043691,"206":-0.311373305327451,"207":-0.05914705456118135,"208":-0.041050020165483335,"209":-0.17467728172941924,"210":-0.16156096005102288,"211":0.0717493566880857,"212":-0.4500609286789374,"213":-0.005875857041612075,"214":-0.16902279266357684,"215":-0.19997992052422012,"216":0.10619631722958668,"217":0.17099476480887288,"218":-0.15341276539716947,"219":-0.050729813098279807,"220":-0.18146686031915518,"221":-0.34285172914819906,"222":-0.0701402261421924,"223":0.3895102979579719,"224":0.19795130497238594,"225":-0.26006377279172604,"226":0.014289084335063349,"227":-0.2582686320934942,"228":-0.24571052280658665,"229":-0.02822312521368662,"230":-0.05411574096387096,"231":0.12677698709377253,"232":0.1696045984657469,"233":0.06838281366389341,"234":0.05581360606271605,"235":0.014396456800961467,"236":0.07005095721458514,"237":0.02079473268987992,"238":0.03781858524468613,"239":0.10926459157048077,"240":0.027450180655126662,"241":0.006242236918318218,"242":-0.08435497100643757,"243":-0.061222335242180466,"244":0.15322912697290283,"245":0.05400118457785815,"246":-0.04273705978439772,"247":-0.09015552576342956,"248":0.16335581896698592,"249":-0.07129489848103697,"250":-0.07817073585947601,"251":0.26558228315009164,"252":-0.10613477447779407,"253":0.11307690772351107,"254":0.0987290036050383,"255":-0.15835136618650414,"256":-0.17818293439226932,"257":0.10816743658329016,"258":-0.066099818316168,"259":-0.006313417573320116,"260":-0.32803136518433385,"261":-0.07383830826101448,"262":-0.25479915930626085,"263":-0.012908090851321429,"264":-0.02332495965650619,"265":-0.02191979492528764,"266":0.06011329834156899,"267":-0.223967114456357,"268":-0.2752252467654477,"269":-0.2825805898620857,"270":0.024888079132835132,"271":-0.18466641540096024,"272":0.014797057927349155,"273":-0.041885665127740015,"274":0.01820164210543859,"275":0.01270420165521142,"276":-0.3504607114833038,"277":-0.05607136391719689,"278":0.0273987345215993,"279":0.04331344271230873,"280":-0.12740457324548374,"281":-0.19601542169750685,"282":-0.1470983694500732,"283":-0.10038696541811017,"284":-0.3465398602465186,"285":-0.4240645961974694,"286":-0.27708726904824105,"287":-0.23837477358901113,"288":-0.075556516769382,"289":-0.008543394615340377,"290":0.04686704685680635,"291":0.11804840783644954,"292":-0.355043223241639,"293":-0.02748308077869915,"294":-0.1883176196764933,"295":-0.17871825115256473,"296":-0.11608186236168497,"297":0.021465326516796113,"298":-0.18075097132138493,"299":0.06443782903062857,"300":-0.2124058149941338,"301":-0.28551078885450626,"302":-0.2306046049653124,"303":-0.14728312569438315,"304":0.0020286563496685517,"305":-0.17479888682859435,"306":-0.019396862428621656,"307":-0.17887550894385226,"308":-0.12676004649285622,"309":-0.08394778436762595,"310":-0.11138939847179631,"311":-0.026470247486673947,"312":0.11204955138031299,"313":-0.08794945373051367,"314":-0.2109134524702332,"315":0.21487416566447057,"316":0.09168638501547167,"317":0.07171323298845424,"318":0.10442310707592356,"319":-0.09258119816420513,"320":0.12404756818634036,"321":0.1556851647893667,"322":0.1685339429482602,"323":-0.12674319274567977,"324":0.2643187873960026,"325":0.10064510627362055,"326":-0.063480231382354,"327":-0.08930716245808948,"328":0.0714225985881223,"329":0.13814240004447445,"330":0.0335967388638524,"331":0.13067166661448537,"332":0.040737678914519626,"333":0.078934009051766,"334":0.2373434398762844,"335":-0.07851627761573095,"336":-0.016605545376882413,"337":0.21774934922231096,"338":0.306513191843541,"339":0.09748548006969047,"340":-0.15670616026010303,"341":-0.08654435058483927,"342":-0.11572686819102161,"343":0.07956436729753343,"344":0.0383496667532412,"345":0.3064720285577741,"346":0.018653215532910435,"347":-0.20919552041079656,"348":-0.1647725509920557,"349":-0.12948610673006186,"350":0.09685216902012214,"351":-0.05032387157469962,"352":0.04430253620623489,"353":-0.0057176393386129,"354":0.18231148132762096,"355":0.08071850220743218,"356":-0.04310170189877593,"357":0.15892696735159775,"358":0.20715777119884135,"359":0.16452237506635103,"360":-0.04317719092992601,"361":0.0028157705614585892,"362":-0.04276148887304201,"363":0.09596916066149508,"364":-0.05125060959093395,"365":-0.08606841612745979,"366":-0.14464282080478924,"367":0.17672732091068377,"368":0.10752485442819226,"369":0.08849517161187608,"370":0.07431151883000912,"371":-0.06470019918565484,"372":-0.20453955680249433,"373":-0.1727171618228069,"374":0.05926659942740397,"375":0.00984289017433017,"376":0.10807798822723429,"377":-0.0840091484605165,"378":-0.15237702948643206,"379":-0.1049894269008403,"380":0.09345326527703585,"381":0.12997621398853954,"382":-0.13615755992014522,"383":-0.0025396208533296247,"384":0.1778049113475419,"385":0.2047970484909176,"386":0.21881339560348215,"387":-0.26392700264929597,"388":-0.04249521289466227,"389":-0.11066593609928377,"390":0.10836027754856467,"391":0.05643659990503902,"392":0.32337414013832044,"393":0.09997242972304718,"394":-0.0918708055190709,"395":-0.047447425038824674,"396":0.1305079681330237,"397":0.07348854612639502,"398":0.0901191824009296,"399":0.22935184991915833}},{"sx":5,"sy":5,"depth":16,"w":{"0":-0.03338559220782854,"1":-0.1715261884630377,"2":-0.028063011911717974,"3":0.07546448837652596,"4":0.04230223992342134,"5":0.14347981959396913,"6":0.31555170775496344,"7":-0.24393470422059949,"8":-0.039798405754806476,"9":-0.37723940340853385,"10":-0.014223122618279745,"11":-0.13331943320473874,"12":-0.0757074421135356,"13":-0.07306760761389419,"14":0.09875459716847655,"15":0.04753321510994023,"16":0.1741078400301133,"17":-0.28530262976509474,"18":0.29839233200096366,"19":-0.22156041974148025,"20":0.18524760638229354,"21":0.3269798220592709,"22":0.2684337151361537,"23":-0.3274634398042113,"24":-0.007453014575914158,"25":-0.2387557077709432,"26":0.029298308233581042,"27":-0.1484902599519665,"28":0.03559081110948057,"29":0.07980507418144307,"30":-0.0516943540702612,"31":-0.04790181991016881,"32":0.10613781923421313,"33":0.2816307623312228,"34":0.10230783735426102,"35":-0.03687672228655162,"36":0.08571456021020395,"37":0.22508230066859264,"38":0.24320186235644328,"39":0.02955149506920486,"40":0.13797579834819423,"41":0.34443513336321446,"42":0.09634801242218714,"43":-0.17498950493535023,"44":-0.21355268753401524,"45":-0.14067103048527863,"46":-0.08875317487716217,"47":-0.06098112852491567,"48":-0.09581315912324251,"49":0.11881778056821474,"50":-0.20103524889486407,"51":0.14428320135770634,"52":0.035967457630193385,"53":0.28927735323152426,"54":-0.2654944099231766,"55":0.03808576754464363,"56":0.04323005339868559,"57":0.2576662547741455,"58":0.00755305611145012,"59":0.06707514998364897,"60":-0.20782970400161088,"61":-0.27820121454506874,"62":-0.0875837564890348,"63":-0.3017614500485506,"64":0.03460951210772369,"65":-0.08404687175724458,"66":-0.24029604920728595,"67":0.2008816971705083,"68":-0.02063927529188807,"69":0.01842696988544607,"70":-0.17106491580513747,"71":0.0668585194961054,"72":-0.041267214095647355,"73":-0.12482087819665678,"74":-0.007118620984898345,"75":0.5438218959568789,"76":0.008842188450432368,"77":0.020831872011536075,"78":0.37706478421143563,"79":-0.2465920366278929,"80":0.02246584128163649,"81":0.047626933133694045,"82":-0.01098725748328608,"83":0.056368506097930496,"84":-0.02938308266926216,"85":0.272139434042065,"86":0.09338221900221162,"87":-0.13721293453707778,"88":-0.15284912623903682,"89":-0.07236586562221647,"90":-0.03192241039381108,"91":-0.2269852958532553,"92":-0.07134173732357375,"93":0.08040928616086297,"94":-0.15455261274349696,"95":0.0582369946160574,"96":0.08111129553887968,"97":-0.128329160804743,"98":0.0777914852157734,"99":-0.17602551042773423,"100":-0.02600779455135576,"101":0.20511996093300192,"102":0.16910096188698867,"103":-0.28744162211900814,"104":0.12195135110989151,"105":-0.12987427443106153,"106":0.018471491029701154,"107":-0.2994127726402186,"108":0.13013161965015282,"109":0.14694917066909022,"110":-0.155099556638811,"111":0.16604618739576935,"112":-0.1036132838999572,"113":0.044769473779701925,"114":0.18027922098617552,"115":0.08377200884571932,"116":0.10686129606991059,"117":0.2771313645911468,"118":-0.05334035032411327,"119":-0.1634493855525994,"120":0.10923726974558422,"121":0.2879313707880778,"122":0.12370496551755172,"123":-0.3371979494400211,"124":-0.2086518016148072,"125":-0.044266581646833045,"126":-0.16675023614119266,"127":-0.20770074341555103,"128":-0.06472379573848862,"129":0.13623159449965605,"130":-0.0805827536652858,"131":0.17285639394074206,"132":-0.2546515926838744,"133":0.2031856959818691,"134":-0.2269693943810024,"135":-0.33297317509011826,"136":-0.2012616547369019,"137":0.15916451542788201,"138":0.014504440885720048,"139":-0.27000815978663006,"140":-0.554454096046897,"141":-0.5083628047869179,"142":-0.13228075542929912,"143":-0.49346789377135253,"144":-0.12031152627658885,"145":0.05537411553177952,"146":-0.10478010408701743,"147":0.35362404702991757,"148":-0.09603656203566928,"149":0.19290908159661596,"150":-0.23146423343893296,"151":-0.010358153597727474,"152":0.05544966128097175,"153":0.19562690358346788,"154":-0.07899820302600977,"155":0.02176061172724981,"156":-0.2838590690817859,"157":-0.1543198794598125,"158":0.054975170071344864,"159":-0.13224619508766997,"160":0.07728602926743994,"161":-0.1291412604407143,"162":0.03874786283077621,"163":0.086930679685459,"164":0.02422297499821264,"165":0.16433578489287823,"166":0.0882024499838901,"167":-0.0825982794649091,"168":-0.14881934332307062,"169":0.12134145498620197,"170":-0.028012744998252837,"171":-0.4126657453794901,"172":0.059093033848758816,"173":-0.05830666922940428,"174":-0.21839877466281993,"175":-0.03377056001159572,"176":0.06346721988972932,"177":-0.31316325117803057,"178":0.40095726240285323,"179":-0.0725717766265492,"180":0.15977308388629932,"181":0.2404251703546883,"182":0.0017565359992986985,"183":-0.23394319349725592,"184":-0.06906449840547514,"185":0.058284210561654115,"186":-0.030565785165718538,"187":-0.35587928410443376,"188":0.01906741337250112,"189":0.1803821202897008,"190":0.0815013099469291,"191":-0.07285806801000705,"192":-0.07736054230022436,"193":0.09267819863564969,"194":0.33676819733338526,"195":-0.14261134057479333,"196":0.051855253908363354,"197":0.25349729352510314,"198":-0.12922837766632594,"199":-0.07897951394209612,"200":-0.23889551874464116,"201":0.20303155246642737,"202":-0.2250298897742882,"203":-0.5089668275130742,"204":-0.17250890479669131,"205":-0.054253991064700066,"206":-0.09262599798637908,"207":-0.1964085124002746,"208":-0.0503968904637539,"209":0.2233507510903886,"210":0.006687244660149173,"211":0.12883277668100226,