{"layers": [{"out_depth": 1, "out_sx": 64, "out_sy": 64, "layer_type": "input"}, {"sx": 3, "sy": 3, "stride": 1, "in_depth": 1, "out_depth": 32, "out_sx": 64, "out_sy": 64, "layer_type": "conv", "l1_decay_mul": 0, "l2_decay_mul": 1, "pad": 1, "filters": [{"sx": 3, "sy": 3, "depth": 1, "w": [-0.026393624, -0.11481696, -0.13961123, 0.098642297, 0.011338816, -0.052311078, 0.11741547, -0.029057255, 0.14402126]}, {"sx": 3, "sy": 3, "depth": 1, "w": [-0.16250604, 0.10014694, 0.07002946, -0.12239309, -0.10576134, 0.0070123537, -0.049110539, 0.012728211, 0.1828866]}, {"sx": 3, "sy": 3, "depth": 1, "w": [0.013073366, 0.014550163, -0.042068142, -0.14819977, -0.10346572, 0.2569643, 0.12923835, 0.11991432, -0.26181677]}, {"sx": 3, "sy": 3, "depth": 1, "w": [-0.54465342, 0.0073371883, 0.076672792, -0.65099776, -0.72535652, -0.02202761, -0.54712015, -0.32746258, 0.08368881]}, {"sx": 3, "sy": 3, "depth": 1, "w": [0.023321414, -0.0988544, 0.23065606, 0.020075414, 0.016351162, -0.28912184, 0.032403562, 0.04680774, -0.041451454]}, {"sx": 3, "sy": 3, "depth": 1, "w": [-0.10696539, -0.2322783, -0.16858692, 0.10120049, 0.11153916, 0.05079899, 0.16727898, 0.029776726, -0.011981196]}, {"sx": 3, "sy": 3, "depth": 1, "w": [-0.27797422, -0.04113495, 0.0077966955, -0.14797504, -0.16217853, 0.092633434, -0.050288074, 0.033046238, -0.10868536]}, {"sx": 3, "sy": 3, "depth": 1, "w": [-0.14268455, 0.062683053, 0.0090597644, 0.033346493, 0.033006702, 0.0061440482, 0.040434983, -0.016991068, 0.0064114863]}, {"sx": 3, "sy": 3, "depth": 1, "w": [0.01927861, -0.078370862, -0.066492058, -0.19624944, -0.14655927, 0.12538739, -0.02308763, 0.15355857, 0.076717742]}, {"sx": 3, "sy": 3, "depth": 1, "w": [0.068279259, -1.337953, -1.1480603, 0.032013059, -1.3649188, -0.90479374, 0.068414509, -1.4983095, -0.96411234]}, {"sx": 3, "sy": 3, "depth": 1, "w": [0.039119102, -0.16206172, 0.045022599, 0.0079279905, 0.086699568, 0.093483157, 0.01383292, -0.15398483, -0.099671341]}, {"sx": 3, "sy": 3, "depth": 1, "w": [0.02472703, 0.068283439, -0.17524013, -0.03321261, 0.23032086, -0.010227546, -0.094567657, -0.11973362, 0.078542843]}, {"sx": 3, "sy": 3, "depth": 1, "w": [0.054745313, 0.088901445, -0.1320609, 0.048159145, -0.029863453, -0.01407714, 0.16229418, -0.13886602, -0.085153967]}, {"sx": 3, "sy": 3, "depth": 1, "w": [0.047248095, 0.13209677, 0.050191529, -0.016137231, -0.30580896, -0.15034391, 0.028204888, 0.12339435, 0.029258398]}, {"sx": 3, "sy": 3, "depth": 1, "w": [-0.037698466, -0.22964355, -0.23037119, -0.11904214, 0.037281461, -0.10193298, 0.036189251, 0.14027622, 0.094912037]}, {"sx": 3, "sy": 3, "depth": 1, "w": [0.094873443, 0.12438054, 0.049926274, 0.052279875, -0.20184362, -0.016115708, 0.034721445, -0.041523278, -0.39738902]}, {"sx": 3, "sy": 3, "depth": 1, "w": [-0.14033763, 0.042008579, 0.023401698, 0.13138695, -0.11950551, 0.086868785, 0.055229742, -0.19140878, -0.13126501]}, {"sx": 3, "sy": 3, "depth": 1, "w": [-0.33708102, -0.32337907, 0.11346958, 0.13078058, 0.11133333, 0.025527222, -0.050138805, -0.10794728, -0.031320035]}, {"sx": 3, "sy": 3, "depth": 1, "w": [-1.5890557, -1.3335375, -1.5064846, -0.048439927, 0.035459708, -0.059465915, 0.070882119, 0.085862324, -0.012084508]}, {"sx": 3, "sy": 3, "depth": 1, "w": [-0.045836788, 0.048482988, 0.10424379, -0.17832699, 0.003115091, -0.054575182, 0.021183984, -0.0031596068, -0.14317226]}, {"sx": 3, "sy": 3, "depth": 1, "w": [0.14192377, -0.037473936, 0.10784552, 0.059861675, 0.034297641, -0.13249242, 0.091315314, -0.080290236, -0.17913598]}, {"sx": 3, "sy": 3, "depth": 1, "w": [0.0073118806, -0.06885723, 0.11214021, -0.06557072, 0.099807747, 0.19601975, -0.093232065, -0.12496662, -0.058123678]}, {"sx": 3, "sy": 3, "depth": 1, "w": [0.16766384, 0.16217402, 0.0026660077, -0.059060663, -0.085364982, -0.063661158, -0.10782702, -0.0086871497, -0.0060492596]}, {"sx": 3, "sy": 3, "depth": 1, "w": [-0.023383142, 0.10921706, -0.12396761, 0.0080053369, 0.020672098, -0.18896544, 0.011334148, 0.18564077, 0.007509537]}, {"sx": 3, "sy": 3, "depth": 1, "w": [0.042229589, -0.15916446, 0.026372075, -0.1874617, 0.098418079, -0.087968655, 0.043184582, 0.12066501, -0.094342887]}, {"sx": 3, "sy": 3, "depth": 1, "w": [0.057182632, -0.019477716, 0.1033799, 0.15286556, -0.40167916, 0.042785212, -0.071035504, -0.049618207, 0.047839809]}, {"sx": 3, "sy": 3, "depth": 1, "w": [0.10011863, 0.07719174, 0.09958788, -0.11765272, -0.576563, -0.077109866, 0.07852447, -0.38617456, -0.5086109]}, {"sx": 3, "sy": 3, "depth": 1, "w": [0.0049043074, 0.050890476, 0.078137331, 0.018366024, 0.11326386, -0.01240283, -0.26304564, -0.25924435, 0.074019015]}, {"sx": 3, "sy": 3, "depth": 1, "w": [-0.14859691, -0.17331532, 0.074125998, 0.0019957649, 0.0090441583, 0.056919288, 0.12187908, -0.062450059, 0.11720899]}, {"sx": 3, "sy": 3, "depth": 1, "w": [-0.055863924, -0.069518879, -0.022374524, -0.071260087, -0.037379168, 0.0041852132, -0.030950053, 0.23984203, 0.047439165]}, {"sx": 3, "sy": 3, "depth": 1, "w": [0.025985826, 0.16994911, 0.13841006, -0.071962535, 0.06568604, -0.0051490124, -0.013899414, -0.21434054, -0.11931007]}, {"sx": 3, "sy": 3, "depth": 1, "w": [0.2003441, -0.09836442, 0.0054879817, -0.2044099, -0.032851283, 0.0099685173, -0.0098242396, -0.044136524, 0.13745731]}], "biases": {"depth": 32, "sx": 1, "sy": 1, "w": [0.064987347, 0.064809106, -0.039167203, -0.20700032, 0.19875567, 0.06933599, -0.22652513, -0.86670589, 0.66489673, 0.73191184, -0.13983293, -0.094477884, -0.18271928, -0.17882895, -1.0577747, 0.28168684, 0.31831688, -0.59829164, 0.56498617, 0.01750255, -0.20375712, -0.12238201, 0.017893199, 0.061066467, -0.22957696, 0.094294913, -0.74319011, 0.13031736, 0.25926128, 0.11006147, 0.12211251, 0.13111423]}}, {"out_depth": 32, "out_sx": 64, "out_sy": 64, "layer_type": "relu"}, {"sx": 3, "sy": 3, "stride": 1, "in_depth": 32, "out_depth": 32, "out_sx": 64, "out_sy": 64, "layer_type": "conv", "l1_decay_mul": 0, "l2_decay_mul": 1, "pad": 1, "filters": [{"sx": 3, "sy": 3, "depth": 32, "w": [-0.13979854, -0.040565085, 0.15243454, -0.181357, 0.013501277, 0.016600788, -0.067586862, -0.16998546, 0.11915573, -0.0088679707, -0.14770815, 0.11879403, 0.013709086, 0.054949548, -0.10366892, 0.048753437, 0.038422171, -0.24382517, -0.036968157, -0.025788382, -0.022804471, -0.12696248, 0.025271721, -0.0037669174, -0.4113287, 0.069235772, -0.068117701, 0.13666596, -0.0062291203, -0.037192721, 0.019176917, 0.1238879, 0.045458406, 0.021657366, 0.12145281, -0.23892038, 0.073078483, -0.016848063, -0.16274926, -0.14582928, 0.041236389, 0.018640423, 0.047063466, -0.094289236, -0.0084959241, 0.033166613, -0.20144664, 0.040451042, 0.014738415, 0.08782658, 0.093247242, 0.11223286, 0.0092222784, 0.0057280604, 0.028192321, -0.10492293, 0.031395309, 0.095302261, -0.060437679, 0.10280321, 0.074404523, -0.28812751, -0.0036722787, 0.0053521162, -0.23034461, 0.050777338, -0.015918868, -0.23048855, 0.080402203, -0.11350471, 0.014091822, 0.020806622, 0.12994957, 0.14707211, -0.20802197, -0.048332933, -0.079898186, 0.081299148, -0.070192777, 0.11077832, -0.13143793, -0.20663242, 0.27862403, 0.016408622, -0.0056720753, -0.039628789, -0.02173835, -0.077554606, -0.079810314, -0.038161241, 0.032070849, 0.047390312, -0.25173101, -0.26398242, 0.027126014, -0.018020235, -0.26813304, -0.32257318, 0.012532722, -0.095478602, -0.1813001, -0.14275911, -0.20782553, -0.52994132, 0.25311616, 0.051019985, -0.14754903, -0.014051062, 0.014436129, 0.011877631, -0.30481917, -0.074729241, -0.016287632, -0.27276027, -0.14160807, 0.071962155, -0.1489453, -0.21279229, -0.088664107, -0.11581507, -0.18651383, -0.070477344, 0.019882925, -0.054623466, -0.12977667, 0.034622949, -0.15537813, 0.067157432, 0.081195191, -0.14632763, -0.20461951, -0.11925779, -0.021487787, 0.033159912, -0.26338434, -0.27760631, 0.15225774, 0.19316895, -0.026463874, -0.043881208, 0.0082218163, -0.21213634, -0.045517012, 0.034521446, 0.18436213, -0.091369033, 0.14187865, 0.10613023, -0.18421577, -0.1211472, -0.18563877, -0.03835167, 0.092901155, 0.020242801, 0.091094807, 0.13387458, 0.030565325, -0.13472572, -0.015645955, -0.14641437, 0.1282524, -0.039859418, 0.13595685, -0.37385416, 0.094562814, 0.0076324525, -0.32335767, -0.38377273, 0.087520152, 0.054537274, -0.21182926, -0.18581767, -0.15964268, -0.27206951, 0.0080028372, 0.26947629, -0.02770452, -0.37073204, 0.13712479, 0.016952654, -0.16257277, -0.12342803, 0.021437544, -0.010215058, -0.16746287, 0.040956352, 0.048068412, 0.098321646, -0.081042007, -0.029671086, -0.018426515, 0.025865342, -0.091588072, -0.30844051, 0.042766329, -0.3274906, 0.039444581, -0.020024788, 0.019637898, -0.31140694, 0.13501044, -0.041513275, -0.098384596, -0.045299169, -0.21023658, -0.17785697, 0.15570591, 0.020615559, 0.30241594, -0.26329315, 0.079984367, 0.26652327, -0.12712507, -0.14223239, -0.073329538, -0.0038642255, 0.066047862, -0.0058266027, 0.33937082, 0.0047984221, -0.0015530183, -0.042487301, 0.14075036, -0.13527663, -0.0010465828, -0.064497598, -0.071194805, 0.069864169, 0.16254424, 0.03755803, 0.13064653, -0.43974879, 0.23447728, 0.27154344, -0.075615391, 0.056407314, -0.025686994, 0.024709769, -0.019992465, -0.080303304, 0.14119457, 0.033734299, 0.18593949, -0.0063252123, -0.063015588, -0.27405819, 0.0089572109, -0.29553118, -0.097807445, 0.021076843, -0.0047849189, 0.14414124, 0.002858256, -0.19774382, -0.040125377, -0.15343763, -0.23456876, -0.061008036, -0.090964571, -0.16610053, 0.10023481, -0.11458558, -0.25455934, -0.46589798, 0.09287671, -0.020658713, -0.037833907, 0.076794624, -0.27102855, -0.014407543, -0.22860543, 0.039262567, -0.18919986, 0.017743137, 0.092736572, 0.083369374, -0.19484696, -0.052890345, -0.10496444, -0.23545741, -0.058085348, 0.03744546, 0.056364439, 0.040650092, -0.13377367, -0.094347171, -0.055608694, -0.046265922]}, {"sx": 3, "sy": 3, "depth": 32, "w": [0.010682763, -0.023909641, -0.068890356, -0.099212401, 0.0056591039, -0.025158819, -0.24827403, -0.018343456, 0.078738824, 0.0033814826, 0.011735117, 0.010846889, 0.017727785, 0.0025608682, -0.050282009, 0.18693784, -0.033565447, 0.079421252, 0.068891786, 0.065487571, 0.00031266818, -0.0243218, 0.012330849, -0.024709884, 0.05072628, 0.084879063, -0.020002466, 0.1187248, -0.012633536, 0.041483052, 0.0058056298, 0.052572798, -0.045442332, -0.036686532, 0.0051540001, -0.25481275, 0.013449048, 0.0032042202, 0.01264602, -0.061854005, 0.0080861188, -0.27005222, -0.048685111, 0.022568729, -0.099026337, 0.038506825, 0.0064256573, 0.022374185, 0.02991988, 0.017953996, -0.18188788, 0.06489221, -0.013664193, -0.002296359, 0.00615873, -0.01557086, 0.19280432, 0.10943439, -0.025117259, 0.097698033, 0.0015267006, 0.028609855, -0.0037116043, -0.050384402, -0.047310922, -0.044864655, -0.020163385, -0.067332178, 0.028799832, -0.029062416, -0.030771641, -0.0086897379, -0.028439753, -0.50338155, 0.0045990404, -0.033660632, 0.031253774, 0.039894201, 0.027959947, 0.056828666, 0.097322345, -0.016680656, 0.092036292, 0.099963263, -0.00032469659, 0.0054625152, 0.0035582662, -0.040723346, 0.061013762, 0.05481131, -0.019590069, 0.069435664, -0.040241074, -0.0034870035, 0.014292276, -0.022768861, -0.081928395, -0.093042374, 0.074808009, -0.20834993, 0.023499828, -0.0047954675, 0.01638703, -0.062463433, 0.018874668, -0.2233344, 0.088805147, -0.071911842, -0.020188721, -0.048915818, -0.070453316, 0.0571707, 0.095629811, 0.097518265, 0.069803149, 0.14261237, 0.0016352097, 0.0079813506, -0.015881883, -0.050310489, 0.0018162972, 0.10593747, -0.1684808, -0.045386579, -0.076111503, -0.02570664, 0.00422792, 0.021409784, 0.028118623, -0.055152327, 0.016924608, -0.095738396, -0.0034751724, -0.027962822, -0.055233214, -0.024396474, -0.029661465, -0.41369405, 0.12835445, 0.013821696, 0.057222854, -0.013794869, -0.12730816, 0.027960207, 0.011878935, 0.15864487, -0.099860907, 0.02694368, 0.0091741784, 0.030017216, -0.004499353, -0.073989339, -0.061878886, 0.14573748, -0.15420324, 0.11533757, 0.074001245, -0.34282321, 0.006155605, 0.037546966, -0.06604974, -0.033675488, 0.085948795, -0.34128588, 0.083842568, 0.048247349, -0.10485238, -0.065547675, -0.08021187, -0.69220912, -0.094726771, 0.042354435, -0.050561313, 0.14789058, -0.30110615, 0.020351406, 0.0397106, 0.14420421, -0.25813049, -0.1273647, -0.014475604, 0.0068354984, 0.0053654839, -0.039057504, -0.16121073, 0.012653775, -0.10569502, -0.011781246, -0.057436761, 0.009901667, -0.012473341, 0.0079282997, -0.010064494, 0.072845884, -0.03874955, -0.18611324, 0.071263917, 0.0094230454, 0.010354381, -0.062713072, -0.041755464, -0.15501171, -0.24932943, 0.052733865, 0.022219403, 0.061531752, -0.059475172, 0.0024271847, -0.11784361, -0.28631034, -0.26123014, -0.21194018, 0.016773032, -0.10986137, 0.011730275, 0.034099046, 0.074777149, -0.081923343, -0.58497059, 0.061123427, 0.015689662, -0.015705952, 0.019205321, 0.0039637582, -0.12774062, -0.047585618, 0.040029712, -0.045631822, 0.073806204, 0.025086837, 0.047336645, -0.17112175, 0.03040841, -0.35690162, 0.0038535877, -0.082306214, 0.047531787, 0.083575591, -0.11145861, -0.029156728, -0.1210617, -0.079608135, -0.56291467, -0.23319976, -0.0053332886, -0.065893255, 0.023572106, -0.01678624, -0.037157301, 0.09344659, -0.55463541, -0.17220171, -0.17689405, -0.032463681, -0.023174683, 0.12842487, -0.070657134, 0.034836479, 0.043173432, -0.13311064, 0.021529635, -0.039440464, -0.079677463, -0.39852968, 0.04727095, -0.66533691, 0.066627696, 0.018444736, -0.046074469, 0.080365703, -0.09641581, -0.12285583, -0.18156062, -0.16061997, -0.71728408, 0.029864302, 0.021327497, 0.031535883, 0.030918062, 0.0044563212, 0.13937962, 0.1264859, -0.43406123, -0.065533966, -0.048158631, -0.039552581, 0.029193696, 0.016772574]}, {"sx": 3, "sy": 3, "depth": 32, "w": [-0.03387199, 0.015013081, -0.01085935, 0.065340444, 0.044007592, 0.08381553, 0.11546917, 0.0039685187, 0.13686749, -0.25590846, 0.0029914824, 0.018792095, -0.0038881388, -0.040816311, -0.18363193, -0.075882368, -0.088327534, -0.0072664497, -0.12105263, -0.21254115, 0.030118829, 0.023026209, 0.045119658, -0.023074921, 0.070878573, 0.035722934, -0.53917474, -0.20910271, 0.028070614, -0.060064483, 0.057889242, -0.003122831, -0.059882428, -0.054684635, -0.18292628, -0.066635415, 0.025671845, 0.022263648, -0.12944116, 0.0040362538, 0.29143402, -0.67598879, -0.081746206, 0.080937967, -0.087448366, -0.03329578, -0.052136973, -0.26246783, -0.034847442, -0.046209011, -0.20457794, -0.0478383, 0.051476929, -0.003667027, 0.043613475, -0.034125663, -0.15789878, -0.22128187, -0.68682563, -0.13293406, -0.012602124, -0.33546504, 0.0082740067, -0.025067847, -0.027061919, -0.030360924, -0.086080186, -0.13435638, 0.036340963, 0.060438655, -0.087494887, -0.021681949, -0.024275005, -0.1581603, 0.036147133, 0.096008055, -0.0051749106, -0.090816416, -0.078024879, -0.27394059, -0.14836633, -0.10104821, -0.12911668, -0.14177752, 0.031315491, 0.047473811, 0.038444187, 0.015088572, 0.041461755, 0.034560565, -0.39564243, -0.054065838, -0.055172496, -0.23270933, 0.057328235, 0.035099763, -0.0658269, -0.27299953, -0.18281667, 0.060362179, -0.032663349, -0.25421113, 0.18159728, -0.023353379, 0.15449534, -0.73168188, -0.06317281, -0.23001626, 0.025037335, -0.13953283, 0.028400779, -0.35618031, -0.030261088, -0.013571521, -0.42316076, 0.027979847, 0.025572304, 0.0041940273, 0.029968625, -0.0016922592, -0.16750184, -0.077589922, -0.29706621, -0.45506412, -0.09730313, -0.2611858, 0.0019826477, -0.054724738, -0.48168993, -0.10334604, -0.39578849, 0.031135935, -0.1021634, -0.66453356, -0.15631351, -0.034833197, 0.48249239, -0.40465608, -0.061731782, -0.19865143, -0.051474281, -0.1470155, -0.10013645, -0.42641282, -0.4012782, -0.079751804, -0.47987339, 0.014047857, -0.012609693, 0.014547366, 0.02011692, -0.10892886, -0.11226818, -0.33742595, -0.33828285, -0.54135972, -0.49595454, -0.53115904, 0.022800025, -0.20250735, -0.14388351, -0.078428693, -0.050446089, -0.007198473, -0.030034851, -0.26401979, -0.098699383, -0.05705744, 0.060086366, -0.33177218, -0.012180286, -0.0052365498, -0.032619867, -0.14694881, -0.11042333, -0.15717959, -0.1922864, -0.2419606, -0.44759557, -0.065962337, 0.036860637, 0.022557151, -0.014824804, -0.028212089, -0.00054929085, 0.072660476, -0.28779116, -0.34081128, -0.052840408, -0.25877243, 0.025985939, -0.065073982, -0.010909453, -0.27758053, 0.0050692637, -0.10137232, -0.068208247, -0.012523757, -0.064882427, -0.045988627, -0.00083728466, -0.53728962, -0.12494383, -0.03024359, 0.037083909, -0.03157682, -0.0090740519, -0.055724956, -0.091738909, 0.020334918, -0.30655193, -0.07172735, 0.021631472, -0.0041542808, 0.024131658, 0.0021105132, -0.15249431, -0.32616526, -0.051662385, -0.02933076, 0.052512668, 0.070618249, 0.01649485, -0.088708289, -0.13894236, -0.14304607, -0.01801125, -0.024245901, -0.17508741, -0.85189927, -0.087681696, -0.059950955, 0.1984107, -0.58645922, 0.067551985, -0.1257851, -0.032295149, -0.097865619, -0.12054968, -0.016493555, 0.0832344, -0.052616771, -0.50570869, -0.20032598, 0.0004629411, -0.0051548984, -0.0043173204, -0.035691604, -0.19053142, -0.14952271, 0.019569917, -0.055443998, -0.18956532, -0.10652819, 0.032326665, -0.20595314, 0.054341272, 0.063653909, -0.057428718, -0.096650913, -0.062327832, -0.68175244, -0.034700375, -0.061265524, -0.10499792, -0.17293593, -0.10009408, -0.11370566, -0.061339866, -0.10304567, -0.14818963, 0.080604568, 0.11659087, -0.16390748, -0.38781974, -0.084513247, 0.0080837086, 0.013913334, 0.043594651, -0.047774158, -0.0031134498, -0.099380016, -0.074085973, -0.071077541, -0.010423793, 0.02317206, 0.0028247249, 0.048493989]}, {"sx": 3, "sy": 3, "depth": 32, "w": [-0.16438027, -0.024805546, -0.026691146, 0.045033388, -0.050136473, -0.013256768, -0.074735396, -0.015386702, -0.092704289, -0.11375974, -0.020184807, 0.038520999, -0.15360285, -0.14171924, -0.25306723, -0.36859331, -0.22652285, -0.033113547, -0.052097976, -0.24162044, -0.029057354, 0.094875231, 0.01157521, -0.31349576, -0.024422448, -0.25291136, 0.021558501, -0.1429009, -0.051686388, -0.057769779, -0.012305474, -0.072293997, 0.015461286, 0.02902001, 0.06405358, -0.14443089, -0.074638844, 0.04162911, 0.019087505, -0.013042979, -0.33056235, -0.14257261, 0.087546714, 0.039760821, -0.31483945, -0.15046038, -0.0099965818, -0.21740866, 0.017306594, 0.10363395, 0.027808953, -0.22504982, -0.059456546, 0.036093373, 0.059689526, -0.037354123, -0.14448828, -0.12324224, -0.14398305, -0.31318691, 0.011894662, -0.032829162, -0.011458354, 0.047805652, 0.015683018, -0.0092307227, 0.11529696, -0.11256034, 0.036526352, 0.028878212, 0.027386369, 0.031748749, -0.01447952, -0.27037817, -0.12412247, -0.017940776, -0.02308421, 0.050354641, -0.077872805, 0.070303172, -0.15696163, -0.014856636, -0.15188701, -0.23285253, -0.016271226, 0.0029950491, 0.01781708, 0.055769607, -0.024268772, 0.043942597, 0.023442846, -0.098222084, 0.0045166626, 0.10548121, 0.037656896, -0.0056085475, -0.76569736, -0.030504353, -0.18528533, -0.078915671, -0.26729146, -0.37119487, -0.084310815, -0.0094136633, -0.25369528, -0.252462, 0.013914486, -0.13133188, -0.40066648, -0.39700657, 0.09672723, -0.64443356, 0.024816774, -0.15498585, -0.2133299, -0.0034355926, -0.052548435, 0.028764741, -0.0089566922, -1.1194823, -0.050013836, -0.25390178, 0.029880151, 0.011342484, -0.065793619, -0.079487972, 0.033676673, -0.076318115, -0.79157758, 0.01864027, -0.13744128, 0.04855087, -0.080660433, -0.023063006, -0.028613901, 0.0040306998, -0.2209831, -0.014007542, -0.069552481, 0.0081935208, 0.04524051, -0.31811199, 0.044384398, -0.31181538, -0.22644107, -0.17742352, 0.0037061016, -0.027032472, -0.053369112, -0.016521424, -0.00094399706, -0.43531713, 0.010823669, -0.18300158, -0.23187611, -0.088084236, -0.026580878, -0.065037198, 0.024288595, -0.13121665, -0.006306536, -0.01690595, -0.030156074, -0.34169269, -0.058669664, -0.033255398, -0.088893868, 0.013767929, -0.075838268, -0.14678383, 0.055049185, 0.022192404, -0.13695242, -0.36675876, -0.037143018, -0.27165797, -0.047719546, -0.215314, -0.17999695, -0.17579448, -0.019568507, 0.034032598, -0.0070062215, 0.026645577, 0.075810529, 0.031337559, 0.036495924, -0.15569705, -0.0042697499, 0.0064685, 0.033106942, 0.034530647, -0.085493878, -0.015682468, 0.003542529, 0.00187328, -0.31390131, 0.03707917, 0.11399692, 0.0091839004, -0.20689927, -0.12400769, -0.12597257, 0.0044174329, -0.17161876, -0.27025202, -0.34104079, 0.015915902, -0.089963637, -0.37284216, -0.23313545, 0.07800512, -0.013325755, 0.015942678, -0.014983942, -0.33293402, -0.039505851, -0.14110783, 0.14775018, 0.053836908, 0.1036243, -0.066263922, 0.0033374955, -0.0054730643, -0.98113817, 0.0092579676, -0.15983212, 0.077877849, -0.26630056, -0.37647191, -0.022301733, -0.0070796674, -0.23185514, 0.097486712, 0.004784991, -0.048975989, -0.41934684, -0.2224724, -0.11600782, -0.26167709, -0.06461779, -0.10069815, -0.064091094, -0.061664466, -0.052736338, 0.0030895681, 0.0090751816, -0.81271523, 0.013364003, -0.31962559, -0.32445523, -0.0033939374, -0.0099683134, -0.083284996, 0.0036336528, -0.097449467, -0.16160169, 0.027906165, 0.021116512, -0.15028447, -0.10635355, -0.041553427, 0.02606261, 0.023017989, 0.10434256, 0.1118545, -0.163387, 0.033096422, -0.14057131, -0.057974257, -0.28979319, -0.057615273, -0.22697397, -0.072154067, 0.071179584, -0.070817925, -0.036177177, 0.071972355, 0.029830994, -0.034869321, -0.14150184, -0.049637537, -0.11419669, -0.025694339, -0.0038410649, -0.0040800846, 0.0087323962, -0.058117092]}, {"sx": 3, "sy": 3, "depth": 32, "w": [0.07068827, -0.07738211, 0.014352459, -0.048606478, 0.11871113, -0.0058072209, -0.013664754, -0.0061915861, -0.1320336, 0.27707505, -0.11146659, 0.1167661, -0.080359854, 0.094167635, 0.030240893, -0.23188953, -0.38395143, -0.14289647, -0.16672547, -0.14497784, -0.070873939, -0.051192783, 0.017332071, 0.064684242, 0.13422677, -0.04828579, -0.034997389, -0.032859541, -0.022687417, 0.021013729, -0.041593626, -0.0084113255, -0.01800292, -0.045911208, 0.19652775, 0.019307097, 0.057912849, -0.019661097, -0.0060475208, -2.8102955e-05, -0.028324563, 0.14946499, -0.14562942, 0.020161875, 0.028834542, 0.023949303, -0.10239933, -0.22262709, -0.045711394, -0.12838019, -0.46812102, -0.1348967, 0.013871036, -0.32663503, -0.00070022541, 0.090628736, -0.0035992311, -0.072531916, -0.18071187, -0.18031548, 0.026982922, 0.028265495, -0.32438123, -0.0029036209, 0.0061917962, 0.07719323, -0.0018570803, 0.13314731, -0.039811675, -0.05966064, 0.086016521, 0.040085733, -0.021061294, -0.042482309, 0.031952891, -0.43367693, -0.04673098, 0.011311449, -0.13566729, -0.031639077, 0.0066573578, -0.12383919, -0.35785806, 0.13229437, 0.026384747, -0.054395922, -0.10284104, -0.045520563, -0.083264522, -0.11163869, -0.079065651, -0.058667086, 0.045137871, -0.0053040194, 0.078403339, 0.11425131, -0.0739149, -0.027775554, -0.0075583193, -0.11428138, -0.53089726, -0.0048959092, -0.020583201, 0.0015080186, -0.072085455, -0.051836964, -0.055962615, 0.0031844142, -0.051020678, -0.27306589, -0.022270361, -0.1922788, -0.010279684, -0.11711875, -0.19471841, 0.050431095, -0.10351222, 0.11644184, 0.057288598, -0.13449557, 0.1742792, -0.19973502, 0.04439339, -0.29172376, -0.049044862, -0.059657797, 0.0555881, -0.10685436, 0.032818757, -0.20224515, 0.19391829, -0.17196152, -0.045106113, -0.013406326, -0.10762848, -0.0085229836, -0.24477629, 0.24229838, 0.028478965, 0.082795545, -0.053939983, 0.061312437, -0.15737449, -0.21195081, -0.17505209, 0.094424859, -0.28379688, -0.10155319, -0.067186192, 0.0050433469, 0.02727896, 0.0042985994, -0.098901652, -0.088023581, -0.1039687, -0.12356735, -0.070247702, 0.02037215, -0.15569597, 0.065817595, 0.085918546, -0.081565641, 0.033468414, -0.10687666, -0.017665619, -0.0083370656, -0.0076895738, 0.029807677, -0.11850826, 0.043786503, -0.084913895, -0.033518083, -0.029374041, 0.13390431, -0.26068255, -0.032001004, 0.10238407, 0.021935262, -0.28926593, -0.25270405, 0.0080265459, -0.11163065, -0.2537148, 0.059913583, -0.13802713, -0.17836119, 0.001492589, 0.072996669, 0.083683573, 0.085755937, -0.37230307, -0.2067423, -0.20173569, -0.073607899, -0.006932674, -0.012681726, 0.070094399, -0.092898548, -0.020015404, 0.016671987, -0.38077262, 0.2129166, -0.0019716518, -0.20742734, -0.046829019, -0.13097875, -0.07740248, -0.22960714, -0.087599635, 0.085215606, -0.039988138, -0.086539529, 0.036618777, 0.040255617, 0.0095689464, -0.31957424, 0.1239147, -0.24091282, 0.021407694, -0.08718814, 0.045813203, -0.1476988, 0.00079434586, -0.14351931, -0.13724281, 0.055242892, 0.0097404588, 0.0097944634, -0.0041955267, -0.3774702, 0.017501565, -0.0029272109, -0.36335564, 0.061477996, -0.04495224, -0.0026683768, -0.12886418, -0.14603105, -0.23215196, 0.06294743, -0.082825303, -0.25220397, -0.067809671, 0.048551947, -0.078095309, 0.030861843, 0.068152562, -0.09465389, -0.01058189, -0.42554396, 0.2191757, -0.29453975, -0.222993, -0.087022349, 0.010512592, -0.12371042, 0.020382507, -0.17311673, 0.0063676327, 0.026968963, -0.0021321068, -0.027844111, -0.26676929, -0.021276679, -0.43202427, 0.031261023, -0.10460557, 0.080705158, -0.078888088, 0.11252466, -0.21589163, -0.12224323, -0.29568529, -0.0015739434, 0.11552146, -0.15700324, -0.0088873468, -0.021307971, 0.015107076, 0.071129948, -0.26308697, -0.052413225, 0.26911196, -0.23335999, -0.12259065, 0.033829208, -0.021233639, 0.022758264]}, {"sx": 3, "sy": 3, "depth": 32, "w": [0.093485184, -0.082426146, -0.00082934991, 0.032224171, 0.021710541, 1.4746301e-05, -0.10418885, -0.029076539, -0.0037574184, -0.47615048, -0.30108595, 0.012588427, -0.024186941, -0.044119284, 0.012381108, -0.028334735, -0.029894972, -0.090616219, -0.14347351, -0.069957435, 0.0091732424, -0.87576807, -0.043335453, 0.027788669, -0.0078044785, -0.10509565, -0.14239545, -0.031966586, 0.0055987309, 0.02477639, -0.19863811, 0.086430147, -0.038316723, -0.15480883, 0.021856172, 0.046748415, 0.013036901, -0.0035787045, 0.072274841, -0.011759294, -0.23131248, -0.35152397, 0.0075060618, -0.22418253, -0.00026156014, -0.03331323, -0.073866047, 0.088144094, 0.07292591, -0.1886287, -0.12996449, -0.085788079, -0.001656957, -0.05174014, -0.13573729, 0.0268909, -0.022050451, -0.11506968, -0.05978784, -0.26464951, 0.049546055, -0.037513737, -0.032226969, -0.011804151, -0.041221455, 0.011810812, 0.02515091, 0.12247653, 0.056559689, 0.036233719, 0.039513994, -0.0058940258, -0.0070624538, -0.37866831, -0.018759824, 0.062046833, -0.026186023, 0.052937012, -0.079147294, 0.16851404, 0.046211269, -0.073426768, -0.2734606, 0.047654502, -0.036868975, 0.054102145, 0.013588219, -0.065874696, -0.1579556, -0.10024592, 0.13689338, -0.048097443, 0.01906593, 0.037228946, 0.073276952, 0.044126719, -0.01955742, -0.020307288, -0.096311904, -0.069133565, 0.03543967, -0.0018344237, -0.092137739, -0.026175218, 0.0045518768, -0.32113239, -0.14366715, 0.03337647, -0.019781832, -0.19054535, -0.089910395, -0.11461644, 0.057593826, -0.075411662, -0.27106994, -0.036827855, 0.0038447317, -0.61845243, -0.045446381, -0.026632681, -0.090742283, -0.1379689, 0.1660606, 0.18333162, -0.036342457, 0.010269389, -0.56656182, -0.079021171, 0.018254679, -0.50853062, -0.0041326871, -0.14698505, 0.024303351, 0.044206031, 0.034177836, -0.0011840594, -0.35417545, -0.36886537, -0.17233998, -0.23697272, -0.013335438, -0.048348058, 0.035380617, -0.062771119, -0.013834506, -0.32691261, -0.22102244, -0.12124912, 0.0062287711, -0.79230934, -0.32318845, -0.0014648127, -0.071350798, 0.05450755, -0.0098093441, 0.054823231, -0.016806401, 0.016596617, -0.19996975, -0.09720058, -0.011860322, 0.0016426714, -0.012769223, 0.0085910717, 0.028518306, 0.04858784, -0.056786492, -0.015609645, -0.035485342, -0.27426165, 0.046014156, -0.13619043, -0.035798158, -0.072920531, -0.072843738, 0.077243917, 0.031368528, -0.27443117, -0.0544682, -0.063897356, -0.0066032968, 0.082232744, -0.14337115, -0.0318988, -0.036155034, -0.11301844, 0.18640737, -0.14115524, 0.045688577, -0.016233234, 0.035553005, -0.081496365, 0.026874658, 0.033000957, 0.040879223, 0.1024593, -0.11183359, 0.037697237, -0.087886393, -0.0032957473, -0.071211442, -0.33967265, -0.34424147, 0.016061377, 0.017571203, -0.076917462, -0.28140619, -0.18359965, -0.12165285, -0.1090868, -0.13079932, -0.23550269, 0.0053816554, -0.10693798, 0.0020958695, 0.063510202, -0.11228127, -0.2155256, -0.045342688, 0.1185213, -0.045683015, 0.0033573636, -0.10256217, -0.0033479887, 0.088141471, -0.32220638, -0.068148606, -0.01403405, 0.0050910148, 0.012178217, -0.11645079, -0.029159917, -0.081669196, -0.091280349, -0.14577188, -0.024658056, -0.019357745, -0.0015780814, -0.064820625, 0.031791877, -0.15053074, -0.18114819, -0.11083898, -0.0096372049, 0.017380621, -0.69291472, -0.10144697, 0.045135655, -0.053744324, -0.0068777208, -0.18615243, -0.22092654, -0.01263997, -0.014993858, -0.3056331, -0.0080257347, 3.7354308e-05, -0.10415396, -0.0068661147, -0.23042855, 0.0032761786, 0.035328563, -0.13654479, -0.016267521, -0.1330393, -0.40014318, 0.060212325, -0.053497523, 0.025782488, 0.018232394, 0.0095779747, 0.1138841, -0.024054902, -0.10307766, 0.071120396, 0.079748236, -0.022292877, -0.029789586, -0.3063457, -0.0054348311, 0.065146767, 0.078280069, -0.035127047, 0.064759269, 0.030881947, -0.0081097847, -0.093634091, -0.058970544]}, {"sx": 3, "sy": 3, "depth": 32, "w": [-0.4216032, -0.066730782, 0.14683717, -0.018675577, 0.10577383, -0.14412311, -0.056073517, -0.13916275, 0.0296969, 0.038406644, -0.096427403, -0.10552541, -0.09531001, -0.17273314, 0.13382019, -0.054846689, -0.15601069, -0.14162642, 0.1845015, 0.038435191, -0.34734553, -0.051140923, -0.076332927, -0.21705434, -0.14032504, 0.12520304, 0.1218474, -0.15367943, -0.24666037, -0.32045847, 0.066829972, -0.13379355, -0.26650977, 0.011921499, -0.11140578, -0.13608865, -0.21641828, -0.072808266, -0.093400516, -0.15579505, 0.026936514, 0.05078952, -0.073258966, -0.0032874814, 0.050243411, -0.15203156, -0.19174515, -0.052448131, 0.12914312, 0.056899536, -0.15558097, -0.2353916, -0.18291782, -0.18710439, -0.12953968, -0.32646257, -0.25789285, -0.081796728, -0.065213189, -0.26732233, -0.26302338, -0.23066086, -0.20585822, -0.16344191, -0.27496645, -0.44666353, -0.2911084, 0.099023037, -0.20830655, -0.28847173, -0.22178544, -0.14979456, -0.039313614, 0.035763431, -0.33086616, -0.19299123, -0.038798355, 0.076236762, -0.072268181, -0.058174413, -0.17458543, 0.000287923, 0.13629852, -0.034113269, -0.19138551, -0.29895958, -0.28291878, -0.27640805, 0.067765832, 0.15882505, 0.02629132, -0.38851044, -0.47362649, -0.46083403, -0.29896501, -0.32300806, 0.0010109069, 0.036814645, 0.031509042, 0.033139788, 0.10374893, 0.057950933, -0.11250321, 0.012917564, 0.0018517697, -0.0015737331, 0.15724057, 0.037152436, -0.10354643, -0.099177979, 0.012988884, -0.17661045, -0.062628046, -0.047757275, 0.090186693, -0.083694123, -0.38432458, -0.074139632, -0.17305653, -0.083032958, 0.089478128, 0.1172922, -0.24248934, 0.079874195, -0.069625467, -0.0050678565, -0.20468263, -0.20670196, -0.0043851603, -0.11428545, -0.19408315, -0.15717651, 0.19232845, 0.0034715589, -0.099304497, 0.097078726, 0.13083324, 0.18830703, 0.014801237, -0.10110527, -0.36896208, 0.14718305, -0.042493854, -0.15637393, 0.05274209, 0.014271649, -0.088782489, 0.053894356, 0.013900009, -0.14074406, -0.16504966, 0.010538273, -0.0088701881, 0.031478707, 0.057367038, -0.12954038, -0.010365658, -0.043594755, -0.23077166, -0.19764943, 0.040330142, -0.091193467, 0.13958456, 0.042955369, 0.10691886, 0.011771375, 0.065568864, 0.049154274, -0.074344918, -0.029304747, -0.0081694964, 0.17129813, 0.14450641, 0.16957356, 0.097442873, -0.22707292, 0.039004497, 0.074855134, 0.019489186, 0.00014628268, -0.25894576, -0.07181678, -0.26028928, -0.006932125, 0.22112083, 0.21921925, 0.14252393, 0.090269022, 0.038341906, 0.0037073707, -0.34859741, -0.15051386, -0.16175838, -0.028161166, 0.14694543, -0.16070764, 0.11709404, -0.049724296, -0.1041197, -0.036435351, -0.10138606, -0.038487874, 0.0091056377, 0.18590523, -0.029129436, 0.053745788, 0.030542551, 0.01257888, 0.12795289, 0.23896663, 0.0086199222, -0.14497596, -0.11870073, -0.017279167, 0.16722903, -0.15159643, -0.057460714, 0.0072140275, -0.012444468, -0.11804375, -0.14317456, 0.046957482, -0.017363898, -0.11821358, -0.18445677, 0.056830741, 0.023756234, 0.15006474, -0.087400734, -0.041643169, -0.070720017, -0.021587469, -0.053384539, 0.18498835, -0.0086953519, 0.069785856, -0.011913546, 0.076658897, -0.081557661, 0.046827793, -0.063020661, 0.15926534, -0.23865423, 0.10486174, -0.072743915, 0.079643212, -0.0061504254, -0.048879527, -0.3306458, 0.072097413, 0.12398941, -0.10385023, -0.13380893, -0.2719188, 0.0054797544, 0.10355932, -0.0011707861, -0.019963918, 0.018447991, 0.19290397, -0.11599845, -0.069803745, -0.40253121, -0.054947052, -0.060735427, 0.11710276, 0.22837791, 0.18179873, 0.096917205, 0.037273046, 0.16715096, -0.0596205, -0.032295313, 0.11473998, 0.12906975, -0.15903918, 0.06079679, -0.10435522, 0.12415566, 0.075355522, -0.29542586, 0.10512621, 0.11122864, -0.08073844, -0.088204518, -0.075012974, -0.068568751, 0.031551614]}, {"sx": 3, "sy": 3, "depth": 32, "w": [0.0079487832, -0.52425766, -0.2023367, 0.097807311, -0.019580064, -0.6580658, 0.0014961255, 0.12140376, -0.20916614, 0.063689999, -0.10586548, -0.13269664, 0.012339061, -0.06759984, -0.29204985, -0.26260382, 0.040238682, -0.25758243, -0.1217722, -0.18134941, 0.057610821, 0.010446365, 0.072219647, -0.014508648, -0.20336536, -0.33607912, -0.18046823, -0.81803674, -0.058791872, -0.030379778, -0.016045071, 0.038691763, 0.020523109, -0.59222418, -0.46564582, -0.080356278, -0.063666753, -0.50112838, -0.002589613, -0.032540157, -0.284293, -0.110393, -0.017099882, -0.16403216, -0.18197306, -0.0085240826, -0.073383257, -0.48745027, -0.073864751, 0.021483324, -0.27135074, 0.066411816, 0.00039968512, -0.031167179, 0.00048747842, 0.036377303, -0.2196359, -0.67568755, -0.11502735, -0.85516286, -0.076549634, -0.047499649, -0.022092016, -0.12232561, 0.0093164667, -0.29555187, -0.30891123, -0.11986569, -0.24629952, -0.26866445, 0.094656281, 0.13776885, -0.23506248, -0.22019283, -0.0020264715, -0.060404323, -0.20987356, -0.12346694, -0.146387, 0.11088913, -0.16455866, 0.074030958, -0.28473511, -0.020828553, 0.022935538, -0.031431429, 0.015800651, 0.038261309, -0.08899121, -0.01981481, 0.18832713, -0.071352296, -0.051292926, -0.031713318, 0.0059673288, -0.23267506, -0.0049868342, -0.42684054, -0.27222973, -0.072433196, -0.18304601, -0.51972312, 0.0023295677, -0.0032356437, -0.13615562, -0.092540942, 0.069379136, -0.078693084, -0.13225216, -0.32079086, 0.021831771, -0.061877824, -0.081414081, -0.10768585, 0.090195768, 0.036226943, -0.017824132, 0.010185854, 0.0014237677, -0.018162528, 0.017034184, -0.41369951, 0.05081692, 0.00039142626, -0.084219456, -0.097511314, -0.0066881282, -0.11229204, -0.045178674, -0.38899082, -0.38353151, 0.089534208, -0.45398638, -0.51747578, 0.0068886504, 0.084266037, -0.22418426, 0.052459747, 0.021650987, -0.039194696, -0.34559712, -0.3354983, -0.087236986, 0.13885093, 0.064913645, -0.022554599, -0.11387945, 0.0025985164, 0.019501094, -0.0016227824, 0.0043823617, -0.020194339, -0.039740115, -0.18025067, 0.0036988114, 0.08848682, -0.080611058, -0.040628139, -0.021733012, -0.36986002, -0.07524021, -0.32252139, -0.30114174, -0.088660829, -0.34942096, -0.38455972, -0.12531637, 0.0084696645, -0.2565825, -0.0096075581, 0.010600149, -0.08784274, -0.36630136, -0.40986183, -0.12083789, 0.088522635, -0.050902434, -0.010448348, -0.06164724, -0.12030231, 0.011061292, -0.014217306, 0.018313874, -0.035989072, 0.077363461, -0.53512138, -0.054512445, -0.095908448, -0.02951459, -0.027898083, -0.016377378, -0.26114386, -0.021402294, -0.57941395, -0.27817175, 0.063879766, -0.56644982, -0.4261387, -0.086387485, -0.027952405, 0.063596427, 0.10562274, 0.018676305, -0.10122554, -0.16282164, -0.28184959, -0.13370898, -0.4140178, -0.37271053, 0.094308183, 0.26163003, -0.03777812, -0.021367364, -0.0032003867, -0.0033265343, -0.012719321, -0.080515534, -0.46509284, -0.055802885, -0.63178796, -0.069760226, -0.1321058, -0.026830137, -0.43951026, -0.080789588, -0.5763669, -0.51983416, 0.0057807309, -0.75515282, -0.46148139, -0.026980465, 0.052504435, -0.2589421, -0.080169208, -0.044851605, -0.13136466, -0.29528931, -0.56703252, -0.080049433, -0.33259255, -0.24277335, 0.12525964, 0.0035272136, 0.022904662, 0.020560747, -0.0078653758, 0.016554166, -0.045583066, -0.1027753, -0.06655778, -0.04047155, -0.6416586, -0.085333303, -0.097559288, -0.020993687, -0.60355425, -0.04653373, -0.65936095, 0.011549582, -0.083864234, -0.12006433, -0.31810963, -0.091714419, 0.023161422, -0.28192818, 0.048856664, -0.10271539, -0.18638133, -0.19864728, -0.40768972, -0.033470813, 0.085130349, -0.070515245, -0.13151222, 0.071304746, -0.10757276, 0.042493634, -0.029085902, 0.031393535, -0.01067297, 0.13797182, -0.46280098, -0.14704935, -0.41065705, -0.041155178, -0.064824462, -0.023378171, -0.47231227]}, {"sx": 3, "sy": 3, "depth": 32, "w": [-0.19533689, -0.048530646, 0.073908269, -0.021314139, -0.012382952, 0.033743329, 0.16226949, 0.00728872, -0.078859463, -0.14278062, 0.084218904, -0.092603184, -0.054844283, 0.058118429, -0.26967317, -0.059891112, -0.01280833, 0.1503157, -0.12833324, -0.0090828557, 0.013337181, 0.071985826, 0.012795927, -0.10210853, 0.0091431392, -0.056808699, -0.16397867, 0.0066634757, -0.07531292, -0.0068386653, 0.0041800635, -0.034901824, -0.26681796, -0.12758575, 0.15843239, -0.038997587, -0.093744121, -0.029827213, 0.03298381, -0.0013609702, 0.025574241, -0.039630894, 0.030868681, -0.027712917, -0.047717478, -0.099335887, -0.24456097, -0.13187113, -0.048439682, 0.17715599, -0.22384444, -0.052242607, 0.042208727, 0.060295727, 0.004028372, -0.19897534, 0.0093993526, 0.032263909, -0.3193278, -0.13699265, -0.15270594, -0.41640693, 0.03898184, -0.15650769, -0.079076357, -0.088414371, 0.081880324, -0.040954873, -0.035073902, 0.022356305, -0.21794531, -0.020858055, -0.19217448, -0.0015542811, -0.041766427, 0.088035733, -0.20937487, 0.12100455, -0.10563827, -0.068597831, 0.0056204656, 0.1072904, 0.082154252, -0.11494332, -0.00095750846, 0.048158716, 0.031541169, -0.046091523, -0.054235376, -0.058912516, -0.14639553, 0.015335633, -0.14815971, -0.32784218, -0.0061205151, -0.0041180234, 0.03323853, -0.098254777, -0.16093141, 0.039616, 0.028692486, 0.0014100005, -0.055855639, -0.012881374, -0.0014201079, -0.2972931, -0.13712846, 0.077184416, -0.018676601, 0.020502944, -0.13333097, -0.16805975, -0.027841832, -0.15114437, -0.36759436, -0.11595348, 0.015532728, -0.14346497, 0.028982952, 0.022393942, 0.0088850008, 0.050661255, -0.15375675, -0.037915654, 0.054475367, 0.053948898, -0.016756302, 0.013069737, -0.029002531, -0.082799576, -0.18889084, -0.019096753, -0.054098893, -0.11071585, -0.092512161, 0.026037592, -0.27083778, -0.29683682, -0.49985254, 0.027616456, -0.1573208, 0.039850157, -0.28842664, -0.22941537, -0.032687329, 0.092406087, -0.060602125, 0.11527772, -0.070625767, -0.36723822, 0.1058258, 0.089348078, -0.15789668, -0.13448106, -0.14410537, -0.18572554, -0.092007384, 0.0010895799, -0.12620381, -0.057598505, -0.010906692, -0.063950144, 0.090243556, 0.041018248, -0.011192513, -0.25971514, 0.021352891, -0.021500701, -0.031295963, -0.0068178107, -0.014097905, -0.14591582, -0.30818433, -0.0056498265, -0.18014106, -0.051446959, 0.043818999, -0.11449303, -0.11109536, 0.19385248, -0.045208987, -0.030485727, 0.024692655, 0.036005698, -0.20132463, -0.1250627, -0.37748295, -0.32046932, -0.033511698, 0.0699284, -0.013240365, -0.0031564741, 0.032754049, -0.049108122, 0.038635839, 0.26346737, -0.57190663, -0.01410528, -0.067180887, 0.017447511, 0.0015807857, -0.17864484, -0.11231209, -0.056457579, -0.013180497, 0.0095101437, -0.14606792, -0.25994164, -0.16271986, -0.20084682, -0.45633528, -0.25722286, -0.13446918, -0.067171939, 0.018027306, 0.043941494, 0.011012811, -0.090252966, -0.2492128, 0.039503142, 0.012547051, -5.1711562e-05, -0.27844974, 0.10350656, 0.070190623, -0.055856105, -0.012349056, -0.13852517, -0.072809711, -0.014508914, -0.010484682, -0.001684195, -0.048483722, 0.068855822, -0.093251929, -0.017707651, -0.24408607, -0.22268654, -0.18411906, -0.2192077, 0.15452547, -0.19973642, -0.07672637, -0.05572018, -0.13227211, -0.11770803, -0.44070137, -0.00011299819, -0.16059485, -0.45343986, 0.13167794, 0.19771364, 0.013611587, 0.041923922, -0.30939695, 0.063548781, 0.038243856, -0.080376789, -0.0065492475, -0.043845341, 0.071527503, -0.010695638, -0.027155872, 0.045817077, -0.034206007, 0.10980062, 0.11544833, -0.0043140789, -0.058432084, -0.12364715, -0.32767442, -0.1608704, -0.094990589, -0.21151863, -0.17349416, -0.048408281, -0.039494619, -0.034867708, -0.79401529, -0.021821856, -0.12529337, -0.23444627, -0.17695677, -0.1893632, 0.095355146, 0.032433864, -0.034972716, -0.17545593]}, {"sx": 3, "sy": 3, "depth": 32, "w": [-0.083659574, -0.14578559, 0.090167053, 0.086670667, -0.0061472962, -0.11269901, 0.053368498, -0.016099684, -0.22228935, 0.10523769, -0.0084577184, -0.073145129, -0.05297206, -0.0078829508, -0.085164808, -0.042725384, -0.037894927, -0.0077956067, -0.040238846, 0.042210359, 0.035346989, -0.027661327, -0.007647024, -0.0067276168, -0.28327626, -0.074665897, -0.12597631, -0.29710144, -0.035191372, 0.063121557, -0.0061706407, -0.0070743677, 0.12722175, -0.032263782, -0.090123981, -0.019982696, -0.067190669, -0.17652805, 0.055408988, 0.029132633, -0.086747982, -0.04676795, 0.00027835026, 0.072955191, -0.204853, 0.06306041, -0.005485924, 0.049171213, -0.11849871, -0.22039182, -0.041188456, -0.15658425, -0.047302019, -0.00063678896, -0.035708908, -0.19172701, -0.24160074, 0.16503935, -0.079595126, 0.075636491, 0.11049836, -0.19462684, 0.046741284, -0.17371979, -0.11352614, -0.0095575908, -0.018617753, -0.062688716, 0.069752336, -0.096549168, -0.13282079, -0.037252489, -0.15647852, -0.13738775, -0.059352294, -0.00056547375, -0.51679397, -0.15727784, -0.00081315776, -0.16375872, 0.057071995, -0.15747327, -0.0528646, -0.13442092, -0.13858299, 0.048506238, 0.048170425, 0.0912733, -0.26218501, 0.080033079, -0.052961506, 0.078203164, -0.14878538, 0.062336564, -0.016558193, -0.097845636, 0.00056365319, 0.0040362664, -0.1856716, 0.0043501398, 0.13974102, -0.1094401, -0.15489292, -0.027040938, -0.14964874, 0.14995158, -0.14152031, 0.1141016, -0.057118118, -0.017920349, 0.065481707, -0.11914379, -0.00076731696, -0.28223395, -0.02089317, -0.034344412, 0.066827372, -0.10841402, 0.0022447547, 0.10971024, 0.07606297, 0.03241856, -0.11073904, -0.01843749, -0.095986627, -0.0096318787, 0.0050002611, -0.0024674982, 0.04724979, -0.026700662, -0.3235217, -0.29409054, -0.33537543, -0.10584755, -0.006541647, 0.014206927, -0.24201638, -0.14574461, -0.020171138, -0.38755503, -0.037860937, 0.029451177, -0.18311684, -0.25611895, -0.26718193, -0.20155038, -0.056125846, -0.1939901, -0.098842762, -0.026925465, -0.037270483, -0.49416271, -0.03222483, -0.026559951, -0.42810169, -0.13490827, 0.093759276, -0.20979582, -0.0064958916, -0.16461784, -0.22557911, -0.036293909, -0.18094455, 0.070248723, -0.044577111, -0.27456582, -0.099456996, -0.023201305, -0.25285953, 0.017220223, 0.032413688, -0.038354643, -0.22879674, -0.52049381, -0.018496171, -0.21491423, -0.073810868, -0.27294064, -0.091666386, 0.041464027, -0.17307648, 0.034146413, 0.052027188, 0.059323963, -0.062033989, -0.11960135, -0.11615621, -0.13716264, -0.043599676, 0.02149599, -0.044161912, 0.15433876, 0.085932344, 0.043428674, -0.13830356, -0.1836942, -0.15366225, -0.11877286, -0.084652528, 0.00097246532, -0.020933799, -0.022507174, -0.1748013, 0.068111867, -0.016824137, -0.15586641, -0.00028352207, -0.18194506, -0.0046128142, -0.16774243, -0.076525629, 0.23852488, 0.023493709, -0.13133468, 0.014458168, 0.132322, 0.005439037, 0.0035112235, -0.43893409, 0.001374112, -0.1620114, -0.07292366, -0.019489463, -0.091307387, -0.071746379, -0.04844068, 0.010902951, -0.17304622, -0.21030788, -0.089319535, -0.28425252, -0.075307935, -0.060863227, -0.018325748, 0.096964106, -0.55284375, -0.22738171, -0.19343685, 0.069231175, -0.09532328, 0.011628252, -0.41290644, 0.23784271, -0.38994837, 0.089181989, 0.066125736, -0.045527928, -0.45284057, -0.005628115, 0.064943045, -0.32323334, -0.040137839, -0.016762437, 0.012618334, -0.048233341, 0.087763041, -0.13767095, 0.027333226, 0.041404638, -0.22548537, -0.23314457, -0.22732252, 0.048355389, 0.079589061, -0.09156657, 0.010469286, -0.097518191, 0.036640503, -0.036728345, -0.4162004, 0.022164678, -0.089435592, 0.10150757, -0.35672104, -0.073995136, 0.092768326, -0.16260779, 0.018739901, -0.08773952, 0.062826775, -0.15705095, -0.083822511, -0.26906952, -0.039703377, 0.023981351, 0.036744051, 0.025955817, -0.13340151]}, {"sx": 3, "sy": 3, "depth": 32, "w": [-0.022607848, -0.024268579, -0.3582789, -0.14000714, 0.015620287, -0.026122162, 0.0077307764, 0.038399369, -0.39207003, 0.0050277747, -0.24723302, -0.067900084, -0.013420373, -0.095509723, 0.080756307, 0.0060057747, -0.1695637, 0.084223583, 0.019078603, 0.091764711, 0.0090537444, -0.20699719, 0.019523652, 0.053631488, 0.17705753, 0.036718819, -0.1664492, -0.31476727, -0.19741452, -0.33446279, 0.022077376, -0.064719625, -0.01051205, -0.22124201, -0.6589362, -0.14162394, -0.049559634, -0.30312118, -0.33152467, -0.047885582, -0.3489376, -0.23925675, -0.21186784, -0.078563496, -0.015236704, -0.08526478, -0.1101901, -0.21946988, -0.26100251, 0.11126605, -0.2143402, -0.29341218, 0.054903917, -0.13008884, 0.065683939, 0.084933728, -0.14744267, -0.10768589, -0.05930344, -0.31620428, -0.07661286, -0.35576484, -0.031603631, -0.086926833, 0.021159058, -0.038889885, -0.0067899134, -0.027090171, -0.13405575, -0.15722857, -0.020312503, -0.022784244, -0.093374491, 0.072637007, 0.039685443, 0.035470985, 0.016953735, -0.055546995, -0.16717729, -0.29664627, -0.029154059, -0.18175437, -0.11245774, -0.10244755, -0.17516981, 0.016106691, 0.0031576511, -0.071083777, 0.044886008, -0.095612943, -0.1500316, -0.11905789, 0.013739463, 0.12759125, -0.025726251, 0.015795182, 0.01333525, -0.23566395, -0.20234723, -0.18467607, -0.14456423, -0.21289539, -0.21609578, -0.015226406, -0.51866043, -0.093032002, -0.34210175, -0.021899644, 0.0036342049, -0.096402057, -0.11786085, -0.13139181, -0.22501515, -0.13424578, -0.37616828, -0.17559823, 0.092486732, -0.27069578, 0.041506216, 0.028372785, -0.028838303, -0.027813656, 0.051598448, -0.24123241, -0.42177576, -0.35061827, 0.0052174143, -0.073448844, 0.030528683, -0.1623099, 0.036491133, 0.032481764, -0.28208113, -0.30686766, -0.037029423, -0.060871832, -0.038446095, -0.017219713, -0.036740351, 0.011110596, -0.012899776, -0.047273975, -0.36072549, -0.1701494, -0.39174566, -0.1638117, -0.047092836, -0.22839752, -0.050562486, 0.0066961218, 0.062616728, -0.021119809, -0.22039092, -0.095433801, -0.10626731, -0.42689997, -0.023022624, 0.0773369, -0.16918623, -0.012633706, -0.025842316, -0.0088052908, 0.050036747, -0.16453719, 0.087322004, -0.070927657, -0.076324441, 0.030572629, -0.0068532815, 0.18054472, 0.037526719, -0.12655219, -0.14423901, -0.010452442, -0.13999777, -0.12985192, 0.089454018, -0.26942495, -0.30524293, -0.18295401, -0.18590891, 0.04837558, -0.2020843, -0.09482152, 0.056925792, -0.043040857, 0.11917625, 0.025216352, 0.066964202, 0.054907795, 0.02358987, -0.030009378, 0.043989085, -0.094046764, -0.0048368005, 0.042982992, 0.055880409, 0.026441384, -0.15428196, -0.040966827, 0.073759712, -0.035251822, -0.15125261, -0.041793831, 0.035873372, -0.037948452, -0.27990216, -0.18379824, -0.43863434, 0.056306362, -0.15893511, -0.26662469, -0.0057409713, -0.13812697, 0.071171135, 0.018697679, -0.050926123, -0.23626359, -0.0167368, -0.46024159, -0.081379957, -0.059368387, -0.09774518, 0.026673939, -0.021114651, 0.0063435365, 0.019212507, -0.17494445, 0.16135938, -0.081068188, -0.014672238, -0.02666826, 0.010765483, -0.1838817, -0.010239633, -0.031746708, -0.067223825, -0.061295226, -0.20024823, -0.31759724, -0.24443752, -0.23007454, -0.42380044, -0.04691964, -0.00471817, 0.075503878, -0.076554708, -0.088226229, -0.15859412, -0.1103562, -0.23863496, -0.38856512, 0.01515504, 0.063336447, -0.18632396, 0.030183004, -0.019501025, 0.0010618233, 0.033939157, -0.10243866, 0.11918196, -0.063002601, -0.044883188, 0.05022477, -0.033280257, -0.093269378, -0.040333375, 0.067457743, -0.25776935, -0.17797503, -0.25748208, -0.10811928, -0.038606059, -0.33740306, -0.061389472, 0.03086292, -0.056993771, 0.020663794, -0.19025992, -0.092483304, -0.13237126, 0.027575344, 0.2129837, -0.061080508, 0.04679798, 0.041722011, 0.011325777, -0.014532145]}, {"sx": 3, "sy": 3, "depth": 32, "w": [-0.14970025, 0.034103155, -0.03364215, -0.077733286, -0.015237184, -0.2110088, -0.14301671, -0.017194776, -0.087721132, -0.5215382, 0.045809165, -0.025528129, -0.19781187, 0.031638514, -0.27734265, 0.015464695, 0.012078526, 0.017404333, -0.42483467, -0.017370671, 0.0077827135, 0.016076773, 0.024103196, -0.11307347, -0.00724163, -0.030344211, -0.075019918, 0.0013027255, -0.0589661, -0.073860861, 0.0038163508, -0.012611303, 0.029152675, 0.034477901, 0.069308266, 0.15042664, 0.078757033, -0.12589358, 0.038248286, 0.059933413, -0.28956068, -0.27664107, -0.0053871297, 0.060651977, 0.013112434, 0.0025222236, 0.0030810712, -0.042350385, 0.013324467, 0.02152285, -0.080930479, 0.024425557, 0.0054877759, 0.042387944, 0.0037652911, -0.011911612, 0.046477687, -0.10816111, 0.016575621, -0.055699382, 0.0005191291, -0.083420306, 0.01979506, 0.049526557, -0.01061331, 0.11664712, 0.14437783, -0.085968852, 0.07752002, 0.1294433, 0.090893343, 0.003335559, -0.023180921, -0.061362185, 0.0048543294, -0.022161754, -0.029618204, 0.018748406, -0.31872773, -0.016688876, 0.10684726, -0.043708518, 0.035324574, 0.0095384652, 0.10712629, 0.052673768, 0.07828813, 0.13174111, -0.041689374, 0.053613998, -0.0061012846, 0.09373153, 0.019020949, -0.085449919, 0.021431256, 0.076547079, -0.035500426, -0.15563479, -0.20732354, -0.076094463, -0.12802497, -0.43221506, 0.032085367, 0.013745231, -0.098208979, -0.58907169, -0.11617417, -0.10066342, -0.32986933, -0.022349931, 0.11424471, -0.14386274, -0.38979223, -0.017809862, -0.42785224, 0.090378396, -0.094283283, -0.064392939, -0.066439524, -0.011645585, -0.16458139, -0.18195039, 0.088856705, -0.087521017, -0.15132304, -0.038558617, -0.15317547, 0.020480366, -0.077392869, -0.11993506, 0.048310839, -0.01042601, 0.056432374, -0.13326398, -0.19302192, -0.00072320382, -0.38900211, -0.60072547, -0.032379564, 0.054214679, 0.066705547, -0.017533531, -0.081289068, -0.004446615, -0.1906153, -0.34474874, -0.5435878, -0.16922182, -0.053520314, -0.01697064, -0.066471212, -0.038048856, -0.077965759, -0.078726418, -0.20556416, -0.053868033, 0.094213463, -0.02963553, -0.082559511, -0.03528345, 0.01500748, 0.022071397, 0.039523944, -0.21417929, -0.00026417593, -0.11099862, -0.0018261768, 0.046073295, -0.26924708, -0.15699591, -0.050880522, 0.016375395, -0.020676592, 0.0093744062, -0.099064171, -0.067997485, 0.076472588, -0.10308424, -0.38978207, 0.019465731, -0.0095978398, -0.0068983538, -0.012231055, -0.023039473, -0.22293544, -0.064014912, -0.032368705, 0.066023253, -0.04602284, 0.05513119, 0.054631934, -0.02557236, -0.05534929, -0.055464149, -0.14438528, -0.073512383, -0.0079163928, -0.22921006, -0.079129338, -0.012133346, -0.047146674, -0.10470039, -0.065943673, -0.019404784, -0.18780991, -0.36208069, -0.4541015, -0.15228353, -0.055220906, 0.091149569, -0.3513951, -0.17006147, -0.092632741, -0.021069543, -0.088333465, -0.064753383, -0.097876154, 0.007039208, -0.35599086, -0.16124327, -0.1196397, -0.12153607, -0.042925127, -0.23311476, -0.059196871, -0.32443738, -0.046926141, -0.049757257, -0.031622965, -0.3395803, -0.23810537, -0.0037176874, -0.087309316, -0.78138411, -0.011445973, 0.045716785, -0.29060575, -0.05309156, -0.10489208, -0.11591006, -0.10161831, -0.20335808, -0.72909158, -0.21567313, -0.09109427, 0.014334477, -0.067788318, -0.10389061, -0.29426655, -0.070782773, -0.32486865, -0.10487004, -0.10249437, -0.15005261, -0.030719051, -0.19010644, -0.004818907, -0.014832214, 0.077783801, -0.13379128, 0.058491774, -0.082910195, -0.18958344, 0.005680358, -0.12917766, -0.47148839, -0.016233699, 0.075726382, -0.053138986, -0.0063508325, -0.14322004, -0.066957027, -0.18837161, -0.16233224, -0.58116335, -0.03538841, -0.023575161, 0.024388656, -0.0030365069, 0.011042722, 0.081524171, 0.058889095, -0.34928763, -0.021423049, -0.0040846253, -0.046697471, 0.012676097, 0.023792231]}, {"sx": 3, "sy": 3, "depth": 32, "w": [-0.01297209, -0.013700853, -0.036698796, -0.070227951, 0.045350477, 0.066993117, 0.0034171531, -0.0091986693, -0.011363829, 0.059504941, -0.26068196, -0.11912671, -0.028974477, 0.048661865, -0.012249703, 0.058265328, -0.12946333, -0.54778779, -0.47991553, 0.03217832, -0.015863853, -0.17191263, 0.013437842, -0.0011321355, -0.014434568, -0.0033094261, 0.022469129, -0.10357447, 0.03098025, 0.016689818, -0.019957284, -0.0016902228, 0.16469003, -0.033210993, 0.01417948, 0.092274562, 0.082250662, 0.02736658, -0.07284525, 0.0051460862, 0.00066275266, -0.2267691, -0.04252284, -0.1438334, -0.097849034, -0.0046329023, -0.11743415, 0.032068148, -0.15800604, -0.43363887, -0.59073782, 0.01562883, -0.038475063, -0.19529407, -0.01831026, 0.035734184, 0.051046155, 0.032438464, 0.099606432, 0.049113002, -0.014662798, 0.046091907, -0.052811984, 0.069867142, -0.0097974474, -0.014623623, -0.0042972495, 0.11586945, 0.025343204, 0.013525518, 0.056458544, -0.0016501172, 0.035333864, 0.0096556284, -0.0020676304, -0.01049079, -0.021281457, 0.042916454, -0.060438666, 0.084653698, -0.13725083, -0.53298515, -0.51145637, 0.077929251, -0.028638821, -0.028229509, 0.0056514237, 0.055641994, -0.055265822, -0.10857901, 0.039469101, -0.10491152, 0.039723728, -0.0059068636, -0.0088717155, 0.10438931, 0.058409177, 0.019750601, -0.0086128125, -0.040948156, -0.64895028, 0.018998835, -0.12256203, -0.0024841886, 0.0059548924, 0.21272518, 0.069013052, -0.029257467, -0.045056801, -0.048660517, -0.034879234, -0.34243527, 0.12896495, -0.15162452, -0.3083899, -0.05775607, -0.074591272, -0.03167947, -0.17403954, 0.001128977, -0.13261105, 0.022739878, -0.34760913, 0.080168582, 0.053451918, 0.037891354, -0.078603603, 0.056142494, -0.022885414, -0.052967023, 0.011150185, -0.061740935, -0.09089566, 0.010053285, -0.21988183, 0.0074944375, -0.0078316778, 0.026187507, 0.16483933, 0.0066901096, -0.079253182, -0.17653939, 0.026374677, -0.33596969, 0.059159182, -0.011551521, -0.32271218, 0.01281198, -0.075576894, -0.050642662, -0.56326538, 0.032810811, 0.062406719, -0.19102734, -0.12125552, 0.24167505, 0.012208953, -0.011951069, -0.018814098, -0.26448727, -0.011621935, -0.039820224, -0.004102136, -0.16074932, 0.024810199, -0.012731859, 0.045968741, 0.0021177426, 0.034441605, 0.096837536, -0.026706424, 0.037243992, -0.069364548, -0.0032959324, -0.075551592, -0.021067433, 0.11484945, -0.033623621, -0.32103381, -0.19021083, -0.042163759, -0.050045736, -0.41285747, 0.00541755, 0.066514999, 0.041705839, 0.065057181, -0.014036787, 0.0070834169, 0.072732657, -0.0046174503, -0.23386326, 0.0089626266, 0.0019686788, -0.019626347, 0.2575525, 0.03395924, 0.0038172284, -0.029277708, -0.014250447, -0.15947215, -0.26560983, -0.0090241954, -0.016607367, -0.081123531, -0.035325188, -0.33340698, -0.0061851116, 0.07518509, 0.043555249, -0.071132943, 0.26048526, -0.013884109, -0.017868582, -0.064431727, -0.0077571846, -0.069946669, 0.021320114, 0.055054624, 0.067797609, 0.0070241564, 0.0046865782, -0.036863394, -0.046034437, 0.022306472, -0.070191316, -0.018622562, -0.043964688, -0.064674392, 0.020478873, -0.12370773, 0.019872827, -0.065922894, -0.0054808068, 0.034019794, 0.029128846, 0.035887945, 0.13982649, -0.42156789, 0.14519234, 0.057685573, -0.049569219, 0.00093259878, 0.011337602, -0.016224751, -0.053471982, -0.040982328, 0.021879889, -0.24657834, -0.12575831, 0.17070979, 0.087137587, 0.025347007, -0.014433003, -0.088651612, -0.054470286, 0.016493829, -0.036468659, 0.025428211, -0.30650291, -0.058076639, 0.054874584, -0.20495059, -0.00099111209, 0.0025461947, 0.055487067, -0.093411855, -0.01485669, -0.034055799, -0.11049186, -0.36218345, -0.05326122, -0.16024506, -0.12014407, -0.15300006, -0.10324457, -0.030177377, -0.027257333, -0.046187583, -0.029676298, 0.10338172, -0.23049539, 0.19155936, 0.010687381, 0.024033917, 0.022993241, -0.019307088, 0.0098054316]}, {"sx": 3, "sy": 3, "depth": 32, "w": [-0.2162172, -0.14544411, 0.19881476, -0.29731917, -0.32811159, -0.0026448965, 0.15173887, -0.061617415, 0.23535697, 0.20538549, 0.084167361, 0.1472857, -0.03787265, -0.031602267, -0.32714367, -0.048150536, -0.19606735, -0.032199107, -0.016124632, -0.30348676, -0.12217072, 0.09481629, -0.15446691, -0.26062283, 0.014967561, -0.15249507, 0.023691107, -0.14934877, -0.028165795, -0.094829276, -0.084121034, 0.13987707, -0.10257231, -0.10569205, 0.066652022, -0.10584655, -0.24146102, 0.14074787, -0.24334721, -0.010782747, 0.087931067, 0.11234611, 0.11661792, 0.10663826, -0.14256325, -0.15182932, -0.2653752, -0.13154899, 0.1229782, 0.12511463, 0.17274375, -0.29686919, -0.13102862, -0.021783622, -0.33808455, -0.27196953, 0.15965572, 0.053617358, 0.29693234, -0.027518442, -0.061317913, -0.47190258, -0.14520319, 0.075962, 0.038316313, -0.10402448, 0.035048209, -0.087237969, 0.26764709, -0.025914282, -0.21294785, -0.031969815, 0.01481546, 0.52737385, -0.026281292, -0.018581558, -0.33189943, -0.36573604, -0.30339718, -0.2581811, 0.0046318634, 0.078940839, 0.081269488, -0.21396418, -0.11274376, -0.077561274, -0.33279672, -0.049318008, -0.0034807248, -0.27032077, 0.11170349, -0.11658556, -0.029800557, -0.30155975, -0.15496323, -0.17104632, -0.10758498, 0.07415206, 0.15156211, -0.076721661, 0.11177025, -0.057695638, -0.077342115, -0.15447344, 0.11274317, 0.18734518, 0.15626244, -0.095827512, -0.10609241, 0.11407281, -0.12705708, 0.018998723, 0.12745567, -0.013408829, 0.30958179, 0.061608445, 0.021228952, -0.15589333, -0.045717161, -0.052785084, 0.042831276, 0.096980579, -0.068205357, 0.11506046, -0.1956681, -0.25536552, 0.01893618, 0.049313698, -0.27169728, -0.071622036, 0.15326153, -0.0916816, 0.23485568, -0.14793247, -0.098858133, -0.20941412, -0.074123628, 0.24236852, 0.0080419686, -0.28237638, -0.12599127, 0.16675164, -0.12722632, 0.16427715, 0.093206853, -0.23991647, 0.32274655, 0.059269313, -0.090920165, -0.072424017, 0.068130232, -0.034897659, -0.20422223, 0.26302695, 0.09725178, -0.04884249, -0.1605722, -0.14533873, 0.039992683, 0.2119644, -0.18600114, -0.115798, 0.13692006, -0.32137391, -0.071194597, -0.10161383, -0.44604582, -0.39707866, 0.0067702965, 0.36228922, -0.20217714, 0.081619374, 0.13187923, 0.076629721, 0.10717712, 0.034395646, -0.13938639, -0.058451697, 0.20659871, -0.241172, -0.027142882, -0.20621261, 0.056443088, 0.027665341, 0.082765661, -0.20377703, -0.11322989, 0.023551043, -0.15890241, -0.012423772, -0.020895049, 0.012403597, -0.060736801, -0.098029882, 0.14132901, -0.43851095, -0.028872807, 0.061343327, -0.02903327, -0.16298851, -0.027415574, 0.39771861, -0.021291735, -0.069976404, 0.0032459393, -0.088556565, -0.030311329, -0.06291981, 0.027964782, 0.2575841, 0.23631114, -0.11937306, -0.089735933, -0.28613523, 0.02365854, -0.18943632, -0.039038237, -0.029217444, 0.10441872, -0.12871894, 0.0087671513, -0.23795275, -0.17856297, 0.14829172, 0.030429872, -0.35658312, -0.0072020586, -0.3806619, -0.016894149, 0.11717568, -0.14364924, -0.32830688, 0.016889865, 0.060158715, -0.097401991, -0.17841405, -0.11874068, -0.13411026, -0.08455351, -0.14893275, -0.049200531, 0.10824758, 0.079719946, 0.026790639, -0.2251533, -0.032079149, -0.42978343, -0.1485488, 0.00085490366, 0.040647965, 0.074587584, 0.030769864, -0.11962485, -0.030862955, -0.1039509, -0.062527217, -0.061188631, 0.0065893917, -0.057268839, 0.15821812, 0.17170586, 0.20628218, -0.12182295, -0.11888348, -8.337164e-05, 0.13456732, 0.09539967, -0.0090998085, -0.10741533, -0.020273907, 0.0011239507, 0.15490627, 0.046363045, -0.279578, -0.18397145, 0.020499205, -0.2298542, 0.021290915, -0.18672544, -0.15162893, -0.004975101, 0.033187449, -0.28825885, 0.13061149, 0.036577396, -0.060136825, -0.048348252, 0.074072048]}, {"sx": 3, "sy": 3, "depth": 32, "w": [0.012816487, 0.042055897, 0.068229146, -0.1382058, -0.029757768, -0.022805084, -0.11238004, -0.09033481, -0.045736857, -0.044350229, 0.013451793, -0.052369896, 0.030154277, 0.0078566121, -0.27512705, -0.044672869, -0.0091553684, -0.24392048, -0.032272991, -0.022644643, 0.0039643301, -0.021057697, -0.008615111, -0.075146347, 0.02636276, 0.0052231313, 0.076841101, 0.00090456184, -0.017792117, -0.21119787, -0.029137352, 0.043207493, -0.015278316, 0.018515497, 0.089475222, -0.25770718, 0.0060580699, -0.083642825, -0.43718114, -0.048569158, -0.024726821, 0.04519124, -0.049973115, -0.06197555, 0.091187686, 0.072404131, -0.22475593, 0.084572874, 0.024215499, -0.20516533, 0.14272501, 0.0052647898, -0.084128082, 0.015770655, 0.014748191, 0.023901742, -0.17061023, -0.0055996599, -0.049742647, 0.0037367363, 0.015178443, -0.04097474, -0.025666011, 0.024439538, 0.017604392, 0.002212351, 0.036168039, -0.25325495, 0.0053493544, -0.0097668916, -0.057554722, -0.041895453, 0.040042926, -0.36087763, -0.023427164, -0.020168254, -0.15203395, -0.020595269, -0.035876274, -0.17812483, 0.094461344, -0.18741801, -0.017705776, -0.011602957, -0.26763996, 0.031175194, -0.025632311, -0.016047344, -0.10448965, -0.020633332, -0.18141007, 0.054676406, 1.635602e-05, 0.094505675, -0.02010441, -0.0011287789, 0.022666709, 0.01624715, 0.016583785, -0.23563243, 0.038884491, 0.021433881, -0.061683491, -0.070801035, 0.061254192, 0.16363801, -0.019617911, 0.049843047, -0.022757635, 0.067200623, -0.063861348, 0.077325977, -0.016815545, -0.11676188, -0.023143666, -0.20535244, 0.0087682493, -0.07008753, 0.012998077, -0.010253775, 0.25070074, 0.018024551, 0.19082282, -0.087424204, 0.0015528916, -0.016529052, -0.0045446255, 0.025607007, -0.0046102991, -0.00017076115, 0.048166707, -0.18970186, 0.049960826, -0.022245236, -0.091895312, -0.0023985831, 0.050614458, -0.14982402, 0.12084271, -0.012151409, 0.047220226, 0.01295478, 0.0038592559, 0.07897839, -0.063172832, -0.078842185, -0.11326179, -0.0032300286, -0.13823386, 0.0013433025, -0.086033292, 0.043804079, 0.009899863, -0.033595175, -0.17838508, -0.043776389, 0.027812338, 0.0058403658, -0.067100145, 0.049494505, -0.011875011, 0.032765709, -0.031360272, -0.17217231, -0.13450797, 0.054338336, -0.06355162, 0.050163627, 0.072030134, -0.41235864, 0.00024088677, 0.023478547, -0.18751009, 0.023498479, -0.12351971, -0.19097483, 0.075615495, -0.11915661, -0.21820746, -0.12972131, -0.62859327, 0.00016397273, -0.15290576, -0.051965509, 0.03939417, -0.020559445, -0.23159608, -0.0082017835, 0.0052616745, -0.0072148442, -0.065012477, 0.044086598, 0.015083586, 0.019654382, 0.027983965, -0.29918733, -0.010678661, -0.0015394131, -0.12801556, -0.04555944, 0.046258673, -0.1079288, 0.088256732, 0.064205647, -0.022720689, 0.055812664, -0.038461972, -0.057057537, -0.098644957, -0.19088499, 0.016496412, -0.19172324, -0.02200065, 0.023568563, -0.11334587, -0.030162238, 0.075131662, 0.12042822, -0.017700845, 0.036307994, 0.037250228, 0.0038111939, -0.053738791, 0.06722381, -0.0089974739, 0.0032631233, 0.076301463, -0.16455324, -0.071600087, 0.026359728, -0.1334516, 0.013804945, 0.040608771, -0.11547391, 0.077659093, 0.0049694404, -0.17148606, 0.013898892, 0.047682982, -0.12454288, 0.0052721044, -0.21475348, -0.09416119, -0.10359526, -0.13398352, 0.02210987, -0.25445417, -0.03335309, 0.12458634, 0.085252881, -0.31546235, -0.10063758, 0.013770013, 0.020982677, -0.0055031516, 0.061125968, -0.02660599, 0.016504388, -0.013160853, -0.18776643, 0.006085509, -0.032997068, -0.0019608594, 0.010460493, 0.09336973, -0.14509359, 0.088272713, 0.023816807, -0.093928345, 0.071316458, 0.092013873, 0.0055477689, 0.15507601, 0.096969299, 0.096521556, 0.022546042, -0.093522511, -0.0064590815, -0.093118273, -0.021505062, -0.016694959, 0.2276179, 0.032148939, 0.11922728, -0.0082138795, -0.027365372, 0.0025293855, -0.0083057303]}, {"sx": 3, "sy": 3, "depth": 32, "w": [-0.015319754, 0.025165275, -0.14817239, 0.11987733, -0.41224217, 0.024663081, -0.046941169, 0.011870953, 0.14045712, 0.3458432, 0.010510904, -0.1229717, -0.064823762, -0.22016624, -0.18922073, 0.047668632, -0.010115681, 0.01851633, 0.13786818, -0.044944394, -0.065889709, -0.042015236, -0.070321605, -0.06593287, -0.10696836, 0.25769451, 0.057132334, -0.058339324, -0.045756411, -0.059077416, -0.28068656, -0.14502405, -0.0028313715, -0.049535863, -0.16539204, 0.0036331585, -0.54599196, -0.014400708, -0.18937738, -0.0011416156, -0.036494885, 0.37720212, -0.20595931, -0.23897715, -0.12920582, -0.21884532, -0.49665546, 0.1779307, -0.032778889, -0.16863811, 0.29140458, -0.0053412803, -0.080665573, -0.077037431, -0.11059835, -0.0951332, -0.096388713, -0.17603365, -0.14783071, -0.22324845, -0.034648426, -0.069271564, -0.54729581, -0.15017818, -0.029579679, -0.062362, -0.049638063, 0.10280778, 0.075215496, -0.050324909, -0.18303554, -0.0051088328, -0.013527581, 0.37226555, -0.05883275, -0.078730613, 0.036032092, -0.2901786, -0.15273918, 0.041050408, 0.030147588, -0.13164495, 0.16349895, -0.36140704, -0.023560297, -0.021034088, -0.029934097, -0.047590554, -0.14826369, -0.18458913, 0.28544581, -0.25047049, -0.024535298, -0.0086460738, -0.051118314, -0.033972636, 0.01494329, 0.026552282, -0.30559528, -0.065839708, -0.42408308, -0.094289422, -0.18558237, -0.0030902179, -0.089185409, 0.25956163, -0.20738956, -0.041014165, -0.15770048, -0.20806262, -0.36708915, 0.10877977, 0.12508179, 0.0051957695, 0.0070141037, -0.096819535, -0.10540336, -0.079966776, 0.0072012753, 0.051978134, 0.054997247, -0.24690017, 0.32126185, -0.055973798, 0.02653507, 0.10595766, -0.30409011, -0.022221597, 0.044284917, -0.065591894, -0.023986908, 0.0073655606, -0.29886454, -0.075170361, -0.092616729, 0.008013119, -0.10938119, 0.49371576, -0.3249563, -0.48722142, -0.20694487, -0.34484231, -0.13395764, -0.056869816, 0.044697776, -0.10188296, 0.14548689, 0.013189368, -0.068891235, -0.11312321, -0.13159624, 0.0388043, -0.30524683, -0.1061447, -0.064088725, -0.025184616, 0.02399426, -0.01840248, -0.37004858, -0.018973872, -0.031852767, -0.15883715, 0.0810901, -0.080153733, 0.039551858, -0.13548878, 0.10178308, 0.010171206, -0.10587472, 0.48912278, -0.039054159, -0.14502729, -0.088279627, 0.023561303, -0.44987708, -0.15289548, -0.032610074, -0.061067358, -0.11953047, -0.014690164, 0.015601069, 0.027164219, -0.070589833, -0.013931754, -0.26728094, -0.1408959, 0.084074646, -0.11545282, -0.00011541208, 0.021745799, 0.10611462, -0.091768578, -0.020531924, -0.031270802, 0.11372674, 0.021586159, -0.49132624, -0.18503733, 0.041186549, -0.0039476529, -0.16450258, 0.19031927, -0.02647832, 0.097689137, -0.038189203, -0.38891551, -0.16460381, -0.040518966, -0.0062605669, 0.0019075513, 0.1210303, 0.13947141, 0.040651131, 0.014267839, 0.01025088, -0.022784179, -0.084608518, 0.15563253, 0.26689667, -0.032834884, -0.05761826, 0.044193972, 0.030870682, 0.091592059, -0.068450801, -0.12237251, 0.17373802, 0.074485794, 0.13082626, -0.27320385, -0.067830756, 0.056371804, -0.10025572, 0.067636378, 0.06473878, 0.019500466, -0.031174092, -0.39757058, -0.29589608, -0.13453177, 0.0065603489, 0.036130086, 0.1863592, -0.050444342, 0.069749951, 0.10390484, -0.038868651, -0.099533729, -0.067885898, 0.12677614, -0.19269186, -0.019408761, 0.0067700003, -0.12090015, 0.067130506, 0.10707012, -0.040255621, 0.0016411379, 0.23327602, 0.25188717, 0.057778116, -0.14319277, -0.13959225, 0.041829266, -0.086001262, 0.23639694, 0.038354743, 0.080524191, 0.054837957, 0.023809381, 0.031119384, -0.18809721, -0.068071015, -0.28490111, 0.09309613, 0.00060203701, 0.029484041, 0.024586523, 0.041207068, 0.13537514, -0.011396657, 0.10748766, 0.15904556, -0.070828691, -0.072013974, 0.048442189, 0.027121615, 0.041754019]}, {"sx": 3, "sy": 3, "depth": 32, "w": [-0.02818534, 0.0052143494, 0.19133937, -0.29265809, 0.022968184, 0.034606833, -0.11549222, -0.12684515, -0.10256412, -0.38078985, -0.098510511, 0.034129009, -0.073086098, 0.00085957773, -0.074487455, 0.031072766, 0.22498691, -0.053737592, -0.026736099, 0.034615781, -0.040866304, -0.10947682, -0.039436962, -0.059781566, -0.096430652, -0.12951081, -0.017896224, 0.1126712, -0.02402034, 0.032328397, -0.019737341, -0.068091832, -0.11188632, 0.12788947, -0.0013528914, -0.34199899, 0.055077482, 0.12811363, -0.10270143, -0.24794553, -0.009355397, -0.20519201, -0.040292826, -0.0010113007, -0.104272, 0.053772949, -0.1411331, 0.061681949, 0.094809189, 0.019920757, 0.0090352353, -0.014619704, 0.0091265766, -0.084631592, 0.051351719, -0.10256249, -0.038756397, 0.0086695757, -0.20258625, -0.041584205, 0.0044318433, -0.062848285, -0.0029416038, 0.013057237, -0.065899104, -0.013494807, 0.0617477, -0.060514346, 0.035800919, -0.10148267, -0.073612489, -0.25421172, -0.12679483, -0.46789756, 0.040200677, 0.092135765, -0.076522738, 0.045673408, -0.39465857, 0.008152985, -0.058858737, -0.23150562, -0.24840169, 0.13614325, -0.055319581, -0.074177019, -0.012556925, 0.045375258, 0.10358783, -0.018607313, -0.092565753, 0.11423045, -0.021348629, -0.012839387, -0.00050982041, -0.033870697, -0.029665122, 0.050084718, 0.023471912, -0.38921815, 0.016568314, 0.0043934467, 0.12703924, -0.15943073, -0.0051140683, -0.43633783, -0.10456465, -0.10499261, -0.10717324, -0.030676182, 0.051352486, -0.12517968, -0.075338177, -0.48443261, -0.29250827, 0.10940468, -0.12236957, -0.24994029, 0.032877196, -0.028284639, 0.24353479, 0.082696021, 0.072683662, 0.16721739, -0.035745095, -0.0066886479, -0.016237596, -0.18406519, 0.014043788, -0.046019748, -0.059982765, -0.24914905, -0.18593401, -0.025859276, -0.16507696, -0.13169289, 0.05705468, -0.49138018, -0.24884541, -0.055927906, 0.055289522, -0.075505607, -0.057426572, -0.38039637, -0.16900621, 0.03142773, -0.146423, -0.30654484, -0.27909908, -0.17187785, 0.061658923, 0.038092926, -0.22274862, -0.019528374, -0.10547481, -0.11019452, 0.010567166, 0.034106601, -0.52431095, 0.072009459, 0.053997729, -0.030062793, -0.096683115, -0.11373799, 0.1869728, -0.00068473187, -0.071647771, -0.14832827, 0.029324677, -0.47550833, -0.15033703, -0.17330526, -0.21128209, -0.039318606, 0.11452043, -0.36828226, -0.14156573, -0.021639651, -0.18922095, -0.10356034, -0.20497, -0.18024996, -0.15126872, -0.00935918, 0.064365536, -0.11640044, 0.026193479, -0.21107544, 0.071851872, 0.0045331796, -0.3478151, -0.029448409, -0.02272906, 0.058813065, -0.15103427, -0.12308412, -0.10250123, 0.15555346, -0.099556014, -0.099221341, 0.098900706, -0.40962359, -0.15176262, 0.052692156, 0.07238353, -0.12056457, -0.017761838, -0.18557435, -0.28602391, -0.21319196, -0.19195533, -0.29067412, -0.16575482, -0.31619158, -0.07239268, 0.027250798, -0.039428331, 0.046898287, -0.22350916, -0.08591073, 0.042839117, 0.01576823, -0.069226071, 0.010694292, 0.0019710427, 0.015211255, -0.20867793, 0.024340611, 0.22780679, -0.0294967, -0.16520423, -0.058113459, 0.11254282, -0.41900963, -0.17504884, -0.074890375, -0.19029513, -0.20244437, 0.11496212, -0.25292861, -0.17946498, -0.052387994, -0.37090173, -0.27221689, -0.29460922, -0.062578626, -0.18799208, 0.024780095, -0.22793545, -0.080048271, 0.0049359547, -0.043392334, 0.010081394, -0.022271227, -0.44324651, 0.037302382, 0.058678605, 0.03664688, -0.14120905, -0.22162727, -0.17975681, -0.0067049647, -0.11405157, 0.019665398, 0.034661282, -0.24906166, 0.0025823812, 0.081149638, -0.022214226, -0.13274865, 0.22185554, -0.35502744, -0.2997098, -0.080620468, -0.068716265, -0.045243729, -0.25952965, -0.023669627, -0.28301591, 0.0077773719, -0.064887114, -0.19220968, -0.20750102, -0.14302026, -0.015965167, 0.061134133, -0.52285606, 0.045573644]}, {"sx": 3, "sy": 3, "depth": 32, "w": [0.018933861, -0.063905083, 0.0089193881, -0.078283958, 0.049413573, 0.0067127715, -0.04501158, -0.0027504629, 0.023471093, 0.29118317, 0.10125574, 0.024346139, -0.086707912, -0.052464057, 0.079877377, -0.037478179, -0.16351083, 0.034179024, 0.16779241, -0.13601835, 0.023088234, -0.061178766, 0.012225096, 0.079169661, 0.10210987, -0.20346968, 0.12619279, -0.32523185, -0.038458906, -0.0050809649, -0.021836214, -0.06116759, 0.011441615, -0.10108273, -0.050304789, 0.032787398, -0.023660986, 0.068971016, 0.029221317, -0.012240397, -0.22639862, -0.056449126, -0.21345346, -0.21100506, 0.0065814052, -0.010327366, 0.037647218, -0.030277459, -0.67953336, 0.099610016, -0.054722328, -0.23583041, 0.0042054984, -0.89962322, 0.024347913, 0.042690367, -0.25791708, -0.17574474, 0.065837175, -0.11800286, 0.0085403845, -0.095129855, -0.025375262, -0.10970297, 0.023350837, -0.084250808, 0.048251826, -0.090384401, 0.03519683, -0.040722642, -0.11825874, -0.0043158946, -0.12698177, -0.012457388, -0.003454966, 0.028466402, 0.03092343, 0.067953892, -0.17301938, -0.093124062, 0.029155251, 0.06528239, -0.087559052, -0.091574125, 0.040422518, -0.10113856, 0.010390772, 0.0070744511, -0.03483171, 0.013581591, -0.082992941, -0.13271688, -0.015984982, -0.075959384, -0.026501311, 0.14821048, 0.071194574, 0.14619252, 0.052405402, 0.13042951, -0.35848546, -0.023403686, -0.025901541, 0.022376111, -0.035211433, -0.1595321, -0.08172138, 0.0086874077, 0.072735228, -0.066463202, -0.060506556, 0.0097991629, 0.094708279, -0.084579863, 0.2245408, 0.22941892, 0.027448036, -0.043371744, -0.0015906953, -0.023682388, -0.10363715, -0.18646112, -0.2240226, 0.14443818, -0.083352864, -0.022970859, 0.030000489, 0.14536059, 0.02463481, -0.18833114, 0.094627567, -0.047378659, -0.19234331, -0.081183679, -0.064704239, -0.065132625, 0.0099772597, -0.41825095, 0.056908321, 0.017493444, 0.021748682, -0.1546732, 0.055889029, -0.25942934, -0.17567578, -0.1000841, 0.15284066, -0.1960001, 0.031680662, -0.13869083, -0.02438489, -0.0034713377, -0.20486315, -0.21261048, -0.050832525, 0.14597353, -0.20836559, -0.059920847, -0.028389217, -0.31564009, 0.059634998, 0.079581872, 0.026729587, -0.15829459, -0.00078827218, -0.034427568, 0.04122591, -0.0020344204, -0.010772999, -0.22759081, -0.021509051, -0.11813793, -0.029279051, -0.18859522, -0.2762951, -0.15221871, -0.14610872, -0.22961208, -0.26657873, -0.21121986, 0.035672165, -0.1320591, -0.058558539, -0.0012561034, -0.10442213, 0.050066572, 0.0076543735, -0.21410544, 0.00082119979, -0.067077421, -0.045959655, -0.067027286, 0.039429929, -0.013477452, -0.01498739, -0.12171496, 0.073116988, -0.021079848, 0.094988301, 0.03765136, 0.049786136, -0.44643229, -0.14298326, 0.015228879, -0.00095309754, 0.016219227, -0.050604519, 0.083834544, -0.41747451, -0.17483659, 0.094173975, -0.064521067, 0.0012450606, -0.21206814, 0.0049848394, 0.099880241, -0.14931913, -0.15421443, -0.015752027, -0.22067039, -0.059308443, -0.0459463, -0.031071981, -0.30108929, -0.0034661924, -0.55351967, -0.13509412, 0.067283265, 0.031226328, -0.038518623, -0.29235098, -0.038655996, -0.22815286, -0.21113294, -0.18431413, -0.25248471, 0.001295012, 0.023272898, -0.21265867, -0.17576244, -0.43429664, -0.07460843, -0.071346633, -0.10577324, 0.049278039, -0.37130499, 0.017561603, 0.028624099, -0.11035652, -0.065596774, -0.20312135, -0.32034096, -0.24903977, -0.062398199, -0.043458585, 0.050645776, 0.058184151, -0.048951317, 0.020242129, 0.049500626, -0.13859208, 0.027429441, -0.11166677, -0.047030624, -0.00052597513, -0.38368306, -0.072380885, -0.12708159, 0.026701311, 0.02284839, 0.015099239, 0.088520668, -0.11226743, -0.071212724, -0.18233956, -0.060630135, 0.018445123, -0.054094188, 0.029972967, -0.0045226892, -0.33669451, -0.16142398, -0.072162732, -0.43193772, -0.0072264038, -0.058766745, -0.075600736, 0.059268255]}, {"sx": 3, "sy": 3, "depth": 32, "w": [0.067223117, -0.037900511, 0.060882196, 0.20194939, -0.17594504, 0.0087967841, -0.02029576, 0.011964185, 0.018266575, 0.13150062, 0.00092215784, 0.055007994, 0.077436842, 0.10943532, -0.29727435, -0.39219001, -0.011772828, -0.35251218, -0.58567744, -0.17030497, -0.17376271, 0.0043756426, -0.19013917, -0.0094990479, -0.19868602, 0.014245667, -0.13435309, 0.10714368, -0.0014854245, 0.094601177, -0.18092488, -0.00036554143, 0.026813244, -0.037696742, 0.048505779, 0.025519826, 0.050479647, -0.0072844629, 0.15579619, 0.037928496, 0.05592414, -0.073326193, 0.077961616, -0.045781855, -0.0365289, -0.098830976, -0.27127045, -0.3842333, -0.011785528, -0.13833103, -0.36156002, 0.079771988, -0.018352628, 0.011947061, -0.31889477, -0.0061526932, -0.097614467, -0.14309193, -0.17833968, -0.23125385, 0.10865555, 0.021390604, -0.10167442, 0.0879604, 0.0068409871, -0.031757202, -0.089032546, -0.028321428, -0.062110078, -0.01303932, 0.013589875, 0.032933027, 0.20302039, 0.048700456, 0.028361117, 0.0073445332, -0.090258688, 0.18592349, -0.30433747, -0.29372543, -0.16318284, -0.079018734, -0.52922273, -0.053743836, -0.00042100315, -0.0092236614, -0.10691542, -0.0015425133, 0.0077652195, -0.6692034, -0.16464473, -0.18386661, 0.022188023, 0.023612389, 0.052961312, -0.036357094, -0.043422226, 0.0066377074, -0.024099279, 0.097125076, 0.042191356, -0.011878696, 0.15565488, 0.031253349, -0.038989898, 0.14128563, -0.033637762, -0.10065239, -0.20716465, -0.0011455547, -0.21593826, -0.2982741, -0.12111627, 0.0056027463, -0.28150868, 0.17298535, 0.039793044, 0.01356902, -0.038038403, -0.035396703, 0.062694967, -0.089646026, 0.042680837, -0.18135542, 0.11316812, 0.069001913, 0.051450167, 0.0018476452, -0.044615369, -0.17428198, -0.21489316, -0.032675043, -0.059706546, -0.2282735, 0.052950598, 0.016058249, -0.54857731, -0.0087089222, -0.20051713, -0.022138951, 0.036607336, -0.14176852, -0.14545862, -0.44472235, -0.092793442, 0.17324595, 0.097489737, -0.0043353504, 0.030511631, -0.065542743, -0.0074136099, 0.041462738, -0.031060999, -0.096963845, 0.034872029, -0.32531413, -0.1069982, -0.17189121, 0.013225485, 0.17768942, -0.036535446, -0.23246847, -0.11755165, -0.056960534, -0.05523479, -0.21401523, -0.31932542, -0.014123145, -0.18925822, -0.052588437, -0.047881033, -0.033440772, -0.043204933, -0.075264715, -0.29596397, -0.13972721, -0.19992742, 0.087625243, -0.019949701, -0.09875074, 0.013818067, 0.011814737, 0.17672451, -0.021787293, 0.0074448972, -0.29571563, -0.40946433, -0.28043753, -0.20602058, -0.14055294, 0.011455116, 0.10751919, -0.080114469, -0.021942249, -0.11156293, -0.07036946, -0.20839506, -0.16644908, -0.093518108, 0.013449939, -0.37149739, -0.25824422, -0.1615622, -0.17652741, -0.016124394, -0.11940894, -0.082262509, -0.285541, -0.0030431733, 0.028233508, -0.21606293, -0.048839454, 0.0093053598, -0.028439397, -0.023084503, 0.0020337466, -0.010511278, -0.56842834, -0.32628402, -0.18569554, -0.12914544, -0.11043271, 0.011287346, -0.099940516, -0.058040567, -0.15343489, -0.040032014, -0.14275131, -0.088426687, -0.44530401, -0.16888182, -0.020078382, -0.5949443, -0.32007119, -0.089781426, -0.062698692, -0.010896244, -0.095756836, -0.11070994, -0.053598247, 0.17403786, -0.14231719, -0.40853179, -0.18540798, 0.055929385, -0.049524348, 0.061814338, 0.010172782, -0.24332361, -0.33567435, -0.10493258, -0.31869695, -0.28579518, -0.26404691, -0.0078516919, 0.024084676, -0.0010100878, 0.096581131, -0.021456711, -0.025616594, -0.027416686, -0.58383179, -0.22139072, -0.028831899, 0.11156221, -0.17777476, -0.13206966, -0.15861247, 0.0016201569, -0.086335003, -0.28287908, 0.041297626, 0.069972649, 0.012049726, -0.093655102, -0.089823045, -0.0063132388, -0.023067728, 0.029517738, 0.00095175364, -0.089205891, -0.32537049, -0.36778682, -0.11958274, -0.090903722, 0.091929033, -0.0030048173, -0.016221346]}, {"sx": 3, "sy": 3, "depth": 32, "w": [0.060042646, -0.0040203906, -0.21295525, -0.24239659, -0.012336448, -0.052684888, -0.13951637, -0.0098284297, -0.12492777, -0.092347629, -0.05795107, 0.011195242, 0.050383218, -0.097496808, 0.081650905, -0.035414517, -0.24895366, -0.11350456, -0.24885678, 0.010347235, 0.020364664, 0.012709544, 0.026187312, -0.16784699, 0.0087741669, -0.23617475, -0.17784919, -0.37326735, 0.033204556, -0.041122951, -0.048191544, -0.0042805448, -0.18421985, -0.017930234, 0.017512573, 0.12638679, -0.42780957, -0.22645237, -0.060721874, 0.0034255902, -0.38879025, -0.032358058, -0.0075514419, -0.12043089, -0.10623287, -0.42520142, -0.35768217, -0.16672644, -0.19151419, -0.18643813, -0.08608713, -0.072911128, -0.41569072, 0.034355912, -0.024453942, -0.10573465, 0.039128017, -0.0074439566, -0.26830754, -0.56310451, 0.057689194, 0.052973397, -0.059354909, 0.039990518, -0.065844007, -0.023355285, 0.036180768, -0.076383963, 0.019162698, -0.22991718, 0.061818808, 0.026839396, -0.40817839, 0.0026423477, -0.070237808, 0.031279281, -0.13354746, -0.51726186, -0.25856733, -0.24902628, 0.053713627, -0.19827308, -0.33012384, 0.10544149, 0.092688687, -0.068331063, -0.019753728, 0.075261727, -0.10115054, -0.15837374, -0.042119619, -0.31280023, -0.11096521, -0.029385969, 0.031163454, -0.47587985, 0.00859641, 0.0078696897, -0.083208174, -0.07768359, -0.15291263, -0.1371365, -0.2521438, -0.010819384, -0.14371321, 0.25684437, 0.0051580435, -0.11738653, 0.033716351, -0.17999545, -0.30886537, -0.0013493714, 0.102241, -0.2370095, 0.29194716, -0.36289576, -0.011272732, -0.029142229, -0.059798781, -0.15594558, -0.23084261, -0.08568988, 0.020494055, -0.13028866, 0.058324624, 0.01452479, -0.06931445, 0.011258472, -0.20523839, -0.02702906, 0.091350622, 0.072192192, -0.10844539, -0.34187028, -0.063296005, 0.03966352, -0.50406462, 0.4097209, 0.10755085, -0.1543901, -0.23127615, -0.38704714, -0.21510755, -0.36363792, 0.098087691, -0.3075729, 0.099923946, -0.17549397, -0.11700535, 0.13347657, -0.11438499, -0.031294189, 0.086657241, -0.30096564, 0.21255843, -0.14243068, 0.10061745, 0.086869694, 0.0047635101, -0.06382031, 0.057589438, -0.085378669, -0.11708412, 0.02008014, -0.066825978, -0.50970984, -0.081364527, 0.013261942, 0.051089291, 0.27801049, -0.0072805327, 0.029636139, -0.17336804, 0.042259198, -0.29781389, -0.19319507, -0.037295423, -0.15959798, -0.16621959, -0.0043035359, 0.017484985, -0.086288288, 0.03453422, 0.076831318, -0.085823938, -0.025470456, -0.13938931, 0.039873701, -0.22505607, -0.074959077, 0.016843621, -0.21317531, -0.00045081996, 0.039276373, 0.030439505, 0.15519074, 0.013021608, -0.079862818, -0.022823196, -0.0057731643, -0.010365746, 0.3115404, 0.0018058954, -0.19359356, -0.016405424, -0.15958782, 0.03806464, -0.10537916, -0.10636164, -0.59909815, 0.088396214, -0.098571829, -0.013940847, 0.03234091, -0.098881289, -0.044280037, -0.053177588, 0.0086568594, 0.28940442, -0.005334211, 0.026696781, 0.012886752, -0.055438567, -0.010708185, -0.068495966, 0.035705339, 0.041632593, -0.11556514, 0.15052631, -0.14671399, -0.15388158, 0.011085488, -0.26562959, 0.36423671, -0.0057990155, 0.069422506, -0.12157689, -0.17505904, 0.0099050319, -0.23770265, -0.18877523, -0.37352353, 0.11759166, -0.19246635, 0.0020487483, -0.016234688, -0.049490452, 0.0336692, -0.43038261, -0.13567321, -0.078667529, -0.20150438, -0.0053830626, -0.024946883, 0.0010103155, -0.0038559393, 0.060972281, 0.033332061, 0.03718476, 0.22201674, -0.038637999, -0.11829498, -0.18141434, 0.010360503, -0.20138806, 0.24463238, -0.095524341, -0.02329964, 0.0063425414, -0.076184459, 0.18390274, -0.0082044723, -0.090315618, 0.058537744, 0.067879215, 0.018917304, 0.015124056, -0.054552663, 0.045629609, 0.038216017, -0.20222367, -0.07696411, -0.15247376, 0.085005723, -0.19310705, -0.024920709, -0.0048371973, -0.035659328]}, {"sx": 3, "sy": 3, "depth": 32, "w": [0.028302507, -0.001781276, -0.11162281, -0.095251501, -0.013925396, 0.030588245, -0.025608532, -0.036807191, 0.0064379852, 0.020660054, 0.0073098172, -0.10229502, -0.011804735, -0.044810914, -0.17734022, 0.038462453, 0.0075448649, -0.046558123, -0.11680716, -0.2386968, -0.10781891, 0.0019542691, 0.020939618, -0.046058714, 0.022759501, 0.077320769, 0.27636591, -0.18947916, -0.0046175108, 0.029176138, -0.27484515, 0.071480431, -0.0081128152, 0.0051837149, -0.0870855, -0.00030441652, -0.1480097, -0.0052689337, 0.03779557, 0.0080904933, -0.0033752501, -0.29781824, -0.12382449, 0.03152319, -0.022079792, -0.21580143, -0.065548167, 0.17968443, 0.032321267, -0.022357911, -0.010829169, -0.057183038, -0.72645605, -0.026425311, -0.38662162, 0.027603362, -0.19543178, -0.045129307, 0.031643856, -0.14412597, 0.053420268, 0.0012804343, -0.29989696, -0.019969437, -0.031971034, 0.0031879167, 0.0016136586, -0.095482863, 0.0045102136, -0.0098365536, 0.087587096, 0.00075235282, 0.029617362, -0.0059871869, 0.016611384, 0.02463563, -0.018459359, -0.2226603, -0.042359088, 0.41904694, 0.36990345, -0.032086018, 0.016106468, 0.11287989, -0.58848512, -0.0033206854, -0.35286289, -0.058064591, -0.040867902, -0.43698338, -0.054626521, 0.0074742734, 0.018609187, 0.052577134, -0.069474243, -0.044064648, -0.011866577, 0.047865093, -0.007606131, -0.12218923, -0.29072237, 0.037632972, -0.085310638, 1.0281965e-06, -0.031225771, -0.25453573, 0.043221794, -0.14642625, 0.020857275, -0.29816118, -0.091579169, 0.22679031, 0.011122813, -0.058197014, -0.078914754, 0.0083288671, -0.2061619, 0.043421425, -0.065862186, -0.082120053, -0.05334799, -0.10786875, -0.089086294, -0.09306819, 0.026443483, 0.040897567, -0.096870437, -0.0047885911, 0.013457654, 0.0018625567, -0.036276415, 0.029449014, -0.20171568, -0.028227108, -0.035333529, -0.012071258, 0.0017311493, -0.12539704, -0.080163017, -0.071003199, 0.052685298, -0.46921703, -0.33573467, 0.1521152, 0.31508988, 0.031694144, -0.40862396, 0.054485284, -0.87659019, 0.027153483, -0.1748614, -0.019798558, -0.082821436, 0.0042393021, -0.085768029, -0.15565379, 0.0026665926, -0.027959192, 0.073689923, -0.077048935, -0.0031945875, -0.010515298, 0.020758998, -0.088412635, -0.088525526, 0.017976781, -0.087567158, 0.026398055, -0.055748634, -0.061697878, 0.032982152, 0.029873734, -0.31749305, -0.5570361, -0.20791504, 0.1537195, 0.0170743, -0.070897795, 0.074747078, -0.15036654, -0.50722516, 0.0079420079, 0.0067162849, -0.04351256, -0.11891057, -0.11811164, 0.33770198, 0.085925058, -0.019376066, -0.023049276, -0.056566909, -0.077568121, 0.018424392, -0.020953139, -0.082743585, -0.093003981, 0.12913847, -0.014585851, 0.075603731, 0.024121555, -0.053107969, 0.022489507, -0.046039283, -0.1883678, -0.0096107302, -0.15690692, -0.39217544, 0.25856644, -0.14088978, -0.080642208, -0.30106232, -0.1190626, -0.12175434, -0.039434306, -0.12522611, -0.010563268, 0.076624237, -0.056627419, 0.18768181, 0.025964959, 0.033458304, 0.028282225, -0.056434352, -0.047125742, 0.07677383, 0.010908145, -0.1077402, 0.096602313, 0.0041401447, -0.020976538, 0.0020763604, 0.0025295783, -0.064393148, -0.11905309, -0.062177192, -0.10090835, -0.0580809, -0.2985293, -0.46980497, 0.14508037, 0.096019335, 0.021420222, -0.47294527, -0.098183759, -0.57135791, -0.0027752868, -0.008014366, -0.037559357, -0.071811363, 0.099456616, -0.18756355, -0.0028014919, -0.00085010752, 0.10980727, -0.064420462, -0.02411375, -0.0030398308, 0.00076313439, -0.066373929, -0.27043405, 0.080433443, -0.019832477, -0.089019544, 0.025302375, 0.022625068, 0.21681371, -0.052607246, -7.9303973e-05, -0.20613067, -0.31851265, -0.45431992, 0.10607087, -0.012356926, -0.11487677, -0.24242015, -0.14956237, -0.22521225, -0.013242272, -0.035094269, -0.03304451, -0.020448998, -0.17450516, 0.1099285, -0.077288724, 0.11915629, 0.049087785, -0.11800163, 0.036651216]}, {"sx": 3, "sy": 3, "depth": 32, "w": [0.0069900709, 0.038840435, 0.11879329, 0.041383512, -0.47420609, 0.015989786, 0.10577805, 0.0025094466, -0.033826273, 0.050799377, -0.045053635, -0.19387852, -0.036396608, -0.015389953, -0.34922978, -0.13620232, -0.17601117, -0.20420313, 0.036570381, 0.098026857, -0.080234028, 0.014677637, 0.018393401, -0.17723943, 0.034332845, 0.034918483, 0.0058091008, -0.21733809, 0.063767016, 0.016991669, -0.27241907, 0.070197888, -0.096393213, -0.2398065, -0.20814875, -0.21097086, 0.064603142, -0.079978019, -0.12040479, -0.0067955358, -0.37611553, -0.012911487, -0.2566914, -0.025970107, -0.12983228, -0.32063007, -0.50429815, -0.16676761, 0.033225402, -0.29450786, -0.02320157, -0.016075343, 0.04529627, -0.078048721, -0.0042166202, 0.0051804199, 0.096434414, 0.28044173, -0.25933671, -0.203251, -0.17306754, 0.032073122, -0.13851915, 0.085355841, 0.072440572, -0.031988304, -0.078760311, -0.019237341, 0.019401483, -0.016121835, -0.02681171, 0.04274701, -0.018494984, -0.12318625, 0.069372542, -0.00027052846, 0.06221151, 0.16650696, -0.10549072, -0.15558398, 0.016798502, -0.45094067, -0.10092414, -0.12579288, -0.0021302169, -0.016296184, -0.0027771515, -0.020925401, 0.11238257, 0.030833187, -0.22918883, -0.26326865, 0.067827076, -0.18349029, -0.14151822, -0.034401663, -0.09317977, -0.10206751, 0.11981507, -0.022204971, -0.12541354, -0.053743362, -0.007498614, 0.0037383675, 0.010878243, 0.10561161, 0.033247814, -0.24037813, -0.010769484, -0.061553013, 0.029681016, -0.16521417, -0.043211244, -0.0077288672, -0.063185677, -0.051425785, -0.037846316, 0.10769075, -0.11811841, -0.15755288, 0.11658871, 0.040289354, -0.16949652, -0.29553476, 0.052802607, -0.030771624, -0.2779412, 0.17194617, 0.021932965, 0.0093044946, 0.051061608, -0.014450559, -0.19282632, -0.01044688, 0.069298193, 0.10339093, 0.0067602745, -0.057089325, -0.29093808, 0.062580481, 0.051610243, -0.081317075, 0.044643223, -0.21519589, -0.20412542, 0.057515889, 0.0055779661, 0.049571864, -0.071457937, -0.16380517, -0.026253797, 0.12258809, -0.22841892, 0.12434953, -0.2304839, -0.11334735, -0.075863555, -0.039653163, -0.050037328, -0.029051434, -0.0041346191, 0.0054058945, 0.032333616, -0.05161614, 0.065016143, -0.018155636, -0.1868359, -0.077966966, 0.026026331, -0.32431385, 0.037213001, 0.16789374, -0.061863825, -0.044043183, 0.13773598, -0.18951668, -0.3351272, 0.034709554, 0.21618679, -0.17866006, 0.053745389, 0.04983576, -0.066187248, -0.079780281, 0.035483614, 0.030748228, -0.22810632, -0.48908043, -0.027613865, -0.020696128, -0.40818384, -0.013345701, -0.031464964, -0.00064815534, 0.13185279, 0.017173395, 0.12324132, -0.067983381, -0.032124996, 0.00097759231, -0.04890649, -0.0087847272, 0.068189107, 0.16746888, -0.049645167, -0.19644392, -0.22771212, -0.22874472, -0.037297226, -0.12202308, -0.40006757, 0.116271, 0.11833615, -0.047544099, -0.063532032, 0.02089544, 0.056020521, 0.15101701, 0.05689051, -0.01392465, 0.0072675347, -0.026105691, -0.1118236, 0.0036747446, 0.031915475, 0.056874044, -0.012478733, 0.07858143, -0.30460697, -0.074093662, 0.14130628, 0.090457492, -0.0098153949, 0.071784809, -0.058132015, 0.011380014, 0.039249461, -0.090423986, -0.13627523, -0.10329223, -0.080314375, 0.11451786, -0.21915591, -0.20614345, -0.072085328, -0.08220125, 0.028085915, 0.04797142, -0.26472279, -0.1424558, -0.068189904, 0.078456379, 0.00052044546, -0.0092755165, -0.16357009, -0.054544397, -0.018409947, -0.013032295, 0.12131874, -0.090682216, 0.22918941, -0.034075357, 0.055490017, -0.060782004, -0.091075912, -0.21452604, -0.069468319, 0.08622475, -0.046870682, -0.058527574, -0.23155698, -0.30330256, -0.25328493, 0.06043477, 0.017362496, -0.031013208, -0.039315499, 0.089400463, -0.017952876, -0.068995044, 0.0033244004, 0.12538779, -0.30945966, -0.31642008, 0.065459602, 0.12380411, -0.31721854, 0.072546512]}, {"sx": 3, "sy": 3, "depth": 32, "w": [-0.029242955, -0.37377703, -0.39130411, -0.028650533, -0.38345176, -0.19906576, 0.0042971559, 0.005857598, -0.24312834, -0.063668422, -0.065962687, 2.7865699e-05, -0.3153069, -0.36843187, -0.06028844, -0.23419262, -0.29689974, -0.071325004, 0.042545266, 0.0035820894, -0.073002867, -0.13407183, -0.092968777, 0.016737355, 0.040437188, 0.00075523334, 0.04076118, -0.25797549, -0.077117741, -0.011928419, -0.77515417, -0.12401336, 0.00012516149, -0.19567327, 0.10609931, -0.14589533, -0.28332457, -0.17241564, -0.030892642, 0.074442282, -0.30830139, -0.12268287, -0.048702594, -0.078388445, -0.098645329, -0.042860091, -0.20756049, -0.42380238, 0.017034788, -0.18098526, 0.035802107, 0.12318701, -0.036560051, -0.013242695, -0.13483985, 0.016496425, -0.034694862, -0.17184444, -0.18183447, -0.39947525, 0.014415337, 0.0053573293, -0.074430346, -0.2189644, 0.20717047, -0.039315872, -0.15317945, -0.092349447, 0.036748234, -0.098710477, -0.016610507, -0.043760229, -0.26337197, -0.035797238, 0.04581254, 0.014640225, -0.086273149, -0.18255773, -0.054026097, -0.089336753, -0.0068736807, -0.2261657, 0.012185999, -0.10787103, -0.0072560702, -0.061365865, -0.099419244, 0.031274609, -0.19557621, -0.012874529, -0.29338199, -0.21145156, -0.020017326, 0.066238865, -0.12014871, -0.054824892, -0.036940083, -0.38152832, -0.018826891, 0.24369198, -0.19892575, -0.28595781, 0.12305927, 0.0059939194, -0.24015006, 0.071291625, 0.029855227, 0.077025145, -0.35287073, -0.11370091, 0.15132238, -0.1667311, -0.092818007, -0.13747768, 0.14006272, -0.015133866, -0.030986235, -0.029841142, 0.0027667081, 0.024606215, 0.24174672, -0.24642514, -0.014995459, -0.3522203, -0.060813703, -0.038764559, -0.54399621, -0.062946625, 0.011576423, -0.11344421, -0.12100711, -0.12733573, 0.23088226, -0.47709006, -0.077521987, 0.12187917, -0.042178646, -0.072269835, -0.051354323, -0.26765582, -0.23807436, 0.044147372, 0.13507174, -0.34280449, -0.1305653, -0.054390028, 0.013076263, -0.0088427654, 0.018060796, -0.087973505, -0.00049513276, -0.03025512, -0.015047637, -0.12570857, -0.098789826, -0.35438678, 0.027599167, -0.029152565, -0.2097429, -0.17460991, -0.042249799, -0.020324068, -0.032634579, -0.20776421, -0.3302685, -0.11180335, 0.077213049, -0.038871389, -0.12707807, -0.11658268, 0.073227756, -0.095955618, -0.030268874, -0.016416028, 0.0077743419, 0.090637304, -0.28215492, -0.15319358, 0.023498164, -0.088547133, -0.035388697, -0.071555167, 0.057831164, 0.13199158, -0.039275892, 0.10909778, -0.019631455, -0.38502976, -0.0093373349, -0.018621434, -0.19263962, -0.14371403, 0.013592477, 0.01531428, 0.079087108, 0.096823223, -0.042815302, 0.021077871, -0.10693466, -0.037162099, -0.14772786, -0.21695346, -0.13636751, 0.069811434, 0.14069416, -0.20549716, 0.029149443, -0.21785267, -0.19693729, -0.10133972, -0.055383779, 0.0042275051, -0.011694177, 0.034149759, 0.009763143, 0.019421615, -0.073094405, -0.18165523, -0.29149386, -0.27308702, -0.012978545, -0.02464324, -0.23731066, 0.051151395, -0.0066258232, -0.26580527, -0.20433676, -0.15918313, -0.23881064, -0.12518053, -0.066828884, -0.040659517, 0.01957223, 0.033036653, 0.052931484, -0.025577081, -0.012963518, -0.10446591, -0.12243088, 0.0066369222, 0.023247259, 0.065342195, -0.090296835, -0.091958478, -0.036681585, -0.15117832, -0.09206561, 0.00499433, 0.021325566, -0.19464633, 0.1028366, -0.31825793, 0.023896499, -0.0047625727, -0.40649974, -0.2195542, 0.06049636, -0.05572151, -0.023667673, -0.019227408, 0.099801354, -0.16555294, -0.18849705, 0.058425494, -0.053636875, -0.31671655, 0.036753509, 0.034891021, -0.16868056, 0.0012244222, -0.068133026, -0.30962041, -0.10399566, 0.036323886, -0.1780497, -0.20064251, 0.024509845, -0.092986032, -0.15467696, -0.028004836, -0.037640821, 0.030313471, -0.062041275, 0.0099053755, 0.016461138, 0.058606002, -0.52391183, 0.147808]}, {"sx": 3, "sy": 3, "depth": 32, "w": [0.04824651, -0.71039307, -0.45345911, -0.10140977, -0.42483687, -0.17850134, -0.065014064, -0.014623741, -0.54880148, 0.08442878, -0.048455823, -0.33865052, -0.33931831, -0.14499332, 0.1118086, -0.5246051, -0.50926876, -0.19205694, -0.24188195, -0.039544504, 0.011847552, -0.08599785, -0.021662904, 0.013838398, 0.030722355, -0.26738656, 0.081412882, -0.047865402, -0.028273828, -0.012171219, -0.24581146, -0.28946313, 0.0075326939, -0.92311811, -0.71081614, -0.020355618, -0.65244567, -0.093111821, -0.021054387, -0.0065330816, -0.53298199, -0.049187262, -0.033444274, -0.26839459, -0.67902821, -0.40973797, 0.011269327, -0.25075877, -0.3117781, -0.053043906, -0.23350988, -0.11170726, -0.018495141, -0.10487169, -0.018253921, -0.0024605331, -0.024711167, -0.35786328, -0.064312257, -0.49009246, -0.058184341, -0.0076512876, -0.24363154, -0.49291664, -0.016430814, -0.63009948, -0.40085718, -0.091993093, -0.28063297, -0.18959126, -0.077575907, -0.0054322667, -0.73981255, 0.100189, -0.075572416, -0.48425126, -0.46300137, -0.43817145, -0.20676164, -0.43681395, -0.31181219, 0.042205587, -0.019738065, -0.074919626, -0.035522342, -0.097962797, -0.01674965, -0.051163681, -0.10007737, -0.024303097, 0.049810514, -0.85180879, -0.089497872, -0.050035622, -0.23129976, -0.51697886, -0.015907682, -0.69258541, -0.20589148, -0.057062615, -0.33077246, -0.014000629, -0.030292388, 0.067330323, -0.68395668, -0.16285481, -0.091567673, -0.38771516, -0.16054513, -0.26611212, -0.47295022, -0.56638801, -0.55570972, -0.067197464, -0.11778916, -0.17005895, -0.016051877, -0.10045755, -0.040458865, -0.0090865316, -0.33109495, -0.30615106, -0.12583171, 0.030781189, -0.020622464, -0.053769406, -0.22921948, -0.52991009, -0.030922713, -0.21637183, -0.2961334, -0.07350833, -0.82931447, -0.35204569, -0.059122901, 0.022504386, -0.83337992, -0.18909568, -0.0054764198, -0.36539701, -0.50975603, -0.25081158, -0.21759604, -0.21140775, -0.55839783, -0.22165474, -0.39096108, 0.033380285, -0.0054478645, -0.096614785, -0.040456053, 0.04998932, 0.17218563, 0.077843346, -0.0064479024, -0.13505505, -0.013813546, -0.028768193, -0.48861626, -0.25047201, 0.025354907, -0.043226935, -0.33063653, -0.1677295, -0.56236094, -0.35689932, -0.064796336, 0.0098178526, -0.21813807, -0.039469268, -0.035732407, 0.049435951, -0.52638364, -0.0169972, -0.26975292, 0.19768405, -0.24173683, -0.1209757, -0.2034858, -0.17685552, -0.012898279, -0.11157077, -0.022805724, -0.015012005, -0.067095831, 0.023468412, -0.015903391, -0.11264203, 0.0062768916, 0.015811758, -0.50592071, 0.0049812188, 0.10140333, -0.078741603, 0.079838999, -0.12281249, -0.18754192, -0.021730989, -0.0061329384, -0.0030063146, 0.0074170348, -0.18309484, 0.0055974005, 0.060092952, -0.014886878, -0.11772192, 0.041874338, 0.045453884, 0.017534344, -0.30025896, -0.37169197, 0.096316181, 0.064073227, -0.019829394, 0.046548154, 0.076518111, -0.057652693, 0.052088823, -0.18861721, 0.087457977, 0.061593316, 0.043191988, 0.017909098, 0.071047351, 0.0044474886, -0.015216043, -0.02097719, -0.077508599, -0.17569193, -0.039858691, -0.0029492795, -0.0089229392, -0.055540189, 0.13006468, -0.034948606, -0.020726345, -0.010716441, -0.082792647, -0.081565678, 0.084720664, 0.0586855, -0.029597329, -0.31736141, -0.25784224, 0.0031915628, -0.0070764632, -0.02640445, 0.025394211, 0.031479385, -0.26281279, -0.053934183, 0.012860254, -0.042943496, 0.011255383, -0.031652015, -0.092330575, 0.057014175, 0.056535494, 0.09307763, -0.37915695, -0.25104824, -0.060542244, 0.17559052, 0.054827821, 0.01426576, -0.054522857, 0.076961927, 0.058540229, -0.1010491, 0.046935368, -0.18083757, -0.035922669, 0.13302216, -0.18309236, -0.20037293, -0.041372534, 0.0048798868, 0.035547905, -0.080622159, 0.062729292, -0.016372468, -0.2643837, -0.15688001, -0.004998514, 0.046393074, 0.038310651, -0.013563619, 0.034411076]}, {"sx": 3, "sy": 3, "depth": 32, "w": [-0.021852443, 0.025184337, 0.090774916, 0.096808515, -0.2388647, -0.0091504771, 0.0013404185, 0.054714806, -0.023001553, 0.15096137, -0.034308147, 0.0065393704, -0.05819612, -0.27407634, 0.067151487, -0.34416842, -0.016364139, 0.054641791, -0.0078799287, 0.066755041, -0.056992963, 0.051925145, 0.0033892086, -0.010499356, -0.14147452, -0.35110623, -0.088510692, -0.16865326, -0.0074430327, 0.057849914, -0.19681664, -0.2844677, 0.012259846, -0.277715, -0.13826495, -0.0061869621, -0.25748536, -0.038002051, -0.067039438, 0.036966991, -0.14490314, 0.23704034, -0.0073092822, 0.050699562, 0.012811569, -0.029228346, -0.15838973, -0.033391897, -0.12611505, 0.0098831281, 0.014802449, 0.09281151, 0.018931465, -0.035061013, -0.064717285, -0.023596697, -0.16778317, -0.037316076, 0.12579717, -0.064173736, 0.011766048, -0.059872478, -0.39621142, -0.34391743, 0.025890069, -0.02467363, -0.074088953, 0.035684183, 0.029257314, 0.023908962, -0.04088553, -0.021276623, -0.061871178, 0.0006086331, -0.044171564, 0.021807706, -0.0011621149, 0.042065147, -0.0058417358, -0.21200275, -0.070251085, 0.071662985, 0.12131455, -0.0065613375, 0.054563906, -0.10402197, -0.0063122567, 0.0060762153, 0.010781274, -0.02908342, 0.4717848, 0.19445907, -0.059720345, -0.009239845, -0.065794952, -0.0064846105, -0.046605296, 