{"layers": [{"layer_type": "input", "out_depth": 64, "out_sx": 64, "out_sy": 5}, {"layer_type": "relu", "out_depth": 64, "out_sx": 64, "out_sy": 32}, {"layer_type": "relu", "out_depth": 32, "out_sx": 32, "out_sy": 32}, {"layer_type": "relu", "out_depth": 32, "out_sx": 32, "out_sy": 32}, {"layer_type": "relu", "out_depth": 16, "out_sx": 16, "out_sy": 32}, {"layer_type": "relu", "out_depth": 16, "out_sx": 16, "out_sy": 32}, {"layer_type": "relu", "out_depth": 8, "out_sx": 8, "out_sy": 32}, {"layer_type": "fc", "out_depth": 1, "out_sx": 1, "out_sy": 1, "biases": {"sx": 1, "sy": 1, "depth": 5, "w": {"0": -0.01333633717149496, "1": -0.08898840099573135, "2": 0.11089930683374405, "3": 0.027582580223679543, "4": 0.18245984613895416}}, "filters": {"0": {"sx": 1, "sy": 1, "depth": 2048, "w": {"0": -0.0230865441262722, "1": -0.019604407250881195, "2": -0.001327891950495541, "3": 0.01014892477542162, "4": 0.013330541551113129, "5": 0.020201977342367172, "6": 0.013643280602991581, "7": -0.043307606130838394, "8": -0.008754114620387554, "9": -0.009268232621252537, "10": 0.04165372624993324, "11": -0.03827374055981636, "12": 0.01331647951155901, "13": 0.04011698439717293, "14": -0.016139067709445953, "15": 0.013793525286018848, "16": -0.0035546862054616213, "17": -0.037072598934173584, "18": 0.008512333035469055, "19": 0.00246030674315989, "20": -0.014357618987560272, "21": 0.022792870178818703, "22": -0.006897581275552511, "23": -0.006637557875365019, "24": 0.017670389264822006, "25": 0.011466183699667454, "26": -0.011958694085478783, "27": -0.020203694701194763, "28": 0.05378393456339836, "29": -0.0011803825618699193, "30": 0.016943542286753654, "31": -0.004079516511410475, "32": 0.0030824283603578806, "33": -0.009306571446359158, "34": -0.009565009735524654, "35": 0.007750730030238628, "36": 0.005495077930390835, "37": 0.002230142243206501, "38": -0.03651750087738037, "39": -0.0272084791213274, "40": 0.011128900572657585, "41": 0.005109836347401142, "42": 0.030716177076101303, "43": 0.007145624607801437, "44": 0.032316893339157104, "45": 0.03261425346136093, "46": 0.016869669780135155, "47": -0.0024420844856649637, "48": -0.023527879267930984, "49": -0.03912418708205223, "50": 0.0038356236182153225, "51": -0.0036574958357959986, "52": 0.003508223220705986, "53": 0.009373466484248638, "54": -0.0008895671344362199, "55": 0.010667148046195507, "56": -0.02093411423265934, "57": 0.036040205508470535, "58": 0.020077772438526154, "59": 0.004798016045242548, "60": 0.013985555619001389, "61": 0.05500303581357002, "62": -0.006740125361829996, "63": -0.025476651266217232, "64": 0.012097892351448536, "65": -0.031170276924967766, "66": 0.006689641159027815, "67": 0.054145779460668564, "68": -0.03150038421154022, "69": 0.0189388208091259, "70": 0.01981172151863575, "71": -0.03526351600885391, "72": 0.0014617841225117445, "73": -0.015252048149704933, "74": -0.00024723372189328074, "75": -0.010776975192129612, "76": 0.009896750561892986, "77": 0.005491049960255623, "78": -0.0009723337134346366, "79": -0.015300799161195755, "80": 0.022669676691293716, "81": -0.0729021430015564, "82": 0.03987119719386101, "83": -0.01009062398225069, "84": -0.014331972226500511, "85": 0.025734126567840576, "86": 0.033791955560445786, "87": 0.009181138128042221, "88": 0.04237591475248337, "89": -0.02404516004025936, "90": 0.015445942990481853, "91": 0.035789474844932556, "92": 0.01837615855038166, "93": 0.020546892657876015, "94": 0.00147547060623765, "95": -0.009383179247379303, "96": 0.012492378242313862, "97": 0.0152484942227602, "98": 0.023963449522852898, "99": 0.010421146638691425, "100": -0.0012139881728217006, "101": 0.01097006257623434, "102": 0.028627313673496246, "103": -0.039344970136880875, "104": -0.0025637794751673937, "105": 0.014494605362415314, "106": 0.0015756218926981091, "107": -0.016164159402251244, "108": 0.012001429684460163, "109": 0.017415689304471016, "110": -0.018727347254753113, "111": -0.032386358827352524, "112": 0.0047303130850195885, "113": -0.08851103484630585, "114": -0.00812454055994749, "115": 0.025675248354673386, "116": -0.01035965234041214, "117": 0.017732759937644005, "118": 0.02173306979238987, "119": -0.018046729266643524, "120": 0.007925343699753284, "121": -0.00643842713907361, "122": 0.022853786125779152, "123": 0.02689080685377121, "124": 0.05044173449277878, "125": -0.04415961354970932, "126": 0.013107910752296448, "127": 0.011114814318716526, "128": -0.020109334960579872, "129": 0.002568149473518133, "130": 0.03388016298413277, "131": 0.00953370425850153, "132": 0.006285412702709436, "133": 0.019349630922079086, "134": -0.02055775374174118, "135": -0.033907994627952576, "136": -0.001248556305654347, "137": 0.0018769088201224804, "138": -0.016642145812511444, "139": -0.011411349289119244, "140": 0.04440580680966377, "141": 0.0444549135863781, "142": -0.016073649749159813, "143": -0.029420075938105583, "144": 0.012364180758595467, "145": -0.01676059328019619, "146": 0.012668396346271038, "147": 0.016997991129755974, "148": -0.04717972129583359, "149": 0.022506043314933777, "150": 0.005501895677298307, "151": -0.029299946501851082, "152": 0.026753060519695282, "153": 0.0034550633281469345, "154": 0.03865129500627518, "155": 0.02885584346950054, "156": -0.001084601040929556, "157": -0.061889346688985825, "158": -0.0026820856146514416, "159": 0.00022640226234216243, "160": -0.038038622587919235, "161": -0.005330863408744335, "162": 0.003572567366063595, "163": -0.0030951674561947584, "164": 0.03167787566781044, "165": 0.022502262145280838, "166": 0.002355889417231083, "167": -0.07130999118089676, "168": 0.01829996518790722, "169": -0.008324135094881058, "170": -0.021141814067959785, "171": 0.00010798345465445891, "172": 0.015023219399154186, "173": -0.008197768591344357, "174": -0.023688532412052155, "175": 0.009618031792342663, "176": -0.014398832805454731, "177": -0.03818075731396675, "178": 0.011987433768808842, "179": 0.010256112553179264, "180": -0.02542920783162117, "181": 0.026503166183829308, "182": 0.014435778371989727, "183": -0.017112772911787033, "184": 0.023366320878267288, "185": -0.022194424644112587, "186": 0.05257721245288849, "187": 0.011334712617099285, "188": 0.026268186047673225, "189": -0.03961092233657837, "190": 0.03813237324357033, "191": -0.013720414601266384, "192": -0.034897949546575546, "193": 0.007451097015291452, "194": 0.03519708663225174, "195": 0.0021019589621573687, "196": 0.006936858408153057, "197": 0.01619945652782917, "198": -0.012904035858809948, "199": -0.006259615067392588, "200": 0.009085644967854023, "201": 0.016570409759879112, "202": 0.00582139752805233, "203": -0.04429364949464798, "204": -0.011336606927216053, "205": 0.0046266415156424046, "206": 0.011639384552836418, "207": -0.02941948175430298, "208": -0.018870729953050613, "209": -0.06720224767923355, "210": 0.013850849121809006, "211": 0.015138406306505203, "212": -0.012808544561266899, "213": 0.00043106128578074276, "214": 0.026411911472678185, "215": 0.02317197620868683, "216": 0.03513716906309128, "217": -0.005999934393912554, "218": 0.04397448152303696, "219": 0.021987173706293106, "220": 0.032736025750637054, "221": -0.02273622341454029, "222": 0.02228476107120514, "223": -0.013017920777201653, "224": -0.032927900552749634, "225": -0.003201618790626526, "226": 0.011271264404058456, "227": 0.025913147255778313, "228": -0.0016039198962971568, "229": 0.024566639214754105, "230": -0.001900989911518991, "231": -0.0011686593061313033, "232": -0.028958816081285477, "233": 0.00303827621974051, "234": 0.025308435782790184, "235": -0.0029953503981232643, "236": 0.012524120509624481, "237": 0.0068846107460558414, "238": 0.0009451151709072292, "239": 0.015969708561897278, "240": -0.017214369028806686, "241": -0.044136762619018555, "242": -0.014157898724079132, "243": 0.010559309273958206, "244": -0.02362310141324997, "245": 0.01458352617919445, "246": 0.004529869183897972, "247": -0.023283466696739197, "248": 0.044059429317712784, "249": 0.033394746482372284, "250": -0.005959361791610718, "251": 0.001120239496231079, "252": 0.005707160569727421, "253": -0.026981424540281296, "254": 0.015298973768949509, "255": -0.015977174043655396, "256": -0.005002218298614025, "257": 0.016643021255731583, "258": 0.006227137055248022, "259": 0.023744726553559303, "260": 0.03784633427858353, "261": 0.00772224273532629, "262": -0.01346572581678629, "263": 0.005985979922115803, "264": -0.032690491527318954, "265": -0.034931425005197525, "266": 0.06576084345579147, "267": -0.047110237181186676, "268": -0.0004942019004374743, "269": 0.010022413916885853, "270": 0.010713917203247547, "271": 0.019434921443462372, "272": 0.01455394085496664, "273": -0.0378849096596241, "274": 0.030456770211458206, "275": -0.005358859896659851, "276": -0.009123326279222965, "277": 0.0038836903404444456, "278": -0.01097773015499115, "279": 0.00021739484509453177, "280": 0.0015568847302347422, "281": 0.012048005126416683, "282": 0.023143352940678596, "283": -0.008282296359539032, "284": 0.07526032626628876, "285": -0.020594589412212372, "286": 0.004101368132978678, "287": 0.014549101702868938, "288": 0.01349719800055027, "289": 0.005803192965686321, "290": 0.0028399238362908363, "291": 0.04790767282247543, "292": -0.0021410472691059113, "293": -0.03502018749713898, "294": 0.003919116221368313, "295": -0.026159517467021942, "296": 0.002477943664416671, "297": -0.012799650430679321, "298": 0.044236212968826294, "299": -0.02463889680802822, "300": 0.030585505068302155, "301": 0.0010003611678257585, "302": 0.03881446644663811, "303": 0.043432511389255524, "304": -0.005019914358854294, "305": -0.07353783398866653, "306": 0.004399219062179327, "307": 0.00021638757607433945, "308": 0.0065568736754357815, "309": -0.035853657871484756, "310": -0.0006441650912165642, "311": -0.023149006068706512, "312": -0.0033454562071710825, "313": 0.025960300117731094, "314": 0.033963657915592194, "315": 0.035806361585855484, "316": 0.010526686906814575, "317": 0.018896814435720444, "318": -0.017388103529810905, "319": 0.005590893793851137, "320": 0.024953043088316917, "321": -0.011633597314357758, "322": -0.0013923649676144123, "323": 0.054710738360881805, "324": -0.016819920390844345, "325": -0.03813450038433075, "326": -0.031729280948638916, "327": -0.043165989220142365, "328": -0.006567833945155144, "329": -0.02402045764029026, "330": 0.0072477227076888084, "331": -0.01826339215040207, "332": 0.029051925987005234, "333": 0.005745520815253258, "334": -0.023794781416654587, "335": 0.003426135517656803, "336": -0.006922729779034853, "337": -0.034838344901800156, "338": 0.017776301130652428, "339": -0.0059391469694674015, "340": 0.035450320690870285, "341": 0.010644206777215004, "342": -0.0072747208178043365, "343": -0.002595527097582817, "344": 0.01676141656935215, "345": -0.015275206416845322, "346": -0.0026144213043153286, "347": -0.007123968098312616, "348": 0.004100819118320942, "349": -0.024696240201592445, "350": -0.009459258988499641, "351": -0.0007475219899788499, "352": 0.02077946998178959, "353": -0.03700905665755272, "354": 0.029431868344545364, "355": 0.03924199193716049, "356": 0.023575952276587486, "357": 0.0430021658539772, "358": 0.05857452005147934, "359": -0.046310022473335266, "360": -0.042364321649074554, "361": 0.0590093769133091, "362": 0.002123251324519515, "363": -0.02248506247997284, "364": -0.016656076535582542, "365": -0.0054199714213609695, "366": 0.006342601031064987, "367": 0.03552979603409767, "368": -0.007325544487684965, "369": -0.028698483482003212, "370": 0.013947445899248123, "371": -0.00489312456920743, "372": 0.019698111340403557, "373": 0.01841812953352928, "374": 0.014472178183495998, "375": 0.0006307828007265925, "376": 0.023899851366877556, "377": -0.030094105750322342, "378": -0.003703128779307008, "379": 0.021690625697374344, "380": 0.016961680725216866, "381": -0.012436740100383759, "382": -0.026067061349749565, "383": -0.0001893343433039263, "384": 0.016970310360193253, "385": -0.02409764565527439, "386": 0.040673356503248215, "387": 0.004127953201532364, "388": -0.024374686181545258, "389": 0.032547347247600555, "390": -0.002176885260269046, "391": -0.04604567214846611, "392": -0.024037079885601997, "393": -0.003180287079885602, "394": 0.012597315944731236, "395": -0.010041221976280212, "396": -0.019142640754580498, "397": 0.008980401791632175, "398": -0.07541587948799133, "399": -0.04159686341881752, "400": 0.023877212777733803, "401": 0.02614307403564453, "402": 0.00301364972256124, "403": 0.02492600306868553, "404": -0.022330692037940025, "405": 0.0002863326226361096, "406": -0.034315891563892365, "407": 0.0040058414451777935, "408": 0.004144186619669199, "409": 0.0068280636332929134, "410": 0.04020419716835022, "411": 0.03457406535744667, "412": -0.010251753963530064, "413": -0.07438863068819046, "414": 0.01294404361397028, "415": 0.04178782179951668, "416": -0.006013539619743824, "417": -0.008681151084601879, "418": 0.037377022206783295, "419": 0.007199040148407221, "420": 0.0005627700593322515, "421": 0.012403201311826706, "422": 0.012738087214529514, "423": -0.004954356700181961, "424": -0.0014078224776312709, "425": 0.03290897607803345, "426": -0.026688123121857643, "427": 0.027783572673797607, "428": -0.02098485268652439, "429": -0.02633947692811489, "430": -0.016434824094176292, "431": -0.002307266229763627, "432": 0.026968413963913918, "433": 0.009475775063037872, "434": -0.012769939377903938, "435": 0.01807398721575737, "436": -0.005725787952542305, "437": -0.02095611020922661, "438": -0.018172789365053177, "439": 0.029792511835694313, "440": 0.022091791033744812, "441": -0.0028237104415893555, "442": 0.036519236862659454, "443": 0.021593354642391205, "444": 0.011705812998116016, "445": -0.02743680216372013, "446": -0.014266951009631157, "447": 0.015241577289998531, "448": 0.009650396183133125, "449": -0.03622937947511673, "450": 0.0125785106793046, "451": 0.03760407865047455, "452": 0.01782490685582161, "453": 0.0032295770943164825, "454": 0.038628652691841125, "455": -0.03883013129234314, "456": 0.007480212952941656, "457": 0.0009254641481675208, "458": 0.022839169949293137, "459": 0.022032087668776512, "460": -0.010395552963018417, "461": 0.010667290538549423, "462": -0.022320641204714775, "463": 0.01174511481076479, "464": -0.007373446598649025, "465": 0.004835804924368858, "466": 0.005881470162421465, "467": 0.019922571256756783, "468": -0.01665211096405983, "469": 0.010573931969702244, "470": 0.016425536945462227, "471": 0.019220462068915367, "472": 0.01961243711411953, "473": -0.04462704062461853, "474": 0.042994026094675064, "475": 0.02409186027944088, "476": 0.02507825568318367, "477": 0.012903905473649502, "478": -0.011083959601819515, "479": 0.005803879350423813, "480": -0.005533694755285978, "481": 0.018447425216436386, "482": -0.018284182995557785, "483": 0.005878052208572626, "484": 0.03045627288520336, "485": 0.022156741470098495, "486": 0.04888477176427841, "487": 0.05071433633565903, "488": -0.020858420059084892, "489": 0.03307792916893959, "490": -0.01140846312046051, "491": 0.00696601765230298, "492": 0.013158333487808704, "493": -0.007705396041274071, "494": -0.015531790442764759, "495": 0.019149305298924446, "496": -0.002059168415144086, "497": 0.026930347084999084, "498": 0.016793454065918922, "499": 0.010605908930301666, "500": 0.016663851216435432, "501": 0.035489145666360855, "502": 0.02245323918759823, "503": 0.007513565011322498, "504": 0.02587290294468403, "505": -0.02855764515697956, "506": 0.03174366056919098, "507": -0.004532878287136555, "508": 0.058535367250442505, "509": -0.05767803266644478, "510": 0.0342993438243866, "511": 0.005190643481910229, "512": -0.00091081130085513, "513": 0.03384300693869591, "514": -0.013067226856946945, "515": -0.05020859092473984, "516": 0.02071942575275898, "517": 0.012499851174652576, "518": 0.017993759363889694, "519": 0.021101975813508034, "520": 0.012409582734107971, "521": -0.04783603921532631, "522": 0.07243821769952774, "523": -0.05347210168838501, "524": 0.004293540492653847, "525": 0.0801970362663269, "526": -0.020904328674077988, "527": -0.04718348756432533, "528": 0.013931438326835632, "529": -0.02225528657436371, "530": -0.01831355132162571, "531": -0.008596177212893963, "532": -0.04577097296714783, "533": 0.010031761601567268, "534": -0.052962880581617355, "535": -0.021023064851760864, "536": -0.04347802698612213, "537": -0.008242418058216572, "538": 0.011158854700624943, "539": -0.028185714036226273, "540": 0.12083663046360016, "541": -0.01887505128979683, "542": 0.00481170229613781, "543": -0.0005611676024273038, "544": -0.012558887712657452, "545": 0.02830895595252514, "546": 0.0013699487317353487, "547": -0.014550816267728806, "548": 0.06726305931806564, "549": -0.033649612218141556, "550": 0.008002763614058495, "551": -0.03683564439415932, "552": -0.0018876894610002637, "553": 0.0031303823925554752, "554": 0.0705372616648674, "555": -0.004314974881708622, "556": -0.0007843319326639175, "557": 0.04604750871658325, "558": 0.03871268033981323, "559": 0.0062374938279390335, "560": -0.019102327525615692, "561": -0.05901284143328667, "562": -0.02734270691871643, "563": 0.022192588075995445, "564": 0.05421021580696106, "565": -0.07899172604084015, "566": -0.029862750321626663, "567": -0.000430807180237025, "568": -0.022441605105996132, "569": 0.01677919551730156, "570": 0.02448834851384163, "571": -0.0017188368365168571, "572": 0.07726354151964188, "573": 0.018298033624887466, "574": 0.004040357191115618, "575": -0.0064847152680158615, "576": 0.019716177135705948, "577": 0.008054573088884354, "578": 0.0035798163153231144, "579": -0.01217850111424923, "580": 0.04195236414670944, "581": -0.02661805786192417, "582": -0.006013316102325916, "583": -0.028381051495671272, "584": -0.018982447683811188, "585": -0.0018533817492425442, "586": 0.01884976401925087, "587": -0.0027230936102569103, "588": -0.023809192702174187, "589": 0.020378395915031433, "590": -0.012192290276288986, "591": 0.005591843277215958, "592": -0.0355711355805397, "593": -0.06043402850627899, "594": -0.011352457106113434, "595": 0.030252890661358833, "596": 0.06437932699918747, "597": 0.0014841959346085787, "598": -0.04543120041489601, "599": -0.020643217489123344, "600": 0.0013961944496259093, "601": 0.039834436029195786, "602": 0.011911497451364994, "603": -0.04638011381030083, "604": 0.0483071506023407, "605": -0.025754448026418686, "606": -0.02087411656975746, "607": -0.031067203730344772, "608": 0.026996292173862457, "609": -0.0344492606818676, "610": 0.006319125182926655, "611": 0.010975365526974201, "612": -0.023747099563479424, "613": 0.06826554983854294, "614": 0.033535558730363846, "615": -0.06526173651218414, "616": -0.03120253048837185, "617": -0.023774517700076103, "618": 0.04705101251602173, "619": -0.03525007143616676, "620": 0.004250295460224152, "621": -0.005873490124940872, "622": 0.00784299522638321, "623": 0.031801965087652206, "624": -0.03783244639635086, "625": -0.033164676278829575, "626": -0.0013575017219409347, "627": 0.019620755687355995, "628": 0.04336905851960182, "629": 0.0009278875659219921, "630": 0.03185611963272095, "631": -0.02675471268594265, "632": 0.03383931517601013, "633": 0.023680439218878746, "634": 0.004954949952661991, "635": 0.02584340237081051, "636": 0.032248541712760925, "637": -0.05496037006378174, "638": -0.024809082970023155, "639": -0.0445847287774086, "640": 0.04019852727651596, "641": -0.025948969647288322, "642": 0.05274306610226631, "643": 0.002816691529005766, "644": 0.023703331127762794, "645": 0.05332944914698601, "646": 0.01645812578499317, "647": -0.0789109542965889, "648": -0.021198546513915062, "649": -0.024388521909713745, "650": -0.0007927127880975604, "651": 0.014539419673383236, "652": 0.00837742444127798, "653": 0.00011083403660450131, "654": -0.05480397865176201, "655": 0.03510979562997818, "656": -0.01056328509002924, "657": 0.026907045394182205, "658": 0.005508162546902895, "659": 0.00620040949434042, "660": 0.010097475722432137, "661": -0.01692316308617592, "662": 0.008229599334299564, "663": -0.012353518977761269, "664": 0.02013583667576313, "665": -0.0012305398704484105, "666": 0.03629325330257416, "667": 0.006283642258495092, "668": 0.023665932938456535, "669": -0.02825198881328106, "670": 0.009330200962722301, "671": -0.007021539844572544, "672": 0.011342555284500122, "673": 0.009653310291469097, "674": 0.011508618481457233, "675": -0.028437478467822075, "676": 0.025981951504945755, "677": 0.03884458914399147, "678": 0.03838919475674629, "679": -0.05747862532734871, "680": -0.0005768335540778935, "681": 0.024982841685414314, "682": 0.0041473680175840855, "683": 0.03744039684534073, "684": -0.047728031873703, "685": -0.03628930449485779, "686": -0.011350270360708237, "687": 0.0005908606108278036, "688": -0.010644150897860527, "689": 0.02142971195280552, "690": 0.0015410586493089795, "691": 0.00639854371547699, "692": -0.017358027398586273, "693": 0.004512614570558071, "694": -0.03211405500769615, "695": 0.05332494527101517, "696": -0.015912877395749092, "697": -0.02193489298224449, "698": 0.034695085138082504, "699": 0.008372881449759007, "700": 0.026705408468842506, "701": 0.00716315908357501, "702": 0.006182431243360043, "703": -0.022250188514590263, "704": 0.0032247265335172415, "705": -0.03718876093626022, "706": -0.02557983435690403, "707": 0.03037419356405735, "708": -0.013601066544651985, "709": 0.03882618993520737, "710": 0.05813853442668915, "711": -0.022779680788517, "712": 0.027443895116448402, "713": 0.038437165319919586, "714": 0.03111335262656212, "715": 0.0007318728021346033, "716": 0.0032919812947511673, "717": -0.012595384381711483, "718": -0.013628301210701466, "719": 0.009257053956389427, "720": 0.033354636281728745, "721": 0.0227926317602396, "722": 0.014740938320755959, "723": -0.0047848825342953205, "724": -0.014845902100205421, "725": -0.02310345694422722, "726": 0.028170673176646233, "727": 0.027469640597701073, "728": 0.0019911706913262606, "729": -0.03592909500002861, "730": 0.017965715378522873, "731": -0.019211413338780403, "732": 0.0192240159958601, "733": 0.007786555681377649, "734": -0.03695804998278618, "735": -0.008730094879865646, "736": -0.0010008752578869462, "737": -0.026498159393668175, "738": -0.022304704412817955, "739": 0.020650945603847504, "740": 0.010746393352746964, "741": 0.04548671096563339, "742": 0.06194024533033371, "743": 0.0018131169490516186, "744": 0.0006709586596116424, "745": 0.016163764521479607, "746": -0.0035156533122062683, "747": 0.011205041781067848, "748": -0.03237229958176613, "749": -0.014017924666404724, "750": -0.051473043859004974, "751": -0.0230040792375803, "752": -0.010128840804100037, "753": 0.05366360396146774, "754": 0.024153275415301323, "755": 0.003889999119564891, "756": -0.02495509944856167, "757": 0.03259154409170151, "758": 0.03084862045943737, "759": 0.028848256915807724, "760": -0.020405922085046768, "761": -0.003416801802814007, "762": 0.030284153297543526, "763": 0.017865901812911034, "764": 0.06721040606498718, "765": -0.0035886764526367188, "766": 0.001961813773959875, "767": -0.01802585832774639, "768": 0.030978631228208542, "769": 0.035331036895513535, "770": 0.04595043510198593, "771": -0.02435307390987873, "772": 0.02591676078736782, "773": 0.021978367120027542, "774": 0.020911378785967827, "775": 0.04332788288593292, "776": -0.006097838748246431, "777": -0.029599325731396675, "778": 0.08021501451730728, "779": -0.03817598149180412, "780": -0.03076694719493389, "781": 0.1074390634894371, "782": -0.03425846993923187, "783": -0.02886245772242546, "784": 0.012548079714179039, "785": -0.03606647253036499, "786": -0.050973184406757355, "787": -0.012072928249835968, "788": -0.009944470599293709, "789": 0.013808413408696651, "790": -0.07756974548101425, "791": -0.044537924230098724, "792": -0.005163403693586588, "793": 0.023724913597106934, "794": 0.015912344679236412, "795": -0.10484611243009567, "796": 0.1367887258529663, "797": -0.019449660554528236, "798": -0.03303314372897148, "799": 0.040950194001197815, "800": 0.039831459522247314, "801": 0.027914956212043762, "802": 0.007870346307754517, "803": 0.011169135570526123, "804": 0.038888413459062576, "805": -0.02986185811460018, "806": -0.00687131192535162, "807": 0.00934672262519598, "808": 0.004259658046066761, "809": -0.021398823708295822, "810": 0.07675056904554367, "811": -0.015241088345646858, "812": -0.028984099626541138, "813": 0.022119594737887383, "814": 0.03142780438065529, "815": 0.02063208632171154, "816": 0.0061468579806387424, "817": -0.048949502408504486, "818": -0.05355754494667053, "819": 0.021006356924772263, "820": 0.031856436282396317, "821": -0.004800856579095125, "822": -0.04097365587949753, "823": -0.0012202042853459716, "824": -0.023176085203886032, "825": 0.03952814266085625, "826": 0.01809387467801571, "827": -0.07236651331186295, "828": 0.049296192824840546, "829": 0.00322648580186069, "830": -0.0017134785884991288, "831": 0.05093425139784813, "832": 0.008524986915290356, "833": -0.0005343217635527253, "834": -0.00273526250384748, "835": 0.015813618898391724, "836": 0.0004672922659665346, "837": 0.005036019720137119, "838": 0.023988230153918266, "839": -0.020123690366744995, "840": -0.014721749350428581, "841": 0.0054573239758610725, "842": 0.03564978018403053, "843": -0.04473692551255226, "844": -0.045159973204135895, "845": 0.04219241067767143, "846": -0.005887356121093035, "847": 0.015848413109779358, "848": 0.007811827585101128, "849": -0.055751338601112366, "850": -0.060373455286026, "851": 0.055559881031513214, "852": 0.049509502947330475, "853": -0.013318470679223537, "854": -0.05297641456127167, "855": -0.015451944433152676, "856": 0.012381241656839848, "857": 0.042313795536756516, "858": 0.0289800725877285, "859": -0.0742533802986145, "860": 0.019285019487142563, "861": -0.022585488855838776, "862": -0.02219201810657978, "863": 0.04907091334462166, "864": 0.04636123403906822, "865": -0.011181553825736046, "866": 0.03839258477091789, "867": -0.004495022818446159, "868": -0.009294497780501842, "869": 0.0180654413998127, "870": 0.010787678882479668, "871": -0.004297662992030382, "872": -0.009053410962224007, "873": 0.010104004293680191, "874": 0.018280941992998123, "875": -0.023194866254925728, "876": -0.01976899802684784, "877": 0.025378109887242317, "878": 0.021989386528730392, "879": 0.023097701370716095, "880": -0.07138734310865402, "881": -0.004885954782366753, "882": -0.01654426008462906, "883": 0.04864412173628807, "884": 0.009486360475420952, "885": -0.08872499316930771, "886": 0.00021890105563215911, "887": 0.01228471752256155, "888": 0.006869325414299965, "889": 0.016342617571353912, "890": 0.05341186746954918, "891": 0.048519935458898544, "892": 0.030880197882652283, "893": -0.034684132784605026, "894": -0.037476666271686554, "895": -0.013470069505274296, "896": 0.04789118468761444, "897": -0.0007983301184140146, "898": 0.02986440435051918, "899": -0.020755400881171227, "900": -0.02420785091817379, "901": 0.0345897451043129, "902": 0.027431704103946686, "903": -0.011866667307913303, "904": -0.03407010808587074, "905": -0.027940664440393448, "906": 0.0322459377348423, "907": 0.007335371803492308, "908": -0.03166402876377106, "909": 0.0279626976698637, "910": -0.03880546614527702, "911": 0.018653733655810356, "912": -0.019598208367824554, "913": 0.03797498345375061, "914": 0.06662990897893906, "915": 0.02930395118892193, "916": 0.03458172082901001, "917": -0.03844796121120453, "918": 0.01613987609744072, "919": -0.015041162259876728, "920": -0.03408687934279442, "921": 0.020181382074952126, "922": 0.059920456260442734, "923": 0.06758712232112885, "924": -0.037559449672698975, "925": 0.0038229539059102535, "926": 0.01109622698277235, "927": -0.014740580692887306, "928": -0.015965620055794716, "929": -0.027481576427817345, "930": -0.019760223105549812, "931": -0.03030366264283657, "932": -4.203866410534829e-05, "933": 0.04975587874650955, "934": 0.03461158275604248, "935": -0.03997427225112915, "936": -0.013110539875924587, "937": 0.0007689576596021652, "938": 0.0009209347772412002, "939": 0.01795012876391411, "940": -0.02145290933549404, "941": 0.01389845460653305, "942": -0.023797787725925446, "943": 0.009222232736647129, "944": -0.005623608827590942, "945": 0.0329132117331028, "946": 0.013706081546843052, "947": 0.0023493128828704357, "948": -0.0028777255211025476, "949": 0.019889602437615395, "950": 0.03050241619348526, "951": 0.01224315445870161, "952": -0.03896031528711319, "953": -0.0021920299623161554, "954": 0.033472951501607895, "955": 0.05455504357814789, "956": 0.01659829542040825, "957": 0.0009394639637321234, "958": -0.03816903755068779, "959": 0.008930078707635403, "960": 0.03461571782827377, "961": -0.010863225907087326, "962": -0.0637311264872551, "963": -0.059531304985284805, "964": -0.012856907211244106, "965": 0.057104166597127914, "966": 0.054677411913871765, "967": -0.038942985236644745, "968": 0.01838270202279091, "969": 0.007283850107342005, "970": 0.03741445392370224, "971": 0.01337607391178608, "972": 0.0200674906373024, "973": 0.015689659863710403, "974": -0.02435215562582016, "975": 0.04580054059624672, "976": -0.03343093767762184, "977": 0.017641127109527588, "978": 0.039439037442207336, "979": 0.020346317440271378, "980": 0.022343717515468597, "981": 0.006511895917356014, "982": 0.06544721871614456, "983": 0.025845590978860855, "984": -0.05308736488223076, "985": 0.009729607030749321, "986": 0.042398810386657715, "987": 0.006055701058357954, "988": 0.04883180931210518, "989": -0.0057525308802723885, "990": 0.04231679067015648, "991": 0.00492047518491745, "992": -0.003058335045352578, "993": -0.023845521733164787, "994": -0.06314782798290253, "995": -0.015128363855183125, "996": 0.020545272156596184, "997": 0.042046062648296356, "998": 0.06612618267536163, "999": 0.02511366456747055, "1000": 0.0238971970975399, "1001": -0.01105896569788456, "1002": 0.015947680920362473, "1003": -0.03138913959264755, "1004": 0.004622786305844784, "1005": -0.013248832896351814, "1006": -0.07082483172416687, "1007": -0.004459324758499861, "1008": 0.012128671631217003, "1009": 0.0579686239361763, "1010": 0.04012133181095123, "1011": 0.00530486274510622, "1012": -0.004285698756575584, "1013": 0.03650468587875366, "1014": 0.050121139734983444, "1015": 0.045343734323978424, "1016": -0.08115064352750778, "1017": 0.011486435309052467, "1018": 0.029185185208916664, "1019": -0.012709156610071659, "1020": 0.08557915687561035, "1021": -0.030984167009592056, "1022": 0.02551181986927986, "1023": -0.016425253823399544, "1024": 0.01784297078847885, "1025": 0.03816782310605049, "1026": 0.036038368940353394, "1027": 0.04397374391555786, "1028": 0.021544670686125755, "1029": 0.034966014325618744, "1030": 0.014036547392606735, "1031": 0.031044578179717064, "1032": -0.01849212497472763, "1033": -0.01468698401004076, "1034": 0.08869379758834839, "1035": -0.019980233162641525, "1036": -0.03712651506066322, "1037": 0.08933904767036438, "1038": -0.049361005425453186, "1039": -0.004433120135217905, "1040": 0.008589638397097588, "1041": 0.002342280000448227, "1042": -0.04497457668185234, "1043": 0.017367800697684288, "1044": -0.03249309957027435, "1045": -0.04487723484635353, "1046": -0.01590130850672722, "1047": -0.0004833140119444579, "1048": -0.008670331910252571, "1049": -0.002508430741727352, "1050": 0.06747528165578842, "1051": -0.11865068227052689, "1052": 0.13832101225852966, "1053": -0.04559135064482689, "1054": 0.03180253505706787, "1055": 0.0476224422454834, "1056": 0.06910112500190735, "1057": 0.024024832993745804, "1058": -0.00023153495567385107, "1059": 0.0459287092089653, "1060": -0.005359321366995573, "1061": 0.013282719068229198, "1062": 0.0032088859006762505, "1063": 0.015088078565895557, "1064": -0.0075153205543756485, "1065": -0.03311384096741676, "1066": 0.03852137178182602, "1067": -0.05496371164917946, "1068": -0.02229204773902893, "1069": 0.03664907068014145, "1070": 0.028790436685085297, "1071": 0.016017315909266472, "1072": -0.02457565814256668, "1073": -0.08345233649015427, "1074": -0.05717853829264641, "1075": 0.029346412047743797, "1076": 0.026137448847293854, "1077": -0.009577613323926926, "1078": -0.030376503244042397, "1079": -0.03715331852436066, "1080": -0.02572798542678356, "1081": 0.031126871705055237, "1082": 0.023432716727256775, "1083": -0.11974005401134491, "1084": 0.08522170037031174, "1085": -0.037370793521404266, "1086": 0.017198096960783005, "1087": 0.012364446185529232, "1088": 0.05509353429079056, "1089": 0.007887155748903751, "1090": 0.0052034733816981316, "1091": 0.014073510654270649, "1092": -0.0009682938689365983, "1093": 0.008297830820083618, "1094": -0.008558474481105804, "1095": 0.007302066311240196, "1096": -0.03875092417001724, "1097": -0.05060112103819847, "1098": 0.04920390620827675, "1099": -0.09799446165561676, "1100": -0.004039223305881023, "1101": 0.02530304528772831, "1102": 0.006193856708705425, "1103": 0.022956710308790207, "1104": 0.0010668148752301931, "1105": -0.042927104979753494, "1106": -0.06119433417916298, "1107": 0.08081121742725372, "1108": 0.0449441634118557, "1109": -0.03786047548055649, "1110": -0.025913506746292114, "1111": 0.009317969903349876, "1112": 0.005508869886398315, "1113": 0.03270569443702698, "1114": 0.030829962342977524, "1115": -0.1131981611251831, "1116": 0.05520470812916756, "1117": -0.009148100391030312, "1118": 0.005968613550066948, "1119": 0.0020587570033967495, "1120": 0.033132392913103104, "1121": -0.029762377962470055, "1122": 0.02200540341436863, "1123": -0.04817172884941101, "1124": 0.019628550857305527, "1125": 0.041044194251298904, "1126": -0.01650613360106945, "1127": -0.020755212754011154, "1128": -0.05106580629944801, "1129": -0.015906594693660736, "1130": 0.017581790685653687, "1131": -0.00914045050740242, "1132": -0.055174898356199265, "1133": 0.03594823554158211, "1134": -0.00886877253651619, "1135": 0.043452564626932144, "1136": -0.01442419458180666, "1137": -0.02330719120800495, "1138": 0.004938026890158653, "1139": 0.06237151101231575, "1140": 0.010372654534876347, "1141": -0.0051310923881828785, "1142": 0.05954975634813309, "1143": -0.030564531683921814, "1144": 0.0282306969165802, "1145": 0.014155121520161629, "1146": 0.046070802956819534, "1147": -0.010547628626227379, "1148": 0.021542180329561234, "1149": -0.03541243448853493, "1150": -0.008492153137922287, "1151": -0.010012703947722912, "1152": 0.021053442731499672, "1153": -0.03728782758116722, "1154": -0.0021344779524952173, "1155": -0.03553123027086258, "1156": -0.01814667508006096, "1157": 0.01702922396361828, "1158": -0.021019689738750458, "1159": -0.026024816557765007, "1160": -0.028751682490110397, "1161": -0.02576824277639389, "1162": -0.0033734070602804422, "1163": 0.027625344693660736, "1164": -0.0713191106915474, "1165": 0.02222359925508499, "1166": -0.028335047885775566, "1167": 0.035707321017980576, "1168": -0.021191544830799103, "1169": 0.023475008085370064, "1170": 0.030629927292466164, "1171": 0.08595535904169083, "1172": 0.049102216958999634, "1173": -0.016506187617778778, "1174": 0.03916382044553757, "1175": -0.04904991388320923, "1176": -0.054909612983465195, "1177": -0.004814710933715105, "1178": 0.09695583581924438, "1179": 0.024132827296853065, "1180": 0.014879964292049408, "1181": -0.014060217887163162, "1182": -0.055974431335926056, "1183": 0.021097533404827118, "1184": 0.021736742928624153, "1185": -0.03267555683851242, "1186": -0.02058819681406021, "1187": -0.012692137621343136, "1188": 0.012367847375571728, "1189": 0.03864864259958267, "1190": 0.05825473368167877, "1191": -0.015192021615803242, "1192": -0.02843141183257103, "1193": 0.010206121020019054, "1194": 0.02389112114906311, "1195": 0.057439371943473816, "1196": -0.006524564232677221, "1197": -0.013817163184285164, "1198": -0.026849692687392235, "1199": 0.004377753008157015, "1200": -0.02120763622224331, "1201": 0.02954706735908985, "1202": 0.02716718800365925, "1203": 0.021466827020049095, "1204": 0.0029796911403536797, "1205": 0.03426269441843033, "1206": 0.03407735005021095, "1207": -0.0054993825033307076, "1208": -0.06791344285011292, "1209": -0.023866970092058182, "1210": 0.038343749940395355, "1211": -0.010538388974964619, "1212": -0.0008433119510300457, "1213": 0.014004526659846306, "1214": -0.009112213738262653, "1215": -0.004306334536522627, "1216": 0.03068607486784458, "1217": -0.013136327266693115, "1218": -0.04016762971878052, "1219": -0.06442640721797943, "1220": -0.002262349473312497, "1221": 0.012622417882084846, "1222": 0.05319587141275406, "1223": -0.05401080474257469, "1224": 0.04211645573377609, "1225": 0.019232697784900665, "1226": 0.011570229195058346, "1227": 0.06074575334787369, "1228": 0.052388809621334076, "1229": -0.03149087727069855, "1230": -0.035558171570301056, "1231": 0.023199016228318214, "1232": -0.01291877031326294, "1233": 0.06120436638593674, "1234": 0.04917047545313835, "1235": 0.00638126116245985, "1236": -0.003702764166519046, "1237": 0.01111106388270855, "1238": 0.04525372013449669, "1239": 0.04479904845356941, "1240": -0.08397669345140457, "1241": -0.0003003397141583264, "1242": 0.04288649559020996, "1243": -0.040375929325819016, "1244": 0.07848122715950012, "1245": 0.004711525049060583, "1246": 0.012536522932350636, "1247": 0.04375138506293297, "1248": 0.009556355886161327, "1249": -0.02240527793765068, "1250": -0.11721881479024887, "1251": 0.03371572867035866, "1252": 0.02062779664993286, "1253": 0.028041183948516846, "1254": 0.07122576236724854, "1255": 0.012847382575273514, "1256": 0.06782811135053635, "1257": -0.0022805114276707172, "1258": 0.011010180227458477, "1259": -0.016419868916273117, "1260": -0.0253727026283741, "1261": -0.07164372503757477, "1262": -0.04348566010594368, "1263": -0.013844063505530357, "1264": -0.020831091329455376, "1265": 0.05388154461979866, "1266": 0.07574529200792313, "1267": 0.024931663647294044, "1268": -0.006849510595202446, "1269": 0.0218562800437212, "1270": 0.037223830819129944, "1271": 0.032599568367004395, "1272": -0.08998914808034897, "1273": 0.009035319089889526, "1274": 0.04891755059361458, "1275": 0.0340430922806263, "1276": 0.08669092506170273, "1277": -0.0014918495435267687, "1278": -0.03800481930375099, "1279": 0.00888299010694027, "1280": 0.018372343853116035, "1281": 0.045941948890686035, "1282": 0.03562000393867493, "1283": -0.038814742118120193, "1284": 0.025970788672566414, "1285": 0.07115918397903442, "1286": 0.02771466225385666, "1287": 0.04008394107222557, "1288": 0.005566738545894623, "1289": -0.024258751422166824, "1290": 0.0462820865213871, "1291": -0.04363786429166794, "1292": -0.036728717386722565, "1293": 0.09939516335725784, "1294": -0.04629645496606827, "1295": 0.018051939085125923, "1296": -0.018443234264850616, "1297": -0.02040770836174488, "1298": -0.05677922070026398, "1299": 0.029995296150445938, "1300": -0.03744781017303467, "1301": -0.022413713857531548, "1302": -0.027545221149921417, "1303": 0.013963923789560795, "1304": -0.021811330690979958, "1305": -0.009744192473590374, "1306": 0.061795759946107864, "1307": -0.1376638114452362, "1308": 0.11113211512565613, "1309": -0.05419563129544258, "1310": 0.029940040782094002, "1311": 0.003235579002648592, "1312": 0.04255480319261551, "1313": 0.027860110625624657, "1314": -0.01983805187046528, "1315": 0.030317531898617744, "1316": -0.010656388476490974, "1317": 0.013688916340470314, "1318": 0.022969475015997887, "1319": -0.005082824733108282, "1320": 0.021043285727500916, "1321": -0.0097112525254488, "1322": 0.019485877826809883, "1323": -0.07636479288339615, "1324": 0.00484461011365056, "1325": 0.08936583250761032, "1326": 0.010251767002046108, "1327": -0.0138759296387434, "1328": -0.011734078638255596, "1329": -0.06553030014038086, "1330": -0.055023808032274246, "1331": 0.03896061331033707, "1332": 0.03134270757436752, "1333": -0.029246484860777855, "1334": -0.030258450657129288, "1335": 0.007919111289083958, "1336": -0.016750048846006393, "1337": 0.017774833366274834, "1338": 0.04022344574332237, "1339": -0.0912572368979454, "1340": 0.07262378185987473, "1341": -0.0035869209095835686, "1342": 0.04994088411331177, "1343": -0.013963489793241024, "1344": 0.025273825973272324, "1345": 0.014949178323149681, "1346": -0.024076320230960846, "1347": 0.017055168747901917, "1348": 0.0313781201839447, "1349": 0.03236019238829613, "1350": 0.040769048035144806, "1351": 0.03615787997841835, "1352": -0.004099976737052202, "1353": -0.05183187127113342, "1354": 0.052804745733737946, "1355": -0.10322429984807968, "1356": -0.026482975110411644, "1357": 0.03535619005560875, "1358": -0.04688544198870659, "1359": 0.064666248857975, "1360": 0.00245667458511889, "1361": -0.019526567310094833, "1362": -0.02966419793665409, "1363": 0.06826626509428024, "1364": 0.023411713540554047, "1365": -0.004480996169149876, "1366": 0.0081854946911335, "1367": -0.023919226601719856, "1368": -0.014672739431262016, "1369": -0.013271784409880638, "1370": 0.05425475537776947, "1371": -0.060495659708976746, "1372": 0.0347038172185421, "1373": -0.01690654084086418, "1374": 0.009554365649819374, "1375": 0.01818564161658287, "1376": 0.020879218354821205, "1377": -0.0317082405090332, "1378": -0.001641843351535499, "1379": 0.014625534415245056, "1380": -0.01810680888593197, "1381": 0.025104224681854248, "1382": -0.010480282828211784, "1383": 0.018878141418099403, "1384": -0.014510467648506165, "1385": -0.03807052969932556, "1386": -0.02546478994190693, "1387": -0.0332568995654583, "1388": -0.05920194834470749, "1389": 0.02262059785425663, "1390": -0.06420216709375381, "1391": 0.05585155636072159, "1392": -0.0023941462859511375, "1393": -0.02004709094762802, "1394": -0.005346700549125671, "1395": 0.05322695150971413, "1396": -0.02169235609471798, "1397": -0.0016003991477191448, "1398": 0.042442437261343, "1399": -0.02976597659289837, "1400": -0.04714508727192879, "1401": -0.012864680029451847, "1402": 0.0733809694647789, "1403": -0.015505942516028881, "1404": 0.05400971695780754, "1405": 0.0022022328339517117, "1406": -0.047848429530858994, "1407": -0.034616898745298386, "1408": 0.06069270893931389, "1409": -0.06047087535262108, "1410": 0.04319319501519203, "1411": -0.0026272626128047705, "1412": 0.0095107676461339, "1413": 0.01506669633090496, "1414": -0.015373846516013145, "1415": 0.003999872133135796, "1416": -0.033381860703229904, "1417": -0.03699088469147682, "1418": -0.01735527254641056, "1419": -0.064997099339962, "1420": -0.06931769102811813, "1421": -0.0031258452218025923, "1422": -0.03975673019886017, "1423": 0.06067350506782532, "1424": -0.004163398407399654, "1425": 0.0284076277166605, "1426": 0.045343752950429916, "1427": 0.07494039088487625, "1428": 0.0056899599730968475, "1429": -0.037482280284166336, "1430": 0.06556204706430435, "1431": -0.06344969570636749, "1432": -0.0705992802977562, "1433": -0.011879275552928448, "1434": 0.09795188158750534, "1435": -0.010404850356280804, "1436": 0.03274005278944969, "1437": -0.0048570106737315655, "1438": -0.04900994896888733, "1439": 0.00891080778092146, "1440": 0.007167923729866743, "1441": -0.03870692849159241, "1442": -0.04336904361844063, "1443": -0.01495038066059351, "1444": 0.0042901234701275826, "1445": 0.017594723030924797, "1446": 0.02600077912211418, "1447": -0.015244758687913418, "1448": -0.046458881348371506, "1449": 0.014134659431874752, "1450": 0.01814735308289528, "1451": 0.039644453674554825, "1452": -0.006743222940713167, "1453": -0.007783045060932636, "1454": -0.03018338419497013, "1455": 0.021149469539523125, "1456": 0.021727297455072403, "1457": 0.025320231914520264, "1458": 0.05157600715756416, "1459": 0.004703967832028866, "1460": 0.017087165266275406, "1461": -0.0009714167099446058, "1462": 0.0542915016412735, "1463": 0.002944848034530878, "1464": -0.042030636221170425, "1465": -0.03430243209004402, "1466": 0.09372881799936295, "1467": -0.05387129262089729, "1468": 0.02783111482858658, "1469": -0.005765177309513092, "1470": -0.016747137531638145, "1471": 0.034787632524967194, "1472": 0.0015471582300961018, "1473": -0.044720377773046494, "1474": -0.0753750130534172, "1475": -0.020309139043092728, "1476": -0.009077820926904678, "1477": -0.014328526332974434, "1478": 0.020050741732120514, "1479": -0.04013738036155701, "1480": 0.03243955969810486, "1481": -0.02334303967654705, "1482": 0.029522161930799484, "1483": 0.06448722630739212, "1484": 0.008540821261703968, "1485": 0.0010963069507852197, "1486": -0.03611788526177406, "1487": -0.011734258383512497, "1488": -0.022383488714694977, "1489": 0.03185925632715225, "1490": 0.026160703971982002, "1491": -0.019432781264185905, "1492": 0.0226649921387434, "1493": -0.047770656645298004, "1494": 0.04625915735960007, "1495": -0.027245482429862022, "1496": -0.09771550446748734, "1497": 0.00042591558303683996, "1498": 0.05822378396987915, "1499": -0.0641561821103096, "1500": 0.041366156190633774, "1501": 0.0015461151488125324, "1502": -0.013806235045194626, "1503": -0.02840515971183777, "1504": 0.014691371470689774, "1505": -0.035749904811382294, "1506": -0.08769483119249344, "1507": 0.004561541136354208, "1508": 0.030636653304100037, "1509": 0.034840553998947144, "1510": 0.05301129072904587, "1511": -0.011775615625083447, "1512": 0.06693468987941742, "1513": 0.015581350773572922, "1514": 0.027509160339832306, "1515": 0.005933698732405901, "1516": 0.01822039671242237, "1517": -0.06596194952726364, "1518": -0.02872323989868164, "1519": 0.0190073624253273, "1520": 0.0026217172853648663, "1521": 0.03197220712900162, "1522": 0.09228837490081787, "1523": 0.0007342106546275318, "1524": -0.01853676326572895, "1525": 0.0014106909511610866, "1526": 0.05191009119153023, "1527": 0.02982804737985134, "1528": -0.07070280611515045, "1529": 0.005413709208369255, "1530": 0.040635671466588974, "1531": 0.010664083994925022, "1532": 0.06349118053913116, "1533": 0.014710858464241028, "1534": -0.033054668456315994, "1535": 0.008651676587760448, "1536": 0.034105002880096436, "1537": 0.0652366653084755, "1538": 0.0342910960316658, "1539": 0.005283302627503872, "1540": -0.005308882798999548, "1541": 0.025393906980752945, "1542": 0.047114886343479156, "1543": 0.013133001513779163, "1544": -0.00038694721297360957, "1545": -0.046639613807201385, "1546": 0.05834063142538071, "1547": -0.0447780005633831, "1548": 0.013875041157007217, "1549": 0.09901098906993866, "1550": -0.0702897384762764, "1551": 8.798317139735445e-06, "1552": -0.014613493345677853, "1553": -0.02869785949587822, "1554": -0.08679638803005219, "1555": 0.019718747586011887, "1556": -0.010674146935343742, "1557": -0.04754314571619034, "1558": -0.07126022130250931, "1559": 0.018872002139687538, "1560": -0.03884401544928551, "1561": 0.005873159039765596, "1562": 0.05030892789363861, "1563": -0.1401587873697281, "1564": 0.16373968124389648, "1565": -0.05235850811004639, "1566": 0.019056841731071472, "1567": 0.029452338814735413, "1568": 0.03258984163403511, "1569": 0.03309599682688713, "1570": -0.012702422216534615, "1571": 0.013848074711859226, "1572": -0.023502623662352562, "1573": 0.004514968488365412, "1574": 0.016628630459308624, "1575": 0.013839027844369411, "1576": -0.04509274661540985, "1577": -0.01835845783352852, "1578": 0.03377051651477814, "1579": -0.0630543977022171, "1580": -0.048238106071949005, "1581": 0.05769974738359451, "1582": -0.045241374522447586, "1583": 0.01753249019384384, "1584": -0.0410514771938324, "1585": -0.03140009939670563, "1586": -0.08414719253778458, "1587": 0.03990841284394264, "1588": 0.03565772995352745, "1589": -0.012094230391085148, "1590": -0.038518842309713364, "1591": -0.0029824876692146063, "1592": -0.07948099076747894, "1593": 0.0212143175303936, "1594": -0.003870090004056692, "1595": -0.10323499888181686, "1596": 0.04350166767835617, "1597": 0.014949548058211803, "1598": 0.003901332849636674, "1599": -0.015937114134430885, "1600": 0.07337414473295212, "1601": 0.006508323829621077, "1602": 0.03350727632641792, "1603": 0.0210671778768301, "1604": -0.005842553451657295, "1605": 0.01260377001017332, "1606": 0.05570603162050247, "1607": 0.035406436771154404, "1608": -0.005614212714135647, "1609": -0.025816338136792183, "1610": 0.07050896435976028, "1611": -0.08575630933046341, "1612": -0.0713924765586853, "1613": 0.056587740778923035, "1614": -0.05825071409344673, "1615": 0.07140003889799118, "1616": 0.006664233282208443, "1617": -0.012092538177967072, "1618": -0.07585523277521133, "1619": 0.06968307495117188, "1620": 0.027413038536906242, "1621": 0.006319111678749323, "1622": 0.016778286546468735, "1623": -0.034989528357982635, "1624": -0.042072176933288574, "1625": -0.0014085222501307726, "1626": 0.028664259240031242, "1627": -0.0527137890458107, "1628": 0.0730055719614029, "1629": 0.009935722686350346, "1630": -0.028948884457349777, "1631": 0.03562407195568085, "1632": 0.03285828232765198, "1633": -0.033905282616615295, "1634": 0.032544028013944626, "1635": -0.03110562264919281, "1636": -0.03381980583071709, "1637": 0.012942665256559849, "1638": -0.027890117838978767, "1639": 0.03186068311333656, "1640": -0.07104755192995071, "1641": -0.01531695481389761, "1642": 0.017999574542045593, "1643": -0.0673098936676979, "1644": -0.0714983344078064, "1645": 0.07838074862957001, "1646": -0.08057641983032227, "1647": 0.07927747815847397, "1648": -0.009980903938412666, "1649": 0.005151697900146246, "1650": -0.0029133788775652647, "1651": 0.10222049057483673, "1652": 0.009441106580197811, "1653": -0.051608555018901825, "1654": 0.046020690351724625, "1655": -0.0419243760406971, "1656": -0.04753987118601799, "1657": -0.024541739374399185, "1658": 0.10705286264419556, "1659": -0.06445708125829697, "1660": 0.040900640189647675, "1661": -0.025311974808573723, "1662": -0.0270084235817194, "1663": -0.023949267342686653, "1664": 0.0527367889881134, "1665": -0.029017729684710503, "1666": -0.009501452557742596, "1667": -0.004864869639277458, "1668": 0.025687959045171738, "1669": 0.003829316468909383, "1670": -0.01428291480988264, "1671": -0.00036393344635143876, "1672": -0.025844983756542206, "1673": -0.023475240916013718, "1674": 0.022057807072997093, "1675": -0.04606710746884346, "1676": -0.07908064126968384, "1677": 0.0466642901301384, "1678": -0.05139699578285217, "1679": 0.08202890306711197, "1680": -0.04088226705789566, "1681": -0.0016807281645014882, "1682": 0.025860486552119255, "1683": 0.06709981709718704, "1684": 0.0135533157736063, "1685": -0.03900519385933876, "1686": 0.07112287729978561, "1687": -0.05508338287472725, "1688": -0.06519969552755356, "1689": -0.027522705495357513, "1690": 0.07686953246593475, "1691": -0.03243628144264221, "1692": 0.0687747597694397, "1693": -0.017938271164894104, "1694": -0.035076942294836044, "1695": -0.0046699936501681805, "1696": 0.04985423386096954, "1697": -0.03939461708068848, "1698": -0.033678438514471054, "1699": 0.01739770546555519, "1700": -0.005134043283760548, "1701": -0.025091247633099556, "1702": 0.06969673186540604, "1703": 0.02674013189971447, "1704": -0.043334055691957474, "1705": 0.01799854263663292, "1706": 0.03911649435758591, "1707": 0.02971949428319931, "1708": -0.034056372940540314, "1709": -0.00027201458578929305, "1710": -0.023354921489953995, "1711": 0.021062009036540985, "1712": -0.027950340881943703, "1713": 0.018386386334896088, "1714": 0.07377779483795166, "1715": 0.01390458457171917, "1716": 0.04989204928278923, "1717": -0.031019465997815132, "1718": 0.06377127021551132, "1719": 0.009555301629006863, "1720": -0.1089983806014061, "1721": -0.01897519826889038, "1722": 0.03490293771028519, "1723": -0.05845518782734871, "1724": 0.03818846493959427, "1725": 0.02492414601147175, "1726": -0.004663425963371992, "1727": 0.032998908311128616, "1728": 0.010771825909614563, "1729": -0.02807680144906044, "1730": -0.03358152508735657, "1731": -0.004175073932856321, "1732": 0.014292889274656773, "1733": -0.048016708344221115, "1734": 0.0687592402100563, "1735": -0.006201636046171188, "1736": -0.007393191568553448, "1737": -0.013863220810890198, "1738": 0.050829123705625534, "1739": 0.04472615569829941, "1740": -0.033849895000457764, "1741": 0.01190937589854002, "1742": -0.0554669052362442, "1743": -0.0069538019597530365, "1744": -0.01668885350227356, "1745": 0.05260852724313736, "1746": 0.05108269304037094, "1747": 0.01321405079215765, "1748": 0.020940082147717476, "1749": -0.04981173202395439, "1750": 0.03808203712105751, "1751": -0.008307273499667645, "1752": -0.109520323574543, "1753": 0.008319094777107239, "1754": 0.04123275354504585, "1755": -0.02961624413728714, "1756": 0.03349987044930458, "1757": 0.02044753171503544, "1758": -0.00394039461389184, "1759": -0.02069108746945858, "1760": 0.01627654768526554, "1761": -0.04143481329083443, "1762": -0.039230283349752426, "1763": 0.03451395034790039, "1764": 0.011632707901299, "1765": 0.005182601977139711, "1766": 0.12605902552604675, "1767": 0.012890617363154888, "1768": 0.04550683870911598, "1769": -0.007854598574340343, "1770": 0.03320926055312157, "1771": 0.016660917550325394, "1772": 0.04358775168657303, "1773": -0.03560882806777954, "1774": 0.0024044974707067013, "1775": -0.02699250355362892, "1776": -0.012761727906763554, "1777": 0.08136240392923355, "1778": 0.07222482562065125, "1779": 0.031239764764904976, "1780": -0.01348948385566473, "1781": -0.009765084832906723, "1782": 0.048520997166633606, "1783": 0.029400411993265152, "1784": -0.06352195143699646, "1785": 0.017369618639349937, "1786": 0.07910298556089401, "1787": 0.010567470453679562, "1788": 0.0827673077583313, "1789": 0.0016526131657883525, "1790": 0.014142508618533611, "1791": 0.03546667471528053, "1792": 0.04177894443273544, "1793": 0.08467910438776016, "1794": 0.04385989531874657, "1795": -0.008153182454407215, "1796": -0.02093849517405033, "1797": 0.040535833686590195, "1798": -0.006265511270612478, "1799": 0.03695729747414589, "1800": -0.0011834342731162906, "1801": -0.06356446444988251, "1802": 0.04261898994445801, "1803": -0.03602798283100128, "1804": -0.0053830877877771854, "1805": 0.051004234701395035, "1806": -0.0322628878057003, "1807": -0.006152303423732519, "1808": 0.0425465852022171, "1809": -0.021348802372813225, "1810": -0.08198007941246033, "1811": 0.024664804339408875, "1812": 0.018490774556994438, "1813": 0.026030104607343674, "1814": -0.055174872279167175, "1815": -0.026499195024371147, "1816": 0.015681389719247818, "1817": -0.013235948979854584, "1818": 0.01930474303662777, "1819": -0.06803755462169647, "1820": 0.14813129603862762, "1821": -0.05458367243409157, "1822": 0.025651656091213226, "1823": 0.009114918299019337, "1824": 0.054583773016929626, "1825": 0.04869641363620758, "1826": -0.023515285924077034, "1827": -0.015240401960909367, "1828": -0.005213781725615263, "1829": 0.012522317469120026, "1830": 0.009365563280880451, "1831": 0.0029481167439371347, "1832": 0.01177874207496643, "1833": -0.02675551548600197, "1834": 0.009199691005051136, "1835": -0.03834805637598038, "1836": -0.027231790125370026, "1837": 0.008568920195102692, "1838": -0.03395267575979233, "1839": 0.02876892499625683, "1840": 0.0004089223803021014, "1841": -0.03432149812579155, "1842": -0.0921541154384613, "1843": 0.019126011058688164, "1844": -0.022022658959031105, "1845": 0.010338523425161839, "1846": -0.001661459100432694, "1847": 0.0026316000148653984, "1848": -0.03683895990252495, "1849": 0.0028239721432328224, "1850": -0.01825382187962532, "1851": -0.046654582023620605, "1852": 0.07302962988615036, "1853": -0.011134867556393147, "1854": -0.010213125497102737, "1855": 0.005188015289604664, "1856": 0.028779054060578346, "1857": 0.011619513854384422, "1858": 0.05929689481854439, "1859": -0.028545735403895378, "1860": 0.005345639772713184, "1861": 0.030396798625588417, "1862": -0.01831672340631485, "1863": 0.04091692715883255, "1864": 0.005003036931157112, "1865": -0.03902744501829147, "1866": 0.014784208498895168, "1867": -0.05323069170117378, "1868": -0.05243562161922455, "1869": 0.05964502692222595, "1870": -0.06726092845201492, "1871": 0.0032519239466637373, "1872": 0.009646265767514706, "1873": -0.01005465630441904, "1874": -0.06661604344844818, "1875": 0.008150102570652962, "1876": -0.01687578856945038, "1877": -0.013142751529812813, "1878": -0.000248234806349501, "1879": -0.030532831326127052, "1880": -0.03707888349890709, "1881": 0.029294440522789955, "1882": 0.019437666982412338, "1883": -0.005061331670731306, "1884": 0.06422638148069382, "1885": 0.01122379768639803, "1886": -0.011838077567517757, "1887": -7.83598079578951e-05, "1888": -0.0011066863080486655, "1889": -0.03542027994990349, "1890": 0.04105377942323685, "1891": -0.006606356706470251, "1892": -0.0018386923475190997, "1893": 0.03577486798167229, "1894": -0.03216987103223801, "1895": 0.021587790921330452, "1896": -0.011606192216277122, "1897": -0.014137283898890018, "1898": 0.0056007253006100655, "1899": -0.04204791784286499, "1900": -0.0647023618221283, "1901": 0.06888013333082199, "1902": -0.04431604593992233, "1903": 0.03680915758013725, "1904": -0.004145245999097824, "1905": 0.016260672360658646, "1906": 0.005268126260489225, "1907": 0.030193675309419632, "1908": 0.00031116302125155926, "1909": -0.050133537501096725, "1910": 0.021264590322971344, "1911": -0.07064089179039001, "1912": -0.023249423131346703, "1913": 0.014822515659034252, "1914": 0.039888281375169754, "1915": -0.03074106015264988, "1916": 0.011765600182116032, "1917": -0.017876282334327698, "1918": -0.03950934484601021, "1919": -0.011435857973992825, "1920": 0.027164964005351067, "1921": -0.04244392737746239, "1922": 0.02813282422721386, "1923": -0.04294707626104355, "1924": 0.017360566183924675, "1925": 0.034617748111486435, "1926": 0.032966870814561844, "1927": -0.04014813154935837, "1928": -0.0005731034907512367, "1929": 0.014965014532208443, "1930": 0.0109235979616642, "1931": -0.011734983883798122, "1932": -0.04119936004281044, "1933": 0.025886723771691322, "1934": -0.03728332370519638, "1935": 0.0394754484295845, "1936": -0.006568757351487875, "1937": 0.04316476359963417, "1938": 0.09695342928171158, "1939": 0.04993340000510216, "1940": 0.004773250315338373, "1941": -0.05004803091287613, "1942": 0.017796749249100685, "1943": -0.026793023571372032, "1944": -0.09027739614248276, "1945": -0.011305668391287327, "1946": 0.044257644563913345, "1947": 0.020647114142775536, "1948": -0.026592543348670006, "1949": -0.003127190750092268, "1950": -0.013542953878641129, "1951": 0.03042014315724373, "1952": 0.05203699693083763, "1953": -0.05552428588271141, "1954": 0.017276601865887642, "1955": -0.03220251202583313, "1956": -0.018541989848017693, "1957": -0.0023777883034199476, "1958": 0.04244320094585419, "1959": -0.023516777902841568, "1960": -0.03552258014678955, "1961": -0.0030585075728595257, "1962": 0.004233657382428646, "1963": 0.001722984598018229, "1964": -0.04003514349460602, "1965": 0.04868457093834877, "1966": -0.037583962082862854, "1967": 0.04878053441643715, "1968": 0.000823179550934583, "1969": 0.030102763324975967, "1970": 0.10266981273889542, "1971": 0.025932813063263893, "1972": 0.026723193004727364, "1973": -0.04732091724872589, "1974": 0.04836764931678772, "1975": -0.015219246968626976, "1976": -0.0993274673819542, "1977": 0.04453525319695473, "1978": 0.08230922371149063, "1979": -0.019828276708722115, "1980": 0.010762589052319527, "1981": -0.008982023224234581, "1982": -0.01826971210539341, "1983": 0.0026022661477327347, "1984": 0.024286765605211258, "1985": -0.05187536031007767, "1986": -0.009046887047588825, "1987": -0.02118646539747715, "1988": -0.034576401114463806, "1989": -0.04100881144404411, "1990": 0.04895079508423805, "1991": -0.0033063155133277178, "1992": 0.02120647020637989, "1993": 0.001105405972339213, "1994": 0.022592822089791298, "1995": 0.03271712735295296, "1996": -0.010092995129525661, "1997": -0.012383096851408482, "1998": -0.015185702592134476, "1999": 0.03346358612179756, "2000": 0.019656356424093246, "2001": 0.08505337685346603, "2002": 0.08495087176561356, "2003": 0.019737454131245613, "2004": 0.021068260073661804, "2005": -0.05702738091349602, "2006": 0.03333601355552673, "2007": 0.041368331760168076, "2008": -0.07292958348989487, "2009": 0.029436716809868813, "2010": 0.055274758487939835, "2011": -0.03250784054398537, "2012": 0.00739682000130415, "2013": 0.012682358734309673, "2014": 0.012464054860174656, "2015": 0.0014710817486047745, "2016": 0.014860100112855434, "2017": -0.055835556238889694, "2018": -0.0279765073210001, "2019": 0.03251307085156441, "2020": -0.028436394408345222, "2021": -0.021818773820996284, "2022": 0.07383338361978531, "2023": -0.023569079115986824, "2024": 0.043031442910432816, "2025": 0.02512602135539055, "2026": -0.04617425426840782, "2027": -0.02944394201040268, "2028": 0.013708625920116901, "2029": -0.04506441578269005, "2030": -0.00992737989872694, "2031": 0.006595727521926165, "2032": -0.02941776067018509, "2033": 0.010767842642962933, "2034": 0.09336638450622559, "2035": 0.011054015718400478, "2036": -0.013282514177262783, "2037": -0.03438010439276695, "2038": 0.054866939783096313, "2039": 0.017976516857743263, "2040": -0.06429661065340042, "2041": 0.03929006680846214, "2042": 0.08097841590642929, "2043": -0.02608170546591282, "2044": 0.0786159485578537, "2045": 0.00483319815248251, "2046": -0.03617861494421959, "2047": 0.023725613951683044}}, "1": {"sx": 1, "sy": 1, "depth": 2048, "w": {"0": -0.02150992676615715, "1": 0.014962387271225452, "2": 0.022138722240924835, "3": -0.009363943710923195, "4": 0.020364077761769295, "5": -0.013623270206153393, "6": -0.004250086843967438, "7": -0.01599426008760929, "8": -0.041580215096473694, "9": 0.01782655529677868, "10": 0.020476872101426125, "11": -0.031093047931790352, "12": 0.0464758574962616, "13": 0.024831363931298256, "14": 0.0048360261134803295, "15": -0.010272755287587643, "16": 0.016735564917325974, "17": -0.06268730014562607, "18": 0.016026845201849937, "19": -0.014289123937487602, "20": 0.015485329553484917, "21": 0.02933049388229847, "22": 0.0023597395047545433, "23": -0.007491307333111763, "24": 0.01788618601858616, "25": 0.013905626721680164, "26": 0.004327644128352404, "27": 0.0011302478378638625, "28": 0.018286418169736862, "29": -0.024530304595828056, "30": 0.023942649364471436, "31": -0.0011063141282647848, "32": -0.013652876950800419, "33": -0.008306840434670448, "34": 0.024575738236308098, "35": 0.015010494738817215, "36": 0.0027824146673083305, "37": -0.003451160155236721, "38": -0.002218622015789151, "39": -0.03327266499400139, "40": 0.019153539091348648, "41": 0.013576844707131386, "42": 0.028038498014211655, "43": 0.00854576751589775, "44": 0.02540912665426731, "45": 0.009976453147828579, "46": -0.007097024470567703, "47": -0.026991048827767372, "48": 0.005429605487734079, "49": -0.024819916114211082, "50": 0.03166984021663666, "51": 0.031190725043416023, "52": -0.01375830452889204, "53": 0.02345476672053337, "54": 0.025668229907751083, "55": 0.008009408600628376, "56": -0.01391682494431734, "57": 0.042288463562726974, "58": 0.02604580856859684, "59": 0.00878420751541853, "60": -0.007706785574555397, "61": -0.048454344272613525, "62": -0.0006090156966820359, "63": 5.901965050725266e-05, "64": -0.02839273400604725, "65": -0.02347804419696331, "66": 0.011668563820421696, "67": 0.011352869682013988, "68": 0.02013489231467247, "69": 0.013828370720148087, "70": 0.0031274775974452496, "71": -0.010493365116417408, "72": 0.0018514461116865277, "73": -0.03121710568666458, "74": -0.013836472295224667, "75": -0.04173669591546059, "76": 0.006219884846359491, "77": 0.018681710585951805, "78": -0.010518481954932213, "79": -0.03506160154938698, "80": -0.019818885251879692, "81": -0.027029456570744514, "82": 0.020194394513964653, "83": 0.010540900751948357, "84": -0.009193909354507923, "85": 0.0009051515953615308, "86": 0.033057864755392075, "87": 0.006007572170346975, "88": 0.008790826424956322, "89": -0.00513278366997838, "90": 0.06215890124440193, "91": 0.002445915248245001, "92": 0.008438462391495705, "93": -0.010969571769237518, "94": -0.010195066221058369, "95": 0.00986845139414072, "96": -0.01025434210896492, "97": -0.0075295716524124146, "98": 0.04981828108429909, "99": -0.008715455420315266, "100": -0.0042513576336205006, "101": 0.01069572102278471, "102": 0.011512448079884052, "103": 0.007409167475998402, "104": -0.01643908955156803, "105": 0.008220100775361061, "106": -0.02415921352803707, "107": -0.04027729481458664, "108": -0.006107619497925043, "109": 0.003222981933504343, "110": -0.037577319890260696, "111": -0.04520417004823685, "112": -2.7283418603474274e-05, "113": -0.042222775518894196, "114": -0.006188360042870045, "115": 0.01199285127222538, "116": 6.268970901146531e-05, "117": -0.009222728200256824, "118": 0.02110256999731064, "119": -0.018329091370105743, "120": 0.020521249622106552, "121": -0.039024800062179565, "122": 0.06059630587697029, "123": 0.03743430972099304, "124": 0.03346668556332588, "125": -0.0567537285387516, "126": -0.004746889695525169, "127": -0.010053684003651142, "128": -0.03182024881243706, "129": -0.015324888750910759, "130": 0.05812275782227516, "131": -0.014080159366130829, "132": 0.011579332873225212, "133": 0.03180670738220215, "134": -0.012030120007693768, "135": -0.02963455580174923, "136": -0.00019786402117460966, "137": 0.03196403384208679, "138": -0.011568700894713402, "139": -0.012789033353328705, "140": -0.014636499807238579, "141": 0.03807378560304642, "142": -0.03574788570404053, "143": -0.01917492039501667, "144": 0.014363025315105915, "145": -0.030859602615237236, "146": 0.0240414347499609, "147": -0.03279896080493927, "148": 0.0073417555540800095, "149": 0.02942446991801262, "150": 0.05315093323588371, "151": 0.01522277295589447, "152": 0.01928045228123665, "153": -0.02258734591305256, "154": -0.0036859435494989157, "155": 0.04206933453679085, "156": 0.031100787222385406, "157": -0.03285083547234535, "158": 0.007278584409505129, "159": -0.015069093555212021, "160": -0.033795326948165894, "161": -0.006983875297009945, "162": 0.016349734738469124, "163": 0.02189832739531994, "164": 0.03187683969736099, "165": 0.011811507865786552, "166": 0.007996300235390663, "167": -7.245736196637154e-05, "168": 0.005119001027196646, "169": 0.015098578296601772, "170": -0.018726473674178123, "171": -0.02862691879272461, "172": -0.02472023107111454, "173": -0.018943822011351585, "174": -0.0035751464311033487, "175": 0.0030811557080596685, "176": -0.023378044366836548, "177": -0.01520230621099472, "178": 0.03943709656596184, "179": -0.000863573222886771, "180": -0.042540691792964935, "181": 0.02675354853272438, "182": 0.039537228643894196, "183": 0.02567821554839611, "184": 0.02663956955075264, "185": -0.034147825092077255, "186": 0.005328526720404625, "187": 0.037172213196754456, "188": 0.01789420284330845, "189": -0.011292645707726479, "190": -0.005518883466720581, "191": 0.003315537003800273, "192": -0.03593345358967781, "193": -0.019669845700263977, "194": -0.0017497728113085032, "195": 0.01565166562795639, "196": 0.017054831609129906, "197": 0.028688807040452957, "198": 0.009675715118646622, "199": 0.060723308473825455, "200": -0.0325530543923378, "201": 0.03655058145523071, "202": -0.015134215354919434, "203": 0.0008439981611445546, "204": -0.03983524814248085, "205": 0.003359491005539894, "206": -0.004445886239409447, "207": -0.010918314568698406, "208": -0.0016847350634634495, "209": 0.020210344344377518, "210": 0.023827940225601196, "211": -0.008343041874468327, "212": 0.0026892926543951035, "213": -0.009142328053712845, "214": 0.022917302325367928, "215": 0.023928353562951088, "216": 0.004541429225355387, "217": -0.012523774988949299, "218": -0.0008211970562115312, "219": 0.027048038318753242, "220": 0.05382984131574631, "221": 0.0009365236619487405, "222": -0.02367488667368889, "223": -0.004764267709106207, "224": -0.012254052795469761, "225": 0.04162270575761795, "226": -0.0009754958446137607, "227": -0.020149067044258118, "228": -0.004946927074342966, "229": 0.015378456562757492, "230": -0.023432286456227303, "231": 0.01097121275961399, "232": 0.010691007599234581, "233": 0.02022033929824829, "234": 0.021098170429468155, "235": -0.009631184861063957, "236": 0.000615611847024411, "237": 0.01781248301267624, "238": -0.018627841025590897, "239": 0.011518627405166626, "240": 0.03221205621957779, "241": -0.004064981825649738, "242": -0.0006468288484029472, "243": -0.00016154421609826386, "244": -0.02705937810242176, "245": 0.017965691164135933, "246": -0.004368282854557037, "247": -0.003970758523792028, "248": 0.022283703088760376, "249": 0.0010567368008196354, "250": -0.007936213165521622, "251": 0.009188920259475708, "252": 0.028603985905647278, "253": 0.0539013110101223, "254": 0.0067950766533613205, "255": -0.0034434606786817312, "256": 0.01574978232383728, "257": 0.015198932029306889, "258": -0.008098912425339222, "259": -0.0037165116518735886, "260": 0.019859986379742622, "261": 0.03743208944797516, "262": 0.014305319637060165, "263": -0.04771417751908302, "264": -0.0557512529194355, "265": 0.02485186606645584, "266": 0.06242317706346512, "267": -0.007925990037620068, "268": -0.03666326776146889, "269": -0.008231817744672298, "270": 0.0384824238717556, "271": -0.023840580135583878, "272": 0.01569051668047905, "273": -0.036716070026159286, "274": 0.01755954697728157, "275": 0.031218932941555977, "276": -0.0053389109671115875, "277": 0.04861091077327728, "278": 0.023555859923362732, "279": 0.0007330022635869682, "280": 0.011399510316550732, "281": 0.023818861693143845, "282": 0.042262692004442215, "283": 0.010007034987211227, "284": 0.0890798270702362, "285": -0.021736741065979004, "286": 0.04186904430389404, "287": 0.013426652178168297, "288": 0.005398886743932962, "289": -0.016589820384979248, "290": -0.015540330670773983, "291": -0.01699257455766201, "292": -0.007510695140808821, "293": -0.02133018709719181, "294": 0.04616018384695053, "295": -0.015924597159028053, "296": -0.042307253926992416, "297": -0.014921236783266068, "298": 0.025906970724463463, "299": -0.005052956286817789, "300": -0.0005645498749800026, "301": -0.008249917067587376, "302": 0.03415568545460701, "303": -0.023785386234521866, "304": -0.02034815028309822, "305": -0.020129868760704994, "306": 0.0013296023244038224, "307": 0.016321158036589622, "308": 0.008831022307276726, "309": -0.03167079761624336, "310": 0.007337893825024366, "311": -0.01943036913871765, "312": 0.011652177199721336, "313": 0.014217757619917393, "314": 0.039192765951156616, "315": 0.014550968073308468, "316": -0.008738514967262745, "317": -0.010150483809411526, "318": 0.04782910645008087, "319": 0.016327233985066414, "320": 0.004644257482141256, "321": -0.002565542235970497, "322": 0.010568591766059399, "323": 0.009341488592326641, "324": -0.02524726837873459, "325": -0.0014978861436247826, "326": 0.0005298600299283862, "327": -0.010224963538348675, "328": -0.03675265982747078, "329": -0.0034324724692851305, "330": -0.010101046413183212, "331": 0.0057648057118058205, "332": 0.002127109793946147, "333": 0.004505667369812727, "334": 0.00809741485863924, "335": 0.0027470728382468224, "336": -0.02332456409931183, "337": -0.002153115114197135, "338": 0.02538461796939373, "339": 0.047309309244155884, "340": 0.039961136877536774, "341": -0.013662013225257397, "342": -0.011481774039566517, "343": -0.0060303243808448315, "344": 0.032216876745224, "345": -0.0034610626753419638, "346": 0.026618456467986107, "347": 0.012174961157143116, "348": 0.026381487026810646, "349": -0.014064802788197994, "350": 0.03987494111061096, "351": 0.02678624726831913, "352": 0.020930616185069084, "353": -0.012072672136127949, "354": 0.009947002865374088, "355": 0.034245721995830536, "356": 0.029111016541719437, "357": 0.01008419506251812, "358": 0.0051039340905845165, "359": -0.03714022412896156, "360": -0.0377243310213089, "361": 0.011030003428459167, "362": -0.0037733428180217743, "363": -0.019137388095259666, "364": -0.029638459905982018, "365": -0.006763087119907141, "366": 0.002413367386907339, "367": -0.009711251594126225, "368": 0.016003847122192383, "369": 0.0017696510767564178, "370": 0.020026378333568573, "371": -0.020601728931069374, "372": -0.009497282095253468, "373": 0.005103148054331541, "374": 0.00015511573292315006, "375": -0.008644504472613335, "376": -0.004065836314111948, "377": -0.005118199624121189, "378": 0.01977224461734295, "379": 0.033137042075395584, "380": 0.002098031109198928, "381": -0.010142287239432335, "382": -0.01805790700018406, "383": 0.0029434619937092066, "384": -0.002308417344465852, "385": -0.024488259106874466, "386": 0.07025665044784546, "387": 0.012105577625334263, "388": 0.0076606483198702335, "389": 0.012435992248356342, "390": 0.013470523990690708, "391": -0.025487571954727173, "392": -0.062247443944215775, "393": 0.020616155117750168, "394": -0.00040878052823245525, "395": 0.029755782335996628, "396": -0.013099486008286476, "397": 0.017542049288749695, "398": -0.00750673096626997, "399": -0.0025827556382864714, "400": -0.03701907396316528, "401": 0.030787520110607147, "402": -0.0009677031193859875, "403": -0.0037450657691806555, "404": -0.005000678356736898, "405": 0.025348659604787827, "406": 0.009890141896903515, "407": 0.001702042412944138, "408": 0.02100537158548832, "409": -0.0010435893200337887, "410": 0.01838485710322857, "411": 0.056950923055410385, "412": -0.014418644830584526, "413": 0.010873628780245781, "414": 0.000615692522842437, "415": 0.013727936893701553, "416": -0.00680471071973443, "417": 0.033587656915187836, "418": 0.0011591847287490964, "419": 0.02806728705763817, "420": 0.008616255596280098, "421": -0.02201877161860466, "422": 0.02019629068672657, "423": -0.02190038375556469, "424": -0.031334616243839264, "425": 0.026266902685165405, "426": -0.015829306095838547, "427": -4.5482975110644475e-05, "428": -0.025371598079800606, "429": -0.016156312078237534, "430": 0.009708973579108715, "431": 0.026443729177117348, "432": -0.03422783315181732, "433": -0.004960936959832907, "434": 0.012642952613532543, "435": -0.016391657292842865, "436": -0.03179857134819031, "437": -0.01330565195530653, "438": 0.027996739372611046, "439": -0.02032771147787571, "440": 0.03774729371070862, "441": -0.042627304792404175, "442": 0.01624295674264431, "443": 0.010933859273791313, "444": -0.00742280064150691, "445": 0.013953364454209805, "446": -0.0008237137226387858, "447": -0.011011560447514057, "448": -0.010870463214814663, "449": 0.018631763756275177, "450": 0.016285790130496025, "451": 0.0001656051754252985, "452": 0.009491842240095139, "453": 0.006431520450860262, "454": 0.00628545880317688, "455": -0.02417914755642414, "456": 0.012418167665600777, "457": 0.018738731741905212, "458": 0.028632059693336487, "459": 0.03745417296886444, "460": -0.020223751664161682, "461": -0.02069571614265442, "462": -0.024682408198714256, "463": 0.012306776829063892, "464": -0.012614898383617401, "465": 0.00565386563539505, "466": -0.005942261777818203, "467": -0.01791057549417019, "468": -0.03008137457072735, "469": -0.025960618630051613, "470": 0.04974773898720741, "471": -0.028721829876303673, "472": -0.01553511992096901, "473": -0.028033532202243805, "474": 0.02361384592950344, "475": 0.04274556785821915, "476": 0.025471873581409454, "477": 0.015207049436867237, "478": -0.027986682951450348, "479": 0.009653168730437756, "480": -0.006999364122748375, "481": 0.03560265898704529, "482": -0.02735932543873787, "483": 0.04128057137131691, "484": 0.02180240862071514, "485": 0.01324857771396637, "486": 0.01989038474857807, "487": 0.021001171320676804, "488": -0.022284792736172676, "489": 0.001673319609835744, "490": 0.010141598992049694, "491": 0.00984485074877739, "492": 0.03756226226687431, "493": 0.03314153477549553, "494": -0.013158055022358894, "495": -0.0366959273815155, "496": 0.03241930902004242, "497": 0.023844096809625626, "498": 0.0014102444984018803, "499": -0.028296848759055138, "500": -0.013927453197538853, "501": -0.01463435310870409, "502": 0.033376194536685944, "503": -0.009824984706938267, "504": -0.006837023422122002, "505": -0.02348598837852478, "506": 0.012677375227212906, "507": -0.0018027328187599778, "508": 0.04096951708197594, "509": 0.06735870987176895, "510": 0.024704594165086746, "511": -0.016248628497123718, "512": 0.0065819569863379, "513": -0.015747815370559692, "514": -0.03439757972955704, "515": 0.01629849709570408, "516": 0.013020872138440609, "517": 0.03958785533905029, "518": 0.07399281114339828, "519": -0.015762310475111008, "520": -0.009745199233293533, "521": -0.016141429543495178, "522": 0.06040187180042267, "523": -0.023630397394299507, "524": -0.00684793246909976, "525": -0.025989839807152748, "526": 0.0016660850960761309, "527": -0.003925240598618984, "528": -0.018073059618473053, "529": -0.005979866720736027, "530": 0.01154492236673832, "531": 0.02266513556241989, "532": 0.01238244492560625, "533": 0.03318236768245697, "534": 0.002501744544133544, "535": 0.04272061213850975, "536": -0.036545246839523315, "537": 0.008645020425319672, "538": 0.02168973907828331, "539": 0.0042935581877827644, "540": 0.11585760861635208, "541": -0.019840316846966743, "542": 0.04254806041717529, "543": 0.03758649528026581, "544": -0.0011259076418355107, "545": -0.015180871821939945, "546": -0.0014773706207051873, "547": -0.008127821609377861, "548": 0.013531254604458809, "549": 0.0023152728099375963, "550": 0.0407794788479805, "551": -0.05281621962785721, "552": -0.008829459547996521, "553": 0.01013761293143034, "554": 0.05689810588955879, "555": -0.008466499857604504, "556": 0.01410960778594017, "557": -0.008475965820252895, "558": 0.02735254354774952, "559": -0.008216829970479012, "560": -0.012667463161051273, "561": -0.05269923433661461, "562": -0.01565857045352459, "563": 0.0016211429610848427, "564": 0.023177754133939743, "565": -0.026838460937142372, "566": 0.02233656868338585, "567": 0.004858455620706081, "568": -0.02396022528409958, "569": -0.00391729362308979, "570": 0.03669866546988487, "571": 0.0023009779397398233, "572": 0.027981188148260117, "573": -0.013780697248876095, "574": 0.004782670643180609, "575": 0.020466972142457962, "576": 0.01871407777070999, "577": -0.0025654889177531004, "578": 0.015380850993096828, "579": -0.04237927496433258, "580": 0.015802348032593727, "581": 0.02674093469977379, "582": 0.039574168622493744, "583": -0.023502495139837265, "584": -0.028848866000771523, "585": 0.010663353838026524, "586": 0.004424272105097771, "587": -0.023145059123635292, "588": -0.007687493227422237, "589": -0.026311930269002914, "590": -0.006952288560569286, "591": -0.002616224577650428, "592": -0.044601183384656906, "593": -0.0261955875903368, "594": 0.024191515520215034, "595": 0.027316560968756676, "596": 0.021258244290947914, "597": 0.018563224002718925, "598": -0.030302001163363457, "599": -0.028948552906513214, "600": 0.018770603463053703, "601": -0.020639469847083092, "602": 0.028776315972208977, "603": 0.002243488561362028, "604": 0.029168548062443733, "605": 0.014182443730533123, "606": 0.039669424295425415, "607": 0.030755724757909775, "608": 0.025547388941049576, "609": -0.007294740993529558, "610": 0.012683323584496975, "611": 0.007431189529597759, "612": -0.007188444025814533, "613": 0.04053216055035591, "614": 0.014582408592104912, "615": -0.06346451491117477, "616": -0.029953503981232643, "617": -0.02174370177090168, "618": -0.001734944642521441, "619": -0.03586327284574509, "620": -0.01173434779047966, "621": 0.010646176524460316, "622": -0.048757825046777725, "623": 0.032037172466516495, "624": 0.015390447340905666, "625": 0.013271898962557316, "626": 0.04218015819787979, "627": 0.023307446390390396, "628": 0.018868127837777138, "629": 0.005347389727830887, "630": 0.0013651823392137885, "631": -0.021966401487588882, "632": 0.025112466886639595, "633": -0.05596083775162697, "634": 0.017943203449249268, "635": 0.019774047657847404, "636": 0.00027844158466905355, "637": -0.017906786873936653, "638": -0.020903699100017548, "639": 0.024668129161000252, "640": 0.00621792022138834, "641": -0.017392341047525406, "642": 0.05052841827273369, "643": 0.01428854651749134, "644": 0.03849419951438904, "645": 0.019959693774580956, "646": 0.024129001423716545, "647": -0.04750936105847359, "648": 0.0007125866832211614, "649": 0.024079138413071632, "650": -0.0058674379251897335, "651": 0.04741216450929642, "652": 0.024084413424134254, "653": 0.011728351004421711, "654": -0.04559246450662613, "655": 0.016761906445026398, "656": -0.002815110608935356, "657": 0.0327141210436821, "658": 0.007791807409375906, "659": -0.013873723335564137, "660": -0.025607880204916, "661": -0.018145108595490456, "662": 0.015800923109054565, "663": -0.015798470005393028, "664": 0.014056744053959846, "665": -0.004898487590253353, "666": 0.025729352608323097, "667": 0.01923045888543129, "668": 0.052195921540260315, "669": -0.0157322995364666, "670": -0.018716342747211456, "671": 0.03379643335938454, "672": 0.0038332894910126925, "673": 0.04984193295240402, "674": 0.01425453182309866, "675": -0.013570643030107021, "676": 0.03932976350188255, "677": -0.01628893055021763, "678": 0.03976565599441528, "679": -0.04775400459766388, "680": -0.03598250448703766, "681": 0.013815351761877537, "682": -0.018400195986032486, "683": 0.035646747797727585, "684": -0.022333700209856033, "685": 0.005471277981996536, "686": -0.009336690418422222, "687": 0.012608332559466362, "688": -0.012072121724486351, "689": 0.04545675590634346, "690": -0.0192551426589489, "691": -0.04498271644115448, "692": -0.005919559858739376, "693": 0.008254753425717354, "694": -0.0057184938341379166, "695": -0.005032599903643131, "696": -0.014735259115695953, "697": -0.002770674880594015, "698": 0.013973621651530266, "699": -0.014497730880975723, "700": 0.038905952125787735, "701": 0.026796238496899605, "702": -0.0038210765924304724, "703": -0.029348287731409073, "704": -0.027735447511076927, "705": 0.036836665123701096, "706": 0.03479452431201935, "707": -0.02329520508646965, "708": 0.05512106418609619, "709": -0.0482821986079216, "710": 0.013025304302573204, "711": 0.01450870931148529, "712": -0.041580840945243835, "713": 0.04155253246426582, "714": 0.02719803899526596, "715": 0.017880430445075035, "716": -0.035302020609378815, "717": 0.01363184954971075, "718": -0.049109868705272675, "719": 0.007857784628868103, "720": 0.010019637644290924, "721": 0.05230800807476044, "722": -0.018577519804239273, "723": -0.04727056995034218, "724": 0.015316145494580269, "725": -0.022215286269783974, "726": 0.020014027133584023, "727": 0.01109373476356268, "728": 0.002250495832413435, "729": -0.028518857434391975, "730": 0.027821633964776993, "731": -0.03851892054080963, "732": 0.062758669257164, "733": 0.01965961419045925, "734": -0.03209280967712402, "735": -0.05873274430632591, "736": -0.02635224536061287, "737": 0.05627916380763054, "738": 0.026013199239969254, "739": -0.004118913318961859, "740": 0.031635917723178864, "741": 0.030477045103907585, "742": 0.04680338501930237, "743": 0.0042807538993656635, "744": 0.01957263983786106, "745": 0.005725187249481678, "746": 0.007236840203404427, "747": 0.016782257705926895, "748": -0.023854903876781464, "749": 0.04878454655408859, "750": -0.039865247905254364, "751": -0.02735520899295807, "752": 0.005288479384034872, "753": 0.0645546019077301, "754": 0.0029057227075099945, "755": -0.04415299743413925, "756": -0.054320745170116425, "757": -0.0093767698854208, "758": 0.00033138770959340036, "759": 0.0026725735515356064, "760": -0.005701735150068998, "761": 0.0034312468487769365, "762": 0.03137907013297081, "763": -0.004064207896590233, "764": 0.07176143676042557, "765": 0.04410386458039284, "766": -0.004007529467344284, "767": -0.0446598045527935, "768": 0.014139643870294094, "769": -0.021211976185441017, "770": -0.018126027658581734, "771": -0.013409871608018875, "772": 0.02331101894378662, "773": 0.02886813133955002, "774": 0.07553190737962723, "775": -0.022588368505239487, "776": -0.005073229316622019, "777": 0.007583166938275099, "778": 0.06443014740943909, "779": -0.005017012357711792, "780": 0.01213797926902771, "781": -0.01499980315566063, "782": -0.03530799224972725, "783": 0.002010717988014221, "784": -0.03764314576983452, "785": -0.014104587957262993, "786": 0.020947545766830444, "787": 0.004591930657625198, "788": 0.03191402181982994, "789": -0.02870084159076214, "790": 0.05228423327207565, "791": 0.0021740966476500034, "792": -0.0331355519592762, "793": 0.057866524904966354, "794": 0.02187127061188221, "795": 0.01166018471121788, "796": 0.1265472024679184, "797": 0.030750427395105362, "798": 0.028459513559937477, "799": 0.04247288778424263, "800": 0.03830856829881668, "801": 0.021052390336990356, "802": -0.06095809489488602, "803": 0.017493417486548424, "804": 0.0014351877616718411, "805": 0.02919682115316391, "806": 0.026638014242053032, "807": -0.018644966185092926, "808": -0.00460151769220829, "809": -0.00041432079160586, "810": 0.06781183183193207, "811": 0.03216682747006416, "812": 0.012576923705637455, "813": -0.014100179076194763, "814": 0.04088575765490532, "815": 0.0340069942176342, "816": -0.024342212826013565, "817": -0.0022273974027484655, "818": 0.026862522587180138, "819": 0.004002861212939024, "820": 0.035760991275310516, "821": -0.014069950208067894, "822": 0.013255746103823185, "823": -0.0013209936441853642, "824": -0.03351802006363869, "825": -0.0011607593623921275, "826": 0.03128046914935112, "827": -0.0033987874630838633, "828": 0.05028371885418892, "829": -0.002693611430004239, "830": 0.027845656499266624, "831": -0.003454532939940691, "832": -0.0025115245953202248, "833": -0.0149233378469944, "834": -0.023627350106835365, "835": -0.008119212463498116, "836": 0.00897232349961996, "837": 0.04225638136267662, "838": 0.027776317670941353, "839": -0.04964086785912514, "840": 0.030593404546380043, "841": 0.019841773435473442, "842": 0.03453921526670456, "843": -0.02330791763961315, "844": -0.012907154858112335, "845": -0.006114443764090538, "846": -0.03046807087957859, "847": -0.020643876865506172, "848": -0.039145924150943756, "849": 0.005781178362667561, "850": 0.04296426102519035, "851": -0.021558312699198723, "852": 0.03447398915886879, "853": -0.010056680999696255, "854": -0.0711928978562355, "855": -0.023294052109122276, "856": -0.014119843952357769, "857": -0.0012683420209214091, "858": 0.05204559862613678, "859": 0.029654977843165398, "860": 0.026277724653482437, "861": 0.001136039150878787, "862": 0.030671285465359688, "863": 0.027208618819713593, "864": 0.07069415599107742, "865": 0.03252837434411049, "866": -0.00474706431850791, "867": -0.0008499487885273993, "868": -0.028006669133901596, "869": 0.01236487552523613, "870": 0.017169317230582237, "871": -0.05445428937673569, "872": -0.03227477893233299, "873": 0.03767850250005722, "874": 0.00890424195677042, "875": 0.013680264353752136, "876": 0.02896408922970295, "877": 0.012567605823278427, "878": -0.013699489645659924, "879": 0.02599799446761608, "880": -0.030166199430823326, "881": 0.01341151725500822, "882": 0.04941362515091896, "883": -0.012299373745918274, "884": -0.010523769073188305, "885": -0.04740801826119423, "886": -0.03423003479838371, "887": 0.008007378317415714, "888": 0.0100864227861166, "889": -0.03866466507315636, "890": 0.06701455265283585, "891": 0.04425784945487976, "892": 0.0028180419467389584, "893": -0.042852215468883514, "894": -0.006401092745363712, "895": -0.01826443150639534, "896": 0.038801830261945724, "897": 0.014215555973351002, "898": 0.011184075847268105, "899": -0.012029221281409264, "900": 0.027081267908215523, "901": 0.005638293456286192, "902": 0.017401566728949547, "903": -0.02381633222103119, "904": -0.030103683471679688, "905": -0.011339826509356499, "906": -0.011559666134417057, "907": 0.02467680163681507, "908": 0.004446482285857201, "909": 0.010230167768895626, "910": -0.03664859011769295, "911": 0.0057393028400838375, "912": 0.006230494007468224, "913": 0.06785386800765991, "914": 0.04551496356725693, "915": -0.038969993591308594, "916": -0.0429508350789547, "917": -0.01917147822678089, "918": -0.022963400930166245, "919": -0.008884129114449024, "920": 0.02102145180106163, "921": -0.010526349768042564, "922": 0.03333861380815506, "923": 0.05401571840047836, "924": 0.04240914061665535, "925": 0.027460459619760513, "926": 0.002078388584777713, "927": -0.020205724984407425, "928": -0.031700026243925095, "929": 0.051678795367479324, "930": 0.023076757788658142, "931": -0.030130920931696892, "932": 0.024937374517321587, "933": -0.031299810856580734, "934": 0.01579838991165161, "935": -0.0004448845866136253, "936": -0.04347781464457512, "937": 0.01629709079861641, "938": -0.0025837102439254522, "939": 0.03519400209188461, "940": 0.03095444291830063, "941": 0.03063439391553402, "942": -0.06683070212602615, "943": 0.006295434664934874, "944": -0.0066637941636145115, "945": 0.06837525963783264, "946": -0.021043304353952408, "947": -0.0359872430562973, "948": -0.054003819823265076, "949": 0.025092320516705513, "950": -0.046902842819690704, "951": -0.00793195329606533, "952": -0.007568512111902237, "953": -0.020603666082024574, "954": 0.0006806517485529184, "955": -0.007386551704257727, "956": 0.030167099088430405, "957": 0.016072101891040802, "958": 0.024881955236196518, "959": -0.03893657401204109, "960": -0.013612665235996246, "961": 0.02819577418267727, "962": -0.0015374693321064115, "963": -0.028294412419199944, "964": 0.02150573767721653, "965": -0.0033184122294187546, "966": 0.04188206419348717, "967": 0.03083917312324047, "968": -0.04517211765050888, "969": 0.016314975917339325, "970": 0.025728711858391762, "971": 0.05253587290644646, "972": -0.02420506626367569, "973": 0.03049796260893345, "974": -0.06997610628604889, "975": -0.013898218981921673, "976": -0.013840766623616219, "977": 0.045439884066581726, "978": -0.04337814077734947, "979": -0.021744849160313606, "980": -0.0266606193035841, "981": 0.028086340054869652, "982": 0.018430426716804504, "983": -0.01793501526117325, "984": 0.004059055354446173, "985": 0.008896594867110252, "986": 0.02295968309044838, "987": -0.08572936058044434, "988": 0.05046436935663223, "989": -0.01565556414425373, "990": -0.028283806517720222, "991": -0.007159966044127941, "992": -0.02568603865802288, "993": 0.08197218924760818, "994": 0.0739457979798317, "995": -0.03323046863079071, "996": -0.009671753272414207, "997": 0.042293526232242584, "998": 0.030815457925200462, "999": 0.030335187911987305, "1000": -0.012321495451033115, "1001": 0.008436478674411774, "1002": 0.027514690533280373, "1003": -0.01362801156938076, "1004": 0.01761615462601185, "1005": 0.0424228273332119, "1006": -0.05040797218680382, "1007": -0.037102486938238144, "1008": -0.00235830619931221, "1009": 0.06435348838567734, "1010": -0.06605684757232666, "1011": -0.004316957667469978, "1012": -0.0615089051425457, "1013": 0.02531668357551098, "1014": 0.002270912518724799, "1015": -0.002557047875598073, "1016": 0.02156754955649376, "1017": 0.00904021505266428, "1018": 0.03127382695674896, "1019": -0.06342457979917526, "1020": 0.10979509353637695, "1021": 0.01284884288907051, "1022": -0.014961143024265766, "1023": -0.003632550360634923, "1024": 0.011424213647842407, "1025": -0.02605549432337284, "1026": -0.07611659169197083, "1027": 0.01752655766904354, "1028": -0.019306698814034462, "1029": 0.011846926994621754, "1030": 0.06731738895177841, "1031": -0.017944995313882828, "1032": 0.008806939236819744, "1033": 0.015171835198998451, "1034": 0.0721258670091629, "1035": -0.0078085726127028465, "1036": 0.01260910090059042, "1037": -0.044214773923158646, "1038": -0.06026294454932213, "1039": 0.00815985631197691, "1040": -0.00935332104563713, "1041": 0.020432984456419945, "1042": 0.06955821812152863, "1043": -0.05985506996512413, "1044": 0.011670009233057499, "1045": 0.001201357925310731, "1046": 0.02495408058166504, "1047": 0.05812862142920494, "1048": -0.09124553203582764, "1049": 0.037056464701890945, "1050": 0.06583888828754425, "1051": 0.009965230710804462, "1052": 0.0955367311835289, "1053": 0.021798046305775642, "1054": 0.009675218723714352, "1055": 0.07009219378232956, "1056": 0.06625477224588394, "1057": -0.01248665526509285, "1058": -0.09859905391931534, "1059": -0.009127453900873661, "1060": -0.013605017215013504, "1061": 0.01417643204331398, "1062": 0.019584419205784798, "1063": -0.028380390256643295, "1064": 0.005797281861305237, "1065": 0.019382230937480927, "1066": 0.03531140461564064, "1067": 0.00045176330604590476, "1068": 0.03217654302716255, "1069": -0.022136423736810684, "1070": 0.01002822071313858, "1071": 0.044390492141246796, "1072": -0.03139018639922142, "1073": -0.002356478478759527, "1074": 0.04953291267156601, "1075": 0.021627120673656464, "1076": 0.05587806925177574, "1077": -0.02203548327088356, "1078": -0.041596993803977966, "1079": -0.007050604559481144, "1080": -0.07962138205766678, "1081": 0.004330127499997616, "1082": 0.04827328026294708, "1083": -0.014045675285160542, "1084": 0.08880028128623962, "1085": -0.014813415706157684, "1086": -0.020391207188367844, "1087": 0.06607787311077118, "1088": 0.05062378942966461, "1089": -0.06789454817771912, "1090": 0.00990859791636467, "1091": 0.005790133494883776, "1092": -0.041963621973991394, "1093": 0.001776739489287138, "1094": 0.011461511254310608, "1095": -0.05633465573191643, "1096": 0.0044033401645720005, "1097": 0.05895937979221344, "1098": 0.04767642542719841, "1099": -0.005774393677711487, "1100": 0.022892601788043976, "1101": 0.01084600854665041, "1102": -0.015286969020962715, "1103": 0.011047684587538242, "1104": -0.013743121176958084, "1105": 0.022276103496551514, "1106": 0.018406011164188385, "1107": 0.012042167596518993, "1108": 0.04195499047636986, "1109": 0.0003528172674123198, "1110": -0.042790837585926056, "1111": -0.020399216562509537, "1112": -0.0557357557117939, "1113": -0.008275837637484074, "1114": 0.04498697444796562, "1115": -0.02713603898882866, "1116": 0.04097906872630119, "1117": 0.025363923981785774, "1118": 0.016716143116354942, "1119": 0.03695933148264885, "1120": 0.023633213713765144, "1121": 0.0314597561955452, "1122": 0.007623828016221523, "1123": 0.024241477251052856, "1124": -0.01724640093743801, "1125": 0.025119423866271973, "1126": -0.007845682092010975, "1127": -0.06806040555238724, "1128": -0.04092883691191673, "1129": 0.04674093797802925, "1130": -0.008668561466038227, "1131": 0.025155486539006233, "1132": -0.004781344905495644, "1133": 0.01364179141819477, "1134": -0.07677334547042847, "1135": 0.06357184052467346, "1136": -0.022992869839072227, "1137": 0.017264878377318382, "1138": 0.04838480055332184, "1139": -0.0025106112007051706, "1140": 5.144814349478111e-05, "1141": -0.005314759444445372, "1142": -0.04221859574317932, "1143": -0.0004677347606047988, "1144": 0.007845345884561539, "1145": -0.012616121210157871, "1146": 0.052440036088228226, "1147": 0.009774009697139263, "1148": 0.014782940968871117, "1149": -0.037550900131464005, "1150": 0.014088797383010387, "1151": -0.008097635582089424, "1152": -0.0011477216612547636, "1153": 0.017493251711130142, "1154": 0.006735420785844326, "1155": 0.03435654565691948, "1156": 0.005425571464002132, "1157": 0.020158689469099045, "1158": -0.014575655572116375, "1159": -0.05294715613126755, "1160": -0.009765042923390865, "1161": -0.02304293029010296, "1162": -0.038483984768390656, "1163": 0.038200292736291885, "1164": 0.0014395969919860363, "1165": 0.011896052397787571, "1166": -0.020883062854409218, "1167": 0.031114893034100533, "1168": -0.00677892379462719, "1169": 0.05115180090069771, "1170": -0.0032973114866763353, "1171": -0.036223579198122025, "1172": -0.00629065977409482, "1173": 0.023796314373612404, "1174": -0.019404707476496696, "1175": 0.02086712047457695, "1176": 0.021664679050445557, "1177": -0.04338628798723221, "1178": 0.06693923473358154, "1179": 0.0022124743554741144, "1180": 0.022983642295002937, "1181": 0.008230392821133137, "1182": 0.0009635813185013831, "1183": -0.04306286573410034, "1184": 0.004305924754589796, "1185": 0.03427567332983017, "1186": 0.012106177397072315, "1187": -0.0061602117493748665, "1188": 0.03054187260568142, "1189": -0.024728622287511826, "1190": 0.0035132598131895065, "1191": 0.00904858484864235, "1192": -0.037729404866695404, "1193": 0.012424197979271412, "1194": 0.006842015311121941, "1195": 0.04754018411040306, "1196": 0.0018788700690492988, "1197": 0.011019603349268436, "1198": -0.0501704178750515, "1199": -0.003958662040531635, "1200": -0.012009558267891407, "1201": 0.04423246532678604, "1202": -0.03640265762805939, "1203": -0.02008497156202793, "1204": -0.09830529987812042, "1205": 0.0032160410191863775, "1206": 0.016863152384757996, "1207": -0.03686400502920151, "1208": -0.006921781692653894, "1209": -0.03134730085730553, "1210": 0.021366966888308525, "1211": -0.033680371940135956, "1212": 0.046496011316776276, "1213": 0.0356469601392746, "1214": 0.06946985423564911, "1215": -0.01805052161216736, "1216": -0.00157706078607589, "1217": 0.030220866203308105, "1218": 0.024079978466033936, "1219": -0.03657776117324829, "1220": 0.011078179813921452, "1221": -0.027539324015378952, "1222": 0.032775938510894775, "1223": 0.004554279148578644, "1224": -0.01678415760397911, "1225": -0.0005941952695138752, "1226": 0.016526352614164352, "1227": 0.06688162684440613, "1228": 0.035871874541044235, "1229": -0.010894684121012688, "1230": -0.04992959275841713, "1231": -0.014214172959327698, "1232": -0.0031689179595559835, "1233": 0.06851854920387268, "1234": -0.03780471906065941, "1235": 0.020923441275954247, "1236": -0.050743840634822845, "1237": 0.005567301996052265, "1238": 0.01577506586909294, "1239": -0.05141633749008179, "1240": -0.005945549346506596, "1241": -0.028634462505578995, "1242": 0.015073087066411972, "1243": -0.08791185170412064, "1244": 0.08102652430534363, "1245": 0.007785953115671873, "1246": 0.032813768833875656, "1247": 0.0059236339293420315, "1248": 0.008174769580364227, "1249": 0.04434037581086159, "1250": 0.025596998631954193, "1251": 0.022199364379048347, "1252": 0.02942770905792713, "1253": 0.019043060019612312, "1254": 0.05414224788546562, "1255": 0.04001413285732269, "1256": -0.042154449969530106, "1257": -0.024845605716109276, "1258": 0.0002431917528156191, "1259": -0.0013551178853958845, "1260": 0.011941426433622837, "1261": 0.04171465337276459, "1262": -0.06011220067739487, "1263": -0.02077667787671089, "1264": -0.006684368010610342, "1265": 0.07459674030542374, "1266": -0.059547308832407, "1267": 0.030097082257270813, "1268": -0.054779231548309326, "1269": 0.02549712546169758, "1270": 0.0022518327459692955, "1271": -0.019444426521658897, "1272": -0.004321015439927578, "1273": -0.02701716311275959, "1274": 0.028224390000104904, "1275": -0.07918406277894974, "1276": 0.11158879846334457, "1277": 0.0323188342154026, "1278": 0.04433850571513176, "1279": -0.011325023137032986, "1280": 0.020832480862736702, "1281": -0.060435470193624496, "1282": -0.05105955898761749, "1283": 0.018194051459431648, "1284": -0.005212769377976656, "1285": 0.011822774074971676, "1286": 0.03351297229528427, "1287": -0.0049930536188185215, "1288": 0.011510070413351059, "1289": 0.03017188049852848, "1290": 0.039826519787311554, "1291": -0.037589676678180695, "1292": 0.03495435044169426, "1293": -0.04827302694320679, "1294": -0.056432124227285385, "1295": 0.021794242784380913, "1296": -0.03894881159067154, "1297": 0.02036210522055626, "1298": 0.07374817132949829, "1299": -0.036594755947589874, "1300": 0.011732859537005424, "1301": -0.010850793682038784, "1302": 0.0045622047036886215, "1303": 0.009167945943772793, "1304": -0.0634758323431015, "1305": 0.0668327659368515, "1306": 0.07041048258543015, "1307": -0.014668049290776253, "1308": 0.06640319526195526, "1309": 0.020434770733118057, "1310": -0.0003999284526798874, "1311": 0.058558542281389236, "1312": 0.043595846742391586, "1313": -0.031351931393146515, "1314": -0.09402906894683838, "1315": 0.03686070069670677, "1316": -0.004740445408970118, "1317": -0.030760597437620163, "1318": 0.015030568465590477, 