{"layers": [{"out_depth": 5, "out_sx": 64, "out_sy": 64, "layer_type": "input"}, {"sx": 3, "sy": 3, "stride": 1, "in_depth": 5, "out_depth": 32, "out_sx": 64, "out_sy": 64, "layer_type": "conv", "l1_decay_mul": 0, "l2_decay_mul": 1, "pad": 1, "filters": [{"sx": 3, "sy": 3, "depth": 5, "w": {"0": 0.018850263, "1": 0.095101662, "2": -0.053610031, "3": 0.10694597, "4": 0.11232892, "5": 0.027391389, "6": 0.06573049, "7": 0.090903245, "8": -0.052143283, "9": 0.1012919, "10": 0.0087604402, "11": 0.071541332, "12": -0.12430798, "13": 0.11004815, "14": 0.084998913, "15": -0.12768486, "16": -0.065265544, "17": -0.10965436, "18": -0.1418965, "19": -0.06296964, "20": -0.098644473, "21": 0.029544771, "22": -0.087920636, "23": 0.015774967, "24": -0.042216588, "25": 0.09402328, "26": 0.049892604, "27": -0.15104447, "28": 0.095489353, "29": 0.083321147, "30": 0.053343941, "31": 0.012572608, "32": -0.05807092, "33": 0.064434581, "34": 0.048375487, "35": -0.0091516403, "36": -0.034634929, "37": -0.089210503, "38": -0.017670482, "39": -0.073285028, "40": -0.026854731, "41": -0.025257075, "42": 0.060805377, "43": 0.0005996665, "44": -0.0053424672}}, {"sx": 3, "sy": 3, "depth": 5, "w": {"0": 0.097499438, "1": -0.016781624, "2": -0.087242082, "3": 0.075910136, "4": -0.059582587, "5": -0.084935732, "6": 0.074894376, "7": -0.11437273, "8": 0.14048953, "9": -0.080644913, "10": -0.021620592, "11": -0.06452962, "12": -0.14500478, "13": 0.15731345, "14": -0.12977411, "15": -0.098045744, "16": -0.10127502, "17": 0.0012573082, "18": 0.17142005, "19": 0.026843583, "20": 0.014175272, "21": 0.067502752, "22": -0.09385974, "23": 0.18279234, "24": 0.045143705, "25": 0.04381324, "26": -0.038193509, "27": 0.077828638, "28": 0.084866486, "29": 0.069380753, "30": -0.085176021, "31": -0.10833319, "32": 0.078840815, "33": 0.10419902, "34": -0.098273396, "35": -0.09446381, "36": 0.10061276, "37": 0.023253951, "38": 0.016939916, "39": -0.057116721, "40": 0.1272711, "41": 0.03717253, "42": -0.072876483, "43": -0.075541906, "44": -0.0076719467}}, {"sx": 3, "sy": 3, "depth": 5, "w": {"0": 0.0097927395, "1": -0.071817145, "2": -0.013031218, "3": -0.058133326, "4": 0.045891982, "5": 0.11420134, "6": -0.11716139, "7": -0.016505487, "8": 0.052728124, "9": -0.0038945384, "10": 0.078441486, "11": -0.028723557, "12": 0.034437124, "13": -0.03525186, "14": -0.050690345, "15": 0.074278593, "16": -0.092309676, "17": 0.072344922, "18": 0.023654293, "19": 0.058709174, "20": 0.13997303, "21": -0.20398247, "22": -0.12167832, "23": 0.020980138, "24": -0.0074400697, "25": 0.11703557, "26": -0.1451097, "27": -0.10940069, "28": 0.018004138, "29": 0.1096945, "30": 0.07298959, "31": -0.041607771, "32": -0.070708059, "33": 0.046992332, "34": -0.058857247, "35": -0.00045526886, "36": -0.028130785, "37": 0.055476386, "38": 0.037799835, "39": 0.05852925, "40": 0.20526163, "41": -0.15337925, "42": -0.0043787784, "43": -0.015757959, "44": -0.022038598}}, {"sx": 3, "sy": 3, "depth": 5, "w": {"0": 0.019038316, "1": 0.053267177, "2": -0.11500668, "3": 0.02305967, "4": 0.050627206, "5": -0.0031167248, "6": -0.19960362, "7": 0.060546283, "8": 0.13890295, "9": -0.0037833117, "10": 0.036165513, "11": -0.097425237, "12": -0.060150925, "13": -0.090054721, "14": -0.062089235, "15": 0.010852566, "16": 0.053477224, "17": 0.10897306, "18": 0.080317579, "19": 0.0017589256, "20": -0.083931774, "21": 0.03849661, "22": -0.11412832, "23": 0.039292492, "24": 0.11359517, "25": 0.018896, "26": -0.120918, "27": -0.018757055, "28": 0.018019654, "29": -0.025148636, "30": -0.099863417, "31": -0.047135953, "32": 0.14098155, "33": -0.022197558, "34": -0.10375366, "35": -0.060124882, "36": -0.17330758, "37": 0.043373764, "38": -0.093378589, "39": 0.040934484, "40": -0.07242649, "41": -0.031545136, "42": 0.045456871, "43": 0.072795898, "44": 0.077450529}}, {"sx": 3, "sy": 3, "depth": 5, "w": {"0": 0.001052608, "1": 0.05978822, "2": -0.043253399, "3": -0.031074107, "4": 0.069090016, "5": -0.059095856, "6": -0.12692389, "7": -0.011889513, "8": -0.11598442, "9": 0.0015377275, "10": -0.024736259, "11": -0.025106959, "12": -0.17093623, "13": 0.047559544, "14": -0.16970165, "15": -0.076904401, "16": -0.051335581, "17": 0.033431564, "18": -0.01825271, "19": -0.0021204769, "20": -0.0024878539, "21": -0.06071062, "22": 0.060037859, "23": -0.10773431, "24": -0.061781079, "25": -0.11420041, "26": -0.023629669, "27": -0.086657122, "28": -0.018841783, "29": -0.066020541, "30": 0.056790713, "31": 0.073162444, "32": 0.11083539, "33": 0.15146971, "34": 0.0939584, "35": 0.15425779, "36": 0.096596383, "37": 0.063716508, "38": 0.050028671, "39": 0.13493662, "40": 0.084302723, "41": 0.060864538, "42": -0.034435693, "43": 0.12899169, "44": -0.082987502}}, {"sx": 3, "sy": 3, "depth": 5, "w": {"0": 0.040271122, "1": 0.098988637, "2": 0.11531959, "3": -0.13741626, "4": 0.0069678547, "5": -0.12679689, "6": 0.058366384, "7": 0.14154559, "8": -0.064178407, "9": -0.071198806, "10": -0.072290771, "11": 0.097056523, "12": 0.095662571, "13": -0.0086584035, "14": -0.014542533, "15": 0.051600978, "16": -0.041747157, "17": -0.11994375, "18": -0.015588085, "19": -0.15430973, "20": -0.045332439, "21": -0.080033995, "22": 0.039369717, "23": -0.063886724, "24": -0.071575455, "25": 0.077872775, "26": -0.084469572, "27": 0.1098185, "28": 0.05572914, "29": -0.0096361879, "30": -0.092592165, "31": -0.14937462, "32": 0.055452045, "33": 0.025951752, "34": 0.047684487, "35": 0.048265923, "36": -0.07102403, "37": -0.0036554059, "38": -0.045441207, "39": -0.075390615, "40": 0.071482696, "41": 0.083822116, "42": 0.1250886, "43": 0.07316751, "44": 0.034446407}}, {"sx": 3, "sy": 3, "depth": 5, "w": {"0": 0.11903327, "1": 0.10395975, "2": -0.055234436, "3": -0.018992212, "4": -0.1476506, "5": 0.025379112, "6": 0.088137791, "7": 0.10571758, "8": 0.099082075, "9": -0.15087309, "10": 0.06683562, "11": -0.099983685, "12": 0.12689331, "13": -0.026148891, "14": -0.10936698, "15": 0.15063991, "16": 0.025935896, "17": 0.062327009, "18": -0.13096614, "19": -0.14025982, "20": 0.093216419, "21": -0.031314947, "22": -0.05847444, "23": 0.031328496, "24": -0.070608325, "25": 0.16834494, "26": 0.0096590137, "27": -0.036540259, "28": 0.031289864, "29": -0.11254939, "30": 0.12097161, "31": -0.017013351, "32": -0.18034171, "33": -0.0043846285, "34": -0.041837148, "35": 0.17003714, "36": -0.026284272, "37": -0.17384003, "38": -0.0607819, "39": -0.088912241, "40": -0.018798485, "41": 0.061032053, "42": 0.011245341, "43": 0.067694239, "44": -0.05129981}}, {"sx": 3, "sy": 3, "depth": 5, "w": {"0": 0.038475946, "1": 0.13529225, "2": -0.12578233, "3": -0.010118496, "4": -0.086962909, "5": -0.096229352, "6": 0.11533432, "7": -0.046557266, "8": -0.052213628, "9": -0.038406163, "10": -0.14938404, "11": 0.09799163, "12": 0.053141214, "13": -0.025202468, "14": 0.04873126, "15": -0.068995155, "16": 0.1062851, "17": -0.14507937, "18": -0.09451893, "19": -0.012016788, "20": 0.044489503, "21": -0.024164839, "22": -0.035927683, "23": 0.011539685, "24": 0.10073733, "25": 0.022334531, "26": 0.030154467, "27": -0.18811527, "28": -0.042139377, "29": 0.069746792, "30": 0.0062964605, "31": -0.0044043176, "32": -0.0026675412, "33": 0.13308223, "34": 0.13738148, "35": 0.053958137, "36": -0.02698864, "37": -0.13793167, "38": -0.0051674023, "39": 0.045249559, "40": 0.12096683, "41": -0.039821692, "42": -0.1286972, "43": 0.041906998, "44": 0.10866615}}, {"sx": 3, "sy": 3, "depth": 5, "w": {"0": -0.065473542, "1": -0.12268008, "2": 0.068698227, "3": 0.040499382, "4": 0.090017624, "5": -0.0086676525, "6": -0.097671732, "7": 0.13373198, "8": 0.023442486, "9": 0.0067938748, "10": 0.02539276, "11": -0.070257112, "12": 0.096288711, "13": 0.04007237, "14": -0.004259971, "15": 0.041959301, "16": 0.078816429, "17": 0.073369578, "18": -0.057647273, "19": -0.098249927, "20": -0.044434462, "21": -0.090099365, "22": 0.059729304, "23": -0.080390245, "24": -0.0020801905, "25": -0.020763997, "26": -0.04383219, "27": -0.057597809, "28": -0.043016534, "29": 0.046130005, "30": 0.026694801, "31": 0.08141958, "32": -0.19756591, "33": 0.076456018, "34": -0.022757772, "35": 0.031098325, "36": 0.13646236, "37": -0.16981229, "38": 0.0053503937, "39": 0.051504314, "40": 0.020230761, "41": 0.095681474, "42": -0.032847386, "43": 0.028794553, "44": -0.071366549}}, {"sx": 3, "sy": 3, "depth": 5, "w": {"0": -0.081462607, "1": 0.094241872, "2": -0.12410359, "3": 0.08353667, "4": -0.038942534, "5": 0.11683884, "6": -0.099846177, "7": -0.080528855, "8": 0.053216208, "9": 0.0592333, "10": -0.0088597769, "11": -0.057295814, "12": -0.06862852, "13": 0.0063531124, "14": -0.027604941, "15": 0.12437681, "16": -0.079918854, "17": -0.152495, "18": 0.04398473, "19": -0.077035651, "20": 0.10070098, "21": -0.055214118, "22": -0.10399196, "23": 0.11024667, "24": -0.058974065, "25": -0.079727419, "26": 0.059001513, "27": -0.070218481, "28": 0.12077925, "29": 0.09474235, "30": 0.126076, "31": 0.11245286, "32": -0.010269243, "33": 0.12112695, "34": 0.033649258, "35": -0.027204305, "36": 0.052183986, "37": -0.16028103, "38": -0.024370596, "39": 0.054592904, "40": 0.020117715, "41": -0.060619354, "42": -0.035823978, "43": 0.11114758, "44": -0.11435927}}, {"sx": 3, "sy": 3, "depth": 5, "w": {"0": -0.02787116, "1": 0.11766258, "2": -0.082021073, "3": -0.030381877, "4": -0.045521047, "5": -0.09139701, "6": 0.11560845, "7": -0.020876972, "8": -0.009980903, "9": -0.024114756, "10": -0.088007897, "11": 0.10061049, "12": 0.0055481223, "13": 0.038010083, "14": -0.044096522, "15": -0.11162219, "16": 0.070376374, "17": -0.027653886, "18": 0.1061035, "19": 0.038282264, "20": -0.043684267, "21": 0.2362693, "22": -0.16098234, "23": 0.054185767, "24": -0.044122562, "25": -0.069966055, "26": 0.10174213, "27": -0.12372949, "28": 0.060251977, "29": -0.023111809, "30": -0.052364267, "31": 0.16943121, "32": -0.01279299, "33": -0.026669931, "34": -0.017125145, "35": -0.049759943, "36": 0.1190626, "37": -0.11288045, "38": -0.0067903902, "39": -0.051924005, "40": -0.13372867, "41": 0.22149642, "42": -0.095141917, "43": -0.060294997, "44": 0.069169812}}, {"sx": 3, "sy": 3, "depth": 5, "w": {"0": -0.046868242, "1": 0.0037311683, "2": -0.054001879, "3": -0.01685684, "4": 0.072549045, "5": 0.032845948, "6": -0.15923983, "7": 0.057466213, "8": 0.035772014, "9": -0.0064769066, "10": -0.084234886, "11": 0.065330736, "12": 0.020697137, "13": -0.093243256, "14": -0.039976519, "15": 0.010644442, "16": -0.080199838, "17": 0.0040137367, "18": 0.087672599, "19": 0.097689234, "20": -0.056233384, "21": -0.050968722, "22": 0.10951988, "23": 0.051938385, "24": 0.083246373, "25": -0.14870533, "26": -0.085782804, "27": -0.016841622, "28": -0.072308846, "29": 0.061747398, "30": 0.056998629, "31": -0.003293399, "32": -0.14101455, "33": -0.051843278, "34": -0.060428467, "35": 0.058458608, "36": 0.028011514, "37": -0.024882969, "38": 0.051433157, "39": 0.015207957, "40": -0.15530495, "41": 0.0025266751, "42": -0.1503319, "43": 0.055754367, "44": -0.012691171}}, {"sx": 3, "sy": 3, "depth": 5, "w": {"0": 0.099953055, "1": 0.034379423, "2": -0.11956757, "3": 0.044282194, "4": -0.10364629, "5": -0.061535601, "6": 0.057611383, "7": 0.087162197, "8": 0.14981419, "9": -0.04411285, "10": -0.095171131, "11": 0.0044743768, "12": 0.042011872, "13": 0.0036005513, "14": -0.014489018, "15": 0.077235527, "16": -0.06275516, "17": 0.12193423, "18": 0.11332603, "19": -0.094417445, "20": -0.082212135, "21": -0.067956179, "22": 0.02338044, "23": -0.018976264, "24": -0.16508527, "25": 0.059356127, "26": -0.06103627, "27": 0.13817568, "28": -0.032187797, "29": -0.11631966, "30": -0.07924889, "31": -0.041952554, "32": -0.011806424, "33": 0.018000485, "34": 0.072821774, "35": -0.07398732, "36": -0.099819824, "37": 0.19657478, "38": 0.11742274, "39": 0.035169367, "40": 0.037868556, "41": -0.16067587, "42": -0.0073678913, "43": 0.046950702, "44": 0.095455438}}, {"sx": 3, "sy": 3, "depth": 5, "w": {"0": 0.0061220475, "1": -0.19130258, "2": 0.0054719783, "3": -0.036105197, "4": -0.037241489, "5": -0.15452053, "6": -0.060204994, "7": -0.077218771, "8": 0.084981121, "9": 0.16886525, "10": 0.019060729, "11": -0.0038043335, "12": 0.0045298496, "13": 0.010130485, "14": -0.12766115, "15": -0.089562774, "16": -0.1004061, "17": 0.039994627, "18": 0.011021717, "19": -0.0064004082, "20": 0.17316875, "21": -0.10153947, "22": -0.17707676, "23": -0.022084143, "24": 0.055819958, "25": -0.069434792, "26": 0.14234239, "27": -0.040592324, "28": 0.038650058, "29": -0.11148009, "30": -0.081818104, "31": 0.05091754, "32": 0.024652049, "33": 0.13552469, "34": 0.16415741, "35": 0.12701938, "36": 0.11309546, "37": -0.058744445, "38": -0.19287245, "39": -0.11121409, "40": 0.082843922, "41": 0.021040244, "42": 0.1370814, "43": 0.13923763, "44": -0.1975404}}, {"sx": 3, "sy": 3, "depth": 5, "w": {"0": 0.10028904, "1": 0.016916331, "2": -0.036671318, "3": -0.029623825, "4": 0.060742486, "5": -0.14006783, "6": 0.010197946, "7": -0.13470529, "8": 0.011911703, "9": 0.11571894, "10": -0.0042254417, "11": -0.1173657, "12": -0.052823581, "13": 0.16787398, "14": 0.051252183, "15": -0.006455299, "16": -0.095523186, "17": -0.089815855, "18": 0.0047108149, "19": 0.12579559, "20": -0.095000423, "21": 0.057324771, "22": -0.12102343, "23": 0.051463224, "24": 0.061189033, "25": -0.16625731, "26": 0.0033391695, "27": -0.030489221, "28": 0.052287564, "29": 0.12601392, "30": -0.053561356, "31": -0.051593926, "32": 0.039954159, "33": -0.067760155, "34": 0.11002348, "35": -0.12771359, "36": 0.066355549, "37": 0.10601252, "38": 0.12726605, "39": -0.050553311, "40": -0.11158782, "41": 0.06790293, "42": 0.022567922, "43": -0.043004755, "44": -0.01342579}}, {"sx": 3, "sy": 3, "depth": 5, "w": {"0": -0.067804568, "1": 0.049003128, "2": -0.10631077, "3": 0.013993583, "4": 0.019287053, "5": -0.074565202, "6": 0.040982086, "7": -0.023682646, "8": -0.046227735, "9": -0.11337011, "10": -0.14244153, "11": 0.042272508, "12": 0.13152993, "13": 0.018352691, "14": -0.034837894, "15": -0.0789124, "16": 0.13862331, "17": 0.04913028, "18": 0.11825468, "19": -0.043729927, "20": -0.14307736, "21": 0.055685136, "22": -0.024385246, "23": 0.11400615, "24": 0.0700792, "25": 0.012989954, "26": -0.11771887, "27": 0.012582389, "28": 0.05098879, "29": -0.060065012, "30": -0.13954206, "31": 0.097130522, "32": 0.10986487, "33": -0.10364604, "34": -0.13168472, "35": -0.12150124, "36": 0.14712021, "37": -0.041360341, "38": -0.0089274338, "39": 0.038927946, "40": -0.037328225, "41": 0.0041791308, "42": 0.05011005, "43": 0.043241225, "44": 0.052786611}}, {"sx": 3, "sy": 3, "depth": 5, "w": {"0": -0.10042576, "1": 0.17438816, "2": -0.10050175, "3": -0.23315398, "4": -0.068009652, "5": -0.14609788, "6": 0.075619362, "7": 0.027958931, "8": -0.10767327, "9": 0.008152728, "10": -0.023282574, "11": -0.041638762, "12": 0.11056741, "13": 0.08504007, "14": -0.051800724, "15": 0.091465987, "16": 0.0012470332, "17": 0.061567154, "18": -0.10220109, "19": 0.2049544, "20": 0.02632525, "21": 0.1860861, "22": 0.11023646, "23": -0.17789274, "24": 0.041143093, "25": -0.031895798, "26": -0.093976788, "27": -0.055466782, "28": 0.0047330572, "29": 0.15022828, "30": 0.050228696, "31": 0.086720698, "32": -0.15027347, "33": -0.25595477, "34": -0.10648365, "35": -0.035439447, "36": 0.091469839, "37": -0.16233027, "38": 0.01790284, "39": -0.16210517, "40": -0.040205836, "41": -0.19165747, "42": -0.023834039, "43": 0.10426268, "44": -0.15740035}}, {"sx": 3, "sy": 3, "depth": 5, "w": {"0": -0.079782091, "1": -0.061203822, "2": -0.09082181, "3": 0.038444646, "4": 0.038983725, "5": -0.039581183, "6": 0.049546842, "7": -0.067224242, "8": 0.079343185, "9": -0.15413702, "10": -0.12418775, "11": 0.13285823, "12": -0.05099269, "13": -0.034600329, "14": -0.14168647, "15": -0.053163741, "16": -0.048076838, "17": -0.059896771, "18": -0.0080387238, "19": -0.053748835, "20": 0.047561944, "21": 0.047634255, "22": 0.077301361, "23": 0.034726046, "24": -0.073695429, "25": -0.091671646, "26": 0.115212, "27": 0.012400779, "28": 0.041912153, "29": -0.060451534, "30": 0.00789472, "31": 0.054882519, "32": 0.12100908, "33": 0.12403313, "34": -0.11008016, "35": -0.011857754, "36": -0.013597184, "37": 0.066489182, "38": 0.003562201, "39": 0.0025914027, "40": 0.12478553, "41": 0.097022332, "42": 0.17301162, "43": 0.12157289, "44": -0.16304415}}, {"sx": 3, "sy": 3, "depth": 5, "w": {"0": -0.15622932, "1": 0.041058421, "2": 0.079173252, "3": 0.025618128, "4": 0.010576262, "5": 0.0076651508, "6": 0.032862917, "7": -0.043356989, "8": 0.0081483051, "9": -0.020516049, "10": 0.060742855, "11": 0.13214888, "12": 0.12634327, "13": -0.11197887, "14": -0.027186459, "15": 0.017671537, "16": 0.10488047, "17": -0.055241488, "18": -0.10771757, "19": 0.076018088, "20": -0.028689414, "21": 0.049476884, "22": 0.13387187, "23": -0.19530211, "24": 0.046776623, "25": -0.095575385, "26": -0.021793971, "27": 0.087422401, "28": -0.18625216, "29": 0.088283889, "30": 0.017464126, "31": 0.12527816, "32": 0.1542892, "33": -0.16120407, "34": -0.064859711, "35": -0.11415808, "36": 0.080259725, "37": 0.14968686, "38": -0.16207589, "39": -0.015819309, "40": 0.068606392, "41": -0.014800077, "42": -0.017737022, "43": -0.16173901, "44": 0.067538872}}, {"sx": 3, "sy": 3, "depth": 5, "w": {"0": 0.015424497, "1": -0.094530426, "2": -0.20628762, "3": -0.08572609, "4": 0.041156992, "5": 0.043615989, "6": -0.034628928, "7": -0.19933996, "8": -0.1177711, "9": -0.032183338, "10": -0.1499538, "11": -0.098184966, "12": -0.025300244, "13": 0.078619458, "14": 0.095836572, "15": 0.007432098, "16": -0.0078607602, "17": -0.015472684, "18": -0.12351423, "19": -0.095340326, "20": 0.097938068, "21": -0.10688514, "22": -0.023377668, "23": -0.070986673, "24": 0.030890791, "25": 0.05702848, "26": -0.016123224, "27": 0.081508443, "28": 0.012064267, "29": 0.10083535, "30": 0.10374761, "31": 0.065056905, "32": 0.066191606, "33": 0.10816834, "34": -0.10745913, "35": 0.085583746, "36": -0.077239178, "37": 0.16853745, "38": 0.00033597567, "39": 0.015933085, "40": 0.066522464, "41": 0.10490891, "42": 0.12497244, "43": 0.05741065, "44": -0.0073682424}}, {"sx": 3, "sy": 3, "depth": 5, "w": {"0": -0.052696001, "1": 0.027857432, "2": 0.13255423, "3": 0.11001627, "4": 0.14460772, "5": 0.11749848, "6": 0.11108136, "7": 0.062485654, "8": 0.023256646, "9": -0.04242428, "10": 0.17033362, "11": 0.17201346, "12": 0.13677214, "13": 0.20507842, "14": 0.021080371, "15": 0.036036003, "16": 0.11257191, "17": -0.0046189204, "18": 0.065485738, "19": -0.051376738, "20": -0.065358959, "21": -0.0014313048, "22": -0.038299579, "23": -0.062326692, "24": -0.047129028, "25": -0.12927096, "26": 0.060952321, "27": -0.074534878, "28": -0.034329098, "29": 0.02052727, "30": 0.015870618, "31": -0.10101742, "32": -0.027221551, "33": -0.014288505, "34": -0.050162058, "35": -0.12298778, "36": -0.15168391, "37": -0.035949759, "38": -0.013775933, "39": -0.11450914, "40": -0.087541722, "41": -0.20125335, "42": -0.13851941, "43": -0.20680739, "44": -0.044520028}}, {"sx": 3, "sy": 3, "depth": 5, "w": {"0": 0.1356377, "1": -0.13703479, "2": 0.021132296, "3": -0.051233821, "4": 0.0010877489, "5": 0.010590567, "6": -0.18727104, "7": 0.12227751, "8": -0.028754808, "9": 0.046282284, "10": 0.070472263, "11": -0.048971489, "12": 0.018289449, "13": 0.11194089, "14": -0.050396785, "15": 0.070209682, "16": -0.21744388, "17": 0.14449623, "18": 0.0038690169, "19": 0.027449658, "20": 0.13103199, "21": -0.16092968, "22": 0.073592074, "23": -0.010775143, "24": 0.019731484, "25": 0.010802072, "26": -0.14031626, "27": 0.062225904, "28": -0.12481039, "29": 0.045399506, "30": 0.086843543, "31": -0.14024548, "32": 0.17096652, "33": -0.010213391, "34": -0.065490633, "35": -0.055456981, "36": -0.062320456, "37": 0.1490671, "38": -0.067959219, "39": -0.09224993, "40": -0.0093026618, "41": -0.13633484, "42": 0.14830589, "43": 0.10552017, "44": -0.049872585}}, {"sx": 3, "sy": 3, "depth": 5, "w": {"0": -0.098744161, "1": 0.0054466948, "2": 0.0775581, "3": 0.036713261, "4": 0.1309987, "5": 0.083301924, "6": 0.028506272, "7": -0.13968794, "8": -0.11448073, "9": 0.063187197, "10": -0.012359033, "11": -0.037114747, "12": 0.071143024, "13": 0.039381057, "14": 0.00024242249, "15": 0.096895576, "16": 0.093395881, "17": -0.18309785, "18": 0.1023614, "19": 0.11993404, "20": -0.045836218, "21": -0.094668776, "22": 0.017803319, "23": -0.13224214, "24": 0.12981477, "25": 0.024413167, "26": -0.025497621, "27": -0.12253196, "28": -0.059649426, "29": -0.015561218, "30": 0.12405121, "31": -0.01927443, "32": -0.15112588, "33": 0.091432169, "34": -0.0019201717, "35": -0.092356399, "36": -0.02624221, "37": -0.10147951, "38": -0.031371731, "39": 0.083226256, "40": -0.01744378, "41": -0.077422217, "42": -0.1134503, "43": 0.0053518093, "44": 0.056170423}}, {"sx": 3, "sy": 3, "depth": 5, "w": {"0": 0.10179469, "1": 0.073424421, "2": -0.22245517, "3": 0.13430342, "4": -0.14546818, "5": 0.0079703797, "6": 0.040036518, "7": -0.17878656, "8": 0.20785329, "9": -0.041384172, "10": -0.033553481, "11": -0.1627329, "12": 0.096782565, "13": 0.13137972, "14": -0.1541072, "15": -0.11248299, "16": -0.097890697, "17": 0.060589515, "18": 0.007943322, "19": 0.090528101, "20": -0.040724237, "21": -0.12893651, "22": 0.054556563, "23": 0.067172259, "24": -0.045320205, "25": -0.081495851, "26": -0.10705834, "27": -0.073157378, "28": 0.14677639, "29": 0.059666023, "30": -0.081076927, "31": 0.062839307, "32": 0.11487976, "33": -0.06387274, "34": 0.054647386, "35": 0.1039757, "36": 0.10294852, "37": -0.0093930606, "38": -0.075639769, "39": -0.073760837, "40": 0.019976918, "41": 0.088353746, "42": -0.027301958, "43": 0.027898483, "44": 0.044011943}}, {"sx": 3, "sy": 3, "depth": 5, "w": {"0": 0.21623187, "1": -0.1159398, "2": -0.15711789, "3": 0.016959369, "4": 0.087535165, "5": -0.1341359, "6": -0.069806285, "7": -0.0019125106, "8": -0.10760798, "9": -0.04993242, "10": -0.13513213, "11": -0.20437667, "12": 0.024018135, "13": -0.20724839, "14": -0.17630582, "15": 0.014161795, "16": -0.11117019, "17": -0.053776454, "18": -0.049174167, "19": 0.080832146, "20": -0.14815493, "21": 0.0415061, "22": -0.099128552, "23": -0.016904848, "24": -0.092778318, "25": -0.077445567, "26": -0.19644789, "27": 0.19818074, "28": -0.034102071, "29": 0.05618763, "30": -0.12510404, "31": -0.17967634, "32": -0.037084844, "33": -0.11121581, "34": 0.050056852, "35": -0.052613959, "36": 0.077973038, "37": -0.098941401, "38": -0.047112092, "39": 0.046555337, "40": -0.091959514, "41": -0.2547147, "42": 0.25952926, "43": 0.064477041, "44": -0.035134211}}, {"sx": 3, "sy": 3, "depth": 5, "w": {"0": -0.062325511, "1": -0.11748154, "2": 0.033520728, "3": 0.10393861, "4": 0.10378176, "5": -0.050788764, "6": -0.070351355, "7": 0.14693418, "8": 0.078777939, "9": -0.15662886, "10": 0.011476004, "11": 0.051806293, "12": -0.15801212, "13": -0.065246597, "14": 0.059335083, "15": -0.0085762572, "16": 0.0048185354, "17": -0.11516416, "18": -0.10643154, "19": 0.07199125, "20": 0.050031323, "21": 0.054143194, "22": 0.18831651, "23": 0.029233763, "24": -0.16890812, "25": 0.082516238, "26": 0.01050419, "27": -0.15050435, "28": -0.05025183, "29": 0.11230488, "30": -0.094533332, "31": 0.078192987, "32": -0.10857568, "33": 0.089500956, "34": -0.070435129, "35": -0.059058804, "36": -0.041164536, "37": 0.15318246, "38": -0.073665023, "39": 0.038498588, "40": 0.048300959, "41": -0.073692255, "42": 0.008635697, "43": -0.087976098, "44": 0.065814987}}, {"sx": 3, "sy": 3, "depth": 5, "w": {"0": 0.084006794, "1": 0.016210444, "2": 0.12582563, "3": 0.062237523, "4": -0.12451988, "5": -0.09027493, "6": 0.07147415, "7": -0.029943049, "8": -0.22435062, "9": 0.010270009, "10": 0.035306439, "11": -0.12641585, "12": 0.1529792, "13": -0.096200563, "14": 0.057273027, "15": -0.079134271, "16": -0.063421346, "17": 0.093794152, "18": -0.025653865, "19": 0.052686188, "20": -0.0017373937, "21": -0.013598439, "22": 0.049012553, "23": -0.21124573, "24": -0.13156913, "25": 0.083688922, "26": -0.12551022, "27": -0.0048159687, "28": -0.12179492, "29": 0.088780217, "30": 0.057326343, "31": -0.02893942, "32": 0.019372331, "33": -0.058331549, "34": 0.027288031, "35": -0.048792575, "36": 0.10262252, "37": 0.017069381, "38": -0.196366, "39": 0.07992541, "40": 0.10072342, "41": 0.003919425, "42": -0.026632465, "43": -0.062660001, "44": 0.081511952}}, {"sx": 3, "sy": 3, "depth": 5, "w": {"0": 0.067743741, "1": -0.14560394, "2": 0.08248508, "3": -0.059649441, "4": 0.080218054, "5": 0.11971096, "6": -0.096462026, "7": 0.025040897, "8": -0.089302719, "9": 0.016229989, "10": -0.11130854, "11": 0.05202404, "12": 0.02055734, "13": 0.011512991, "14": -0.09309911, "15": -0.082627483, "16": 0.082949109, "17": 0.084999017, "18": -0.010525623, "19": 0.074493289, "20": -0.040778123, "21": 0.0076049296, "22": 0.036579672, "23": -0.15593413, "24": 0.14119463, "25": 0.027556138, "26": -0.087848261, "27": 0.095772557, "28": -0.19365887, "29": 0.082587875, "30": -0.040933166, "31": -0.087653838, "32": -0.018527385, "33": -0.069630623, "34": 0.040951949, "35": 0.12427736, "36": -0.080730617, "37": -0.034233358, "38": -0.16280039, "39": 0.078058369, "40": -0.014427219, "41": 0.13110791, "42": 0.15169348, "43": 0.033005361, "44": 0.090001002}}, {"sx": 3, "sy": 3, "depth": 5, "w": {"0": -0.043277647, "1": -0.060047667, "2": -0.11778724, "3": 0.10293102, "4": 0.13186148, "5": 0.022895489, "6": 0.01838523, "7": -0.1021371, "8": -0.1122008, "9": -0.058824901, "10": 0.07849782, "11": -0.14241277, "12": -0.1478136, "13": -0.13701245, "14": -0.13743648, "15": -0.081292555, "16": 0.0030104017, "17": 0.0815323, "18": -0.027064366, "19": -0.019564828, "20": 0.043258242, "21": 0.080334581, "22": -0.0885939, "23": -0.14925152, "24": -0.1466973, "25": 0.11658359, "26": 0.10773548, "27": -0.027752362, "28": 0.13137169, "29": -0.099032402, "30": 0.0066206772, "31": -0.016955135, "32": 0.03620059, "33": -0.053859528, "34": 0.040059935, "35": 0.11018798, "36": -0.011266868, "37": -0.042463567, "38": 0.087485164, "39": 0.094211325, "40": 0.0096578877, "41": 0.071613349, "42": -0.079483956, "43": 0.08269535, "44": -0.1116984}}, {"sx": 3, "sy": 3, "depth": 5, "w": {"0": -0.084244646, "1": -0.020553717, "2": -0.065856338, "3": -0.017993286, "4": 0.060468882, "5": -0.030751439, "6": 0.10475246, "7": -0.021298354, "8": -0.038333986, "9": 0.048753582, "10": 0.0052488027, "11": 0.19594377, "12": -0.038454115, "13": 0.012256188, "14": -0.058282096, "15": -0.13246861, "16": -0.00012617387, "17": -0.081127241, "18": 0.1420797, "19": 0.089437038, "20": -0.071299493, "21": 0.087151229, "22": -0.18940021, "23": 0.12636091, "24": -0.095164314, "25": 0.038077295, "26": 0.040784162, "27": -0.15033501, "28": 0.08666712, "29": -0.0089573767, "30": -0.10234823, "31": -0.056632455, "32": -0.079917572, "33": 0.098570384, "34": -0.042816993, "35": -0.13360853, "36": 0.094006591, "37": 0.054088693, "38": -0.050229885, "39": -0.035198681, "40": -0.038953412, "41": 0.058078796, "42": -0.13009278, "43": 0.17292443, "44": -0.0027433867}}, {"sx": 3, "sy": 3, "depth": 5, "w": {"0": 0.08397992, "1": 0.12543225, "2": -0.038616274, "3": -0.019538397, "4": -0.066465721, "5": 0.008470214, "6": 0.098981604, "7": -0.2139497, "8": 0.13822804, "9": -0.01489976, "10": -0.070212439, "11": 0.17900813, "12": -0.058751639, "13": 0.074099377, "14": 0.13263272, "15": 0.084732674, "16": -0.0056877579, "17": -0.063556053, "18": -0.079419613, "19": -0.018954689, "20": 0.12747546, "21": -0.080558911, "22": -0.16588189, "23": -0.022989688, "24": 0.019973837, "25": 0.028400214, "26": -0.062905364, "27": -0.057227567, "28": 0.19592699, "29": -0.081119277, "30": 0.0068449555, "31": -0.060874078, "32": 0.053811666, "33": -0.13271117, "34": -0.14081797, "35": -0.11765926, "36": -0.026502408, "37": 0.16495234, "38": -0.10589491, "39": -0.13194309, "40": -0.099606432, "41": 0.071475729, "42": 0.29743388, "43": -0.09511096, "44": 0.018906547}}, {"sx": 3, "sy": 3, "depth": 5, "w": {"0": -0.037536956, "1": 0.050247863, "2": 0.10613854, "3": -0.12947884, "4": 0.076348484, "5": -0.00042533604, "6": -0.046902426, "7": 0.10322402, "8": -0.032985803, "9": 0.015650535, "10": 0.012141677, "11": -0.043790925, "12": 0.010606816, "13": -0.007132981, "14": 0.12177165, "15": 0.0034724348, "16": -0.15042271, "17": -0.1807819, "18": -0.09013363, "19": -0.03431645, "20": 0.094213635, "21": 0.089807279, "22": -0.031472083, "23": 0.039087426, "24": -0.09085618, "25": -0.090760417, "26": 0.076796189, "27": -0.097286098, "28": 0.032646883, "29": -0.082351327, "30": -0.17984067, "31": 0.039885882, "32": -0.16914319, "33": -0.13377926, "34": -0.20377597, "35": -0.071076274, "36": 0.0046942388, "37": 0.12646577, "38": -0.021880873, "39": -0.09841612, "40": 0.072472438, "41": 0.034768082, "42": 0.044608928, "43": -0.096122615, "44": 0.097383745}}], "biases": {"depth": 32, "sx": 1, "sy": 1, "w": {"0": 0.32154608, "1": 0.40814763, "2": -0.055930562, "3": 0.10383558, "4": -0.13709883, "5": 0.071459189, "6": -0.1274994, "7": -0.023990149, "8": 0.21606834, "9": 0.37102327, "10": 0.16955942, "11": 0.17678547, "12": 0.38935596, "13": 0.33312032, "14": -0.19222489, "15": -0.69961882, "16": 0.46547675, "17": 0.16275123, "18": 0.48865855, "19": -0.22238134, "20": 0.2053391, "21": -0.025366219, "22": -0.16833895, "23": 0.27667689, "24": 0.29315215, "25": 0.054907978, "26": -1.0664645, "27": 0.4611946, "28": -0.10651337, "29": -0.65780103, "30": -0.93956864, "31": 0.1278971}}}, {"out_depth": 32, "out_sx": 64, "out_sy": 64, "layer_type": "relu"}, {"sx": 3, "sy": 3, "stride": 1, "in_depth": 32, "out_depth": 32, "out_sx": 64, "out_sy": 64, "layer_type": "conv", "l1_decay_mul": 0, "l2_decay_mul": 1, "pad": 1, "filters": [{"sx": 3, "sy": 3, "depth": 32, "w": {"0": 0.078807227, "1": -0.095417969, "2": -0.042297602, "3": -0.098486133, "4": 0.037882648, "5": -0.038312063, "6": -0.107016, "7": 0.075282551, "8": -0.0030172605, "9": -0.10266627, "10": 0.0055900817, "11": 0.030236911, "12": -0.092954502, "13": -0.012232471, "14": -0.17531095, "15": -0.099868223, "16": 0.078007862, "17": -0.13518856, "18": 0.00071003527, "19": 0.060743384, "20": -0.13006388, "21": -0.042902689, "22": 0.063616514, "23": -0.0084449956, "24": -0.060602102, "25": -0.07314039, "26": -0.081494465, "27": -0.10089683, "28": 0.08117535, "29": 0.067073226, "30": -0.031886324, "31": 0.063636221, "32": -0.088946596, "33": -0.083192304, "34": -0.060597088, "35": -0.058767736, "36": -0.037928466, "37": -0.013646143, "38": -0.080258578, "39": -0.0015474153, "40": 0.019185074, "41": 0.027472006, "42": -0.13054208, "43": 0.06352599, "44": -0.084374502, "45": -0.019321399, "46": -0.053080365, "47": 0.046264105, "48": 0.099201888, "49": -0.039540563, "50": -0.087802961, "51": -0.071346804, "52": -0.086828537, "53": 0.054323759, "54": -0.0051813149, "55": -0.065309264, "56": -0.080461979, "57": 0.0011592434, "58": 0.066582203, "59": 0.023737224, "60": -0.019538838, "61": 0.075567342, "62": -0.08403556, "63": 0.08310464, "64": -0.079688974, "65": -0.093511775, "66": 0.093419351, "67": 0.042944275, "68": -0.093289837, "69": 0.035234697, "70": 0.061299451, "71": 0.0047896211, "72": 0.020268114, "73": -0.041399319, "74": -0.067960083, "75": 0.016366376, "76": -0.10091319, "77": -0.061690304, "78": -0.09915147, "79": 0.073542438, "80": -0.093704134, "81": -0.097505115, "82": -0.03675501, "83": 0.00034928822, "84": -0.046916045, "85": 0.056262147, "86": -0.074136794, "87": 0.077567667, "88": -0.006883963, "89": 0.030925971, "90": 0.0035536576, "91": 0.037796624, "92": -0.023387795, "93": -0.038137075, "94": -0.078776494, "95": -0.021168813, "96": -0.015697554, "97": -0.11353856, "98": -0.021649014, "99": 0.022109162, "100": 0.08173424, "101": 0.061633013, "102": 0.0016322156, "103": 0.068097927, "104": -0.032737672, "105": 0.032077659, "106": -0.0059962464, "107": 0.092004724, "108": -0.07824976, "109": -0.16967322, "110": 0.021485966, "111": 0.046717953, "112": 0.14417744, "113": -0.043459784, "114": -0.1330476, "115": 0.078866512, "116": -0.11839622, "117": 0.067848533, "118": -0.084280372, "119": 0.017697927, "120": -0.14506534, "121": 0.099878192, "122": 0.084867522, "123": -0.034912899, "124": 0.054441221, "125": 0.051890157, "126": -0.10438012, "127": 0.02675407, "128": -0.091859736, "129": -0.0094480608, "130": 0.037599586, "131": 0.029967111, "132": -0.11867443, "133": 0.054006647, "134": -0.14051381, "135": -0.044738099, "136": -0.032832634, "137": -0.0020238906, "138": 0.094095193, "139": 0.043797716, "140": 0.022180578, "141": 0.096730322, "142": -0.026339283, "143": 0.043983247, "144": 0.18693012, "145": -0.098841995, "146": 0.042331643, "147": -0.11164714, "148": -0.1142692, "149": -0.048488468, "150": -0.051917415, "151": 0.0090372032, "152": 0.01258731, "153": -0.076541632, "154": -0.058442943, "155": -0.10858437, "156": 0.073668376, "157": -0.053181656, "158": -0.09993764, "159": -0.023335168, "160": 0.046707712, "161": -0.093517497, "162": 0.060784448, "163": -0.061290327, "164": -0.032083042, "165": 0.024235012, "166": -0.12112556, "167": 0.00019573781, "168": 0.071657531, "169": 0.014292914, "170": -0.048270524, "171": 0.01707419, "172": -0.026639825, "173": -0.021479193, "174": -0.11945951, "175": 0.011460918, "176": -0.05624016, "177": -0.11737156, "178": -0.07217849, "179": 0.057819657, "180": -0.004898876, "181": 0.0026935746, "182": 0.035525847, "183": -0.041150585, "184": 0.022708803, "185": 0.026327174, "186": -0.015536981, "187": -0.072438009, "188": 0.075068422, "189": -0.045593884, "190": -0.064666055, "191": -0.081451423, "192": 0.075655378, "193": -0.085723057, "194": -0.021617465, "195": 0.044206195, "196": -0.10082725, "197": -0.032469317, "198": -0.04086652, "199": 0.036843427, "200": -0.013762978, "201": -0.097694322, "202": -0.022682426, "203": -0.038300268, "204": 0.0061071548, "205": -0.12515296, "206": 0.11487373, "207": -0.081216216, "208": -0.064071655, "209": -0.011619709, "210": -0.071575671, "211": -0.075884253, "212": -0.18226214, "213": -0.0098874466, "214": -0.023773493, "215": 0.068191633, "216": -0.12946677, "217": -0.068076767, "218": -0.068995036, "219": 0.037110437, "220": 0.001143419, "221": -0.05601614, "222": -0.01902636, "223": -0.057512492, "224": -0.045187879, "225": 0.048630238, "226": 0.039061606, "227": -0.0012071772, "228": -0.0051417686, "229": -0.10640135, "230": -0.057018209, "231": -0.032590445, "232": 0.02648994, "233": 0.066203833, "234": 0.004867712, "235": -0.099509187, "236": 0.025021315, "237": -0.044496186, "238": -0.09450566, "239": 0.0044220234, "240": 0.11296914, "241": -0.10914631, "242": -0.096860468, "243": -0.06067048, "244": -0.14671414, "245": 0.0062810793, "246": 0.029600091, "247": 0.063069709, "248": 0.056840405, "249": 0.05496116, "250": -0.041054845, "251": -0.023874912, "252": 0.056491833, "253": -0.044195928, "254": -0.032166515, "255": 0.057725661, "256": 0.049591802, "257": -0.0031400796, "258": 0.068488069, "259": 0.04331366, "260": 0.078025222, "261": 0.052355073, "262": -0.069918305, "263": 0.035805661, "264": 0.017032253, "265": 0.081515141, "266": -0.11102529, "267": -0.03756839, "268": -0.042805348, "269": -0.012214527, "270": -0.15482573, "271": -0.019210432, "272": -0.14893162, "273": -0.15946601, "274": -0.019483687, "275": -0.09511786, "276": -0.024088582, "277": -0.098347634, "278": -0.040719483, "279": -0.046028033, "280": -0.088628657, "281": -0.11195057, "282": -0.045581639, "283": -0.018859437, "284": 0.037829317, "285": -0.082234018, "286": -0.12818699, "287": -0.083052464}}, {"sx": 3, "sy": 3, "depth": 32, "w": {"0": 0.020517927, "1": 0.12180071, "2": 0.0015948715, "3": -0.018666178, "4": -0.10701635, "5": -0.016808445, "6": 0.010318532, "7": 0.058776733, "8": 0.076226071, "9": 0.069373883, "10": -0.10497383, "11": -0.07654421, "12": 0.030527892, "13": -0.071930535, "14": 0.053284008, "15": -0.093267716, "16": -0.051672854, "17": -0.02148097, "18": -0.083024181, "19": -0.052453458, "20": -0.010813064, "21": 0.075217634, "22": 0.077100791, "23": 0.11913184, "24": -0.018563488, "25": -0.023177825, "26": 0.078764699, "27": -0.023921752, "28": -0.14353459, "29": -0.16429953, "30": 0.010553876, "31": 0.081655301, "32": -0.032080065, "33": 0.031769495, "34": -0.036187414, "35": -0.03134834, "36": -0.1196504, "37": -0.040515509, "38": -0.016264448, "39": -0.053729527, "40": 0.018177336, "41": 0.0035288318, "42": -0.14220603, "43": 0.10901041, "44": 0.034834042, "45": 0.041781303, "46": 0.068238065, "47": -0.071234249, "48": -0.023859277, "49": 0.0016985142, "50": 0.017857792, "51": 0.028506923, "52": -0.14754134, "53": 0.018167628, "54": -0.048425496, "55": 0.1630493, "56": -0.013276044, "57": -0.020835346, "58": -0.084984921, "59": 0.046306051, "60": 0.047697067, "61": -0.064723909, "62": -0.00049272593, "63": 0.018215805, "64": -0.0035495502, "65": -0.009706948, "66": 0.081037611, "67": -0.0061688819, "68": 0.047072072, "69": -0.0026734874, "70": -0.0034023088, "71": 0.058995891, "72": 0.04210747, "73": 0.027110819, "74": -0.075707823, "75": 0.042798273, "76": 0.036333479, "77": -0.0028722391, "78": -0.043771781, "79": 0.021334484, "80": -0.16269018, "81": -0.079418883, "82": -0.014547029, "83": -0.035390701, "84": -0.10714605, "85": 0.080496803, "86": -0.018430682, "87": 0.22282994, "88": 0.075593419, "89": -0.0007311948, "90": -0.059518673, "91": -0.0086002816, "92": -0.026185315, "93": -0.024895819, "94": -0.007272732, "95": -0.0017950922, "96": -0.067266904, "97": -0.016180163, "98": -0.032402318, "99": 0.051412329, "100": -0.13159172, "101": -0.014501462, "102": 0.032031197, "103": -0.0040930407, "104": 0.074401267, "105": -0.010204663, "106": -0.04975738, "107": 0.053761434, "108": -0.10003161, "109": -0.046296582, "110": -0.011065383, "111": 0.060092889, "112": -0.0035280851, "113": -0.080446936, "114": -0.023961177, "115": -0.082606725, "116": -0.17084207, "117": -0.039951384, "118": 0.056431312, "119": -0.018498028, "120": -0.096184619, "121": -0.029273603, "122": -0.0080613848, "123": 0.023012336, "124": -0.013511741, "125": -0.13100532, "126": -0.035179909, "127": -0.10067305, "128": -0.0092813876, "129": -0.10246392, "130": -0.071652465, "131": -0.077127464, "132": -0.11951201, "133": -0.023369292, "134": 0.030271329, "135": -0.0059287632, "136": 0.079749584, "137": -0.072474703, "138": -0.0060714171, "139": -0.062645301, "140": -0.087370068, "141": -0.0035334742, "142": 0.025954785, "143": 0.062537976, "144": -0.11573617, "145": -0.095105298, "146": 0.058644004, "147": -0.023285642, "148": -0.28106713, "149": -0.0069271233, "150": -0.082383141, "151": 0.042818952, "152": 0.12209181, "153": -0.083933644, "154": -0.09064655, "155": 0.065614432, "156": -0.025532516, "157": -0.16060078, "158": -0.10124286, "159": 0.066379406, "160": -0.01030701, "161": -0.10490346, "162": 0.075869173, "163": 0.056778383, "164": -0.040566985, "165": -0.012853804, "166": 0.12485532, "167": -0.0041296915, "168": 0.035713933, "169": -0.050653581, "170": -0.072066307, "171": 0.074470311, "172": -0.047571484, "173": -0.10017703, "174": 0.018407064, "175": 0.022425544, "176": -0.1352109, "177": 0.017046489, "178": 0.09962754, "179": -0.068764471, "180": -0.24170098, "181": 0.022699609, "182": -0.02744367, "183": 0.013997781, "184": -0.020400794, "185": -0.028178569, "186": 0.087680884, "187": 0.068001471, "188": 0.045865487, "189": 0.018398978, "190": -0.092960984, "191": 0.055401005, "192": -0.057571869, "193": -0.087049767, "194": -0.10820274, "195": 0.0096896375, "196": -0.059756231, "197": -0.025660381, "198": 0.13498054, "199": 0.0051058624, "200": -0.045849044, "201": 0.050544955, "202": 0.017160237, "203": 0.075154826, "204": -0.1038582, "205": 0.027219024, "206": -0.0099753393, "207": -0.046339419, "208": 0.0067758532, "209": -0.040589944, "210": 0.13157345, "211": -0.040592324, "212": -0.21737705, "213": -0.099341683, "214": 0.080654003, "215": -0.12233203, "216": -0.13653778, "217": -0.10973853, "218": -0.011997038, "219": -0.064536549, "220": -0.066006921, "221": -0.027060395, "222": -0.071745567, "223": -0.088470004, "224": -0.011140643, "225": -0.16223112, "226": -0.049788386, "227": -0.09102717, "228": -0.068029054, "229": -0.024119807, "230": 0.041422099, "231": 0.076908492, "232": 0.073185571, "233": -0.033519667, "234": 0.038549773, "235": -0.097593606, "236": -0.10748179, "237": 0.059221379, "238": 0.066429943, "239": 0.088120274, "240": 0.020146376, "241": 0.029964879, "242": -0.020616725, "243": -0.0034459427, "244": -0.26613057, "245": -0.09147308, "246": 0.00080147036, "247": -0.15992332, "248": 0.065267004, "249": -0.045437414, "250": 0.010365192, "251": 0.022060856, "252": -0.10468072, "253": 0.0045250724, "254": -0.16848639, "255": -0.031060152, "256": 0.085825182, "257": -0.1317104, "258": 0.027039785, "259": -0.080416925, "260": -0.057045687, "261": 0.01298968, "262": 0.16053252, "263": -0.031446334, "264": 0.037601646, "265": 0.013236083, "266": 0.14265025, "267": 0.10234925, "268": -0.10579347, "269": -0.014736871, "270": 0.09527047, "271": 0.073727913, "272": -0.13725191, "273": -0.021444697, "274": 0.075543121, "275": -0.057211187, "276": -0.19581488, "277": -0.0081735384, "278": 0.044030346, "279": -0.020790612, "280": -0.061066844, "281": 0.074805371, "282": -0.032145664, "283": 0.040904168, "284": -0.04798412, "285": 0.073281303, "286": -0.049686838, "287": -0.0776131}}, {"sx": 3, "sy": 3, "depth": 32, "w": {"0": -0.043476112, "1": 0.011838493, "2": 0.12312301, "3": -0.054105166, "4": 0.036018021, "5": 0.038641147, "6": 0.019571954, "7": -0.027045585, "8": -0.055389863, "9": 0.012133761, "10": -0.1379142, "11": -0.12586357, "12": -0.0028114927, "13": 0.14711723, "14": 0.0080640474, "15": -0.054501403, "16": -0.14598656, "17": 0.0015818127, "18": 0.030144194, "19": 0.017717706, "20": 0.010918478, "21": -0.13864212, "22": -0.027596539, "23": -0.03282031, "24": -0.072808377, "25": 0.093673363, "26": -0.085655361, "27": 0.010146802, "28": -0.12440895, "29": -0.16847119, "30": -0.092543341, "31": 0.078814328, "32": -0.065126054, "33": -0.017818585, "34": 0.089364782, "35": -0.065478384, "36": 0.038660116, "37": 0.068667762, "38": 0.022535512, "39": -0.039758358, "40": -0.093141884, "41": 0.0067444784, "42": -0.031314518, "43": -0.077072144, "44": 0.042974774, "45": 0.062418435, "46": 0.10382123, "47": 0.053362302, "48": -0.077620573, "49": 2.5226342e-05, "50": -0.0054577682, "51": 0.023024306, "52": 0.19653127, "53": -0.14557491, "54": -0.048282675, "55": 0.088395298, "56": -0.28792495, "57": 0.17910521, "58": -0.060700983, "59": 0.012163203, "60": -0.064736009, "61": -0.13950779, "62": -0.063254178, "63": -0.077576146, "64": -0.019021325, "65": 0.064585842, "66": 0.048245132, "67": -0.032119665, "68": 0.01575104, "69": -0.010411158, "70": 0.052662272, "71": 0.054380756, "72": -0.00038414716, "73": 0.015465577, "74": -0.17038423, "75": -0.023669109, "76": -0.073928311, "77": -0.01352033, "78": -0.035413932, "79": 0.12100814, "80": 0.044826727, "81": 0.067773424, "82": 0.0053484207, "83": 0.047126528, "84": 0.02932045, "85": -0.18812029, "86": 0.046712771, "87": -0.027712153, "88": -0.14005999, "89": 0.13379271, "90": -0.034402695, "91": 0.032514658, "92": 0.05572198, "93": -0.15157077, "94": -0.04278462, "95": 0.018771444, "96": 0.00097036042, "97": -0.017300785, "98": -0.069885224, "99": -0.065563582, "100": -0.031838309, "101": -0.076401293, "102": 0.00046626673, "103": -0.067861795, "104": -0.037904367, "105": -0.056868244, "106": -0.12532569, "107": 0.074686959, "108": -0.00024063434, "109": 0.1994202, "110": 0.022849122, "111": -0.085210949, "112": -0.12892716, "113": 0.06316305, "114": -0.061208237, "115": 0.13788201, "116": 0.046821762, "117": -0.14338748, "118": -0.12031848, "119": -0.041190021, "120": 0.074322082, "121": 0.11475417, "122": -0.044002429, "123": 0.038384467, "124": -0.11782029, "125": -0.19930966, "126": 0.0045858421, "127": -0.039153364, "128": -0.044938385, "129": -0.016102752, "130": 0.021002842, "131": 0.051030584, "132": -0.066949211, "133": -0.06586425, "134": -0.061314691, "135": -0.01626282, "136": -0.018954296, "137": -0.0045933486, "138": -0.014388433, "139": 0.027286591, "140": -0.023836387, "141": -0.032975461, "142": 0.10234416, "143": 0.097700641, "144": -0.041351162, "145": -0.041549109, "146": -0.0038832042, "147": 0.0037568973, "148": -0.095892429, "149": -0.03220807, "150": -0.094365835, "151": 0.00017454354, "152": -0.1337578, "153": 0.17674127, "154": 0.0011991282, "155": -0.013124876, "156": -0.10918411, "157": -0.079826012, "158": 0.017412268, "159": 0.052422896, "160": -0.034324184, "161": -0.0071643135, "162": 0.0015247701, "163": 0.051798418, "164": 0.0554072, "165": -0.078440391, "166": -0.022544518, "167": -0.058869865, "168": 0.11043597, "169": -0.018792059, "170": -0.096499167, "171": -0.03126343, "172": 0.03436074, "173": 0.065409452, "174": 0.080400385, "175": 0.017010529, "176": -0.022933302, "177": -0.0068014632, "178": 0.037593484, "179": 0.14868689, "180": -0.043491337, "181": -0.17299086, "182": -0.047759525, "183": -0.01487531, "184": -0.03331371, "185": 0.2113384, "186": -0.051354859, "187": 0.016330967, "188": 0.12375261, "189": -0.14660788, "190": 0.063865684, "191": 0.048163794, "192": 0.067387499, "193": -0.0052349526, "194": 0.071686573, "195": -0.068923026, "196": 0.12663484, "197": 0.039701838, "198": 0.038765635, "199": -0.0042805034, "200": -0.072239831, "201": -0.0050778138, "202": -0.15833746, "203": -0.13729008, "204": 0.013701086, "205": -0.024841618, "206": 0.017374421, "207": -0.054993797, "208": -0.1664332, "209": -0.0047986708, "210": 0.064956844, "211": -0.048899021, "212": 0.12752613, "213": -0.19673692, "214": -0.16539779, "215": -0.053814672, "216": -0.035068095, "217": 0.26797032, "218": -0.026976803, "219": -0.021150056, "220": -0.07382036, "221": -0.068101183, "222": -0.10891698, "223": 0.035247665, "224": 0.0082504908, "225": -0.0190464, "226": -0.009472304, "227": 0.0068473448, "228": -0.087693773, "229": 0.0018014334, "230": -0.059636377, "231": -0.0090358844, "232": -0.079602815, "233": -0.078035258, "234": -0.067077741, "235": -0.043877549, "236": 0.013495191, "237": 0.10353479, "238": -0.043370292, "239": -0.018524399, "240": 0.034909129, "241": -0.013364325, "242": 0.025864793, "243": -0.032940164, "244": -0.024271805, "245": -0.19775756, "246": -0.092673622, "247": 0.025856484, "248": 0.029810598, "249": 0.057431065, "250": -0.066956602, "251": -0.053360168, "252": -0.091092236, "253": -0.12218501, "254": -0.1242292, "255": 0.013089806, "256": 0.041545786, "257": -0.055586617, "258": 0.013663961, "259": 0.0065847645, "260": 0.002591698, "261": -0.053984422, "262": -0.017254544, "263": -0.0057391031, "264": 0.10414147, "265": 0.028560311, "266": -0.11788607, "267": -0.068463929, "268": 0.012225863, "269": 0.34164932, "270": -0.028573949, "271": 0.053489283, "272": -0.0039000676, "273": -0.03691791, "274": -0.033185065, "275": 0.026818799, "276": 0.025784792, "277": -0.26287833, "278": 0.011970779, "279": -0.062004637, "280": -0.14488992, "281": 0.091568492, "282": -0.11114912, "283": 0.010655312, "284": -0.037603032, "285": -0.14513454, "286": -0.036512349, "287": 0.026713111}}, {"sx": 3, "sy": 3, "depth": 32, "w": {"0": -0.015484985, "1": -0.10063659, "2": 0.0058661676, "3": -0.0086669931, "4": -0.0015977699, "5": -0.096743025, "6": -0.020582134, "7": -0.056606457, "8": 0.10507827, "9": 0.020574993, "10": -0.024627093, "11": -0.12743984, "12": -0.15769267, "13": 0.073766626, "14": -0.013472348, "15": -0.043472603, "16": 0.021422381, "17": -0.074716695, "18": -0.067291021, "19": -0.03634895, "20": 0.008891549, "21": -0.22581038, "22": 0.061447084, "23": 0.051984254, "24": -0.10523735, "25": -0.10306154, "26": 0.018942609, "27": 0.029795382, "28": -0.041204292, "29": -0.10264122, "30": -0.056500398, "31": -0.03334745, "32": 0.015844552, "33": 0.035068851, "34": -0.17509611, "35": -0.065034017, "36": -0.037257314, "37": -0.10378803, "38": -0.13115092, "39": -0.0087915445, "40": 0.1939269, "41": -0.052693706, "42": 0.25904411, "43": 0.04534243, "44": -0.22793765, "45": -0.068624608, "46": 0.1160991, "47": -0.12924922, "48": -0.055568393, "49": 0.095750198, "50": 0.025082393, "51": -0.10039237, "52": 0.033468213, "53": -0.10454271, "54": -0.020014264, "55": -0.091359891, "56": -0.12990457, "57": -0.088479057, "58": 0.06715446, "59": -0.027486509, "60": 0.015657907, "61": 0.1392924, "62": -0.11650266, "63": 0.099601649, "64": 0.020835061, "65": -0.039533265, "66": -0.032038588, "67": -0.071724184, "68": -0.046408124, "69": -0.16932453, "70": -0.088754676, "71": -0.055479497, "72": 0.2587249, "73": -0.11643497, "74": 0.1411173, "75": -0.16987446, "76": -0.19268523, "77": -0.00011709775, "78": -0.2092887, "79": -0.056840125, "80": 0.2329721, "81": -0.018012382, "82": 0.051373441, "83": -0.20981376, "84": -0.047182508, "85": -0.07325466, "86": -0.21409932, "87": -0.054976687, "88": -0.14912413, "89": 0.063500486, "90": -0.031997472, "91": -0.25973046, "92": 0.05032526, "93": -0.043282911, "94": -0.12017135, "95": 0.019329855, "96": -0.038455363, "97": -0.099587098, "98": -0.038906142, "99": 0.026153615, "100": 0.016149566, "101": -0.058287505, "102": 0.085871488, "103": -0.016535353, "104": -0.028892618, "105": 0.092995577, "106": -0.081310354, "107": 0.026838299, "108": -0.14168972, "109": -0.0028205051, "110": 0.030317949, "111": -0.049556211, "112": 0.010168831, "113": -0.042993382, "114": -0.093518354, "115": 0.055466264, "116": 0.023096718, "117": -0.13043025, "118": -0.014808183, "119": 0.037860628, "120": -0.14434426, "121": 0.027707808, "122": -0.07989525, "123": 0.019664595, "124": -0.081012465, "125": -0.10997084, "126": 0.0051543489, "127": -0.0039666067, "128": -0.032834142, "129": -0.07518214, "130": -0.057574719, "131": -0.073802613, "132": -0.063904271, "133": -0.065643564, "134": -0.079314657, "135": -0.019529384, "136": -0.097794987, "137": -0.059483297, "138": 0.03228312, "139": 0.11513846, "140": -0.20602989, "141": 0.0067649418, "142": 0.032361094, "143": -0.16551094, "144": 0.035570741, "145": 0.11880124, "146": -0.0347468, "147": -0.14228886, "148": 0.016072674, "149": -0.096125759, "150": 0.072339512, "151": -0.041812733, "152": -0.12374256, "153": -0.035713069, "154": -0.035667524, "155": 0.015847439, "156": 0.07402122, "157": 0.08913964, "158": 0.056115475, "159": 0.0013967321, "160": -0.040315468, "161": 0.092961073, "162": 0.016369687, "163": -0.032066368, "164": -0.033373173, "165": -0.092316791, "166": -0.024903756, "167": 0.10855204, "168": 0.12800325, "169": -0.14829969, "170": 0.076155283, "171": -0.018434206, "172": -0.2655623, "173": -0.13615768, "174": -0.23980869, "175": -0.16217588, "176": 0.14720741, "177": -0.048484266, "178": 0.081033982, "179": -0.096561484, "180": -0.0098291282, "181": -0.12928611, "182": -0.17815612, "183": -0.080499545, "184": -0.24003436, "185": 0.10002347, "186": 0.10126616, "187": -0.19062158, "188": 0.034149729, "189": 0.039028358, "190": -0.11196283, "191": 0.0088933781, "192": -0.05418526, "193": -0.016551465, "194": -0.051989581, "195": -0.027424166, "196": 0.011769076, "197": -0.11454835, "198": 0.13392398, "199": -0.022378538, "200": 0.075367831, "201": 0.014529549, "202": -0.091938429, "203": 0.093019702, "204": -0.13997833, "205": -0.055488084, "206": 0.055914499, "207": -0.13713998, "208": 0.068848409, "209": -0.022154205, "210": -0.061212696, "211": 0.0034731091, "212": -0.010972431, "213": -0.20042065, "214": 0.053735144, "215": 0.013135114, "216": -0.036223758, "217": -0.017071154, "218": -0.10102613, "219": 0.02190589, "220": -0.1426796, "221": -0.21341553, "222": -0.098892026, "223": 0.13088205, "224": -0.027859775, "225": 0.054050062, "226": -0.039325755, "227": 0.016285267, "228": -0.085721828, "229": -0.038345873, "230": -0.035932064, "231": 0.10949135, "232": -0.030180262, "233": -0.0063279145, "234": -0.018703915, "235": -0.02961117, "236": -0.16949317, "237": 0.11836718, "238": 0.0034961032, "239": -0.12154624, "240": -0.013332047, "241": 0.015532195, "242": 0.036854908, "243": -0.092644617, "244": -0.078127667, "245": -0.13620161, "246": 0.015539288, "247": 0.015042167, "248": -0.061549265, "249": -0.069838598, "250": 0.13843913, "251": -0.052714515, "252": 0.0093885455, "253": 0.0029141922, "254": -0.082499512, "255": 0.11751715, "256": -0.043899994, "257": 0.05441124, "258": -0.082984895, "259": 0.0058686952, "260": -0.12583214, "261": -0.094915673, "262": 0.041175373, "263": 0.098703474, "264": 0.017982472, "265": -0.068293668, "266": 0.023937231, "267": -0.071323209, "268": -0.26281074, "269": 0.0401331, "270": -0.15620576, "271": -0.10174628, "272": 0.080171622, "273": -0.0068497411, "274": -0.053046871, "275": -0.030062363, "276": -0.1769781, "277": -0.11171956, "278": -0.14287475, "279": -0.030546814, "280": -0.078662626, "281": -0.0013652884, "282": 0.22858767, "283": -0.10408894, "284": 0.15609093, "285": -0.04155777, "286": -0.23118414, "287": -0.0089180628}}, {"sx": 3, "sy": 3, "depth": 32, "w": {"0": 0.034599908, "1": -0.098187439, "2": 0.085660033, "3": 0.010385769, "4": -0.067615278, "5": 0.01652433, "6": -0.070954062, "7": -0.035450861, "8": 0.011190685, "9": -0.032978795, "10": 0.019377246, "11": -0.13355604, "12": -0.060656477, "13": 0.1289829, "14": -0.14181896, "15": -0.090461157, "16": -0.035592027, "17": -0.066408038, "18": -0.025248937, "19": -0.13106042, "20": 0.0013759326, "21": 0.05473138, "22": 0.10374442, "23": -0.087547615, "24": 0.1141855, "25": 0.10630982, "26": 0.019168021, "27": 0.036865011, "28": 0.013268825, "29": -0.011822353, "30": -0.015669199, "31": -0.090705827, "32": -0.045083486, "33": -0.074138686, "34": -0.011649557, "35": 0.048736498, "36": -0.19975172, "37": -0.071074195, "38": -0.13140878, "39": 0.024881532, "40": -0.18172482, "41": -0.086924747, "42": 0.11600192, "43": -0.10564677, "44": 0.063142382, "45": -0.0085259359, "46": 0.0017013373, "47": -0.015776632, "48": 0.12301058, "49": -0.049656685, "50": -0.041730884, "51": -0.066068031, "52": -0.025232742, "53": 0.018359175, "54": 0.084212139, "55": -0.096444316, "56": 0.12167772, "57": 0.09136495, "58": -0.064303175, "59": -0.047039241, "60": -0.13407739, "61": 0.010496612, "62": 0.092992298, "63": 0.081787586, "64": 0.0055516171, "65": -0.023095937, "66": 0.077339984, "67": 0.03630662, "68": -0.034504216, "69": -0.039076708, "70": -0.13022508, "71": -0.039096817, "72": -0.11673027, "73": -0.10665023, "74": -0.039750297, "75": 0.063231789, "76": 0.015232322, "77": -0.075624213, "78": -0.11785243, "79": 0.0084929094, "80": -0.056641854, "81": -0.15977857, "82": 0.0091539184, "83": 0.0053652455, "84": 0.0061512897, "85": 0.12537263, "86": -0.045449335, "87": -0.0080924677, "88": 0.086987928, "89": 0.18636909, "90": -0.060755983, "91": 0.035944976, "92": -0.0060157469, "93": 0.039731853, "94": 0.055136245, "95": 0.13777199, "96": -0.034408115, "97": -0.10106368, "98": -0.050687753, "99": 0.099848978, "100": -0.03915713, "101": -0.060257517, "102": -0.12243285, "103": 0.024223316, "104": -0.048537448, "105": -0.0075585605, "106": -0.029496659, "107": -0.042377286, "108": -0.051107585, "109": 0.070163339, "110": -0.1558926, "111": 0.072667025, "112": 0.17014538, "113": -0.10146537, "114": -0.0042638835, "115": -0.152188, "116": -0.053306844, "117": 0.072923221, "118": -0.021217946, "119": -0.15491739, "120": -0.15689649, "121": -0.084128574, "122": -0.012990195, "123": 0.013251012, "124": 0.048547372, "125": 0.018891964, "126": -0.013597985, "127": -0.051240452, "128": -0.052403834, "129": -0.11272099, "130": -0.059953924, "131": -0.080760993, "132": -0.14080645, "133": 0.083053783, "134": -0.1816327, "135": 0.10632347, "136": 0.04309205, "137": -0.050406672, "138": 0.055790041, "139": -0.020410396, "140": 0.081184298, "141": -0.057998382, "142": -0.20235199, "143": 0.042156085, "144": -0.073212177, "145": -0.010300145, "146": 0.026742695, "147": -0.048119519, "148": -0.19456232, "149": 0.071512386, "150": -0.054682184, "151": 0.0072113713, "152": 0.057615422, "153": 0.21736193, "154": -0.075394273, "155": 0.036864493, "156": -0.049703371, "157": 0.10993507, "158": -0.077451758, "159": -0.039283983, "160": -0.00053203321, "161": -0.035778206, "162": 0.0074157338, "163": 0.11925457, "164": -0.10404351, "165": 0.047803469, "166": -0.27620444, "167": 0.048662353, "168": -0.038464319, "169": -0.073630601, "170": -0.0046419045, "171": -0.044092029, "172": 0.00064008351, "173": 0.066373914, "174": -0.28080961, "175": -0.035087883, "176": -0.0675641, "177": -0.034326825, "178": 0.025377255, "179": -0.0022884214, "180": -0.064379282, "181": 0.11508776, "182": -0.041995496, "183": -0.052865587, "184": 0.042769361, "185": 0.099934846, "186": -0.1052364, "187": -0.012725183, "188": 0.12337732, "189": 0.056157131, "190": 0.026159711, "191": 0.041659232, "192": -0.043125413, "193": -0.052777506, "194": -0.00070159941, "195": -0.040892497, "196": 0.038509708, "197": 0.016039809, "198": -0.17770681, "199": 0.018132392, "200": 0.085421801, "201": -0.059880398, "202": 0.11617579, "203": 0.02215285, "204": -0.0039165025, "205": 0.055341758, "206": -0.33919516, "207": 0.006628925, "208": 0.14455585, "209": -0.0068059117, "210": 0.099500231, "211": -0.11637712, "212": -0.11530177, "213": 0.069358088, "214": 0.054561492, "215": -0.058537751, "216": -0.001463465, "217": -0.026129037, "218": -0.069871619, "219": 0.064321548, "220": -0.066229112, "221": -0.011050424, "222": -0.10398544, "223": 0.025846703, "224": -0.052668791, "225": -0.038845252, "226": -0.0087756403, "227": 0.0051239431, "228": 0.029799284, "229": 0.032654136, "230": -0.24106456, "231": 0.17799559, "232": 0.13478094, "233": -0.062247984, "234": 0.17876913, "235": 0.037165757, "236": 0.071087308, "237": -0.037420984, "238": -0.27108636, "239": 0.00087550655, "240": -0.010575908, "241": 0.054844357, "242": -0.0036437302, "243": -0.069562227, "244": -0.33008891, "245": -0.047369428, "246": -0.030210834, "247": -0.11717479, "248": -0.051416554, "249": 0.12050688, "250": 0.023460269, "251": -0.021818971, "252": -0.061487883, "253": -0.072156467, "254": -0.099164322, "255": 0.040142499, "256": -0.1459962, "257": -0.078641608, "258": 0.13038993, "259": 0.015282477, "260": 0.022796459, "261": -0.012854906, "262": -0.28137612, "263": 0.0824202, "264": 0.05794245, "265": -0.11292055, "266": -0.014694223, "267": 0.079308957, "268": -0.053529698, "269": -0.065988407, "270": -0.35907927, "271": 0.013159471, "272": -0.0050232392, "273": 0.039932892, "274": 0.093558595, "275": 0.029087055, "276": -0.092129327, "277": 0.012148696, "278": -0.03450371, "279": -0.055704404, "280": 0.22057296, "281": 0.16010498, "282": -0.074014686, "283": 0.024347456, "284": 0.081763104, "285": -0.039483599, "286": -0.14690077, "287": 0.074691594}}, {"sx": 3, "sy": 3, "depth": 32, "w": {"0": -0.043026105, "1": -0.042685539, "2": 0.010344588, "3": -0.044128727, "4": -0.015585584, "5": 0.028000465, "6": 0.20646548, "7": 0.020383736, "8": 0.067205496, "9": 0.027499979, "10": 0.079747014, "11": -0.028930746, "12": -0.071469717, "13": -0.22616683, "14": -0.11044139, "15": -0.050290387, "16": 0.054265033, "17": -0.0549227, "18": 0.051196702, "19": 0.085547045, "20": -0.048033603, "21": -0.052963257, "22": -0.033000857, "23": -0.082069978, "24": 0.065959841, "25": 0.027264893, "26": 0.0056020757, "27": 0.061256699, "28": -0.062409591, "29": -0.01923112, "30": -0.066606618, "31": -0.1464241, "32": -0.0063777836, "33": -0.11458911, "34": -0.049828175, "35": 0.067184538, "36": -0.08974041, "37": -0.026562493, "38": 0.078468934, "39": -0.031216986, "40": 0.1310945, "41": -0.15772441, "42": -0.053652029, "43": -0.1093365, "44": -0.057638455, "45": -0.15533106, "46": -0.20214304, "47": -0.11919193, "48": -0.10964829, "49": -0.020883264, "50": 0.10636474, "51": 0.062140629, "52": -0.15346739, "53": -0.059469581, "54": -0.075838871, "55": -0.040850453, "56": -0.13999194, "57": -0.013770914, "58": 0.14100805, "59": 0.017242944, "60": -0.021519084, "61": -0.093542665, "62": 0.0085790353, "63": 0.0092357369, "64": -0.044532344, "65": -0.086697862, "66": -0.0031028832, "67": -0.011492504, "68": -0.029529154, "69": 0.011188755, "70": 0.1391357, "71": 0.048578367, "72": 0.094754882, "73": -0.18986739, "74": -0.07860475, "75": -0.16564509, "76": -0.0067592016, "77": -0.18081643, "78": -0.17310977, "79": -0.012990015, "80": -0.060245901, "81": -0.019679002, "82": 0.046365265, "83": 0.052716207, "84": -0.16552721, "85": 0.021301795, "86": -0.045578074, "87": 0.0034713228, "88": 0.070806749, "89": -0.093731776, "90": 0.18091528, "91": 0.11213764, "92": 0.060056817, "93": -0.16527645, "94": 0.070717037, "95": 0.031424958, "96": -0.032264657, "97": -0.0053131487, "98": 0.070020154, "99": -0.029825861, "100": 0.0056779981, "101": -0.090565249, "102": 0.038040735, "103": 0.062412448, "104": 0.065448128, "105": 0.096318066, "106": 0.072590664, "107": 0.024702178, "108": -0.12860928, "109": -0.08283969, "110": 0.062948905, "111": 0.084548034, "112": 0.020205775, "113": -0.065282173, "114": -0.026436388, "115": -0.017177071, "116": -0.067564018, "117": -0.097141594, "118": 0.039145209, "119": 0.015056704, "120": -0.017488364, "121": 0.016508801, "122": -0.037708525, "123": -0.0095950812, "124": -0.068141989, "125": 0.087553382, "126": -0.0037036017, "127": -0.16254464, "128": -0.015543859, "129": -0.095920563, "130": 0.088466093, "131": 0.051153246, "132": -0.15419251, "133": -0.020961724, "134": -0.05360562, "135": 0.10767058, "136": -0.0064040404, "137": -0.066286556, "138": 0.029877916, "139": 0.0059301765, "140": -0.074100606, "141": 0.04841765, "142": -0.036573105, "143": 0.10253956, "144": -0.045891035, "145": -0.024915516, "146": -0.025707072, "147": -0.022056594, "148": -0.2230618, "149": 0.020184487, "150": 0.085145041, "151": -0.13579048, "152": -0.15701923, "153": -0.073865443, "154": 0.041337159, "155": -0.0099249585, "156": -0.06830065, "157": -0.045675319, "158": -0.089401275, "159": -0.071995988, "160": -0.12561324, "161": -0.10892927, "162": 0.090095893, "163": 0.026931224, "164": -0.012641325, "165": 0.0087619135, "166": -0.087502368, "167": 0.017829485, "168": 0.035459258, "169": -0.063500509, "170": -0.00054864673, "171": -0.021183742, "172": 0.0051038912, "173": -0.1148791, "174": -0.10783125, "175": -0.020056872, "176": 0.013599836, "177": -0.062667146, "178": 0.011363501, "179": 0.07306201, "180": -0.12696882, "181": -0.022356559, "182": 0.036337685, "183": -0.057548426, "184": 0.053108759, "185": -0.072601765, "186": 0.040816702, "187": -0.015030753, "188": -0.11698663, "189": -0.051225767, "190": -0.052493989, "191": -0.020684963, "192": -0.022014072, "193": 0.12920955, "194": 0.0019870047, "195": -0.015228015, "196": 0.0081872437, "197": -0.07636755, "198": -0.19033475, "199": 0.0083069373, "200": -0.068307631, "201": 0.08237157, "202": 0.047031946, "203": 0.06467969, "204": 0.017703526, "205": 0.0799063, "206": 0.21659236, "207": 0.014147728, "208": -0.11439215, "209": 0.031692147, "210": -0.080504499, "211": 0.070034906, "212": -0.12053836, "213": -0.08684177, "214": -0.024693605, "215": -0.014883982, "216": -0.22528115, "217": -0.093577601, "218": -0.15537706, "219": -0.067175485, "220": -0.091097884, "221": 0.1717959, "222": 0.028739072, "223": -0.041443732, "224": -0.061381686, "225": 0.11114949, "226": 0.00031511585, "227": -0.09362039, "228": 0.0076718759, "229": -0.084844254, "230": -0.15900405, "231": 0.012353689, "232": -0.041600756, "233": -0.021966526, "234": -0.001100231, "235": 9.287699e-06, "236": 0.07595969, "237": -0.18044315, "238": 0.080974139, "239": 0.12010875, "240": -0.057006601, "241": 0.048560534, "242": -0.078516491, "243": -0.0077452343, "244": -0.26066709, "245": -0.03232323, "246": -0.030638985, "247": 0.039414354, "248": -0.020306854, "249": -0.079804756, "250": -0.054409668, "251": -0.063802771, "252": -0.062810928, "253": 0.027607689, "254": -0.08611355, "255": -0.12212858, "256": -0.0098505262, "257": 0.055618517, "258": 0.032670032, "259": 0.026536994, "260": -0.018957974, "261": 0.014982988, "262": -0.10327834, "263": -0.045376126, "264": 0.021265596, "265": 0.0040975153, "266": -0.0059772665, "267": 0.056399096, "268": 0.078821532, "269": -0.08739911, "270": 0.03125985, "271": 0.044153202, "272": -0.17086536, "273": -0.037129369, "274": -0.072577946, "275": -0.046468444, "276": -0.30814517, "277": 0.035707396, "278": -0.01389454, "279": 0.035020638, "280": -0.15987271, "281": -0.16976796, "282": -0.082523443, "283": -0.041269407, "284": -0.053855542, "285": 0.069737867, "286": -0.085531853, "287": 0.075089976}}, {"sx": 3, "sy": 3, "depth": 32, "w": {"0": 0.023889776, "1": -0.0094379876, "2": 0.048091691, "3": -0.041967671, "4": 0.0010828765, "5": 0.070014298, "6": -0.011959862, "7": 0.031788427, "8": 0.061773337, "9": -0.033943821, "10": -0.19752081, "11": 0.12640615, "12": -0.13066714, "13": -0.053415816, "14": 0.17342567, "15": 0.063503273, "16": -0.096372649, "17": -0.0036040684, "18": 0.023402659, "19": -0.038467165, "20": -0.27717552, "21": -0.12667876, "22": 0.0064110993, "23": -0.0073275534, "24": 0.017008314, "25": 0.027272033, "26": 0.044219334, "27": -0.014330482, "28": 0.062206659, "29": -0.084402412, "30": 0.0042572911, "31": 0.032698795, "32": 0.047911037, "33": 0.00066233176, "34": -0.0358009, "35": 0.042927638, "36": -0.011760802, "37": -0.073242955, "38": 0.075433575, "39": -0.022854513, "40": 0.11453698, "41": -0.043068778, "42": -0.11930792, "43": 0.068465807, "44": -0.033968914, "45": -0.072086692, "46": -0.0048388643, "47": -0.10802753, "48": 0.011002983, "49": -0.10435764, "50": -0.00084840774, "51": -0.038088374, "52": -0.061267395, "53": -0.15894824, "54": -0.004601235, "55": -0.11016484, "56": 0.0027871395, "57": 0.039819479, "58": -0.010327971, "59": 0.01650166, "60": -0.025119284, "61": -0.033091526, "62": 0.0066200509, "63": 0.009242353, "64": -0.042645179, "65": -0.067862168, "66": -0.063047774, "67": -0.063115828, "68": -0.0063110809, "69": -0.066910446, "70": -0.030996105, "71": 0.11693383, "72": 0.018621406, "73": -0.0091018453, "74": -0.12926538, "75": 0.089495063, "76": -0.057870928, "77": -0.084053949, "78": -0.038812209, "79": -0.097268127, "80": 0.12035879, "81": -0.03352483, "82": -0.064368479, "83": -0.12039281, "84": -0.20869918, "85": -0.08042381, "86": -0.0071288412, "87": -0.061386369, "88": -0.03342472, "89": 0.042836644, "90": 0.023076726, "91": 0.005707073, "92": -0.11948263, "93": -0.12415086, "94": -0.12187569, "95": 0.02278669, "96": 0.052768599, "97": -0.11059649, "98": 0.063675195, "99": -0.065869153, "100": -0.15295513, "101": -0.018032927, "102": 0.011358017, "103": -0.052643638, "104": 0.050961286, "105": -0.046751056, "106": -0.063459642, "107": -0.058539331, "108": -0.026777713, "109": -0.11149383, "110": 0.11994307, "111": -0.11112086, "112": 0.13329031, "113": 0.016129823, "114": -0.078789845, "115": 0.054809015, "116": -0.046465822, "117": -0.17758937, "118": -0.034824196, "119": 0.082609028, "120": 0.11512551, "121": 0.033045854, "122": -0.064167514, "123": -0.081238724, "124": -0.043293551, "125": 0.14471307, "126": 0.041318357, "127": -0.025051964, "128": 0.10054361, "129": -0.063971348, "130": 0.037921924, "131": 0.048061173, "132": -0.071592875, "133": 0.045346808, "134": -0.12446535, "135": 0.048820097, "136": 0.007579938, "137": 0.036210898, "138": -0.23361389, "139": -0.037989601, "140": -0.14173444, "141": -0.052294344, "142": 0.041557446, "143": 0.083062522, "144": 0.30884328, "145": -0.11883404, "146": 0.036388379, "147": -0.082240053, "148": -0.03774688, "149": -0.2029331, "150": 0.029633617, "151": -0.062534861, "152": -0.13286652, "153": 0.11467122, "154": 0.017076084, "155": 0.033798993, "156": -0.078540504, "157": -0.01153081, "158": -0.095697552, "159": 0.027518826, "160": -0.046014819, "161": -0.16372268, "162": -0.12138986, "163": 0.10739, "164": -0.053071618, "165": -0.048767332, "166": -0.00019116393, "167": 0.097137034, "168": 0.051452562, "169": -0.04416969, "170": -0.016450567, "171": 0.068191767, "172": -0.059993975, "173": 0.077819496, "174": 0.052682284, "175": -0.076169327, "176": 0.26887405, "177": 0.075527862, "178": -0.10401773, "179": 0.020402189, "180": -0.058646716, "181": -0.081680745, "182": 0.063982487, "183": 0.027588582, "184": 0.013210962, "185": 0.032577168, "186": -0.012989027, "187": 0.041344032, "188": 0.04963994, "189": -0.095852524, "190": 0.017837347, "191": 0.092859529, "192": -0.052873421, "193": -0.020660084, "194": -0.063381582, "195": -0.0058510331, "196": -0.19291578, "197": 0.0065486711, "198": 0.031243602, "199": 0.1076258, "200": 0.0053625572, "201": -0.071830153, "202": -0.064381599, "203": 0.098856077, "204": -0.10835713, "205": 0.040512376, "206": -0.0069008628, "207": -0.0081809964, "208": 0.074529238, "209": -0.091217242, "210": -0.032317359, "211": -0.11205935, "212": -0.13212197, "213": -0.23478095, "214": 0.044539064, "215": -0.0056885369, "216": -0.18317179, "217": 0.11606821, "218": -0.034551151, "219": 0.071349308, "220": -0.015991595, "221": -0.061847374, "222": -0.038931746, "223": 0.091713198, "224": 0.049100257, "225": -0.10027502, "226": -0.035517678, "227": 0.06448926, "228": -0.040522043, "229": -0.091645561, "230": -0.14265972, "231": 0.044073828, "232": 0.012405477, "233": 0.044872217, "234": -0.0097400928, "235": -0.083069004, "236": -0.13749342, "237": -0.023032863, "238": -0.04788075, "239": 0.0099603813, "240": 0.14002094, "241": -0.055972952, "242": -0.09175799, "243": -0.13010436, "244": -0.035839364, "245": -0.13979074, "246": -0.096551232, "247": -0.055478744, "248": 0.048903592, "249": -0.0083788941, "250": 0.050686665, "251": -0.037248693, "252": 0.07171227, "253": -0.1566411, "254": -0.0021554243, "255": -0.0048922272, "256": -0.010065939, "257": -0.048585705, "258": -0.010414156, "259": 0.051584262, "260": -0.11214365, "261": 0.037151758, "262": 0.017527157, "263": -0.039389789, "264": -0.096444197, "265": 0.056178845, "266": -0.034555025, "267": 0.06633015, "268": -0.011509484, "269": 0.099396899, "270": -0.048729453, "271": 0.0508858, "272": 0.12920481, "273": -0.11002606, "274": 0.0044695237, "275": -0.059024375, "276": -0.052555345, "277": -0.17607608, "278": 0.076814651, "279": -0.079492964, "280": -0.19369744, "281": 0.1727213, "282": 0.058423087, "283": -0.057043619, "284": 0.055570249, "285": -0.1848658, "286": 0.051092401, "287": 0.043226633}}, {"sx": 3, "sy": 3, "depth": 32, "w": {"0": 0.0092167081, "1": -0.15718266, "2": -0.070108578, "3": 0.090460323, "4": 0.017079242, "5": 0.0023776784, "6": -0.03326939, "7": 0.029823242, "8": 0.065131612, "9": -0.17851877, "10": -0.19957431, "11": 0.018693397, "12": -0.12679082, "13": -0.068785377, "14": -0.16113174, "15": -0.081029676, "16": 0.061610833, "17": -0.13171303, "18": 0.095362619, "19": -0.08903116, "20": 0.0025330312, "21": 0.10782873, "22": -0.089534655, "23": -0.0018460681, "24": -0.13857748, "25": -0.0075612837, "26": -0.036560822, "27": 0.21287473, "28": -0.092099033, "29": -0.064213783, "30": 0.0062717847, "31": -0.012257748, "32": -0.1149466, "33": -0.096838884, "34": 0.029000303, "35": 0.0035712481, "36": 0.05963077, "37": -0.048652016, "38": -0.01568353, "39": 0.023938801, "40": 0.028300127, "41": -0.075389944, "42": -0.14794183, "43": -0.065372027, "44": -0.046034597, "45": -0.080922209, "46": -0.020304298, "47": -0.037623309, "48": 0.01279425, "49": -0.048654024, "50": -0.0099547766, "51": -0.17890224, "52": 0.033087704, "53": 0.0041051884, "54": 0.046189789, "55": -0.051879857, "56": -0.18287152, "57": -0.0015132611, "58": 0.013214217, "59": 0.10751188, "60": -0.049293391, "61": -0.039452109, "62": -0.072474666, "63": -0.078380615, "64": -0.034362506, "65": -0.096946046, "66": -0.10086796, "67": 0.040567156, "68": 0.0024105941, "69": -0.026659269, "70": -0.035067543, "71": -0.016014731, "72": -0.061002653, "73": -0.058324594, "74": -0.11919744, "75": 0.065271281, "76": -0.042231109, "77": 0.0013084861, "78": -0.11409155, "79": -0.068869352, "80": 0.043318264, "81": -0.13643472, "82": -0.04584818, "83": -0.24688242, "84": -0.004113968, "85": 0.017137408, "86": -0.085814685, "87": 0.086868331, "88": -0.037388939, "89": -0.087807104, "90": 0.014469671, "91": -0.080437005, "92": 0.041702244, "93": -0.055167206, "94": -0.057242747, "95": -0.14186928, "96": -0.052092087, "97": -0.29681957, "98": -0.011946208, "99": -0.13986948, "100": 0.12065846, "101": 0.097950459, "102": -0.12386084, "103": -0.0071938662, "104": -0.033304751, "105": -0.17141248, "106": -0.1217104, "107": -0.029575163, "108": -0.035788003, "109": 0.0081569394, "110": -0.0044587534, "111": -0.012603146, "112": 0.010866388, "113": -0.18546642, "114": 0.0061970721, "115": 0.0063912864, "116": 0.057182945, "117": 0.1584347, "118": -0.11170186, "119": -0.078217335, "120": -0.25130117, "121": -0.1480277, "122": -0.05330082, "123": -0.080524355, "124": -0.084369928, "125": -0.095089935, "126": -0.030434558, "127": 0.18275501, "128": 0.11932876, "129": -0.2144842, "130": -0.0096356533, "131": 0.0058644633, "132": 0.016492425, "133": -0.05072967, "134": -0.067844346, "135": -0.11434428, "136": 0.020312844, "137": -0.10701646, "138": -0.11019032, "139": 0.066816702, "140": -0.017700117, "141": -0.12259976, "142": 0.064241454, "143": -0.0037063186, "144": 0.012388288, "145": -0.060505759, "146": 0.075925156, "147": 0.072574817, "148": 0.025193373, "149": 0.11668097, "150": -0.076474786, "151": -0.11223448, "152": -0.034189086, "153": -0.021571709, "154": 0.05791121, "155": -0.063957989, "156": 0.035302762, "157": -0.064499199, "158": 0.0094009526, "159": -0.002522391, "160": 0.0033981644, "161": -0.13506122, "162": 0.0413168, "163": -0.0055540209, "164": -0.082398921, "165": -0.032054063, "166": -0.089766756, "167": 0.00039184786, "168": -0.079294793, "169": -0.048415899, "170": -0.0045422888, "171": -0.11231799, "172": -0.086361408, "173": 0.0020335659, "174": -0.090840302, "175": -0.12103997, "176": -0.089060664, "177": -0.1164901, "178": -0.030015726, "179": -0.12070375, "180": -0.027408043, "181": -0.035126757, "182": 0.034123871, "183": -0.078348212, "184": 0.27499914, "185": -0.13326804, "186": -0.094252437, "187": 0.044968501, "188": 0.077266827, "189": -0.08827839, "190": -0.0081197731, "191": 0.013751951, "192": 0.020822633, "193": -0.17849281, "194": 0.01077494, "195": -0.079262666, "196": -0.0045580389, "197": 0.025172213, "198": -0.038820371, "199": -0.035282347, "200": -0.12945755, "201": -0.19705842, "202": -0.25178, "203": -0.079596154, "204": -0.065171741, "205": -0.11142379, "206": -0.027930606, "207": -0.0289158, "208": -0.19459477, "209": -0.073818102, "210": -0.037123412, "211": 0.0042738519, "212": 0.010428071, "213": 0.026504194, "214": -0.013080166, "215": 0.0050670751, "216": -0.092659675, "217": -0.018327566, "218": -0.019606948, "219": -0.019344054, "220": -0.10684928, "221": 0.075901911, "222": -0.084843345, "223": -0.06863749, "224": 0.017126514, "225": -0.20448142, "226": 0.046952385, "227": -0.033313341, "228": 0.030737223, "229": 0.10637576, "230": -0.087890163, "231": -0.11785804, "232": -0.012268367, "233": 0.018517805, "234": -0.10197662, "235": 0.051909916, "236": -0.091958866, "237": -0.11991605, "238": -0.0061795451, "239": 0.044193827, "240": -0.12513618, "241": -0.11182879, "242": -0.066364974, "243": 0.0056132786, "244": -0.015925679, "245": 0.041794412, "246": 0.032018486, "247": 0.013530006, "248": -0.14883786, "249": -0.047624163, "250": -0.01072882, "251": -0.045615751, "252": -0.082372643, "253": 0.054048657, "254": -0.072426617, "255": -0.084475026, "256": -0.0057214596, "257": 0.09282279, "258": 0.041340653, "259": 0.018542089, "260": -0.13396281, "261": -0.022843862, "262": -0.11540187, "263": -0.059389878, "264": 0.010425389, "265": 0.039713349, "266": -0.13857518, "267": -0.071001455, "268": -0.019136045, "269": -0.15011074, "270": -0.051462602, "271": -0.05986489, "272": 0.041915137, "273": -0.020252656, "274": -0.068633012, "275": 0.072933391, "276": 0.0052515739, "277": 0.04570923, "278": 0.10135459, "279": -0.055046752, "280": -0.20252098, "281": -0.0017610609, "282": -0.065569609, "283": -0.060608912, "284": -0.15127222, "285": 0.042310908, "286": -0.084469773, "287": 0.047661316}}, {"sx": 3, "sy": 3, "depth": 32, "w": {"0": -0.087016709, "1": -0.11021409, "2": -0.097048372, "3": -0.10438953, "4": -0.081396118, "5": -0.018852063, "6": 0.1859442, "7": -0.061085138, "8": -0.024073431, "9": -0.15964203, "10": 0.10666697, "11": 0.070434302, "12": -0.008950158, "13": -0.049797092, "14": -0.050504912, "15": -0.06136471, "16": -0.021252211, "17": 0.04275896, "18": 0.099530123, "19": -0.0067547262, "20": -0.012818343, "21": 0.035383984, "22": -0.14816357, "23": 0.088366881, "24": 0.15116492, "25": 0.11012162, "26": -0.065883122, "27": -0.079309687, "28": -0.027815353, "29": -0.019596858, "30": -0.010351515, "31": 0.013350134, "32": -0.089215182, "33": -0.034049027, "34": -0.08358904, "35": -0.07674896, "36": -0.09937831, "37": -0.024094651, "38": 0.071255997, "39": -0.020814875, "40": 0.0020697641, "41": -0.093288526, "42": 0.077262789, "43": -0.02019201, "44": 0.065513641, "45": 0.027219079, "46": 0.053979829, "47": 0.11121205, "48": -0.077011645, "49": -0.084223427, "50": 0.042652689, "51": 0.054261468, "52": 0.025306193, "53": -0.069354557, "54": -0.10769854, "55": -0.094087519, "56": 0.050011355, "57": -0.075329818, "58": 0.023299841, "59": -0.052149773, "60": -0.032800667, "61": -0.054959428, "62": 0.062063504, "63": -0.040951159, "64": 0.00066797412, "65": -0.032472871, "66": 0.071004733, "67": 0.027994137, "68": 0.059875853, "69": -0.066431947, "70": 0.075258859, "71": -0.069855399, "72": -0.042398009, "73": 0.047623247, "74": -0.040840138, "75": -0.0020131364, "76": -0.054209031, "77": 0.13897033, "78": 0.052283671, "79": 0.1152781, "80": -0.072270922, "81": -0.19515224, "82": 0.035720419, "83": -0.016456416, "84": -0.013663199, "85": 0.0073935362, "86": -0.065276712, "87": 0.0866419, "88": -0.053249929, "89": -0.0019899926, "90": -0.033488028, "91": 0.050269868, "92": 0.011065979, "93": -0.16216786, "94": 0.0040427037, "95": -0.08936128, "96": 0.055551663, "97": -0.069805652, "98": 0.00055569486, "99": 0.098417439, "100": -0.023861222, "101": 0.017749889, "102": 0.016623013, "103": 0.092064738, "104": 0.018225921, "105": -0.10457758, "106": 0.026198454, "107": 0.024447357, "108": 0.086084314, "109": -0.14914338, "110": -0.10964076, "111": 0.11213572, "112": 0.047813486, "113": -0.14435942, "114": 0.085786052, "115": -0.054073926, "116": 0.06464076, "117": -0.037433252, "118": -0.048156269, "119": -0.086188428, "120": 0.25733021, "121": 0.088631831, "122": -0.021341464, "123": -0.15482302, "124": 0.020228326, "125": -0.085487626, "126": -0.11137071, "127": 0.037841212, "128": -0.10886925, "129": -0.028882604, "130": 0.071280874, "131": 0.061889842, "132": 0.028244926, "133": -0.015659947, "134": 0.015165578, "135": -0.071485423, "136": 0.07640782, "137": 0.017188912, "138": -0.062244695, "139": -0.11858898, "140": -0.035887431, "141": -0.17653136, "142": -0.0045167743, "143": -0.10732706, "144": -0.015951702, "145": -0.074142724, "146": -0.053261902, "147": -0.098872527, "148": -0.01639756, "149": 0.036500655, "150": -0.12379517, "151": -0.040595572, "152": -0.057816278, "153": -0.17383565, "154": -0.072765291, "155": -0.08293315, "156": 0.068059869, "157": 0.070216611, "158": 0.0046495274, "159": 0.017819541, "160": 0.061097428, "161": -0.070805594, "162": 0.0071312031, "163": -0.027246196, "164": -0.03186221, "165": -0.011594013, "166": -0.066896364, "167": -0.056319628, "168": 0.036409549, "169": -0.062135294, "170": -0.024855116, "171": -0.050676983, "172": -0.0082619609, "173": 0.10678694, "174": -0.043101627, "175": 0.0032368482, "176": 0.073535413, "177": -0.13611664, "178": -0.075038716, "179": -0.032722939, "180": -0.082488231, "181": -0.085645452, "182": 0.083798505, "183": 0.051355515, "184": -0.1202025, "185": 0.051420733, "186": -0.079988159, "187": -0.00084002601, "188": -0.0044746916, "189": -0.027531093, "190": -0.019747987, "191": -0.10334969, "192": -0.044775754, "193": -0.0042429417, "194": -0.077342756, "195": -0.030154148, "196": -0.038792223, "197": 0.017814618, "198": -0.056324828, "199": 0.012186734, "200": -0.015226199, "201": -0.11295275, "202": 0.064468428, "203": -0.03943688, "204": 0.098600641, "205": 0.0044875629, "206": -0.0691837, "207": 0.14160489, "208": 0.027472854, "209": -0.018413005, "210": 0.099316545, "211": 0.046821348, "212": -0.026287081, "213": 0.085442498, "214": -0.065069743, "215": 0.071666993, "216": 0.14134426, "217": 0.15130116, "218": 0.019629082, "219": -0.11301221, "220": 0.033914816, "221": 0.099409163, "222": -0.012390989, "223": -0.099933356, "224": 0.0063960138, "225": -0.17207637, "226": 0.0087191341, "227": 0.0066848597, "228": -0.14471792, "229": -0.13298382, "230": -0.079093419, "231": 0.023855589, "232": -0.11447953, "233": -0.029766003, "234": -0.02567474, "235": 0.054489482, "236": -0.028449342, "237": -0.040881302, "238": 0.038023457, "239": 0.05218561, "240": 0.0077998582, "241": -0.039547328, "242": -0.074856266, "243": -0.034941249, "244": -0.042097714, "245": -0.038063098, "246": 0.058477156, "247": -0.028515711, "248": -0.13264926, "249": 0.034477379, "250": -0.044011515, "251": -0.0047855936, "252": -0.0046094833, "253": -0.10418022, "254": -0.025535407, "255": -0.040715303, "256": 0.075148433, "257": 0.0070684524, "258": -0.0097635798, "259": -0.033666011, "260": -0.061447062, "261": -0.046689481, "262": -0.033098582, "263": -0.069497906, "264": -0.0033133358, "265": -0.007578468, "266": -0.098738901, "267": 0.0040010428, "268": 0.079485364, "269": -0.12189329, "270": 0.12498034, "271": 0.0011495135, "272": -0.021400461, "273": -0.11429019, "274": -0.15355811, "275": -0.029733434, "276": -0.032730825, "277": -0.071617492, "278": 0.02150687, "279": -0.052181818, "280": -0.05499943, "281": -0.10848757, "282": 0.015832704, "283": 0.0012639229, "284": -0.050086524, "285": -0.02837814, "286": -0.056800842, "287": -0.015354056}}, {"sx": 3, "sy": 3, "depth": 32, "w": {"0": 0.033906251, "1": -0.041494764, "2": -0.064252645, "3": -0.016894635, "4": -0.0055359192, "5": -0.017074289, "6": 0.018820181, "7": -0.015512764, "8": -0.031136304, "9": 0.043588627, "10": 0.063726328, "11": -0.0014369403, "12": -0.041020982, "13": 0.019139767, "14": -0.067293845, "15": -0.028666427, "16": 0.034267023, "17": -0.051581781, "18": -0.19392076, "19": -0.0061760722, "20": -0.020086592, "21": -0.030415876, "22": 0.098638825, "23": -0.026873022, "24": -0.019046869, "25": 0.016242964, "26": -0.10913734, "27": -0.19893795, "28": 0.060106844, "29": 0.0012814729, "30": -0.1052594, "31": 0.10079102, "32": 0.031336509, "33": 0.0021880032, "34": -0.056269508, "35": -0.099992231, "36": -0.024192536, "37": -0.11369068, "38": 0.037304826, "39": -0.0097567122, "40": 0.060052391, "41": 0.084387988, "42": 0.021561762, "43": 0.091276206, "44": 0.020338589, "45": 0.0065425523, "46": -0.036395978, "47": -0.035378519, "48": -0.022982307, "49": -0.065261893, "50": -0.22974451, "51": -0.070652664, "52": -0.019621078, "53": -0.052181497, "54": -0.026351094, "55": -0.047409397, "56": -0.18268448, "57": -0.013638149, "58": 0.052880816, "59": -0.30283436, "60": 0.066659644, "61": 0.013663963, "62": -0.17106816, "63": 0.080538414, "64": 0.01344077, "65": 0.01280697, "66": 0.090814672, "67": -0.11514013, "68": -0.14644952, "69": 0.083648674, "70": -0.0081178565, "71": 0.035723414, "72": 0.050813466, "73": 0.066566102, "74": 0.0026426406, "75": 0.050143782, "76": 0.0098427366, "77": 0.047973134, "78": -0.1019603, "79": -0.042020001, "80": -0.045840956, "81": 0.037280783, "82": -0.15727232, "83": -0.058302209, "84": -0.0087064365, "85": 0.032622296, "86": -0.085622244, "87": -0.0080156848, "88": -0.22080579, "89": -0.040591843, "90": 0.0061364928, "91": -0.1805536, "92": 0.028314952, "93": 0.031789131, "94": -0.14792274, "95": 0.075383246, "96": -0.022593183, "97": 0.029919103, "98": -0.095539831, "99": 0.072039075, "100": 0.051867139, "101": -0.018880893, "102": -0.0082045402, "103": -0.1071431, "104": -0.11952326, "105": -8.7890934e-05, "106": 0.052987892, "107": -0.025151126, "108": -0.0015897341, "109": 0.022653783, "110": 0.087408416, "111": 0.048801832, "112": -0.13625602, "113": -0.057414435, "114": -0.13562734, "115": -0.074082032, "116": 0.024432942, "117": 0.024003014, "118": -0.041670721, "119": 0.22777262, "120": -0.013997153, "121": 0.13729689, "122": -0.09229745, "123": -0.18799686, "124": -0.12962741, "125": 0.12256499, "126": 0.0024270264, "127": 0.087888189, "128": 0.031731147, "129": 0.10343689, "130": -0.02879566, "131": -0.0086843353, "132": -0.18113777, "133": -0.14385533, "134": 0.017377568, "135": -0.069375299, "136": -0.052208781, "137": 0.047239024, "138": 0.07157407, "139": 0.014024278, "140": 0.037014052, "141": -0.2104689, "142": 0.065189056, "143": 0.072669871, "144": -0.044783805, "145": -0.045015495, "146": -0.14019458, "147": -0.12853731, "148": -0.0081179561, "149": -0.0096982531, "150": -0.14722873, "151": 0.15010673, "152": -0.15029629, "153": 0.086363301, "154": -0.08068902, "155": -0.28582862, "156": -0.030178877, "157": 0.082690939, "158": 0.040153887, "159": 0.013917461, "160": -0.073364809, "161": 0.060190037, "162": -0.019959889, "163": 0.07917957, "164": -0.12977229, "165": -0.089150295, "166": 0.006336641, "167": -0.022332512, "168": 0.086617231, "169": 0.072926521, "170": -0.0085568503, "171": 0.048380475, "172": 0.041519552, "173": 0.01191127, "174": -0.054808836, "175": -0.05177008, "176": -0.15562679, "177": 0.043955464, "178": -0.027223986, "179": 0.025109399, "180": 0.013363712, "181": 0.0094186654, "182": -0.099481434, "183": 0.057111841, "184": 0.12694427, "185": -0.098774746, "186": -0.047585417, "187": -0.094194874, "188": -0.039975718, "189": -0.0090032527, "190": 0.034728345, "191": -0.055988457, "192": -0.055851497, "193": 0.013344212, "194": -0.066600904, "195": 0.061214834, "196": 0.04700125, "197": -0.045722298, "198": 0.0025276854, "199": -0.023829142, "200": 0.098257214, "201": 0.015122872, "202": 0.006903552, "203": -0.0060491855, "204": 0.021114839, "205": -0.070297219, "206": 0.040255181, "207": -0.043084178, "208": -0.21649937, "209": -0.023691228, "210": 0.050240234, "211": 0.035574391, "212": -0.12608631, "213": 0.089771859, "214": -0.12690558, "215": 0.0031802175, "216": -0.025218613, "217": -0.042077769, "218": -0.012667482, "219": -0.050619554, "220": 0.02427442, "221": 0.023277771, "222": 0.00083421293, "223": 0.10484792, "224": -0.12505788, "225": 0.011469631, "226": -0.082867742, "227": 0.031383701, "228": -0.04739815, "229": -0.17577696, "230": 0.015179069, "231": -0.043867249, "232": -0.089486964, "233": -0.017724682, "234": -0.025112454, "235": 0.030933484, "236": -0.0095775165, "237": -0.012774122, "238": 0.00392019, "239": -0.079713427, "240": -0.10860156, "241": 0.024290316, "242": -0.055675384, "243": -0.0080555538, "244": -0.1909533, "245": 0.076622434, "246": -0.23576263, "247": 0.17560545, "248": -0.0081919599, "249": -0.03055191, "250": -0.022535924, "251": -0.11804537, "252": 0.0196997, "253": -0.15639535, "254": 0.048224423, "255": -0.010534609, "256": -0.12305587, "257": 0.019156542, "258": -0.086861841, "259": 0.081795968, "260": -0.031434461, "261": -0.10428613, "262": 0.04141872, "263": -0.081130698, "264": 0.056202561, "265": -0.033873998, "266": -0.032291401, "267": 0.18394783, "268": 0.03540498, "269": 0.014798213, "270": -0.017172135, "271": -0.020479942, "272": -0.11197372, "273": 0.010889529, "274": 0.11910553, "275": 0.091738895, "276": -0.12884843, "277": 0.041875221, "278": -0.15760124, "279": 0.15725043, "280": 0.08126431, "281": -0.21966729, "282": 0.044070359, "283": -0.029730238, "284": 0.049484495, "285": -0.11690922, "286": 0.0049020043, "287": -0.088371813}}, {"sx": 3, "sy": 3, "depth": 32, "w": {"0": 0.079853192, "1": -0.098807745, "2": -0.087775201, "3": -0.007850769, "4": 0.048877101, "5": -0.026367994, "6": -0.015445466, "7": 0.024339512, "8": 0.015352955, "9": -0.091299474, "10": 0.027170882, "11": -0.0833297, "12": -0.03248243, "13": -0.034415144, "14": -0.10730343, "15": 0.034470372, "16": 0.028219515, "17": -0.0098549938, "18": -0.1809874, "19": -0.072549634, "20": -0.016818531, "21": 0.023741661, "22": -0.038164403, "23": -0.11490513, "24": -0.082675196, "25": -0.087007321, "26": 0.0012771465, "27": 0.055554245, "28": 0.02516197, "29": -0.075830311, "30": -0.092395984, "31": 0.034012631, "32": 0.03718777, "33": -0.10860632, "34": 0.011314736, "35": 0.066835612, "36": 0.010130867, "37": 0.013466697, "38": 0.012673618, "39": 0.072658867, "40": 0.05464929, "41": -0.034292307, "42": -0.069408476, "43": 0.054160196, "44": -0.080186494, "45": -0.055236958, "46": -0.050593309, "47": -0.11316415, "48": 0.081302606, "49": -0.033505362, "50": -0.00083696423, "51": 0.0058865217, "52": -0.10453378, "53": -0.1164083, "54": -0.060034692, "55": 0.020430697, "56": -0.046521679, "57": 0.036390617, "58": 0.049202889, "59": -0.027622672, "60": -0.03090925, "61": 0.021006541, "62": -0.09062431, "63": 0.071992792, "64": 0.075362846, "65": -0.079401821, "66": -0.077730291, "67": -0.024771379, "68": -0.073615491, "69": 0.011004122, "70": 0.016543845, "71": -0.028941607, "72": 0.0031725485, "73": -0.029262036, "74": -0.12786865, "75": -0.10868859, "76": -0.030155201, "77": -0.029348634, "78": -0.12250587, "79": -0.070319921, "80": 0.010721934, "81": -0.038651839, "82": -0.12217949, "83": -0.10092318, "84": -0.10156861, "85": -0.093582347, "86": 0.051719151, "87": 0.082414269, "88": -0.11138591, "89": -0.04827816, "90": 0.030636784, "91": -0.071655802, "92": 0.043792263, "93": -0.056072466, "94": -0.024710421, "95": -0.084415182, "96": 0.079474159, "97": -0.049572531, "98": 0.059226934, "99": -0.095094606, "100": -0.02180854, "101": -0.077368356, "102": 0.015204783, "103": -0.083363362, "104": 0.077095248, "105": -0.056038894, "106": -0.090316355, "107": 0.012402724, "108": -0.046906337, "109": -0.07864777, "110": -0.1419896, "111": -0.069735974, "112": -0.058217842, "113": -0.10318889, "114": 0.028657338, "115": 0.029127575, "116": -0.048571195, "117": 0.0017247212, "118": -0.009670577, "119": -0.0025472976, "120": -0.046279367, "121": -0.028165191, "122": 0.070979208, "123": -0.017810315, "124": -0.10426924, "125": -0.048657112, "126": -0.011604674, "127": -0.01562934, "128": -0.052852344, "129": 0.005758204, "130": -0.026710553, "131": -0.032904182, "132": -0.085579328, "133": 0.0060486472, "134": -0.06823571, "135": 0.0014978412, "136": -0.066192977, "137": 0.0053621521, "138": -0.12144865, "139": 0.035514448, "140": -0.10982217, "141": -0.10861436, "142": -0.15267643, "143": 0.075472258, "144": 0.10326619, "145": -0.10221802, "146": -0.079798795, "147": 0.080326997, "148": -0.059027437, "149": -0.065145098, "150": 0.036180593, "151": -0.071876459, "152": -0.076357804, "153": -0.035518184, "154": 0.020110017, "155": -0.044449423, "156": -0.11177465, "157": 0.0058764964, "158": -0.068376265, "159": 0.040494148, "160": -0.052625287, "161": -0.11658639, "162": -0.042433251, "163": 0.041790515, "164": 0.0061773639, "165": -0.073291756, "166": -0.0079601714, "167": 0.003591123, "168": 0.037991472, "169": -0.08816915, "170": -0.0028078011, "171": 0.023525819, "172": -0.051623419, "173": 0.092774391, "174": -0.045225546, "175": -0.0017647695, "176": -0.020407392, "177": -0.028398542, "178": 0.024256874, "179": -0.11130967, "180": -0.025750007, "181": 0.087706238, "182": 0.018121751, "183": 0.020444917, "184": -0.22058377, "185": -0.055784442, "186": 0.084813379, "187": -0.018363787, "188": -0.021310095, "189": 0.079783544, "190": -0.049714684, "191": -0.0479833, "192": 0.068668023, "193": -0.10074277, "194": 0.050160654, "195": -0.045588333, "196": -0.060464684, "197": -0.0040116827, "198": -0.086475894, "199": 0.020120459, "200": 0.04877571, "201": -0.028256597, "202": -0.07691972, "203": -0.10260055, "204": -0.062923275, "205": -0.15604004, "206": 0.024392122, "207": 0.0048762825, "208": 0.00047239845, "209": -0.061729472, "210": -0.095673941, "211": -0.1065565, "212": -0.16671269, "213": -0.047321409, "214": -0.074822336, "215": 0.05883795, "216": -0.1233094, "217": -0.083857693, "218": 0.028090654, "219": -0.034422461, "220": 0.04946664, "221": 0.0070451424, "222": -0.058260102, "223": 0.036883902, "224": -0.10109428, "225": 0.040202159, "226": 0.008626461, "227": -0.043992307, "228": -0.028242106, "229": 0.061874188, "230": 0.0093974583, "231": 0.017060807, "232": -0.0082766674, "233": 0.007420924, "234": 0.012645562, "235": -0.0022971088, "236": 0.017864874, "237": 0.047183707, "238": 0.01893455, "239": 0.036111865, "240": -0.11534508, "241": 0.015032192, "242": -0.06479428, "243": -0.028395206, "244": -0.0459585, "245": -0.06799347, "246": 0.018887892, "247": 0.0016778916, "248": -0.054973062, "249": -0.042081114, "250": -0.084055319, "251": -0.08332558, "252": -0.022257736, "253": 0.10578474, "254": -0.056422468, "255": -0.082346097, "256": -0.034304399, "257": -0.0081287697, "258": -0.058264188, "259": -0.087717637, "260": -0.090559237, "261": -0.092285752, "262": -0.05430755, "263": -0.10942951, "264": -0.055511754, "265": -0.069990993, "266": -0.07539852, "267": 0.054303102, "268": -0.036973123, "269": -0.13183503, "270": -0.019601667, "271": 0.036862351, "272": -0.084907286, "273": -0.082330011, "274": -0.076269358, "275": -0.011008412, "276": 0.014159443, "277": -0.06341701, "278": 0.034294389, "279": -0.10163541, "280": -0.076676287, "281": 0.063233614, "282": -0.0095879957, "283": 0.076363742, "284": -0.036075991, "285": 0.010928589, "286": -0.044160336, "287": 0.061232284}}, {"sx": 3, "sy": 3, "depth": 32, "w": {"0": -0.075744003, "1": -0.025192127, "2": -0.11766589, "3": -0.044881199, "4": -0.16676286, "5": -0.045698643, "6": 0.084088862, "7": -0.26413393, "8": 0.032070395, "9": -0.087307386, "10": -0.0014064236, "11": 0.038686331, "12": -0.02528614, "13": -0.1704051, "14": -0.1899884, "15": -0.022141116, "16": -0.049662743, "17": 0.089457974, "18": 0.1632527, "19": -0.13527843, "20": -0.055016778, "21": -0.048416778, "22": 0.075602144, "23": -0.235698, "24": 0.038157411, "25": 0.17048803, "26": -0.0057775225, "27": 0.01875128, "28": -0.012882856, "29": -0.075611003, "30": -0.16403696, "31": 0.068043746, "32": -0.14045791, "33": -0.038144365, "34": -0.090906993, "35": -0.044477295, "36": -0.078871414, "37": -0.0047202269, "38": -0.021268034, "39": -0.052947026, "40": -0.060753554, "41": -0.12613675, "42": 0.028059341, "43": 0.012304096, "44": 0.043734409, "45": -0.080417104, "46": -0.24606854, "47": -0.041566834, "48": 0.023345096, "49": -0.014920185, "50": 0.085134156, "51": -0.10495207, "52": -0.013601026, "53": 0.083241269, "54": -0.17810461, "55": -0.084451251, "56": -0.043669902, "57": -0.019512909, "58": 0.0061770831, "59": -0.059859861, "60": 0.10313859, "61": 0.043839931, "62": -0.021824479, "63": -0.0082941875, "64": -0.0066776155, "65": -0.053398669, "66": -0.10378133, "67": 0.13651066, "68": -0.013425779, "69": 0.1330097, "70": -0.033470824, "71": -0.0039729606, "72": -0.088899948, "73": -0.10065126, "74": 0.041496761, "75": -0.084539331, "76": 0.019780772, "77": 0.078365408, "78": -0.18443112, "79": -0.025896003, "80": -0.085200667, "81": 0.045760132, "82": -0.048534155, "83": -0.0091320816, "84": -0.024233753, "85": 0.005763344, "86": 0.035556745, "87": -0.10561012, "88": -0.077155344, "89": -0.021737045, "90": -0.25899208, "91": -0.045896165, "92": -0.0015290761, "93": 0.043336757, "94": -0.038735524, "95": -0.11142278, "96": -0.030145966, "97": 0.014259399, "98": -0.1158497, "99": 0.069933355, "100": -0.18396893, "101": 0.036742713, "102": 0.0042831167, "103": -0.18965766, "104": -0.079947211, "105": -0.035844818, "106": -0.052727129, "107": 0.09593647, "108": 0.026521532, "109": -0.25817281, "110": -0.060099017, "111": 0.059019439, "112": 0.10360583, "113": 0.024745883, "114": -0.032893121, "115": -0.19512185, "116": -0.064492844, "117": -0.090020247, "118": -0.094742768, "119": -0.041061729, "120": 0.021904988, "121": 0.13739708, "122": -0.14382055, "123": -0.070981294, "124": -0.060407158, "125": 0.022184558, "126": -0.076257065, "127": 0.17616333, "128": -0.15985209, "129": -0.0071746721, "130": -0.051933765, "131": 0.030987998, "132": -0.025820274, "133": 0.041888136, "134": -0.014484403, "135": -0.16029468, "136": -0.06377162, "137": -0.042742006, "138": 0.021803753, "139": 0.0052360208, "140": -0.0088128084, "141": -0.077827126, "142": -0.14962134, "143": -0.010188676, "144": 0.016488234, "145": 0.068735227, "146": -0.031893857, "147": -0.12813924, "148": 0.05925893, "149": -0.025534114, "150": -0.073740765, "151": -0.05963422, "152": -0.041840829, "153": 0.039201543, "154": -0.11904013, "155": -0.14424236, "156": 0.066821046, "157": -0.024865523, "158": -0.063475788, "159": -0.097107098, "160": -0.050281581, "161": -0.017269356, "162": -0.13196117, "163": 0.10570076, "164": -0.027711017, "165": -0.010857177, "166": 0.031116053, "167": 0.018554255, "168": 0.10738356, "169": 0.050071996, "170": 0.018184274, "171": 0.057511199, "172": 0.0056242282, "173": -0.038746487, "174": -0.060144108, "175": 0.032447085, "176": 0.036330462, "177": 0.020953767, "178": -0.039388217, "179": -0.025369119, "180": -0.078896821, "181": -0.075578466, "182": -0.062390994, "183": -0.12299452, "184": -0.11717037, "185": 0.019769732, "186": -0.048343163, "187": -0.13255976, "188": 0.029777687, "189": 0.054777842, "190": -0.058964022, "191": -0.16263211, "192": -0.025545914, "193": 0.069331311, "194": -0.16542205, "195": 0.014547307, "196": -0.117067, "197": 0.01688971, "198": 0.10728788, "199": -0.20332009, "200": -0.0099766077, "201": 0.03775515, "202": -0.033811145, "203": 0.105709, "204": 0.030144712, "205": 0.025569426, "206": 0.03156561, "207": -0.053246472, "208": -0.04802198, "209": 0.098565556, "210": -0.076412328, "211": -0.13973676, "212": -0.020733442, "213": -0.096102245, "214": -0.12102073, "215": 0.015638174, "216": -0.026911303, "217": 0.016027609, "218": -0.14204921, "219": -0.080264762, "220": -0.014619381, "221": 0.15444511, "222": 0.031586394, "223": 0.036708385, "224": -0.074983783, "225": 0.067947306, "226": -0.043112174, "227": -0.07374265, "228": -0.021774741, "229": -0.08681035, "230": 0.027050234, "231": -0.059266854, "232": 0.049613584, "233": -0.045537215, "234": -0.028680628, "235": -0.01951994, "236": 0.059482288, "237": -0.065255575, "238": 0.067845181, "239": 0.049395356, "240": -0.06496267, "241": -0.040956922, "242": -0.044472851, "243": -0.16496822, "244": 0.021696942, "245": -0.089583412, "246": -0.062931299, "247": 0.11174925, "248": -0.031248834, "249": 0.12723148, "250": -0.036124114, "251": -0.1030057, "252": 0.037818581, "253": 0.039874926, "254": -0.046612136, "255": -0.20913933, "256": -0.049565274, "257": 0.10394991, "258": -0.12684381, "259": 0.12076829, "260": -0.031801697, "261": -0.030600781, "262": 0.14822374, "263": 0.028885042, "264": 0.10928328, "265": -0.0058492417, "266": 0.097522922, "267": 0.062045872, "268": 0.036219139, "269": -0.0096162977, "270": 0.073419109, "271": -0.037180655, "272": -0.13789631, "273": -0.0034375302, "274": -0.1334835, "275": -0.090668738, "276": 0.0051622153, "277": -0.1193196, "278": -0.14406887, "279": 0.062422056, "280": -0.082508177, "281": -0.094879277, "282": -0.099789768, "283": -0.16523828, "284": -0.13938829, "285": 0.15489729, "286": -0.062998123, "287": -0.15954277}}, {"sx": 3, "sy": 3, "depth": 32, "w": {"0": -0.095954709, "1": -0.06462799, "2": -0.031514011, "3": -0.048986081, "4": 0.055643264, "5": -0.0081748972, "6": -0.054172844, "7": -0.03641808, "8": 0.10839931, "9": -0.052723061, "10": 0.056882471, "11": 0.0085693067, "12": 0.047111012, "13": -0.14310271, "14": -0.096017502, "15": -0.01192519, "16": 0.065252014, "17": -0.043742035, "18": 0.036963314, "19": -0.071161635, "20": -0.029494042, "21": 0.0079920385, "22": -0.02435039, "23": -0.029357631, "24": -0.09719561, "25": 0.19354989, "26": -0.056323864, "27": -0.059846245, "28": -0.12995091, "29": 0.043826122, "30": -0.086875133, "31": 