{"layers": [{"out_sy": 64, "out_sx": 64, "out_depth": 1, "layer_type": "input"}, {"pad": 1, "biases": {"sy": 1, "sx": 1, "w": [-0.4938755, 0.31870523, 0.099720463, -0.02326302, 0.31035188, -0.44496506, 0.028376792, 0.31415176, 0.14694048, 0.060494639, 0.31776392, 0.14995474, 0.003460784, -0.8306641, 0.1781753, -0.02085535, 0.18697007, 0.40632275, 0.50107926, 0.23938943, -0.49646199, 0.018144198, 0.16205268, -0.11870644, 0.75714195, 0.030099547, 0.1136912, 0.59419447, -0.003035221, -0.12080566, -0.25134093, -0.67418486], "depth": 32}, "sx": 3, "out_depth": 32, "layer_type": "conv", "stride": 1, "sy": 3, "l1_decay_mul": 0, "out_sy": 64, "l2_decay_mul": 1, "in_depth": 1, "filters": [{"sy": 3, "sx": 3, "w": [-0.23778814, -0.076552518, -0.16395268, 0.003739032, -0.19170681, -0.13548875, 0.056004032, 0.1296111, 0.095390141], "depth": 1}, {"sy": 3, "sx": 3, "w": [0.070239276, 0.030097207, 0.13610099, 0.012892608, -0.12690508, -0.15833546, 0.096824214, -0.067182682, -0.060469925], "depth": 1}, {"sy": 3, "sx": 3, "w": [0.12393294, 0.0034118807, 0.05284252, 0.0115564, -0.14510615, 0.0050222054, 0.041597772, 0.07974793, -0.16671431], "depth": 1}, {"sy": 3, "sx": 3, "w": [0.07977856, 0.072689824, 0.20913994, -0.10626484, -0.11129013, -0.40258437, 0.099688597, -0.14754812, -0.29032171], "depth": 1}, {"sy": 3, "sx": 3, "w": [0.097092167, -0.098486297, -0.18166961, -0.29765221, -0.13995022, -0.3681882, -0.036957666, 0.11225288, 0.09738005], "depth": 1}, {"sy": 3, "sx": 3, "w": [-0.17593507, -0.083184697, -0.088692278, 0.10301119, 0.15896705, 0.067347378, 0.086892232, 0.030262873, -0.088338315], "depth": 1}, {"sy": 3, "sx": 3, "w": [-0.025398254, 0.10287433, 0.04297832, -0.018424405, -0.13914447, -0.039006561, 0.11797866, -0.0091991695, -0.028101301], "depth": 1}, {"sy": 3, "sx": 3, "w": [-0.078572914, 0.13042423, -0.062998913, 0.086605363, 0.011923618, 0.13888095, -0.063574277, -0.05130126, -0.10947561], "depth": 1}, {"sy": 3, "sx": 3, "w": [0.063891664, 0.17372084, -0.078998134, -0.035748184, -0.21898691, 0.018943571, 0.0022665833, 0.0068918401, 0.050475076], "depth": 1}, {"sy": 3, "sx": 3, "w": [-0.025424225, 0.081991442, 0.13265964, -0.063181877, -0.030024795, -0.06992995, -0.024709618, -0.019482078, 0.028179005], "depth": 1}, {"sy": 3, "sx": 3, "w": [-0.025247391, 0.11235932, 0.046665281, -0.11333578, -0.0048427884, 0.0906872, 0.017082579, -0.083606921, -0.035205051], "depth": 1}, {"sy": 3, "sx": 3, "w": [0.15654245, 0.054588359, 0.097383291, -0.047069013, -0.18395074, -0.0083279358, 0.053822342, -0.13022381, -0.18538904], "depth": 1}, {"sy": 3, "sx": 3, "w": [0.054831009, 0.13889126, 0.10620109, -0.032203127, 0.022875795, -0.037189305, -0.091758117, -0.074310705, -0.10273601], "depth": 1}, {"sy": 3, "sx": 3, "w": [-0.1666692, -0.24038291, -0.32503581, 2.7447604e-05, -0.0075822454, -0.0015065569, 0.01410887, 0.089151539, 0.14483674], "depth": 1}, {"sy": 3, "sx": 3, "w": [0.032672636, 0.14120854, 0.021216204, -0.17780091, -0.16712651, -0.04322068, 0.061238483, 0.10503848, -0.0044664154], "depth": 1}, {"sy": 3, "sx": 3, "w": [-0.10638406, -0.043643072, 0.098807372, 0.075156741, -0.098151177, 0.10906868, 0.014838303, -0.051918097, -0.03933958], "depth": 1}, {"sy": 3, "sx": 3, "w": [-0.11153643, -0.046631433, 0.021290187, -0.14512376, 0.077079922, 0.046717256, -0.056974147, 0.098767169, 0.10327656], "depth": 1}, {"sy": 3, "sx": 3, "w": [0.13473548, -0.041093051, -0.1689804, -0.010990462, -0.13121948, 0.029925136, 0.054642204, 0.065747492, 0.02531933], "depth": 1}, {"sy": 3, "sx": 3, "w": [-0.011985716, 0.0034782505, 0.11033412, 0.011544156, 0.12287526, -0.022206612, -0.25300986, -0.0039891605, -0.086987011], "depth": 1}, {"sy": 3, "sx": 3, "w": [-0.16834758, -0.13727261, 0.0054726922, 0.24531037, 0.10735741, -0.071264014, -0.027232675, -0.14139438, -0.046239916], "depth": 1}, {"sy": 3, "sx": 3, "w": [-0.093195818, 0.16909191, -0.09617009, -0.055276286, 0.080110699, 0.04452889, 0.012930264, 0.066146664, -0.13584322], "depth": 1}, {"sy": 3, "sx": 3, "w": [0.042951774, -0.2038396, 0.082586706, 0.073114201, 0.11680403, -0.085029341, -0.023012508, -0.02021615, 0.020946374], "depth": 1}, {"sy": 3, "sx": 3, "w": [0.0081014028, 0.12354892, 0.044436369, -0.076778412, 0.17152564, -0.02526027, -0.13990062, -0.27793819, 0.041180599], "depth": 1}, {"sy": 3, "sx": 3, "w": [0.073349893, -0.085503973, -0.1010153, 0.12024142, -0.059801053, -0.057334065, 0.034989171, 0.0036368265, 0.07884942], "depth": 1}, {"sy": 3, "sx": 3, "w": [0.12701368, 0.0079990989, 0.0017258218, 0.050540265, -0.041685261, 0.091969021, 0.0071319165, -0.16756235, -0.079567641], "depth": 1}, {"sy": 3, "sx": 3, "w": [-0.13290374, -0.019072006, 0.10839716, -0.05196856, 0.0078556072, -0.0038995214, 0.040630229, -0.10693391, 0.13079195], "depth": 1}, {"sy": 3, "sx": 3, "w": [-0.016186912, 0.010098371, 0.029671669, 0.12192854, 0.056233965, -0.019457884, -0.18218943, 0.08908958, -0.083563156], "depth": 1}, {"sy": 3, "sx": 3, "w": [-0.31128082, -0.17297395, -0.31855351, -0.20461927, -0.23124172, 0.11021847, -0.24002057, -0.013343834, -0.061982781], "depth": 1}, {"sy": 3, "sx": 3, "w": [-0.061043505, -0.44013655, -0.40035483, 0.13407356, -0.072892301, -0.67929149, 0.055877671, -0.065427721, 0.14361128], "depth": 1}, {"sy": 3, "sx": 3, "w": [0.031729247, 0.10271216, -0.1526043, 0.0019041325, -0.11895639, 0.18128952, -0.082361244, 0.10195408, -0.081143439], "depth": 1}, {"sy": 3, "sx": 3, "w": [0.13876164, -0.049103469, -0.13372035, 0.13391548, 0.06136949, -0.013607992, 0.088119835, -0.12362168, -0.12285165], "depth": 1}, {"sy": 3, "sx": 3, "w": [-0.058033768, -0.010992592, -0.049626496, 0.052659106, -0.09382569, -0.027625415, 0.045978937, 0.010088112, 0.14522301], "depth": 1}], "out_sx": 64}, {"out_sy": 64, "out_sx": 64, "out_depth": 32, "layer_type": "relu"}, {"pad": 1, "biases": {"sy": 1, "sx": 1, "w": [-0.06305071, 0.27917263, 0.20400426, -0.24472661, 0.10955052, 0.76476336, 0.082523778, -0.22357026, 0.4453302, 0.018854139, -0.13883124, 0.40370283, 0.060844991, -0.20401761, -0.14459458, 0.5221194, -0.31589729, 0.42420459, -0.071820937, -0.1623413, -0.55050009, 0.22934006, -0.15044294, -0.35273314, 0.33543485, 0.018882912, 0.17249924, 0.32866505, -0.2403807, -0.10953078, -1.1076781, -0.16345915], "depth": 32}, "sx": 3, "out_depth": 32, "layer_type": "conv", "stride": 1, "sy": 3, "l1_decay_mul": 0, "out_sy": 64, "l2_decay_mul": 1, "in_depth": 32, "filters": [{"sy": 3, "sx": 3, "w": [-0.13533738, -0.22919908, 0.074199319, -0.13665701, -0.025642969, -0.024290696, -0.011653726, -0.055490661, -0.0075135124, -0.025410676, -0.050347738, -0.07512898, -0.2321575, -0.15135828, -0.26497531, -0.051982686, -0.15498188, 0.034489397, -0.068915874, -0.11433699, -0.25861919, 0.001514391, 0.12357665, 0.018525736, 0.0031914925, -0.14329953, -0.092442185, 0.22994825, -0.098803587, -0.0173578, 0.014302401, 0.11111811, -0.025874041, -0.25348449, 0.020170081, 0.19392519, -0.0052094148, 0.031006441, -0.052396275, -0.049936537, -0.12788293, 0.09595447, 0.017863775, -0.066374689, -0.23760895, -0.14493389, -0.14417259, -0.054653049, -0.011075376, 0.00084267551, 0.06605047, -0.054598801, 0.17526428, 0.018900231, 0.026098613, -0.032313962, -0.040631469, -0.066519089, 0.059509158, 0.23575278, -0.019773921, 0.034567773, -0.08878959, -0.0013439124, -0.13352032, -0.200046, -0.059002895, 0.32814685, -0.0088305715, 0.03492853, -0.0031699268, -0.042465139, -0.11078896, -0.026399652, 0.014652388, -0.094731487, -0.15098701, -0.18671402, -0.24980053, 0.0070216157, -0.1085919, -0.062010702, 0.061670154, -0.26809704, 0.0071393671, -0.039928954, 0.017045112, 0.077690065, -0.072651871, -0.12311768, -0.0011122059, -0.039253123, -0.16258608, -0.13734087, -0.16362756, 0.061812602, -0.15938818, -0.41843042, -0.077633128, -0.10853899, 0.076813631, -0.025415147, 0.065326072, 0.017845741, -0.087631159, -0.038043741, -0.069094509, -0.16439483, -0.068356201, -0.18543646, -0.39436746, -0.078513063, -0.10191982, -0.13041063, -0.10596495, -0.14370666, -0.21279101, 0.051607959, 0.0045455759, -0.010051087, 0.010057417, -0.21320219, -0.090287387, 0.12386297, 0.010952605, 0.011164024, -0.074147575, 0.033835355, -0.17569485, -0.2366402, -0.002049871, -0.082466304, 0.030145168, 0.029738909, -0.031416945, 0.00060759677, -0.045084376, 0.013256826, -0.022981422, -0.14716297, -0.15186185, -0.14312799, -0.15809508, -0.10765822, 0.0004679464, -0.22878368, -0.062935993, -0.036480371, 0.036836259, -0.037098993, -0.035132963, 0.047954433, -0.12128291, -0.024640201, 0.047566026, 0.046980124, -0.0095007382, 0.0092180874, -0.11230311, -0.029118389, -0.077093422, -0.43657607, -0.021454377, 0.091159545, 0.062133498, 0.021681223, 0.024449762, -0.022195892, -0.0090636751, -0.037473153, -0.04472471, -0.12094297, -0.29977456, -0.34832254, -0.41890857, -0.17758524, -0.088497616, -0.25576535, -0.036375038, 0.075218484, -0.18011802, 0.035266709, -0.065804228, -0.0031576164, -0.11331827, -0.26896363, -0.036924388, 0.24266548, -0.20997645, -0.0089723216, -0.12765317, 0.075094566, -0.15417568, -0.050875213, 0.00081297645, 0.082822606, 0.068758518, 0.099016868, 0.0069963653, 0.059118237, 0.053941738, -0.0018741885, 0.016234281, 0.05633989, 0.043732587, -0.014954514, -0.011574648, -0.045458771, -0.11246999, -0.14683551, -0.0285889, -0.21539253, 0.0022123244, 0.018511187, 0.032315247, 0.03880658, 0.01632008, -0.17890587, 0.037172124, -0.018438933, -0.10333423, 0.045705881, -0.038445279, 0.060552951, -0.11701848, -0.1334305, 0.019440135, 0.10174721, 0.033752505, 0.025781129, 0.057771195, -0.0019803662, 0.0027531583, 0.077780738, 0.049299173, 0.042956766, 0.017333206, -0.20872109, -0.10124246, -0.064692557, 0.022096438, -0.18619613, 0.058549281, -0.042658083, 0.11292256, 0.000442305, -0.012740337, 0.009977933, 0.046125717, -0.022835193, 0.011191647, 0.038344622, 0.01674551, -0.0055032861, 0.050008856, 0.032023195, -0.08010108, -0.32940349, 0.037057985, 0.16264515, 0.12288625, 0.14290357, 0.00095202064, 0.015824564, 0.056920003, -0.047882438, -0.035248209, -0.14432079, 0.025429651, -0.13593371, -0.229955, -0.031270172, -0.096397191, -0.15603831, 0.023468118, -0.28840134, 0.078610286, -0.015386634, 0.049264267, 0.039070815, -0.019905608, -0.08636608, 0.073624052, 0.077658504, -0.064139903, 0.00039462469, -0.071795173, 0.034355149], "depth": 32}, {"sy": 3, "sx": 3, "w": [0.021479696, 0.05092039, 0.02382255, -0.0068090712, 0.047410779, -0.1976734, -0.037296556, 0.0023021176, 0.058963884, -0.026152462, -0.0020113536, 0.010250594, 0.050737932, -0.12425298, 0.042463142, 0.033181556, -0.082388118, 0.03776161, 0.042936489, 0.45457155, -0.19609132, -0.065334573, 0.15716724, -0.039935097, 0.026700843, 0.12388014, -0.0104847, -0.36001885, 0.16590123, -0.11584617, 0.074473128, -0.27511275, 0.019600203, 0.039481726, -0.0029854144, -0.045635637, -0.072465673, -0.17007275, -0.027297165, -0.029770849, -0.033569891, 0.012116547, 0.028323887, 0.068747588, 0.028134888, -0.074895747, 0.0075879265, -0.030030765, -0.052781094, 0.045485023, 0.059854332, -0.056430988, -0.041193899, -0.11069004, 0.022262596, -0.012181737, 0.013280954, -0.036961492, -0.035444599, -0.17247026, 0.13173929, -0.087379441, 0.045651458, -0.13921978, -0.026169848, 0.069228031, 0.010451459, -0.011807719, -0.040963456, -0.42472273, 0.0034587155, -0.0049186046, -0.044664204, 0.016086219, 0.0015050471, 0.01290664, 0.084360227, 0.062410142, 0.011540288, 0.051856976, 0.017104074, 0.049766861, 0.08547873, -0.13124926, -0.045513455, -0.0016494885, 0.059757914, -0.082562484, 0.039428718, 0.047777973, 0.0068955841, -0.21090226, -0.11824863, -0.082045428, 0.099870183, -0.033057913, 0.074570738, 0.063537687, -0.0093334494, -0.17253418, -0.0026143685, -0.25436795, -0.013888742, -0.0237405, -0.014654588, -0.035628177, -0.0019727922, 0.087030038, -0.0020709464, -0.097701132, -0.12471581, -0.055823591, -0.037243698, -0.061059121, 0.078280456, -0.42921543, -0.13297598, -0.16306747, 0.037982892, -0.098528363, -0.011398289, 0.027849542, -0.050492708, -0.40198502, -0.23088157, 0.0099409968, 0.017415797, -0.19063728, 0.14141509, 0.072458647, -0.027758652, -0.12443833, -0.302901, -0.27341038, -0.0521737, 0.05888604, -0.046771735, -0.020775111, -0.040308811, 0.076534249, 0.004274318, 0.1853999, -0.041588269, -0.047896609, -0.10802063, 0.068988249, 0.049593464, -0.10427258, -0.19912454, -0.18843436, -0.010299738, -0.053944413, 0.033423096, -0.017781131, -0.022947468, -0.24063785, 0.067079589, -0.01034515, 0.048194282, -0.10612943, 0.14968899, 0.02648112, -0.0026134187, -0.053247564, 0.012297288, -0.26698187, -0.016125608, -0.019800732, 0.041255042, -0.03253692, 0.00016629303, 0.13919558, 0.0098411189, 0.20100859, 0.00030238781, 0.032116212, -0.041316453, 0.019787747, 0.082253657, -0.3905966, -0.028141705, -0.10461251, 0.0059496011, -0.076085791, 0.0011484913, 0.070464179, 0.030354176, -0.28829777, 0.14013171, -0.088538691, 0.037062757, 0.046301551, 0.11483797, 0.050352264, -0.044039708, -0.071691349, -0.34296238, -0.43948236, -0.024309006, -0.082225561, 0.0037797194, -0.088994727, -0.010253515, 0.16239643, -0.052594543, -0.02592265, -0.10604376, -0.070130773, -0.14582583, -0.040294275, 0.040967528, -0.039609153, -0.18387625, -0.22796988, 0.068642311, -0.17578194, 0.0019076883, -0.047530763, 0.038497921, -0.52744704, -0.027944025, 0.0084809028, -0.062177017, -0.34913135, -0.2642177, -0.0011068165, -0.053240489, -0.049571201, -0.27557611, -0.29117242, -0.094833903, -0.11025083, -0.065979302, -0.077723913, -0.097513981, 0.1172623, 0.17683728, 0.077297732, -0.00329725, -0.08827921, -0.14539465, 0.0053998935, 0.089170486, -0.25549829, -0.20254411, -0.11655103, 0.021331107, -0.14185715, -0.0087211253, -0.039241493, -0.029121138, -0.30820251, 0.084854178, -0.0095378337, 0.099326886, -0.32512861, -0.11582461, 0.068793461, 0.060847484, -0.15401667, 0.079858646, -0.21105035, -0.045445833, -0.071178548, -0.0011049181, -0.047171719, 0.042348389, 0.0096977782, 0.056373175, 0.11745125, 0.061658468, -0.032504264, -0.112816, 0.038840078, 0.12740967, -0.04419075, -0.011907091, -0.17580722, 0.078692392, -0.17133524, -0.027187631, 0.020712122, -0.087254204, 0.019530488, 0.054928903, -0.0080658514, 0.078234613, -0.090763927], "depth": 32}, {"sy": 3, "sx": 3, "w": [-0.023769226, -0.017106544, 0.019450614, -0.34587124, -0.061602585, 0.030603314, 0.029882178, -0.030105395, -0.0008042581, -0.0057252245, -0.043654103, 0.045259569, 0.102869, -0.066349201, -0.032027405, 0.024151437, -0.132278, 0.0078581199, -0.14428516, 0.1321245, 0.025404369, 0.069705889, -0.10233915, 0.061072946, 0.034749422, -0.37552586, 0.0082720276, -0.47037706, -0.1323611, -0.10506822, -0.011227638, -0.11150291, -0.08109393, 0.00073225505, 0.084824942, -0.31683826, -0.13989449, -0.22827896, 0.033396218, 0.062953807, 0.03649918, -0.035170261, 0.018380143, -0.14356059, 0.093258463, -0.17702374, -0.12432288, 0.01681437, -0.064211495, 0.030369323, -0.25441912, -0.10992915, -0.17410778, 0.040280763, -0.11761382, -0.035768945, 0.079697341, -0.14181836, 0.0084102117, -0.23297004, -0.092664361, -0.072255574, 0.023930497, 0.034886952, -0.088071845, -0.15666234, -0.10642085, -0.1135668, -0.12756214, -0.18579951, -0.11028396, -0.012649482, 0.031835943, 0.033500906, 0.0087819416, -0.066988461, -0.088454574, -0.17365281, -0.022487087, 0.027974663, -0.01645207, -0.02732059, -0.073172688, -0.20374095, -0.27627811, -0.081299096, 0.00918891, 0.015550945, 0.015084741, -0.017546592, -0.09090019, -0.22971998, -0.035996098, 0.10562617, -0.15337661, 0.050592411, -0.073700249, -0.0010815654, 0.021590184, -0.17538223, 0.012120652, -0.042219993, 0.026392916, 0.0048661917, -0.048287094, -0.050307486, 0.02110965, 0.0092939418, 0.057357643, 0.06110571, -0.17881258, -0.015601538, -0.12482129, -0.033054434, -0.061218757, -0.12676352, -0.016405551, -0.057033814, -0.20938151, -0.022445304, 0.10131588, -0.27437717, 0.020481234, -0.41872233, -0.1686237, -0.19315137, 0.040617678, -0.086662307, -0.16366246, -0.10971111, -0.095884494, -0.12535952, -0.10806132, -0.33209208, -0.0049161217, -0.065602578, 0.041001998, 0.014854775, 0.049980592, -0.11722303, -0.041153021, 0.0026722765, -0.15097578, -0.052107498, -0.091510035, -0.10727588, -0.16127864, -0.13274728, -0.18966818, -0.058836315, -0.067059897, 0.052566171, -0.014286866, -0.056420431, -0.084472515, -0.28221622, -0.16017112, -0.24248838, -0.071361266, -0.06058291, -0.07354451, -0.23479366, -0.11457139, 0.12158005, -0.00039376097, -0.15271303, -0.06687355, -0.052031886, 0.047546908, 0.027897365, -0.055498507, -0.15805174, 0.036534786, -0.069180943, -0.0095866155, -0.048815876, 0.057496794, -0.11527263, 0.10319712, -0.048471756, 0.022737635, 0.075393535, 0.071675099, -0.00097623031, -0.14396712, 0.041000072, 0.066418462, -0.15186127, -0.021029731, 0.074685991, -0.33407843, 0.063594967, 0.040039372, 0.0078880526, 0.052424692, -0.085477635, 0.12737684, -0.20629045, -0.084599562, -0.063923709, 0.037527885, -0.10298384, -0.065385543, -0.10256543, 0.037401646, -0.023266947, -0.13371648, 0.059430547, -0.0050777774, -0.037313513, -0.060851682, -0.16495174, -0.085221007, -0.061296634, -0.18536776, 0.034836125, 0.067515433, 0.060340531, 0.027259767, -0.38093898, 0.032637436, -0.19782843, 0.024440795, -0.068585098, 0.035892196, -0.10038965, -0.086697035, 0.029886328, 0.033382755, -0.2184224, -0.08211568, -0.037294671, -0.0086174784, -0.0021606705, 0.014573677, -0.11099732, -0.070858486, 0.032021951, -0.083940431, -0.014745409, 0.012703679, -0.037800234, -0.21639118, -0.20457767, -0.25380448, -0.016113658, -0.13032754, -0.019441135, 0.00052641588, 0.085974015, -0.099495441, -0.23166917, -0.1280466, 0.14495839, -0.05868182, 0.06206046, 0.081196703, -0.10116696, -0.10199125, -0.020220626, 0.027105926, -0.0032748953, -0.046839077, 0.0075373361, -0.0090907579, 0.064343646, 0.075938508, -0.15894842, -0.097578317, 0.002052668, 0.080444276, 0.02678079, 0.066226617, -0.032047443, 0.071714312, -0.040108353, 0.072282687, 0.11310528, -0.023190577, -0.11061987, -0.15961853, -0.0060488028, -0.030201336, -0.086438738, -0.11297704, 0.058848798, -0.22964743, -0.072987907], "depth": 32}, {"sy": 3, "sx": 3, "w": [0.033629462, 0.014228005, -0.274275, -0.005777895, -0.19088997, -0.012760601, -0.13442926, -0.19782451, 0.022555709, 0.071448982, 0.061240491, -0.05731079, -0.19221343, -0.26535624, -0.064143255, -0.044646021, 0.058855921, -0.030928023, -0.034196876, -0.10823004, -0.022283889, -0.09650863, -0.19970128, -0.09652584, -0.24753091, 0.044524036, -0.11035453, 0.067463256, -0.10851485, -0.017785911, -0.2228049, 0.045944318, 0.089097813, -0.1238635, -0.01223118, 0.30601159, -0.0038642525, -0.029210797, -0.089906491, -0.058116734, -0.17127563, 0.014040418, -0.012326108, -0.16359891, -0.20450985, -0.10057618, -0.21210417, -0.030739659, -0.016072243, -0.0023379454, -0.10598506, -0.091767184, 0.0066214092, -0.09862864, -0.20837422, -0.06833785, -0.13470037, -0.0081279296, -0.040345818, 0.024223601, -0.052170601, -0.056569412, -0.01414677, 0.067065217, -0.10284033, -0.029653765, 0.059841562, 0.15226635, -0.056074869, 0.027112968, -0.046820544, 0.044545986, -0.18200478, -0.037915174, -0.081618093, -0.14446588, -0.016967196, -0.29411915, -0.24833074, -0.17761742, -0.0032211363, -0.02717315, -0.10160895, -0.13295794, 0.057119403, -0.028942615, 0.065561019, -0.075210266, -0.047464222, -0.15078087, -0.00076047838, 0.0035618048, -0.16634454, -0.10620721, -0.035498653, -0.089904599, -0.17878349, -0.027169852, -0.16215909, -0.24690761, 0.013906084, 0.073092639, -0.013371654, -0.025810024, -0.042621505, -0.01757862, -0.10397278, 0.10468078, -0.34255672, -0.086358733, -0.13286461, -0.023038015, 0.092316739, -0.0750563, -0.02049326, -0.034905579, 0.064746626, -0.099038266, -0.057630852, -0.091335766, -0.38225168, -0.0073279906, -0.075925112, 0.058304571, 0.019985234, 0.15718378, -0.17745773, 0.099930264, -0.14627938, -0.18022257, 0.036346048, 0.0099925613, 0.040118806, 0.025523096, 0.10004666, -0.070593901, -0.124362, -0.019504804, 0.01779988, -0.20179151, -0.15720081, -0.043418154, -0.064092427, 0.091535345, -0.054559473, -0.051540934, -0.18250366, -0.11830207, 0.043702614, -0.012775904, -0.1338519, -0.0703087, -0.02353755, -0.046458799, -0.036510885, 0.13813096, -0.035071723, -0.086014032, -0.00417845, -0.060058963, -0.050622068, 0.030115709, 0.075864226, 0.075698569, 0.0089447312, 0.015223309, 0.031078963, 0.051587876, 0.022763845, -0.026018606, -0.01109098, -0.033335067, 0.077213794, -0.033061612, -0.074953862, -0.2056227, -0.21932542, 0.094317153, -0.15846108, -0.15556434, 0.059196029, -0.1217613, 0.043433361, 0.024792165, 0.033029605, -0.2977547, -0.006837457, -0.012661343, -0.039505284, -0.057435274, 0.062418394, -0.12279678, -0.029174129, 0.024425948, -0.045500726, -0.0097515304, -0.026507456, 0.093728036, -0.0079667019, 0.045056663, -0.11985828, 0.0041358499, 0.032218952, -0.033888575, -0.028267194, -0.10966931, -0.092080958, 0.030190319, -0.026521664, -0.064491108, 0.020517381, -0.1331597, 0.0067446805, 0.10767116, 0.025272893, -0.099348024, -0.033693418, -0.07911972, 0.059005674, -0.15395048, -0.077330299, 0.10848536, 0.047137212, 0.053909544, -0.061103437, -0.091327935, -0.00691059, 0.055424362, -0.075052716, 0.04819525, 0.06761615, 0.050624531, 0.013773195, -0.019974027, -0.01036279, -0.2797192, 0.032550041, 0.0064873854, 0.075029954, 0.098321885, -0.015307831, -0.16257897, -0.037191942, -0.26548722, 0.086942382, 0.060213476, -0.063129894, -0.0009164979, 0.065078825, 0.030476818, 0.02907523, -0.021689171, -0.1422343, -0.10068676, 0.057081286, -0.095114984, 0.11975063, 0.026916103, 0.020828187, -0.13129058, -0.089252353, -0.038986407, 0.021692682, 0.082243964, 0.12572411, -0.018919809, -0.086032286, -0.22320569, 0.058984887, -0.010561679, 0.10240488, -0.29103974, -0.10356347, -0.0056037125, -0.097461112, -0.043990586, -0.050896987, 0.050610088, -0.098671533, 0.02548348, 0.044465311, -0.16717538, 0.063003756, -0.026204806, 0.07123033, -0.0099185593, 0.03960865, -0.11824732], "depth": 32}, {"sy": 3, "sx": 3, "w": [-0.088045403, 0.024110161, 0.033847228, -0.16652352, 0.041448314, 0.022064682, 0.058133848, 0.045300521, -0.0166311, -0.027103774, 0.028118912, 0.028530959, -0.013903154, 0.012638385, 0.12901746, 0.013221014, -0.079268791, -0.11265539, -0.10631578, 0.087474816, 0.033241142, 0.012991365, -0.055379026, -0.1061946, -0.0041179089, -0.038770758, 0.0025930004, 0.032564312, -0.091012679, 0.15271989, 0.027596988, -0.26616764, 0.1314901, 0.074533097, 0.0083457492, 0.20320764, -0.0029063371, 0.0048738997, -0.0077917017, 0.083489612, -0.040220078, -0.01196193, 0.040632818, 0.047444165, 0.022760851, -0.03166306, 0.05884368, -0.083579168, -0.12593864, -0.19026308, -0.049793061, 0.32081386, 0.073945858, -0.1069824, -0.031444505, -0.29898819, 0.034565125, -0.14197318, 0.056467675, 0.11718869, 0.080220342, 0.095613286, -9.7179029e-05, -0.36546841, 0.029889224, -0.013996643, -0.12503973, 0.073741995, 0.17232752, 0.092497803, -0.10662729, 0.043415677, 0.011159901, 0.005487748, -0.0096609388, 0.022674069, 0.0071345661, -0.17779364, -0.06214283, -0.082452692, -0.22140035, -0.36560681, 0.049283933, 0.25756273, -0.11391227, 0.01323461, -0.0065656835, -0.18892083, 0.019354751, -0.13719797, 0.093443245, 0.31043828, -0.032074127, -0.0099277552, -0.040913705, -0.34601718, -0.024439909, 0.0054052533, 0.0092110997, -0.26673403, 0.062117822, 0.04125651, 0.0074681886, -0.0063005844, 0.025070386, 0.091716588, -0.045207962, -0.11948836, 0.074214913, -0.08423283, 0.021729967, 0.062200714, -0.045347326, 0.044677272, 0.025098331, 0.12298078, -0.039177172, 0.11843111, 0.11774719, -0.031911891, 0.011066857, 0.047886133, 0.028576627, 0.10124066, -0.16484535, 0.0037177238, -0.017730657, -0.10823953, 0.10631657, 0.093138523, 0.0072511756, -0.18354294, -0.052533366, -0.10684682, 0.090949327, -0.046881724, 0.10558818, 0.019939182, 0.011002269, -0.10138553, 0.021259168, -0.0015176471, 0.059083663, -0.061385203, -0.086503141, -0.040400773, -0.28198794, -0.1500819, -0.038832549, 0.15661666, -0.2674453, -0.095467225, -0.028410506, 0.013113207, 0.0036398005, 0.21310611, -0.057967681, -0.17750946, -0.11840359, -0.10290667, -0.042973373, 0.06249946, 0.043403778, -0.096190609, -0.1419182, -0.49159268, 0.086017862, 0.018121054, 0.07501094, 0.042329654, 0.0670591, -0.0015485141, 0.01087369, -0.0092711272, 0.11855762, 0.1392107, -0.08193662, -0.001264466, -0.24465844, 0.12681459, -0.054409828, -0.15354562, -0.28951168, -0.068188123, 0.044785302, -0.058561992, -0.19142228, 0.2609593, -0.0016448976, 0.13537963, -0.23397072, -0.051142354, -0.085459992, -0.30577454, -0.055151619, -0.015356833, -0.040968757, 0.021850741, -0.0013502031, -0.17712165, 0.15872216, -0.092704758, -0.078258164, -0.0058680642, -0.28866073, -0.12669691, 0.069485277, -0.17692317, -0.072039798, 0.10465445, -0.12277251, -0.011483057, -0.064119965, -0.021347001, -0.12457262, 0.028356548, -0.12599644, -0.10243139, -0.16087054, -0.14973634, 0.065416522, -0.019986132, -0.042519864, 0.055821005, -0.040212024, -0.35570428, -0.10865694, -0.35607851, -0.27908844, 0.0095907971, -0.12538773, -0.28198376, -0.12492201, -0.32775256, -0.47307402, -0.25066364, -0.93343455, 0.016906234, -0.15163714, -0.118288, -0.0035627568, 0.15576245, -0.23148063, 0.042195886, -0.14977494, -0.0099444613, 0.032898065, 0.049422387, -0.24204411, -0.068072416, -0.25631464, -0.21422994, -0.038167648, -0.11968815, -0.068352558, 0.016202049, -0.061844021, 0.080858961, -0.074222177, -0.039005578, 0.094413631, -0.010268047, -0.04839956, -0.22471562, -0.25164747, -0.098050259, -0.28381664, -0.17553324, -0.51312572, -0.23947112, -0.099003494, 0.058878202, 0.013978672, -0.070988767, -0.097894825, -0.55982006, -0.26037431, 0.097819172, -0.031055229, -0.060803581, -0.56233376, 0.038385119, -0.12472182, -0.36179811, -0.17044373, -0.021156279, -0.34116384, 0.0091480324], "depth": 32}, {"sy": 3, "sx": 3, "w": [-0.1748659, -0.0039190501, 0.041565828, -0.20184283, -0.10143567, -0.041090161, 0.048750181, -0.017752552, 0.016423753, -0.069782712, -0.019799395, 0.026245, -0.052495189, 0.0054046595, 0.0022133689, -0.14355528, -0.11785866, 0.050898641, 0.08588884, 0.058115564, 0.014927622, 0.0073312153, -0.087149501, 0.089271873, 0.14540252, -0.18281396, 0.063710317, 0.29627174, -0.15629104, 0.046836495, -0.033693906, -0.059885517, 0.065695457, 0.039061517, 0.065360256, -0.1809949, -0.041073453, -0.07815364, -0.04553622, 0.051653266, -0.064340152, -0.054329094, -0.03353633, -0.074019834, -0.099969685, 0.18947911, -0.090558469, -0.060155813, -0.19469154, -0.047354031, 0.013517455, 0.031152289, -0.22486393, -0.04235008, -0.046489634, -0.031617444, -0.013871082, -0.047387972, -0.018170167, 0.13581814, 0.068276823, -0.11299427, 0.024441767, -0.14404555, 0.026579538, -0.020741137, -0.018926403, -0.014747545, -0.0023450684, -0.13155296, -0.068466343, 0.013301436, -0.056484029, -0.061730221, -0.025426434, -0.13707428, -0.2010546, 0.15892707, -0.1684086, -0.005072929, -0.030123388, -0.043605093, 0.041603893, 0.020068824, -0.21180569, 6.2805906e-05, -0.18069753, -0.013253364, 0.0049795844, 0.0277902, -0.064454824, -0.099039495, 0.13392898, -0.13157307, 0.084799312, -0.042954434, -0.06955678, -0.0218751, -0.020421196, -0.087247647, 0.083917841, 0.011008685, 0.060819127, 0.039625149, 0.01296632, -0.11418687, -0.087012023, -0.070058785, -0.053733006, 0.066873387, -0.009641801, 0.03710971, 0.042659473, -0.065280803, -0.21632326, -0.0060761147, -0.051338781, 0.02920932, -0.25988936, 0.024838781, 0.021005021, -0.12006573, -0.040054373, -0.0060824761, -0.024042681, -0.0057410952, 0.0051658973, -0.0064052097, -0.1723316, 0.10218613, -0.0012305297, -0.1548177, -0.043052372, 0.036935546, 0.0085635995, -0.010770389, -0.030748677, -0.031662688, -0.042875361, 0.01832553, -0.075471207, -0.042910933, -0.097970642, 0.087812118, -0.037215844, 0.1017344, -0.030454725, 0.019133849, -0.15653786, 0.055641603, -0.1771549, 0.032895412, 0.025980966, 0.022866713, 0.01159146, 0.054128684, -0.18122278, -0.079764843, 0.00044237653, -0.021488797, -0.16572711, -0.1387838, -0.045743957, -0.098359101, -0.017803412, -0.059208833, -0.060185108, -0.03710787, -0.0036726759, -0.029742273, -0.011660889, -0.082475767, -0.15018995, 0.073507018, -0.14133616, 0.010313364, 0.02167201, -0.013844999, -0.032745272, 0.1482944, -0.13665204, 0.0059675742, 0.11629495, -0.0049665538, 0.076523207, 0.013639123, -0.029890483, -0.10832432, 0.028596807, -0.090886816, 0.03669012, 0.009364577, -0.06383808, 0.025420859, 0.11030083, 0.032168314, -0.025282316, 0.0032983953, 0.075950027, -0.028284818, 0.050123896, -0.10319421, -0.068314083, -0.071656696, -0.11626016, -0.025425278, -0.010242632, -0.12817571, -0.17030732, 0.019878015, -0.10417933, 0.087397158, -0.013861489, 0.084243827, -0.16529758, 0.016043259, 0.065029696, -0.15804654, -0.036456816, 0.21289513, -0.053596329, -0.18287794, 0.059725825, -0.062488299, -0.12193117, 0.072853953, 0.014822847, -0.082280204, -0.15400502, -0.022508822, -0.001108674, -0.026211133, -0.0086408556, -0.06575454, 0.010203475, -0.043307584, -0.11896747, -0.18000674, -0.086421385, -0.068275295, -0.1038699, 0.017775146, -0.18540972, 0.03801813, -0.26736975, 0.031689543, -0.044443525, 0.017255682, -0.036334328, -0.061650701, 0.013454627, 0.080858648, -0.2252239, -0.17044386, -0.042937696, -0.046431661, -0.13056368, 0.035158724, -0.055176135, -0.12664342, 0.068300329, -0.12233155, 0.016163111, -0.067096874, 0.01840082, 0.026435165, -0.057355847, -0.18422608, -0.17987318, -0.14126527, -0.055977497, 0.047444325, -0.036027335, -0.012444437, 0.062244177, -0.24628896, -0.39261836, -0.020124728, 0.14107625, -0.083656058, 0.033120319, -0.026287438, -0.064048991, 0.19774893, -0.19944885, -0.15875691, 0.080360919, -0.020572146], "depth": 32}, {"sy": 3, "sx": 3, "w": [0.0077257012, -0.056529079, -0.048451982, -0.046960656, 0.038026486, 0.094876982, -0.027749406, -0.13602798, 0.049338613, -0.18824045, -0.025491403, 0.080496609, 0.050450802, 0.029981023, 0.052738957, 0.049516823, -0.077325933, 0.054917771, 0.10421127, -0.12880971, 0.040223084, 0.051332265, 0.31821457, 0.07819435, -0.012830268, -0.16278619, -0.025480893, 0.0049487809, 0.00055232592, -0.044253744, 0.014692149, 0.028631916, 0.13595688, 0.24298596, -0.038022012, -0.070004493, -0.074267857, 0.018446796, 0.020705024, -0.11850001, -0.057086241, -0.090613604, -0.059027322, -0.057363793, -0.0025617781, -0.084897287, -0.079725981, 0.071344607, 0.044003606, 0.11247286, 0.10937039, 0.11281491, -0.030702628, 0.081392884, 0.027876401, 0.016275715, -0.080534108, 0.07601285, -0.14072098, 0.053049877, -0.021581417, -0.10807413, 0.02002912, 0.041629851, -0.13695022, 0.25683334, -0.13995914, -0.091665603, -0.1562711, 0.0977358, -0.14979711, -0.057824913, -0.015567217, -0.090368137, -0.078404404, 0.12909132, -0.1135638, -0.075005881, -0.13262038, 0.071378723, 0.0013264379, 0.035897359, 0.025026515, -0.090655275, -0.060309697, -0.056476597, 0.11344859, 0.0034877458, -0.26339006, 0.027226441, -0.12399803, -0.018552776, -0.12703478, -0.088033095, -0.24513918, 0.002052082, -0.19177057, -0.16167374, -0.062423885, 0.020668169, -0.26113036, 0.015403917, 0.0010555601, -0.10102007, -0.01749124, -0.15956356, -0.046095304, -0.077620961, -0.068024091, -0.10602056, -0.050861388, 0.094048083, -0.044326693, 0.049442124, -0.10520451, -0.025059333, -0.066031091, -0.029697729, -0.014559758, 0.044926032, -0.065448858, -0.12650499, -0.041298606, 0.042710986, -0.10406367, -0.18507355, -0.017703975, -0.006377744, -0.055404827, -0.15408707, -0.12440491, 0.049319912, -0.063977525, 0.046747278, -0.088191554, -0.20009133, -0.20478415, -0.022803046, -0.045415778, 0.082937099, -0.11849534, -0.0037841361, -0.15377513, -0.061235182, 0.042982239, 0.021620233, -0.097018324, -0.043969933, -0.11035329, 0.070850834, 0.043796498, -0.03673581, -0.099052645, -0.012199339, -0.10947196, 0.027792018, 0.069839634, -0.23919578, -0.0073553487, 0.024043985, -0.020561583, -0.18459319, -0.12390581, -0.28588724, -0.11373952, 0.026146699, -0.030196305, -0.10835695, -0.14712866, -0.0083159991, 0.051878508, 0.076483272, -0.17968039, -0.051763177, -0.21430665, 0.034669816, 0.077979878, -0.022575725, -0.093430318, 0.043301594, -0.0099571673, 0.021163624, 0.1698591, 0.013414921, -0.48173222, -0.025434282, -0.07909625, -0.05874712, 0.038413916, -0.023926154, -0.13544957, 0.032757938, -0.015316907, -0.19446932, -0.056619637, -0.14847676, 0.057690844, 0.076846495, 0.020823572, -0.20715049, -0.0040061516, -0.047705434, -0.26437005, -0.074316248, -0.46441066, -0.10458782, -0.063092485, -0.19440031, -0.089035615, 0.015331465, -0.17618096, 0.0076159751, -0.079901941, -0.027178761, -0.26744574, 0.079921544, -0.30568892, -0.230095, -0.17809169, -0.11436749, 0.11506176, -0.2234543, -0.067239523, 0.083281152, -0.028185943, -0.25893274, -0.060670055, 0.28913027, -0.051002335, 0.020797441, -0.027745141, -0.16215706, -0.24062026, -0.03762928, -0.091763996, -0.016410967, -0.31548315, -0.1953112, -0.077508844, -0.047277357, -0.046028595, -0.068063766, -0.18518245, 0.032903619, -0.20911293, -0.023802897, -0.10360803, 0.06509544, -0.40468967, 0.013300582, -0.18795361, -0.016569804, 0.073247202, -0.25638205, -0.10134467, 0.041930407, -0.24854794, -0.26367226, -0.31281447, -0.059917852, -0.10834917, 0.011650222, -0.11762948, -0.15137571, -0.016231468, -0.010032088, -0.042457789, -0.066460177, -0.28796488, -0.13248833, -0.16079541, -0.13122182, 0.02610955, -0.11919852, -0.14973301, -0.10965109, -0.11758017, -0.063664384, -0.10327453, -0.017633134, -0.49317709, -0.012552255, -0.087735213, 0.024767721, 0.061108127, -0.14678229, -0.24014965, 0.057508111], "depth": 32}, {"sy": 3, "sx": 3, "w": [0.023734564, 0.058814965, -0.12872939, -0.21718609, -0.065375254, -0.15521049, -0.056657415, -0.013153302, 0.015197171, -0.028471684, 0.023820864, 0.046983752, 0.021496931, -0.25230056, 0.054934271, -0.15963455, -0.04886084, -0.10463417, -0.036489382, 0.090368822, -0.10130112, 0.0069387159, 0.071571432, -0.048779078, 0.039314814, -0.079131156, -0.087403208, 0.048600975, -0.11969461, -0.010138498, -0.0035663454, -0.18602319, -0.23999302, -0.092736512, -0.053267792, 0.061534271, 0.033541344, -0.094738983, -0.17200166, 0.0096661896, -0.10051961, -0.022298845, -0.070799567, -0.060978685, 0.03935441, -0.26521868, 0.047464874, 0.094359189, -0.063656904, -0.18773946, 0.042113882, 0.045630947, -0.033099942, -0.04453893, 0.0014476683, -0.077671699, -0.033725191, -0.14892659, 0.091695912, 0.073466592, 0.011951005, -0.0013685588, -0.061520863, -0.1190323, -0.059795462, 0.13671538, -0.040115457, -0.01266846, -0.080700189, -0.065837286, 0.0069227172, -0.023726737, -0.079480357, -0.012850096, 0.033160731, 0.083824687, -0.015127319, -0.29403055, 0.03940421, -0.0071035707, -0.097751282, -0.22214162, 0.062080134, -0.0095432932, -0.060669132, -0.064568102, 0.11448843, -0.0082958881, -0.042086296, -0.027773241, -0.038448144, 0.032714363, -0.19902214, -0.076854482, -0.008923078, -0.0054696212, -0.096684776, 0.018536042, 0.03358452, -0.0019725601, 0.11928487, -0.061489191, 0.11046621, 0.082674637, 0.13089317, 0.056993451, 0.064678133, 0.010783503, 0.040273547, 0.017115021, 0.020253213, 0.10534833, 0.0425951, -0.10226649, 0.10441244, 0.083578773, 0.098430313, -0.16108647, 0.068278268, -0.083148368, 0.056013957, 0.1085958, -0.025164356, 0.12176578, -0.035759248, 0.16388223, 0.036244627, -0.12853207, -0.011712978, 0.064742468, -0.097071521, 0.070786506, 0.029267959, -0.10408438, -0.025721729, -0.01414304, 0.0017952274, 0.026054848, 0.023052989, -0.16300894, 0.018537123, -0.12110446, 0.11590677, 0.055062879, 0.010849772, -0.1541021, 0.06071892, 0.22197354, -0.020363472, 0.042711541, 0.029801469, -0.24141213, 0.032040492, -0.055886175, -0.04177545, 0.16537344, 0.031657159, 0.054351516, -0.012484288, -0.2557435, -0.038593579, 0.075540327, -0.03429139, 0.094840355, -0.011754943, -0.11140054, -0.076812446, -0.043765299, 0.077774525, 0.014230105, -0.052144699, -0.028303673, 0.001251479, 0.025315816, 0.031248525, -0.054986227, 0.049161535, -0.043243155, 0.13036247, 0.33006844, 0.019697756, -0.037487112, 0.088382661, 0.011033626, -0.017933303, -0.055905756, 0.066106379, 0.041469447, 0.021399254, 0.053594775, -0.041757107, -0.019226192, -0.0743367, 0.11614494, -0.0065021119, -0.24581, 0.081022516, -0.10284162, 0.019531433, -0.11335114, 0.020252839, 0.0070457305, -0.031175457, -0.077603042, 0.023198286, -0.15373467, 0.054635108, 0.023520665, -0.023468131, 0.081259415, -0.041620485, 0.052420814, -0.18275681, 0.079034232, 0.00064099039, -0.057251628, 0.037823312, 0.060056433, -0.023700142, 0.035092629, -0.053179573, 0.0069252229, -0.038736835, -0.10716613, -0.042292196, 0.092631549, 0.0040353229, -0.25912997, -0.092153981, -0.022042511, 0.031560473, 0.022857131, 0.1359008, 0.038813218, 0.05784221, -0.026949074, 0.072722733, -0.16383049, 0.12354778, 0.14015107, -0.0056362795, -0.047719982, -0.079588868, 0.082781799, 0.04823938, -0.084650226, -0.10799445, -0.25356412, -0.0193085, 0.058063842, -0.038252924, 0.23656079, 0.013068373, 0.065082185, -0.27114436, -0.040907104, 0.088505909, 0.078261212, -0.072549529, -0.18144006, -0.058648743, -0.085823223, -0.10184059, -0.019047622, 0.022719657, 0.026087828, 0.043083061, -0.12976307, 0.0091153681, -0.10618935, 0.060691245, -0.022527633, 0.01637356, 0.10889821, -0.0081238095, 0.044696521, 0.054690786, 0.017283414, 0.074936695, -0.062439457, -0.017324423, 0.011376106, -0.059000753, 0.17726251, -0.15602586, 0.010603091, -0.052308843, -0.032039396], "depth": 32}, {"sy": 3, "sx": 3, "w": [0.041384652, -0.037568528, -0.0033578698, -0.35622957, -0.14859778, 0.10885016, 0.035622366, 0.019518953, 0.055012882, 0.019872921, 0.018398356, -0.0994654, 0.068752378, 0.02630634, -0.1273008, 0.00034538587, 0.0079485932, -0.090365589, -0.083700649, 0.11454917, 0.033880666, 0.058965702, -0.082362965, 0.030800516, 0.06435366, -0.063415296, 0.014703781, -0.19627835, 0.013566285, 0.10792983, -0.033542793, -0.078937285, -0.11830125, -0.167926, 0.0029354217, -0.33833858, -0.096653268, -0.015527037, -0.0041416264, 0.047123179, 0.083762176, 0.0044489191, 0.03845977, -0.13697067, 0.028755438, -0.24432971, -0.076312728, 0.07994432, -0.059270244, 0.016377626, 0.034037951, 0.014834991, 0.12126036, 0.042825092, 0.025747821, -0.0051620952, 0.027883882, 0.023108833, 0.057125662, -0.058898889, -0.074849181, 0.11689678, 0.0054864269, -0.095674254, -0.086011589, 0.024495354, 0.015913794, -0.1282827, -0.10768723, 0.0091984337, 0.024670063, 0.027193427, 0.011073086, -0.00098232878, 0.0040590782, -0.028095635, 0.087867849, -0.12732831, -0.13817659, 0.038435161, -0.029337812, 0.039039027, -0.066221572, 0.043150958, 0.071781836, 0.11150164, -0.072679646, 0.012400296, 0.024812117, -0.011071783, 0.018005598, -0.16748218, -0.057979763, 0.11287523, 0.023463624, -0.014470389, -0.09679617, 0.083342031, 0.042886976, -0.22444318, -0.055556588, -0.19802181, 0.0058349608, 0.047230069, -0.073551819, 0.075624242, 0.018894155, -0.035934918, 0.010893632, -0.019928396, -0.13861571, -0.093424261, -0.084016591, -0.19444694, -0.14473006, -0.01614061, -0.087884903, -0.093870699, -0.17310955, -0.042444516, 0.04145145, -0.24750634, -0.0059662038, -0.093548007, -0.058501668, -0.38337612, -0.057824012, -0.24104676, 0.10013644, -0.052300341, 0.014754072, -0.25487006, -0.024604708, -0.15328887, -0.029916737, 0.0022610144, -0.0056382199, -0.027523628, 0.011838284, -0.17995366, -0.037605427, 0.043127507, -0.056474373, -0.027942449, -0.29028481, -0.26000407, -0.16692246, -0.14367528, -0.034761105, -0.041880313, 0.012535276, -0.1136554, -0.0073070289, -0.16150638, 0.046687055, -0.16175359, 0.06535928, -0.12594493, -0.1211976, -0.24075253, 0.033860542, -0.13401349, 0.021470662, -0.36205718, -0.038056072, -0.17921922, -0.065012477, 0.0095425956, 0.027683975, 0.034031574, 0.0074800043, -0.19929421, 0.03558388, -0.14619477, -0.19491754, -0.017657002, -0.063700162, -0.096963793, -0.060981724, 0.017866524, -0.021643674, 0.073390193, -0.050035123, 0.021400809, 0.076599047, 0.03221057, 0.0093698585, -0.10162678, -0.047197245, -0.051010139, -0.022641087, -0.054947153, 0.021724796, -0.081732035, -0.0062540141, 0.04204255, -0.1764781, -0.22166052, 0.051123876, -0.017622463, -0.085608318, 0.0057410477, 0.0434964, -0.24930452, 0.017921876, -0.055267867, -0.15241303, -0.18253082, -0.16510287, -0.19886465, -0.036059286, 0.033448368, -0.17062865, -0.13249622, -0.049440973, -0.070277281, 0.01298207, -0.34178597, 0.016046884, -0.076797545, 0.030123198, -0.3567099, -0.070242971, -0.083419479, 0.016460573, -0.2813679, 0.024665253, -0.19108319, -0.12603788, -0.28764114, -0.017363328, 0.011389037, -0.067519255, -0.010533414, 0.029094744, -0.28247643, 0.055477373, 0.03410979, -0.22210942, -0.21956527, -0.32374451, -0.40272307, -0.1459576, -0.040927008, -0.14340113, -0.16188365, -0.26346782, -0.11276373, 0.023262763, -0.19128534, -0.03334, -0.16761923, -0.10263684, -0.38814664, -0.15748991, -0.15068685, -0.0097669223, -0.23636802, 0.024843045, -0.19643547, -0.18170574, -0.18978676, -0.067580536, 0.016138829, -0.040882003, 0.051267982, -0.010698775, -0.34352306, 0.052250832, 0.075637497, -0.15608652, -0.085455514, -0.035943527, -0.2405408, -0.11368269, 0.073365778, 0.055510174, -0.029990895, -0.22007899, -0.067991085, 0.022190822, 0.058629189, -0.0037626189, -0.090392217, -0.026367467, 0.028811866, -0.037604023, 0.032192141], "depth": 32}, {"sy": 3, "sx": 3, "w": [-0.15675555, -0.18907447, -0.075627394, 0.049707375, -0.013751431, -0.013619207, -0.090837836, -0.077641077, 0.011464382, -0.010966431, 0.028481271, 0.14735317, -0.044933517, -0.001913992, 0.017227378, -0.088185899, -0.075290456, 0.03477563, -0.18036211, 0.062949397, -0.098832384, 0.071604788, -0.082988568, 0.039497223, -0.08010263, 0.0032709804, 0.043134548, 0.0048215385, -0.19983274, -0.03014992, 0.071121693, 0.04462808, -0.10720865, 0.0068490761, 0.055286083, -0.063168801, -0.034697261, -0.0012266736, -0.017164437, -0.10730233, -0.04250833, -0.064809591, -0.034363978, -0.052460559, -0.29317698, -0.084568799, 0.0077840923, 0.064828448, -0.088002861, 0.079549931, -0.076654106, 0.017963788, -0.015291858, 0.033353433, 0.14315937, 0.024403755, -0.073723607, -0.20802027, 0.009671066, 0.20425901, -0.19551438, -0.069130234, 0.026001399, 0.015091616, -0.035570469, 0.026169309, 0.086811423, -0.31626776, -0.17569673, 0.0054319366, 0.10044497, -0.082163379, -0.095171191, -0.022988332, -0.042319268, -0.1368392, -0.15196691, -0.045704894, 0.0024198631, 0.020081637, -0.089469224, -0.0043999772, -0.060339492, -0.065734692, -0.099609397, -0.077178121, -0.038604282, 0.017600695, 0.049936067, -0.095937304, -0.05833203, 0.10338324, -0.32159337, -0.15060811, 0.022257177, -0.036795449, 0.033053786, -0.21510537, -0.15081805, 0.0065059969, -0.1582105, -0.063717522, -0.016880073, 0.10144252, 0.083419837, 0.034051746, 0.09952534, -0.27570078, -0.058556881, -0.22580157, 0.051751427, -0.038848884, 0.043469552, -0.0094407797, -0.084129922, -0.20461024, 0.092314981, -0.041093215, -0.17158341, -0.057649475, -0.014777496, -0.19675836, 0.024163958, 0.010300219, -0.11810052, 0.035738923, -0.05082928, 0.0050792987, -0.035628378, 0.12402252, -0.028574837, -0.26690847, -0.096712679, -0.0071747275, -0.024922332, -0.077848867, 0.063873418, -0.097009808, -0.11354291, -0.1134316, -0.27198431, -0.26828793, -0.0099943355, -0.042103566, -0.062769242, 0.019001676, -0.22576062, -0.24352966, -0.057127841, 0.083069816, -0.19470607, 0.049053423, -0.068948537, 0.023215717, 0.034459725, 0.019872693, -0.21481326, 0.042273581, 0.00013066386, 0.048220355, -0.24470811, 0.15113512, 0.065762363, -0.24046318, -0.00017469467, 0.075383775, 0.10374949, -0.066253595, -0.027473079, -0.11514512, -0.13506125, -0.079487175, -0.41500491, -0.33201581, 0.18743265, 0.097695448, -0.13883989, 0.0020505444, -0.04150619, -0.2596997, -0.093965344, -0.0047154459, -0.018540639, 0.028460905, -0.045615248, 0.0070324386, -0.069356434, -0.084360518, -0.30665252, -0.1452534, -0.010052055, 0.014350054, -0.079855621, 0.048618626, -0.048352003, -0.09102729, -0.070409864, -0.086580344, -0.05663088, 0.088329852, 0.044654798, 0.11779823, 0.050962038, 0.0087390244, 0.016849631, -0.0053056078, -0.12852634, -0.062239241, 0.0071487995, -0.025065299, -0.086789563, 0.10819171, -0.076860704, -0.13623275, -0.030856265, -0.14889644, -0.021313552, 0.020049606, 0.02782112, 0.096816987, -0.1460669, -0.020297233, -0.084962718, -0.07252261, -0.092750311, 0.061131582, -0.010470314, -0.11189225, -0.06923566, -0.030693859, -0.094721884, 0.013955571, 0.093688652, 0.0083321482, -0.029474391, -0.093100816, -0.10416428, -0.16094197, -0.060587242, -0.10283355, 0.030264257, 0.067253515, -0.15281281, -0.031471062, 0.0076911538, 0.027129577, -0.045648627, -0.0055080447, 0.003297175, -0.1699435, -0.0091028707, 0.11735203, -0.18372595, 0.13567699, -0.018189069, 0.0060276412, -0.058892999, 0.086569257, -0.029091913, -0.21563262, -0.087545484, 0.02572109, -0.045385584, -0.042734783, -0.034587398, -0.11912184, -0.084744751, -0.017049765, -0.4468835, -0.03960574, 0.0577031, 0.040785577, -0.077568442, 0.063074954, -0.12678805, -0.065648735, -0.034864612, 0.036794022, -0.20588066, 0.088409513, -0.00052310509, -0.063536547, -0.032160535, -0.083465971, -0.19829477, 0.090382375, 0.078623675, -0.0073135323], "depth": 32}, {"sy": 3, "sx": 3, "w": [0.0046644006, -0.03606721, -0.063866064, 0.082578287, 0.10526378, -0.13139154, -0.12375727, -0.12571408, 0.017203461, -0.030057378, -0.048502471, 0.17606582, 0.019759953, 0.032404207, -0.080763124, -0.1090032, -0.055093303, 0.058864526, -0.0020825944, -0.2640385, -0.059780255, -0.054041203, -0.10233156, -0.132816, -0.048390247, -0.053019799, 0.0077882004, 0.12602827, 0.022666164, 0.062254254, -0.092143551, -0.023325412, -0.0008493549, 0.037004799, -0.02267115, -0.012345341, 0.14488253, -0.089887753, -0.042267978, -0.046860144, 0.099343628, -0.040230084, -0.062656291, 0.027083177, -0.042953413, -0.12754957, -0.11744185, -0.066365421, -0.020415379, -0.064243644, 0.046954449, -0.16173372, -0.11300109, 0.050509673, 0.056930806, -0.13776818, 0.00273092, -0.013532813, -0.015234952, 0.085978642, -0.11714551, -0.0088044805, -0.025464408, -0.037087269, 0.05320422, 0.075404309, 0.044508878, 0.10105652, 0.083636731, -0.04206422, 0.062491354, -0.13572279, 0.027056437, 0.083178468, 0.0033191345, 0.14942446, 0.077084497, 0.10885575, 0.11865246, 0.063214853, -0.056417052, -0.11408025, 0.10638544, -0.15174089, 0.040411092, 0.10295051, 0.10678237, -0.09761434, -0.063959904, 0.12206464, 0.0066194548, 0.16407098, 0.074221142, -0.056002911, 0.011615002, 0.044093706, -0.078311883, -0.005853158, 0.0016141271, 0.018691933, -0.035464227, 0.044221096, 0.033886116, -0.18890001, -0.055574056, 0.0060012355, 0.011749316, 0.11655382, -0.00051765039, 0.057294048, -0.05201567, -0.0093635842, 0.014310459, 0.016424235, -0.17019193, -0.05469748, -0.11654785, -0.050217651, -0.15059575, -0.028225524, -0.064847104, -0.00656765, -0.078812443, 0.19191794, -0.062840454, 0.04197349, 0.098222725, -0.015091694, 0.02201065, 0.05730851, 0.010322794, 0.009203149, -0.055553205, -0.12900767, -0.083264455, -0.16006564, 0.016513579, -0.068877377, -0.13719195, -0.011650971, -0.034179479, -0.11700292, -0.11915451, -0.02754068, 0.061834265, -0.10000229, -0.01729266, 0.07340876, -0.043306109, -0.12979001, -0.11311735, -0.1298862, -0.14834833, -0.16958268, -0.057029419, 0.22472051, -0.073069528, -0.013480301, -0.017601548, -0.088405244, 0.062502399, 0.044528849, -0.092573598, 0.037279475, -0.060697667, -0.053096414, -0.057468679, -0.14525856, -0.034067936, -0.11951269, -0.080826536, -0.07327164, -0.16270062, -0.051112447, -0.011546884, -0.16570024, -0.17204806, -0.040665828, 0.038106613, -0.021559751, -0.079774342, -0.079422727, -0.06158242, -0.10845446, -0.1761263, -0.20829685, -0.1327069, 0.094910242, -0.012522198, -0.031863526, 0.038085509, -0.10982117, 0.13941884, 0.080434389, 0.023791421, -0.036448263, 0.061856452, 0.069692455, 0.087671608, -0.090050764, 0.093360476, -0.0095055448, -0.094847992, 0.035614435, -0.1182959, -0.02755639, 0.12935652, 0.087360308, 0.016903456, 0.0042258049, -0.010553304, 0.32459459, 0.051827945, 0.021568203, 0.073668964, -0.0016698883, -0.045261044, 0.087183759, -0.029795079, 0.024160242, 0.069233522, -0.047811713, 0.025699848, 0.0041136043, 0.11013976, 0.028152214, -0.0098727485, 0.056696571, 0.13138032, -0.067834638, -0.057683747, -0.12905538, -0.037100531, -0.089616135, -0.080435857, -0.088558458, -0.27656558, 0.078173988, 0.025236128, 0.010183593, 0.078593411, -0.090369113, -0.094031729, 0.18213424, -0.092851378, -0.048821177, 0.018917585, -0.01482224, -0.16221434, 0.025803944, -0.13724591, 0.092526928, 0.076435663, -0.09338136, 0.0093040988, 0.015747389, 0.08044596, -0.032754567, -0.098217472, 0.18116796, 0.0137239, -0.068993278, 0.032768723, -0.06116889, -0.044792131, -0.10255131, -0.10117537, -0.0037148683, -0.21499547, 0.11946292, 0.029579846, -0.020018697, 0.027625285, 0.021483783, -0.1799195, 0.28936669, -0.071150929, -0.055110954, -0.056491207, -0.10885257, -0.15666124, -0.1018317, -0.09601482, -0.10695785, 0.090696245, -0.010235923, 0.013710174, -0.089650363], "depth": 32}, {"sy": 3, "sx": 3, "w": [-0.0097694341, 0.055338711, -0.018031776, -0.11757681, -0.36418265, -0.046060022, -0.013202772, -0.0025317974, 0.039685857, 0.0068138172, 0.077293508, 0.052804098, -0.12895186, -0.039468855, -0.11914246, 0.073263891, 0.040863939, 0.040483795, -0.20158686, -0.12860532, -0.21183349, 0.062669918, -0.23311512, 0.068790838, -0.007307345, 0.14693755, -0.0041529699, -0.63669378, -0.15461788, 0.0032350323, -0.0001479186, 0.016986085, -0.0012495451, -0.18646842, -0.19747035, -0.14989138, -0.039617334, -0.030554596, -0.039793704, -0.010173358, -0.051109012, -0.020302279, 0.055245981, -0.25855374, 0.037986424, 0.059986264, -0.0070677772, 0.0088776173, -0.013496213, -0.038807273, 0.036107354, -0.40302685, -0.27864444, -0.01313977, -0.043342367, -0.041975301, -0.11591808, 0.052870024, -0.031808838, -0.27675253, -0.0097815441, -0.1125438, -0.134405, 0.026150169, 0.062762007, -0.057753645, -0.2330021, -0.09182404, -0.18512604, -0.026390688, 0.026873179, 0.06178413, 0.00061263982, 0.13248412, 0.058796532, -0.10827804, 0.011920739, -0.002809464, 0.089144789, -0.095313765, 0.079490058, -0.11600349, -0.09421593, -0.17071739, -0.086347185, 0.017620316, -0.026528755, -0.28267491, -0.021086628, 0.035586469, -0.0071945824, 0.0044629155, -0.084893852, -0.14442517, -0.35141084, 0.041894473, -0.01774618, 0.0046942569, -0.027285879, -0.053603821, -0.099052638, 0.043014627, -0.035110138, -0.086389117, -0.028604511, -0.044483472, -0.05065465, 0.034541119, -0.21583788, -0.043484624, -0.096482411, -0.043857064, -0.058880873, 0.037856426, -0.23336726, 0.042418271, -0.28474674, -0.010145005, -0.086642742, -0.00063137675, -0.011039975, -0.01498023, -0.073518485, -0.39439195, -0.0542414, -0.22784901, 0.0047779549, 0.024928255, -0.022953074, -0.04874213, -0.1760682, -0.089038745, 0.0088041555, -0.048308451, -0.0048293504, -0.057012964, 0.028987557, 0.027972676, 0.070267342, -0.080815986, 0.068086997, 0.06593962, -0.11967193, -0.018446183, 0.024825215, 0.026885705, -0.020211356, -0.25568941, -0.22648938, -0.066338487, -0.010791071, -0.14244971, -0.13330865, 0.067677379, 0.024067914, -0.12567343, -0.10678695, -0.17939508, -0.18360555, -0.016656373, -0.025346538, -0.16496974, -0.14238048, -0.19389433, -0.15677507, -0.00071173435, -0.062428147, 0.013273583, -0.029574875, 0.077171028, 0.063238867, -0.13732153, -0.0062126541, -0.10594556, -0.017659526, 0.056431599, -0.00028880499, -0.079225443, -0.067222968, -0.106986, -0.077372715, -0.043241803, 0.055502132, -0.2857393, -0.083569244, 0.10943753, -0.0058363173, -0.14564693, -0.24528939, -0.11041225, -0.28476915, 0.040087659, 0.024234477, -0.037394043, -0.021006059, -0.05792601, -0.050333403, 0.0085220803, 0.045083515, -0.30781296, -0.046136409, 0.034937631, -0.062971734, 0.21490766, -0.29303378, 0.0058100508, 0.0045947144, 0.023084603, 0.0072398484, 0.011298444, -0.15693681, 0.22244273, -0.33305034, 0.023086177, -0.31970882, -0.0038967398, -0.073913209, -0.049672209, -0.12596782, -0.49248126, 0.08914876, -0.27803871, -0.030922718, 0.020306481, -0.012183121, 0.030549983, -0.11381437, -0.022864185, -0.060856882, -0.028007066, 0.067516699, -0.043416996, -0.10646451, 0.0073028393, -0.090062983, 0.076719396, -0.22949922, 0.1080003, -0.022144994, -0.017843934, 0.063422725, -0.12808758, -0.16990577, 0.14490007, -0.047653928, -0.039081689, -0.18053977, -0.082505524, -0.14488921, -0.0055429721, -0.074625894, -0.15370956, -0.052546993, -0.031963456, -0.20155194, 0.01475553, 0.024470109, -0.051188082, -0.086306714, -0.13810162, 0.010490716, 0.01400183, 0.0056940354, 0.07552506, 0.044348739, 0.062339991, 0.031124793, -0.092457153, 0.014829978, 0.13725111, 0.036570515, -0.013812602, 0.054937404, -0.13922557, -0.079879902, -0.10327928, 0.008110025, 0.017093625, -0.011736426, -0.10681164, -0.2117393, 0.018329004, -0.032297291, -0.18839918, -0.19023427, -0.040744334, -0.20371288, 0.017518202], "depth": 32}, {"sy": 3, "sx": 3, "w": [-0.15751214, 0.013334759, -0.012742706, -0.093676813, -0.046497565, -0.067898221, 0.020687453, 0.034812406, 0.0095509095, -0.054688759, 0.010248355, 0.14964442, -0.046822891, -0.046634968, 0.047200389, -0.015071289, -0.0042380597, 0.074574038, -0.13309357, -0.11339667, -0.18172264, -0.013532836, 0.048771702, -0.050568409, 0.035870962, -0.032846604, -0.022007622, -0.14447753, -0.21354264, 0.029784879, -0.015322754, -0.034473971, 0.036570475, -0.14963341, 0.004008403, -0.26813734, -0.073838457, 0.047413118, -0.1033278, 0.030085053, -0.14632748, -0.02886913, -0.079053245, -0.050517976, -0.096344404, -0.16971172, -0.038554959, -0.12370237, -0.082438156, -0.035672892, -0.0053620469, -0.021694466, -0.056491844, -0.097360946, -0.11337429, -0.095995285, -0.013457932, -0.27286679, -0.014103549, -0.15933581, 0.049898252, -0.17232393, -0.13412881, -0.13509189, 0.2482471, -0.23382923, -0.098244049, -0.149134, 0.046585605, -0.091664508, -0.11295902, 0.022022281, -0.1716509, -0.03878893, -0.050467569, -0.065762393, -0.10600415, -0.042783394, -0.090978049, -0.11196301, -0.11303473, -0.16249995, -0.073059574, -0.10429634, -0.39862216, -0.032020275, -0.074495204, -0.10716901, -0.0034389098, -0.3450574, 0.0098394612, -0.14042218, -0.091826633, -0.42673689, -0.094170719, -0.089108422, -0.041571025, 0.08767876, 0.011946204, -0.17713986, -0.080731846, 0.079038695, 0.057344917, 0.0076336013, -0.057617486, 0.0031989268, -0.054320753, -0.031273331, -0.047503572, -0.034223717, 0.14616787, -0.00026075364, 0.038475152, 0.0058359024, -0.033896841, -0.080973491, 0.069845952, -0.0051726443, -0.1757329, 0.010947178, -0.017012404, 0.15583625, -0.021806041, -0.032250542, -0.24033663, 0.14403033, -0.029015591, -0.021214586, 0.033259381, 0.07972417, -0.10395847, -0.20972788, -0.20351018, -0.12014286, 0.043401096, -0.2217921, 0.091968276, 0.088414669, -0.050083138, 0.04279355, -0.24983776, 0.0037757773, 0.038072661, -0.013949745, -0.042058475, -0.021247694, -0.090770423, 0.035470944, -0.25060803, 0.035155609, -0.031211616, 0.052746683, -0.1349805, -0.072111271, -0.01896124, -0.082777403, -0.084073611, -0.13141491, -0.15659434, 0.048124947, 0.0049385796, -0.090403683, 0.074787796, 0.015203102, -0.12213234, -0.085415795, 0.077079311, -0.17622355, 0.064304903, 0.024930498, -0.05612357, -0.14416881, -0.33716771, -0.052344371, 0.11146414, -0.10815977, -0.051321134, -0.0021261282, -0.2734336, 0.0675072, -0.017586017, -0.18538168, 0.042412419, -0.010715193, -0.13664031, -0.2656211, 0.021627916, 0.0019858079, -0.22533923, -0.10945211, -0.26313752, 0.0073700328, -0.1409923, -0.025331564, 0.10570201, -0.21804786, -0.24577571, 0.013561074, -0.020683883, 0.053236414, 0.11319336, 0.014699069, 0.049073722, -0.097393446, -0.0095254462, -0.097671069, 0.19905724, -0.051279198, 0.034527965, 0.10960621, -0.093761176, 0.18515824, 0.22599263, 0.015116158, -0.045288283, 0.020744884, 0.075031422, 0.032382336, -0.033064745, -0.049813867, -0.33142936, 0.19573709, 0.017511658, -0.022482542, -0.19614063, -0.018247806, -0.034282021, -0.19020461, 0.038862403, 0.10395309, 0.10574447, 0.049062569, 0.067183904, -0.17254245, 0.031748593, -0.0599613, -0.12555881, -0.0055777384, 0.18522319, -0.022036677, -0.0035463213, -0.017792825, 0.0053860773, 0.090285651, 0.10309605, 0.02932504, -0.022848947, -0.020475334, 0.033101536, 0.088431671, 0.0043510208, -0.092928499, -0.20385976, 0.16604333, -0.013217358, -0.0025401206, -0.035419926, 0.039995529, -0.082009658, 0.10460011, -0.032521803, 0.091729768, 0.044206917, 0.0023396863, 0.030203028, -0.107703, -0.043978773, -0.0051263659, -0.17937995, -0.031281367, 0.11159795, 0.069020689, -0.023518734, 0.11117205, 0.088633306, 0.037488136, -0.2207038, 0.13902421, 0.098869868, 0.063724443, 0.023287036, -0.017258078, 0.045382082, 0.069695838, -0.040287431, 0.2498771, 0.031456534, 0.023850581], "depth": 32}, {"sy": 3, "sx": 3, "w": [-0.080137014, -0.23028719, -0.18563704, -0.13464668, 0.12052258, 0.04714635, -0.25951844, 0.044873536, 0.070985101, -0.25700882, -0.025682772, -0.014224465, -0.13482748, -0.10198475, 0.077568971, -0.10793936, -0.046734698, -0.019693894, -0.12434474, 0.0038458982, 0.066324748, 0.10366853, -0.09329465, 0.01281656, -0.0093007106, -0.20152503, -0.095183857, 0.090158179, -0.13173938, 0.14714018, 0.095831104, -0.1249214, 0.095098212, -0.16254954, -0.27452621, -0.1496712, 0.080061652, 0.045008909, -0.2618044, -0.0052635716, -0.13168104, -0.26999468, -0.20954825, -0.10663956, -0.27905068, -0.1568516, -0.011359014, 0.039713375, 0.0010592029, -0.045003615, -0.040955491, 0.088265412, -0.079843432, 0.1443895, -0.14211589, 0.0084086219, -0.10166069, 0.021386288, -0.00055968261, -0.040455356, -0.14236017, -0.10787471, -0.010068073, -0.004141435, -0.12341675, 0.013160444, -0.024007561, -0.32860026, 0.019473895, 0.10996541, -0.0051825009, 0.023424977, 0.033606909, -0.13605098, -0.17107698, -0.16271888, -0.16395779, -0.14126831, 0.19151181, 0.16219865, 0.011417999, -0.057828806, -0.079745337, -0.26180455, 0.0011863381, 0.14924496, -0.10696441, 0.060219917, -0.14173432, 0.058601107, 0.1212334, -0.015670387, -0.32624987, -0.012221972, 0.014992286, 0.051126376, 0.035387881, -0.1152395, 0.048368599, 0.089574717, -0.058759373, -0.15481184, 0.11188485, -0.020543035, -0.044893425, 0.10628758, 0.09242291, -0.0040361071, 0.0043401341, -0.010997318, 0.068697974, -0.045226533, -0.090309665, -0.023180181, -0.012038107, 0.098752454, 0.042739961, -0.15350689, 0.00035295353, -0.16830674, -0.0044103959, -0.066297337, -0.0023828351, 0.038457196, -0.22603685, 0.0073297215, -0.1438151, -0.072022513, -0.11027115, -0.018424664, 0.0047315089, 0.036987878, -0.087348014, -0.18532209, 0.098642617, 0.020603945, 0.080814861, 0.070924088, 0.043996096, 0.0077417265, 0.044599518, 0.043022756, -0.023281451, -0.0076629817, -0.079640143, 0.13338652, -0.16551484, 0.092480913, 0.023817247, -0.19742009, 0.0012180301, -0.090530604, 0.043241102, -0.03898881, -0.013275556, -0.091719158, -0.18999806, 0.13908988, 0.020976106, -0.01291995, 0.048653338, 0.011766401, 0.020838279, -0.18781146, 0.047545984, -0.050770331, 0.070955798, -0.0088351071, 0.050848883, 0.058317594, 0.029879868, 0.09749119, -0.023315161, 0.1005384, 0.15365277, -0.083994716, -0.010445575, 0.003766306, -0.1374055, 0.20637272, 0.05910698, -0.025778217, -0.084925212, 0.023532309, -0.00062339968, 0.03939778, 0.0081947641, -0.10058264, -0.0060982099, 0.17122126, 0.016236197, -0.082648486, 0.040927362, 0.054209385, 0.0020578767, 0.10689263, 0.018585637, 0.022812694, 0.034335922, -0.061952945, -0.0069615762, -0.041373208, -0.028546952, 0.080926642, -0.01245697, -0.026278781, -0.07365822, -0.10635184, -0.12219255, -0.074532986, -0.031071279, -0.027197126, -0.045179162, -0.064334132, -0.06667757, -0.036226653, 0.018832469, -0.14526102, -0.0083186002, -0.061705627, -0.0061664549, -0.094248235, -0.026310761, -0.00062784727, -0.14169633, 0.064974859, -0.0085223718, -0.11246063, 0.0050507309, 0.02129489, -0.047325172, -0.001329354, -0.059944145, -0.013474415, 0.04376572, 0.026686301, 0.018317875, -0.12601058, -0.10637134, 0.0049848598, -0.0017559173, -0.044268556, -0.017810699, -0.074403122, -0.10627511, -0.068215623, -0.096209846, -0.089451596, 0.0487018, 0.060029969, -0.066426605, -0.11053239, -0.11073638, 0.047892511, -0.018510291, -0.025470909, -0.053261191, -0.083540939, -0.03823062, -0.057613231, 0.029482847, -0.034655429, -0.041270588, 0.050603952, 0.074034594, 0.014542427, -0.021179702, 0.076369122, -0.01632363, -0.074446641, -0.12922706, 0.080242857, -0.017851163, -0.079972871, -0.065856993, 0.23959573, 0.053375069, -0.034157813, 0.048894431, -0.059913274, -0.031467721, 0.039346058, -0.05976155, -0.065012634, -0.066855587, 0.15908308, 0.05949245, -0.038510248], "depth": 32}, {"sy": 3, "sx": 3, "w": [-0.24276376, 0.051781856, -0.0091699585, 0.02464593, -0.28415638, -0.019068019, 0.045672677, -0.060698017, 0.010402814, -0.0028124284, -0.05529055, 0.051852472, -0.0034226007, -0.078110889, 0.021782456, 0.05161598, -0.041860953, 0.00752059, -0.019007247, 0.26459754, 0.0033778651, 0.054983769, 0.00079368218, 0.012825627, -0.03148995, 0.09470731, -0.059527282, -0.18952146, -0.15115802, 0.050281156, 0.051501941, 0.044229265, -0.11049774, 0.0049315649, -0.0064797765, 0.034964167, -0.18856938, -0.066106632, -0.071452752, 0.016642988, 0.055028439, 0.032790881, -0.062008493, 0.043578986, -0.012475868, -0.046984296, 0.0022447964, 0.009303011, 0.035379034, 0.11745667, -0.0088174073, 0.083718672, -0.087126352, -0.043774664, -0.024480147, -0.014485519, -0.037114222, 0.025030112, -0.057775792, -0.095033839, -0.19612081, 0.057937808, 0.069070518, -0.010817358, -0.11270898, 0.047342896, 0.060793769, 0.041249271, -0.33141625, -0.03495552, 0.041010693, -0.065291658, 0.0069995197, 0.01553183, -0.0132733, 0.20225316, -0.035380058, -0.045565128, 0.058788974, 0.068297647, 0.043607153, 0.006829917, 0.10312055, -0.24144349, 0.020342615, -0.078711577, 0.18390097, -0.08817748, -0.034368664, -0.0023372604, -0.031549707, -0.11396755, -0.041707579, 0.17489535, -0.0056361072, -0.020750888, -0.1763557, 0.071244791, 0.012486191, 0.04505793, -0.06483376, -0.0085959677, 0.0048265597, 0.058323454, 0.056043305, -0.10053448, -0.045042872, 0.038468141, -0.023410501, -0.17499782, -0.037572909, 0.21574125, 0.084543206, 0.018490978, -0.091548137, 0.12273615, 0.11045525, 0.00023127699, -0.024182618, 0.0055332421, -0.038091358, 0.13983007, -0.016122112, -0.25286177, -0.17118989, 0.24249627, -0.036421418, -0.064026728, -0.030264603, 0.024469133, -0.02144062, 0.076827027, -0.32269517, 0.0081220269, -0.056947954, -0.018892044, 0.056176621, -0.10222202, -0.06925761, 0.055818494, -0.14335319, -0.17809184, 0.043426607, 0.0010086991, 0.0436984, 0.071371146, -0.098599546, -0.034273464, 0.015828546, 0.073376417, -0.10809275, -0.050481096, 0.018323386, 0.041558884, 0.024235772, -0.13400753, -0.14516774, 0.12978424, -0.015629534, -0.056190807, -0.085825689, 0.0052123666, -0.13256744, 0.036824416, -0.077842332, -0.0049021202, -0.037280459, -0.0086922646, 0.0071004042, 0.032119986, -0.029751554, 0.0015097036, 0.021504667, -0.097136118, 0.20844124, 0.079484299, -0.024592297, 0.012769462, 0.036508232, 0.25127375, 0.014767815, 0.027391952, -0.039565444, -0.12390298, -0.020081531, 0.10608788, 0.048902679, -0.33572114, -0.057282481, 0.035445392, 0.08083488, 0.028407371, -0.00085249118, -0.034274142, -0.0060540731, -0.010464323, -0.10128541, -0.056917872, 0.016450183, -0.1388907, 0.058264129, -0.018696189, -0.019283753, 0.014801963, 0.01075286, 0.0030450088, 0.047789466, 0.13963205, 0.004258187, 0.053129248, -0.12225502, 0.15480331, -0.015885631, 0.036385357, -0.077267192, -0.026090082, -0.025335792, 0.1489297, -0.13946611, -0.15318599, -0.16226293, 0.11664823, -0.006881733, -0.0069002355, -0.051467955, 0.091415748, -0.021617383, -0.13528287, -0.14787591, -0.14806063, 0.011173923, -0.021006342, 0.078780361, 0.023466876, 0.06312979, -0.038865048, 0.046867687, -0.053761706, -0.067894883, 0.05936658, 0.020156652, 0.11107121, 0.0027866473, 0.043566883, -0.11785737, 0.067369565, -0.059721738, -0.058522351, -0.016628936, 0.068911433, 0.0041373121, -0.30043536, -0.1668411, 0.011942081, 0.053025138, -0.056211129, -0.06282153, 0.11433928, -0.021231739, -0.0018398794, -0.11962637, -0.11522297, 0.028178373, -0.051701836, 0.049602408, 0.028581904, 0.074928232, -0.018322563, -0.001809279, -0.10066555, 0.083928317, 0.11271365, 0.013281597, -0.027419785, 0.030198995, -0.0026190723, 0.10209819, -0.059325803, -0.0005083651, -0.14007784, 0.018196877, 0.11305616, -0.040686861, -0.40816644, 0.058457617, 0.031428695, -0.071601577, -0.056942232], "depth": 32}, {"sy": 3, "sx": 3, "w": [0.15599322, 0.049733307, -0.027095556, -0.091712303, 0.14633515, -0.25956169, -0.0085742157, -0.0020457401, -0.070128269, -0.0051780213, 0.076230332, -0.026608173, -0.022077318, 0.082896791, 0.023507873, -0.047457755, -0.04462567, 0.028522337, -0.039687712, -0.020066801, -0.0068763723, -0.05188778, -0.18433613, -0.12094104, -0.022563405, -0.039873656, -0.013468387, 0.022288706, 0.099780194, -0.084169403, -0.49183118, -0.061462931, 0.025132274, -0.049543176, -0.014947097, -0.091124855, 0.1453997, -0.22830541, -0.037741955, -0.0085088201, -0.021162579, 0.072018541, 0.034236878, -0.021557759, 0.083559118, 0.21228854, -0.022395872, -0.0326083, -0.053519767, 0.11272767, 0.040589746, 0.062059637, -0.053388659, -0.033555865, -0.072576389, -0.21137564, -0.037230816, -0.077923782, 0.057438191, 0.023793446, 0.018616999, -0.041367136, -0.2725499, -0.041493982, -0.046913575, 0.11733474, -0.032087415, -0.068942621, -0.030257983, -0.10271981, 0.028268712, 0.016732434, -0.053291727, -0.040462226, 0.012198094, -0.018566079, 0.051765256, 0.14823315, -0.018779133, -0.052754264, -0.021684567, -0.0080018789, -0.12740795, 0.14416024, 0.10172521, -0.098909318, -0.12972844, -0.14397229, 0.054548111, -0.059561778, 0.012488469, 0.34003675, -0.24913675, 0.17431822, -0.12915014, -0.036738973, 0.18184122, -0.079321809, -0.056069199, 0.15454385, -0.01700823, 0.080092967, 0.068770252, 0.043993104, -0.13051145, 0.028758144, 0.057619929, -0.075820521, 0.01294647, 0.043563079, -0.066066593, -0.022287875, 0.030206503, -0.12722836, 0.0076872259, 0.019750988, -0.24405634, -0.0092626838, -0.03664884, -0.052305039, -0.06240708, -0.073719583, 0.025433104, -0.031337999, 0.012199488, -0.19801839, -0.27601141, 0.063501798, 0.053534176, -0.19339594, -0.003685148, -0.020917308, -0.0061327121, -0.046017997, -0.10347691, 0.019973708, -0.18447399, 0.078024365, 0.013416778, -0.10144097, 0.0077147647, 0.15021479, -0.14362568, -0.019849066, -0.015172728, -0.042344686, -0.17880549, 0.056040887, -0.096665658, -0.047393925, -0.28735864, -0.1699903, -0.016157918, -0.1059799, 0.041383468, -0.076330736, -0.15522125, -0.33568186, -0.32917058, -0.034118261, 0.0025177284, -0.093142152, -0.032231554, -0.012506013, -0.084022991, -0.057622433, -0.011233028, 0.072662525, -0.087246925, 0.11902935, 0.056167252, -0.081608519, 0.057513643, -0.057218391, -0.071581431, -0.049142972, -0.013875281, -0.14420849, -0.12434885, 0.14047599, 0.015223001, 0.026843704, -0.17920814, -0.15846403, 0.021773217, 0.082893275, 0.0091877617, 0.043042235, -0.10226336, -0.33373579, -0.24737041, 0.045465458, -0.048264872, -0.00094438455, 0.029545968, 0.12996829, 0.057520255, 0.020131072, 0.14230976, -0.0009469621, -0.10917655, 0.057133671, 5.2363015e-05, -0.22847934, 0.011414759, -0.076445743, -0.030370066, -0.057737991, 0.0073390561, 0.0032437986, 0.058954135, 0.063180797, -0.18941069, -0.033576157, 0.049258482, 0.060304839, -0.025194189, -0.029720642, 0.0480536, 0.041681025, -0.07804694, -0.13765873, -0.028195208, 0.078665428, -0.043113872, -0.28424338, -0.050082784, -0.09995193, 0.0556239, -0.070207886, -0.016039405, 0.02695295, -0.1040727, 0.048753127, -0.0097718881, -0.17617965, -0.013932655, -0.06698221, -0.10325314, -0.12758555, -0.043356806, -0.040882405, -0.076211549, 0.065548792, -0.2243126, -0.024563637, -0.13176548, -0.11382566, 0.011318125, -0.11110027, 0.00013316792, 0.048223808, -0.038087975, -0.26669884, -0.28883749, -0.078617699, 0.041452017, -0.26034704, -0.005157846, -0.056295224, 0.034951866, -0.13008741, -0.077651992, 0.06303031, -0.15627986, 0.032883614, 0.068102054, -0.22951962, 0.011732918, -0.048709355, -0.028431024, -0.038153216, -0.05291912, -0.1001492, -0.33025289, -0.15885684, -0.12639537, -0.092654251, -0.31000292, -0.20280108, 0.047536187, -0.10088738, -0.0095958961, -0.034451067, 0.064181931, -0.025449011, -0.29839131, -0.068893388], "depth": 32}, {"sy": 3, "sx": 3, "w": [-0.17024127, -0.068971887, -0.0063563795, -0.0031500512, -0.047969878, 0.040528145, -0.017090032, -0.1236432, 0.0083650919, -0.076845184, -0.087428212, -0.07548549, 0.10989352, -0.12321196, 0.10532144, -0.10921984, -0.09234263, 0.065898098, -0.014333341, 0.078457758, -0.073140554, 0.063062355, -0.11921716, 0.045466669, -0.025248975, -0.016402582, -0.00075491046, 0.6518538, -0.074290469, -0.01807785, 0.010923691, -0.03077572, -0.16426642, 0.10128534, 0.044507351, 0.018948874, -0.28109354, 0.088637225, 0.027868403, -0.11104298, 0.066874541, -0.069119513, -0.04727488, 0.045264389, -0.00057616783, -0.14006798, 0.024503943, 0.029729014, 0.018196499, -0.032375351, -0.0010694276, -0.028836872, -0.086229093, -0.0048636612, -0.029813979, 0.041550186, 0.0034343642, 0.020111, -0.10407058, 0.19397229, -0.12027138, -0.041817792, 0.014951858, -0.041034531, -0.13782068, 0.0042696842, 0.056499328, 0.045497369, 0.024673695, 0.0040246723, 0.065039694, -0.13838126, 0.097478129, 0.012287218, 0.024807677, -0.0050141611, 0.02095695, -0.10391562, 0.1413779, 0.050297253, 0.012408922, 0.078146815, -0.069072723, -0.077196456, -0.10437108, 0.041927323, 0.088121973, 0.047636777, -0.0030819597, 0.082333729, -0.30770817, -0.24933787, -0.12467879, 0.015582971, -0.021526473, 0.014920822, -0.055388484, -0.16994886, 0.028084133, -0.24731378, -0.069126427, 0.020614784, -0.029787298, 0.043314237, -0.14186151, -0.39253163, -0.22659247, -0.21126696, -0.074883133, 0.026139019, -0.27851284, -0.14279589, -0.016577687, 0.033209436, 0.075183406, -0.0062688468, 0.061302837, -0.00011440211, 0.096922427, 0.044836923, 0.00584991, 0.071429908, -0.055243384, 0.510176, -0.12969252, -0.14883959, 0.048370045, -0.0020374458, -0.089220092, -0.15036319, -6.6111934e-05, -0.093317285, 0.023691829, 0.043709446, -0.072576284, -0.064589821, -0.18016124, -0.4589231, -0.31829152, -0.048293751, -0.12802826, -0.11200351, -0.1785714, -0.013937401, 0.039012983, -0.026466321, -0.11763846, -0.3819775, -0.061295759, -0.0027592087, -0.10901846, -0.024258088, -0.0011127611, -0.0090878913, -0.028650874, 0.65068489, -0.0070589553, -0.097215757, 0.010479527, -0.02114936, -0.11873942, -0.076339982, -0.03794466, -0.12690108, -0.0010189479, -0.046854615, 0.042080078, -0.20075428, -0.15143447, -0.12870862, -0.084157459, 0.057473738, -0.28616777, -0.097382098, -0.050616857, 0.061744127, 0.021806195, 0.020713123, -0.0062457016, -0.22705892, -0.0089857345, 0.081787482, 0.15530112, 0.01483591, -0.043362603, 0.030360648, -0.18474479, 0.26470718, -0.22743948, -0.14099406, 0.1413063, 0.011143504, -0.096201956, -0.087188452, 0.072384313, -0.15131684, -0.12710021, 0.030182576, 0.0023367431, -0.14053668, -0.11811537, -0.21011694, -0.22934537, -0.065440275, -0.11097468, -0.091122724, -0.092020318, -0.024829712, 0.018963117, -0.050826065, 0.13415731, -0.015637573, 0.062172901, 0.010543515, 0.043164894, 0.075082585, -0.094077177, 0.038127605, 0.10408979, 0.51140493, -0.17074436, -0.15952651, 0.028086064, 0.02227274, -0.093556076, -0.032967143, 0.019826977, 0.026070751, 0.0013445695, 0.011179472, 0.043850854, -0.22490859, -0.077456109, -0.41337466, -0.34885558, -0.20074481, -0.16865218, -0.063925095, -0.25340468, 0.024022857, -0.011420871, 0.040936723, 0.096947163, 0.13712856, 0.0610893, 0.038899221, -0.052679162, 0.082061879, -0.059721854, -0.030097337, -0.14418776, 0.59283483, 0.021054814, -0.20730914, -0.02689351, 0.055656385, -0.22296867, -0.058653519, -0.0010962915, 0.22853677, -0.032279339, 0.07243301, 0.013049209, -0.18084945, 0.026913639, -0.15194499, -0.031264015, 0.12171583, -0.042301871, -0.070454963, -0.1958864, 0.045754153, -0.0059680687, -0.061264478, 0.15697734, 0.12945628, -0.10053415, -0.022598485, 0.16081731, -0.00044300122, -0.035782687, -0.032776695, -0.29039121, 0.36204448, -0.031641096, -0.17945737, 0.10109994, 0.039051708], "depth": 32}, {"sy": 3, "sx": 3, "w": [-0.15106574, -0.28159368, -0.028509244, 0.055444982, -0.053325325, 0.0046317391, 0.031976275, -0.037924934, -0.019771548, 0.052872662, 0.021538654, -0.36904928, -0.078771718, -0.051591858, -0.12901102, -0.019180017, -0.094636604, -0.1087832, 0.024874272, 0.17998981, -0.17774585, 0.018865071, -0.24923301, -0.058879014, 0.032822974, -0.21474266, -0.0167238, -0.00257293, -0.087154821, -0.04273919, -0.33922026, -0.11543874, -0.072660647, 0.0372575, 0.013080891, -0.09255372, -0.13115177, -0.063586228, 0.010406394, -0.02230213, 0.055495936, 0.03283393, -0.032800309, -0.24716432, -0.029470725, -0.041290965, -0.00088858337, -0.020861933, -0.065696873, 0.018133394, 0.11152639, 0.13540046, -0.067181818, 0.096605502, -0.19643688, -0.057369951, -0.0044026519, -0.12638399, 0.015729401, -0.011819333, -0.13275923, -0.08018481, -0.27865499, -0.047888383, -0.14131813, 0.10139196, 0.04776103, -0.24661529, 0.049458511, -0.001564409, 0.096157536, 0.022180852, 0.089678057, 0.088226691, 0.057185017, -0.33476132, 0.074796006, 0.0099273259, 0.079110958, 0.076611839, -0.04958621, -0.050666038, -0.16942517, 0.086472601, -0.068756215, -0.036144581, -0.12683848, -0.01292146, 0.063658223, 0.18216357, 0.0090844547, -0.20478721, 0.12363079, -0.020950733, -0.47821838, 0.045861885, 0.0027251078, -0.055063155, 0.019250087, -0.0045041484, 0.16672489, -0.056601979, -0.017329279, 0.048353724, -0.076893158, -0.024736436, 0.011188853, -0.16581266, -0.2224054, 0.031210549, -0.1651461, -0.089070894, -0.09182667, -0.10982874, 0.13953231, -0.0076139686, -0.10450871, -0.021087592, -0.12401441, 0.060330573, 0.01600524, -0.14708331, 0.049682096, -0.011308495, 0.052538179, -0.11300293, -0.36167654, 0.089636639, -0.10397731, -0.0662231, 0.029939266, -0.20660655, 0.15811135, 0.04203552, 0.03664194, 0.055054653, -0.0089447033, -0.023375101, 0.01412103, -0.12529378, -0.22070187, -0.0097985771, -0.1409971, -0.047690231, -0.034750871, -0.030967629, -0.05336085, 0.010134913, -0.02147807, 0.013962427, -0.26988888, 0.018262567, 0.024406204, -0.2624878, 0.05395529, -0.00078339013, 0.049431261, -0.19661772, -0.20528959, -0.056048092, -0.10162403, 0.071423277, 0.0012080257, -0.088535532, -0.21798195, 0.003216347, -0.020264313, 0.046796877, -0.1725878, 0.091911525, -0.040418044, -0.15815219, -0.15253399, -0.023549154, -0.13277693, 0.031389814, 0.014923541, 0.024057962, -0.018566653, -0.040245466, -0.23327909, 0.0043087522, -0.45760217, 0.050054159, -0.027938375, 0.073305935, -0.016290905, 0.024934795, -0.042292677, -0.24275959, -0.26608729, 0.025884159, -0.11551155, -0.082427144, -0.0017471472, -0.00040280778, 0.012690243, -0.00038245099, -0.010453776, 0.026346821, 0.0058877608, 0.0019286767, -0.043054603, 0.0054875882, -0.16425361, 0.032920092, -0.0931281, 0.0069524348, -0.13102023, -0.15807627, 0.057820085, -0.16818553, -0.018121066, -0.030378468, -0.18745847, 0.020774394, 0.048490509, -0.14279521, 0.036089279, 0.031380352, -0.076848306, -0.070536904, -0.34157538, -0.026435219, -0.17981982, 0.059177157, -0.020197593, -0.17433009, -0.024817746, -0.0087658986, -0.049116805, 0.029198399, -0.11530145, -0.088176139, 0.036251176, 0.039492831, -0.16249308, -0.11460115, -0.035441894, 0.021121209, -0.044792432, -0.04147055, 0.046586264, 0.014656069, -0.12034297, -0.041551784, -0.41661876, -0.021251803, 0.064429723, -0.13769947, -0.03915887, -0.10996307, -0.035260782, -0.1972592, -0.13887163, 0.047599349, -0.023598272, 0.051049396, 0.023134826, 0.095829666, 0.082804918, -0.041676581, 0.0066336812, 0.0087486692, -0.16316794, 0.055710569, -0.023616822, 0.030104546, -0.1744055, -0.076273091, -0.080130368, -0.074208461, -0.053120021, -0.124495, -0.101914, -0.011718444, -0.30187234, 0.035141997, -0.31526566, 0.037121009, -0.030088691, 0.087799042, 0.056524999, -0.13547078, 0.10318534, 0.01756184, -0.36519864, 0.021403715], "depth": 32}, {"sy": 3, "sx": 3, "w": [-0.057137027, -0.069986962, -0.25037462, -0.064694345, 0.097902082, 0.10624184, -0.16224787, 0.0527898, 0.05046102, 0.080817454, -0.0060695908, 0.034311734, 0.083023362, -0.0096631935, 0.050521322, -0.0043365047, 0.055866063, 0.030249491, -0.018240465, 0.074421376, -0.0087333685, 0.044638835, 0.08631549, 0.01104997, -0.16309738, 0.15090053, -0.064483061, -0.053055532, 0.028897129, -0.10720561, 0.085162446, 0.071195133, 0.1206698, -0.14913133, -0.18200299, -0.12967886, 0.13097514, 0.025712471, -0.055069104, 0.023979055, -0.12175547, -0.046226472, -0.020668026, -0.16111788, 0.017098181, -0.086800024, 0.058769383, 0.055365242, -0.04838964, -0.039814878, -0.10064393, 0.14088856, -0.1653695, 0.044795752, -0.0016380562, -0.012073758, -0.11257253, 0.077035412, 0.026442057, 0.0028793467, 0.11697672, -0.16434462, 0.034317274, -0.0088756448, 0.11519223, -0.021938773, -0.082998, -0.059053216, -0.18857333, -0.064048871, -0.042586036, 0.050934967, -0.14125445, 0.081888713, 0.093979761, -0.11140011, 0.060920972, 0.030279044, -0.097599901, -1.6940812e-05, 0.0071764211, -0.011315092, -0.074767783, 0.032856498, -0.12550271, -0.065902136, -0.085759893, 0.011663219, -0.073469818, 0.026257861, 0.0082213441, -0.13941644, 0.03501929, -0.21056053, -0.14301583, 0.0083030043, 0.046238672, -0.0047332123, -0.18877205, -0.14909047, -0.0030823424, -0.050118752, 0.062595367, -0.16685508, -0.046864636, -0.05252846, 0.092851587, -0.040520497, 0.11120489, -0.043295454, -0.016169311, 0.056860752, 0.020775009, -0.024676416, 0.074735738, 0.10820354, -0.27746132, -0.053470969, -0.037355594, -0.076268695, -0.19837914, 0.13232809, 0.012371834, 0.00050691934, -0.02638617, -0.12582728, -0.081953585, 0.050926384, 0.0029958077, 0.014206521, -0.12688017, -0.072448425, -0.11146054, 0.037617594, 0.032723513, -0.055709008, -0.03529828, 0.060074113, 0.08751791, -0.10237103, -0.05350719, -0.11576118, 0.039596297, -0.018805604, 0.055168223, 0.087368675, -0.20113847, -0.017152572, -0.13218634, -0.017616455, 0.038621914, -0.044610601, -0.21279399, 0.019426357, -0.080241174, -0.1436395, -0.015644999, 0.082564384, 0.043591842, -0.040519714, -0.11846525, 0.036373015, -0.085177436, -0.078247763, 0.044943586, -0.037421368, -0.06756153, -0.078024596, -0.083432741, 0.04386048, 0.039633799, -0.13736412, 0.015087263, -0.029570652, -0.016458359, -0.0045614755, 0.0084962202, 0.11097392, -0.089907646, 0.0059558731, -0.22750673, 0.088344328, -0.022977019, -0.015237141, -0.15305331, 0.031364914, -0.015313098, -0.086249627, -0.014134429, -0.19897977, 0.036921665, -0.055080861, -0.052313324, -0.12101748, -0.08172971, -0.010685668, -0.071501717, -0.051873729, 0.036410354, -0.076887637, -0.0618622, 0.067871548, -0.086555563, -0.01292284, -0.12449665, -0.069568761, -0.093522564, -0.10719673, 0.046219651, -0.11183781, -0.0054784846, -0.07871832, -0.12248588, -0.009741812, -0.098413788, -0.13474576, -0.24034502, -0.020454837, -0.23319943, 0.11169942, 0.074636213, -0.32963797, -0.036514103, -3.6819885e-05, 0.069266051, -0.15264542, -0.095230527, -0.067433424, 0.020933419, -0.091415718, -0.042811304, -0.14807002, -0.19098146, -0.047442913, 0.012067036, -0.095719382, -0.22706635, 0.092828631, -0.035649408, -0.020033257, 0.019299356, -0.052940711, -0.086662218, -0.030929364, -0.20644869, -0.17082997, -0.059326008, -0.019006863, -0.14496863, 0.09146563, -0.03829271, -0.15618506, -0.064465299, -0.2766104, -0.022316519, -0.075387366, -0.083947442, -0.15116385, -0.1289057, -0.044222727, 0.18881735, -0.17952028, -0.060397808, -0.068137497, -0.16029391, 0.0355804, 0.028174428, -0.020485122, -0.19961858, -0.051120862, 0.043270703, -0.016233927, 0.014423396, -0.12090946, -0.24744694, -0.022677781, -0.10895818, -0.15903872, 0.0019868668, -0.17107265, -0.10280499, 0.049452305, -0.068904743, -0.0035518671, 0.18510038, -0.24584979, -0.12415741, -0.019394206], "depth": 32}, {"sy": 3, "sx": 3, "w": [-0.18357012, 0.0038708032, 0.0029748725, -0.0035779425, -0.16116086, 0.036575723, -0.014159895, -0.044458274, -0.088298351, 0.017456526, 0.023712682, 0.044295583, -0.20798568, -0.081830502, 0.13231224, -0.038509704, 0.052468479, 0.0037001739, 0.0022029832, -0.079087704, 0.15727168, 0.052899167, 0.04112903, 0.016850246, -0.13473499, -0.031309865, 0.11128749, 0.12712327, -0.025317688, 0.067400344, 0.021483285, -0.043708958, -0.15125799, -0.031473719, -0.095236383, -0.14872424, -0.20515293, 0.11032554, -0.078301936, 0.026006553, 0.05383227, -0.05844878, -0.12492277, -0.17526318, -0.38866699, -0.11517223, -0.036057401, 0.099005237, 3.2094147e-05, 0.039493032, -0.098476134, -0.18931372, 0.0038958562, -0.057480134, 0.0056777238, 0.08331798, -0.034574538, 0.080417842, 0.044872519, -0.0082965437, -0.1896897, -0.084892347, 0.013863439, 0.080148987, -0.14094049, 0.0042512803, 0.01292327, -0.062218752, -0.10008121, 0.014036868, -0.038431685, -0.080592453, 0.0081763361, -0.10225293, -0.11838288, -0.076737829, -0.22092947, -0.11287293, 0.0048491107, 0.0016185603, 0.097268522, 0.12632754, 0.097153343, -0.13529179, 0.2073523, 0.092200503, 0.015253271, 0.013607835, -0.087041438, -0.0060161799, 0.0011096369, 0.052425712, 0.067488275, 0.068883866, -0.01563759, 0.048393629, -0.25498655, -0.13185053, 0.055539731, 0.035379827, -0.025777355, 0.0016663445, 0.068217643, -0.036849536, -0.10978448, 0.033224206, 0.022915768, -0.051838852, -0.21815187, -0.15579326, -0.075014807, 0.08778587, 0.0022668571, -0.086901866, -0.073582344, -0.20741251, 0.074500911, 0.0023325789, 0.036626857, 0.033896029, -0.16244456, -0.063109167, -0.0038564717, 0.092607677, 0.016537087, -0.029647894, -0.059144188, -0.040835433, -0.1450735, -0.21766499, -0.023018703, -0.10778262, 0.11253496, 0.0044144695, 0.026459087, 0.028590662, -0.012588507, -0.07634294, -0.006749732, -0.11101494, -0.4907214, -0.25677243, -0.12359469, 0.092725895, -0.14731003, 0.021552941, -0.028399415, -0.1773928, 0.0091298362, 0.065283068, 0.020433998, -0.045278315, 0.056940876, -0.043364156, -0.063738421, -0.044399854, -0.23577444, -0.043091983, 0.042229101, 0.038205206, -0.28671083, -0.094677061, -0.00063106359, -0.16915856, -0.095093518, 0.00054692157, -0.04614846, 0.042102307, -0.017075373, 0.052350376, -0.049719639, -0.12243742, -0.29846972, -0.37924501, 0.026323056, -0.1159686, 0.021070356, -0.015086412, -0.012863172, -0.017802307, 0.02909492, -0.0063966368, 0.14505577, 0.0087483758, -0.066362098, 0.031674776, -0.084197737, -0.067407139, -0.04385639, 0.020220434, -0.037848677, -0.040926334, -0.31853196, -0.26603365, -0.031502593, 0.036851034, -0.031004498, 0.020298045, 0.0047586611, -0.002758676, -0.022102593, -0.039115816, -0.086873785, 0.05115471, -0.30666769, -0.25814143, -0.14279789, 0.015343425, -0.029171104, -0.11299708, 0.026904166, -0.063680761, -0.038771141, 0.070759155, 0.15003292, 0.046840865, -0.11896143, -0.03991827, 0.00057687663, 0.17021945, -0.041467361, 0.077117845, -0.015435425, 0.074175686, -0.20027351, -0.082146041, 0.090550326, 0.35165969, -0.10266227, -0.028579514, 0.073341683, -0.10687139, 0.017005866, -0.059121437, -0.095396399, 0.12422301, -0.38490963, -0.33909291, -0.15007935, 0.077526145, -0.037237428, -0.11931819, 0.0081024375, -0.19562006, -0.12222257, -0.035312366, -0.17185371, 0.092079617, -0.039882474, -0.13499269, -0.095981888, 0.064157493, -0.082051769, 0.13479827, -0.050081909, 0.12789668, -0.30663839, -0.16528583, -0.086714029, 0.10574441, -0.0069083394, 0.06489747, 0.0021923955, -0.091373064, -0.04347587, -0.031695381, 0.041295733, -0.12998113, -0.34299606, -0.26519072, -0.16520762, 0.078115113, 0.00067112205, -0.052504823, -0.054304976, -0.078763269, -0.095161445, -0.056696072, 0.034226924, 0.018797969, -0.1114445, 0.0020179339, -0.10310637, -0.18352614, -0.11623886, 0.0059514116, -0.042354401, 0.10783674], "depth": 32}, {"sy": 3, "sx": 3, "w": [0.10351659, -0.12097958, -0.073443927, 0.068929255, 0.034971237, -0.041768637, -0.037348032, -0.13788237, -0.038700435, -0.026472244, -0.084388614, -0.017921397, -0.09441831, 0.097148158, 0.020996444, -0.062483694, -0.026618831, 0.072348803, -0.24947548, 0.14612359, -0.26101136, -0.039110798, -0.074846894, 0.035265874, -0.094457716, -0.012909859, 0.033780806, 0.096243739, 0.057393633, -0.060416583, -0.084989935, 0.027261402, -0.017183496, -0.1988939, -0.074685171, -0.0015466096, -0.090925507, -0.027364351, -0.08396896, -0.16514361, -0.1102647, -0.098654844, -0.1655792, -0.0039905072, -0.36481166, 0.0083105955, -0.16229965, -0.088990554, 0.013648296, 0.013930829, -0.20260121, 0.077318132, -0.15175046, -0.06795425, -0.13595562, 0.056561176, -0.25843632, -0.011876225, -0.10289637, -0.0051014647, 0.036401782, -0.17476349, -0.10845529, 0.057097171, -0.054701097, -0.35822895, -0.011656952, -0.045022912, -0.13895668, -0.013937222, -0.0050850841, -0.13372579, -0.07996475, -0.028654097, -0.037805811, -0.19889773, -0.41968042, 0.11587326, -0.089234024, 0.078963213, -0.0093094716, -0.042374089, -0.14413348, 0.08804974, -0.014354082, -0.079577975, 0.086606301, -0.010153537, -0.19107465, -0.011257504, -0.15858227, 0.036773998, -0.019152317, -0.096289776, 0.0064264555, 0.043309871, 0.0061465749, -0.22798976, 0.084104121, -0.14659949, 0.11490768, 0.09622559, -0.054905139, 0.097880684, 0.04968128, -0.072620869, 0.098607957, -0.1962042, 0.056187596, -0.036177527, 0.12704478, 0.010537086, -0.05285747, -0.13933669, -0.196528, 0.17929211, 0.097846724, -0.040044807, -0.15734117, -0.12012868, 0.040974859, -0.084141195, -0.034259692, -0.1163699, 0.031166233, -0.034885935, 0.017775621, -0.21402116, 0.0064813993, -0.17246658, -0.20358016, -0.050281044, -0.0084035546, 0.035006542, -0.16581871, 0.047662742, -0.20246424, -0.069311738, -0.022123123, -0.054556608, 0.038328025, -0.24503346, 0.027765624, -0.03140441, -0.11449116, -0.077275038, -0.1629318, 0.044175405, -0.051798563, 0.046537183, -0.17841101, -0.10910159, 0.051248401, -0.050617602, 0.013152692, -0.12447123, -0.011768898, -0.15821809, -0.02392639, -0.10929776, -0.022116844, -0.15769424, -0.17282267, -0.082277007, -0.10184049, -0.028372761, -0.18251681, 0.044809103, -0.14483029, -0.054303531, -0.11055887, 0.058391862, 0.032308798, -0.025510566, -0.079735488, -0.033490047, -0.042836428, -0.046480518, -0.30766624, 0.063361377, -0.077737242, 0.087281935, -0.13101108, -0.038372416, -0.041045763, -0.021355467, 0.11457925, -0.038474184, 0.094815865, -0.055716414, -0.069671161, 0.010917305, 0.0089825764, -0.040251467, 0.073813193, -0.22287534, -0.14818995, -0.1029136, 0.099920213, -0.049401011, 0.078213692, 0.065654673, -0.016253578, -0.16749361, 0.038663153, 0.02429989, -0.041659568, -0.0049085608, -0.14713709, -0.32502985, 0.033031281, -0.010727838, 0.040715382, 0.029262656, -0.071837634, -0.082510829, -0.02669242, -0.032454371, 0.018226372, -0.057577863, 0.00073412538, 0.030444875, 0.050554711, 0.069555365, -0.030992584, 0.0050976914, 0.095556773, -0.18539985, -0.046577111, -0.26043025, 0.15514743, 0.02395561, 0.036181521, 0.076144226, 0.044081166, -0.17750464, 0.11110463, 0.015124728, 0.060330003, -0.16008648, -0.023826698, -0.28190419, 0.0026166325, -0.13297549, 0.027941659, -0.062188052, 0.07028468, -0.089810155, 0.053045649, -0.047409348, -0.034826577, 0.016706198, -0.10712273, 0.13231951, -0.059336215, -0.023596561, -0.10918573, 0.046796147, 0.00099172757, -0.18783669, -0.055247337, -0.10568742, 0.015144232, -0.0581741, 0.24024585, 0.037020151, 0.08914119, -0.16643532, 0.05823531, -0.13127969, 0.022467459, -0.039468814, 0.048531551, -0.20233884, 0.029111948, -0.18402387, 0.050926078, -0.14257285, 0.0092962272, -0.11864, 0.032822698, -0.045381673, -0.048808035, -0.089621209, -0.057658512, 0.098548964, -0.031499758, 0.0089861648], "depth": 32}, {"sy": 3, "sx": 3, "w": [-0.16054769, -0.030731043, 0.085313521, 0.1276274, 0.17669776, 0.09409909, -0.03907378, -0.0081081884, -0.069168694, 0.013156498, -0.10097337, 0.0063625961, 0.034123112, -0.016595734, -0.15123259, -0.066009358, -0.098047495, -0.028917344, -0.27625039, -0.10318132, 0.069668598, 0.095614552, -0.16048034, -0.062787659, -0.045133155, -0.15324087, 0.089810602, 0.26541373, -0.03971738, -0.014939569, -0.023106357, -0.18840356, -0.0084922202, -0.17240365, -0.063903607, 0.0072720326, 0.13018738, -0.038299311, 0.10102361, 0.0056927502, 0.1162181, 0.016009286, 0.050602473, -0.0659246, -0.033085752, -0.047579721, -0.13513397, 0.041971345, -0.32473925, -0.084541731, 0.11376251, 0.096700862, -0.19148865, -0.05215238, -0.29786351, 0.030693499, 0.046965092, -0.026727423, -0.43325457, 0.17569746, -0.090195194, 0.097355366, -0.045728292, 0.052427866, 0.074330643, -0.0070989709, -0.025786787, 0.19305195, 0.028072782, -0.070494831, -0.16445827, -0.005753627, -0.030277114, 0.0061916243, 0.012179546, -0.072287753, 0.071284138, 0.008593319, -0.00053018302, -0.068301819, -0.0037131978, -0.10520307, -0.043020606, 0.20838295, 0.00095936673, 0.12157734, -0.098221481, 0.025119876, -0.076929748, -0.047577716, 0.089511387, 0.16699897, -0.0063261017, 0.06734845, -0.24441998, -0.095797323, -0.114249, -0.13479562, -0.011142034, -0.17529978, 0.059659228, 0.02196716, -0.034258191, 0.00061271666, -0.19452667, -0.071660511, -0.20750454, -0.24756275, -0.027500913, -0.20231317, -0.26683876, -0.20575759, -0.10679176, -0.026631381, -0.050591655, 0.018463079, 0.04711527, 0.013340635, -0.52901083, 0.00046966763, 0.0050571836, -0.27352262, 0.020552266, 0.24110866, -0.21359441, -0.38957989, 0.025200455, -0.05251164, 0.023153909, -0.26005149, 0.038565386, 0.015749056, 0.026393404, -0.15060297, -0.0082192337, -0.012057758, 0.090137072, -0.070037976, -0.033085506, -0.48797551, -0.20168775, -0.08628621, -0.42699811, -0.093986414, -0.41171145, -0.14599715, -0.25307187, 0.098443881, -0.39479131, 0.027741587, -0.18567315, 0.068262503, 0.095485389, -0.10514087, -0.091284409, 0.36242765, -0.14070123, -0.0014522135, -0.13772659, 0.076186337, 0.0034129748, -0.32565722, -0.2197554, 0.055950187, -0.00075510284, -0.032083582, -0.10617314, -0.036137521, -0.20763107, 0.042282779, 0.072479621, -0.45508301, -0.026150942, -0.050717857, -0.13514084, -0.078572303, 0.025857972, -0.053133085, -0.22888371, 0.13097966, 0.042652018, -0.088897012, -0.26927689, -0.27822405, -0.19000366, -0.018301751, 0.0077737314, 0.074809901, -0.138492, -0.039497849, -0.61332893, -0.077546813, -0.13605703, -0.137227, -0.011809252, -0.070621476, -0.034580749, 0.011088721, 0.044476204, 0.05987855, 0.066567048, -0.086899795, -0.011671284, -0.2040709, -0.00013753255, -0.15184577, -0.097800307, -0.13882512, -0.030735034, 0.019696629, -0.081299208, -0.084734365, 0.039381765, -0.068167225, -0.03307702, 0.043446399, -0.015011639, -0.17179325, -0.0039817607, 0.24128528, -0.012806915, -0.015523787, -0.0060917824, 0.030820545, -0.069235258, -0.15033495, 0.10031247, -0.17466639, 0.087653823, -0.069705978, 0.01856087, -0.13636909, -0.058782075, -0.078639679, -0.14217617, -0.35089594, -0.058657661, -0.090239614, -0.27559611, -0.16322598, -0.037673526, -0.25685143, -0.071039282, 0.024435958, -0.50554764, 0.035964195, -0.014844686, 0.012540104, 0.081434622, -0.29814887, 0.03276284, 0.14472225, -0.014125929, -0.023788285, -0.21177338, -0.026885392, -0.019720903, -0.053067811, -0.073245749, -0.15973195, 0.13475369, 0.056251369, 0.1255208, 0.073381819, -0.022442892, 0.040099088, 0.062412743, -0.050048523, 0.019674325, -0.059521832, 0.0082638906, -0.018247178, 0.032308992, -0.31125706, 0.015968831, 0.11972714, 0.082916826, -0.298464, -0.084830835, -0.25994691, -0.097984098, 0.016866274, 0.054271273, 0.023750782, 0.013264966, -0.074370988, -0.19282791, 0.033726968], "depth": 32}, {"sy": 3, "sx": 3, "w": [0.055595744, -0.13368864, -0.072419003, -0.084474973, -0.037619442, 0.046518065, -0.088515647, -0.052535512, 0.093091033, -0.11551321, -0.081486531, -0.19912741, 0.052968804, -0.22317018, 0.060047191, -0.020211974, -0.031146862, 0.014861166, 0.099481978, -0.37965301, -0.0072412333, 0.046060573, 0.010368912, 0.081581429, -0.073334917, 0.024556311, -0.072826304, -0.18390135, -0.054544639, 0.054132011, 0.052632608, 0.09491764, -0.066290349, 0.021204824, -0.10130888, -0.017128356, -0.040957291, 0.085196741, 0.0080299424, -0.022495078, 0.096168742, -0.075405777, -0.088330917, -0.071176812, -0.15852208, -0.17170022, 0.060411107, 0.061363369, -0.11742567, -0.13869642, -0.10391952, -0.31205258, -0.026731614, 0.078794345, -0.065995745, 0.021296578, -0.10170899, -0.038773399, 0.03697139, -0.11726984, -0.020875026, -0.016935246, -0.041914076, 0.080504723, -0.080721036, 0.0078882053, -0.047098167, -0.14001842, -0.068688676, 0.016234646, 0.010387582, 0.0067136278, 0.028951412, -0.043324761, -0.044649586, -0.024664229, -0.020228868, -0.17012298, 0.1384092, 0.00036568299, -0.05365406, -0.072999157, -0.0063076038, -0.12732251, -0.033596616, 0.041608345, 0.095939018, 0.020192835, -0.038095929, -0.076136693, -0.046170793, 0.069921829, -0.17636627, 0.052882142, -0.12998517, 0.011725312, -0.028734993, 0.039902624, -0.010968394, -0.20899057, -0.0052314717, 0.093719222, -0.054554362, 0.019422652, -0.0080579333, 0.04684804, 0.045053318, -0.23091678, 0.033101149, -0.052947145, -0.13065021, 0.074065782, -0.037859205, -0.098982729, 0.018076019, -0.10764502, 0.084447652, -0.033844285, -0.087521248, 0.0053685326, 0.08162529, -0.0026564705, 0.068115711, -0.11817487, 0.0013892855, -0.099572964, 0.018399021, -0.037191454, -0.025205474, 0.119725, 0.024869157, -0.058765311, 0.052807875, -0.034960721, -0.00544141, 0.083899356, 0.092553206, -0.023737656, -0.00032458259, 0.090568669, 0.07673648, 0.015038701, -0.19634141, -0.068506651, -0.083171397, -0.12804146, -0.10879306, 0.17727506, -0.14915214, -0.06783618, -0.12218431, -0.080596164, -0.020082999, -0.15297006, 0.062111929, -0.12213128, 0.18986303, 0.099096596, -0.029148826, -0.11302187, -0.10657406, -0.086317062, 0.028431118, -0.045374323, 0.0041849436, -0.014172995, 0.041480642, 0.02045341, -0.011490619, 0.027976625, -0.037992984, -0.0081309779, 0.074275985, -0.034336615, 0.029911932, -0.062605642, -0.00043014571, -0.120025, -0.15403438, 0.16782333, -0.042777989, 0.090840779, 0.025421819, 0.038090289, -0.020476097, -0.093860239, -0.0075528743, 0.037398428, -0.056963023, -0.10080706, -0.039278556, -0.068356104, -0.00073853735, -0.094612435, 0.012703151, -0.13532932, -0.056500155, -0.41244233, -0.046650849, 0.049693417, -0.086763158, -0.011421586, 0.072807796, -0.27951241, 0.090929337, 0.019766033, -0.17499174, -0.071700037, -0.038237888, -0.17164324, -0.051098548, 0.22800514, -0.058287214, -0.11995579, -0.14336026, -0.072331205, 0.047102999, -0.046369031, 0.020342119, -0.0032401551, -0.048603132, -0.26546645, -0.010606506, -0.19165595, -0.073874086, -0.097881675, 0.039193913, -0.062713876, 0.11443023, -0.4385944, -0.030065969, -0.00034094651, -0.10922737, 0.043779351, 0.075739272, -0.25267747, 0.055823646, -0.058270048, -0.18894589, -0.14879684, -0.079344295, -0.18591341, -0.16312724, 0.19565903, -0.13017406, -0.19934581, -0.20378627, -0.11123873, 0.11238389, -0.11802375, 0.060213808, 0.066985749, 0.14142691, -0.28368527, 0.0047605769, -0.30404246, 0.051384848, -0.16417718, 0.010365566, -0.20157832, -0.080253273, -0.31707329, -0.054969568, 0.072592378, -0.11430206, 0.073234968, 0.061063092, -0.28908613, 0.065175682, -0.16148582, -0.12877159, -0.034566313, -0.049404368, -0.091518559, -0.16705579, 0.011579992, 0.07488142, -0.02164774, -0.12295563, -0.071626693, -0.0025929972, 0.060035549, 0.015359272, -0.10479073, 0.068525717, -0.21181349, -0.004224191, -0.14800827], "depth": 32}, {"sy": 3, "sx": 3, "w": [-0.12054437, -0.01044796, 0.055747747, -0.045619819, 0.0019247544, 0.0021736235, -0.044621233, 0.036266446, 0.010561569, -0.10043719, -0.02802214, 0.11188841, 0.015474114, -0.19135725, -0.015799325, 0.02496138, -0.035627484, 0.035081875, 0.11770393, 0.18614992, 0.061776847, -0.030588036, -0.051202785, -0.027705273, 0.047887068, -0.22835323, -0.013088333, 0.27655089, -0.14432795, 0.030153336, 0.020274913, -0.064560138, -0.27743009, -0.099850304, -0.070864171, -0.07410235, 0.12495988, 0.031880729, -0.056819975, 0.031029185, 0.013112, -0.077726848, 0.027114823, -0.099275775, 0.044975176, -0.18001893, -0.10372543, -0.041108228, -0.0033214111, 0.033847749, 0.0062798252, 0.01523632, 0.012037967, 0.069200695, 0.066414349, 0.0029974575, 0.016250374, 0.035218764, -0.095931612, 0.24516971, -0.1937488, -0.236755, 0.046319503, 0.071089864, -0.17082633, -0.05678495, 0.0028231968, -0.11250445, 0.085613586, -0.041927237, -0.15917051, -0.016974838, -0.026379203, -0.067129202, -0.13414472, -0.25284222, -0.0033608938, -0.23496491, 0.15030202, -0.017882181, -0.046106003, -0.024711156, 0.12443219, -0.21639036, -0.0044934689, 0.099576369, -0.073180363, 0.015632346, 0.0050336504, 0.032375887, 0.11763581, 0.24683844, -0.25308836, 0.10474384, -0.0042046062, -0.0080399867, -0.12892039, 0.20840155, 0.0085451342, -0.11173686, 0.044220477, -0.037798196, 0.046811402, -0.065411463, -0.078768745, 0.066802964, -0.077725612, -0.022666506, 0.063963972, -0.12237878, 0.019657983, -0.12666862, -0.013121295, -0.039677013, 0.029017961, 0.17012155, 0.096760452, 0.063055411, 0.044011455, 0.014846382, -0.046649326, 0.059393506, 0.018465439, 0.4327642, -0.15837735, 0.062976375, -0.0051153898, -0.15017433, -0.1487606, 0.022327686, 0.047170084, -0.10646476, -0.046759594, -0.046652246, 0.044590119, 0.020051459, 0.085929699, -0.01156732, -0.0033536104, -0.031075314, 0.058339898, -0.098772891, 0.10068825, 0.08304964, -0.1286079, 0.037250701, -0.10428282, 0.066374466, 0.022219691, 0.031940706, -0.092901893, 0.033693254, 0.013277423, -0.13235271, -0.047927074, 0.29699573, -0.0081597157, 0.10839863, 0.02952059, -0.064437464, 0.12752828, 0.049584597, 0.010467155, -0.24176249, 0.057028893, -0.0013650601, -0.068721503, -0.13601834, 0.11112994, -0.04470272, 0.039576236, -0.025560716, 0.045191649, -0.018772047, 0.021394128, 0.024491483, -0.1835002, 0.1708326, 0.032535162, 0.16527809, 0.15555406, -0.096703805, -0.047433984, 0.071187325, 0.029677188, 0.004202872, -0.15825906, 0.26848418, 0.01873292, 0.029483007, -0.0022511259, -0.044594694, -0.10497271, -0.10261168, -0.0360463, -0.27228659, -0.19627029, -0.0010644834, 0.031858519, 0.066596374, 0.07438159, -0.15501072, -0.0074250381, 0.0197384, -0.0069681434, -0.10453496, 0.084151782, -0.091863826, -0.046501137, 0.052249245, -0.026347594, -0.15444647, 0.020491797, -0.050427422, 0.065700784, -0.0039964314, 0.066125914, -0.076236002, -0.049593348, 0.39129245, -0.089718796, 0.01196999, 0.051728752, 0.023638254, 0.06253133, -0.037215196, -0.00019830241, -0.25761431, -0.080379128, -0.066781335, -0.070619784, -0.074451789, -0.094945319, -0.17071639, -0.27159265, -0.29532087, -0.12877028, -0.086611107, 0.068289503, -0.0017156738, -0.052715071, 0.1356719, 0.057497583, 0.036802135, -0.10781574, 0.041220613, 0.019066202, 0.011232219, 0.018159201, -0.11048812, -0.016703933, 0.42951033, -0.016034612, -0.012395415, 0.013274183, -0.024333224, 0.017147241, -0.018236794, -0.084421463, -0.043084458, 0.046949614, -0.068241991, 0.009907525, 0.062593542, 0.0094222464, -0.058288146, -0.077603012, -0.18538326, -0.071334422, 0.083566703, -0.0088806357, 0.097585574, -0.029696168, -0.067913309, -0.017276464, -0.1020394, 0.12078214, 0.022339921, -0.016550831, -0.086415552, -0.093655795, -0.070575058, 0.029231435, 0.27220428, 0.024818253, -0.012369988, -0.051889665, 0.019035494], "depth": 32}, {"sy": 3, "sx": 3, "w": [-0.11032891, -0.081858352, 0.036513727, -0.10432844, -0.26346296, 0.032728989, 0.031806398, -0.02154744, 0.038905941, -0.020486167, 0.003191534, -0.24622208, 0.029193427, -0.093017466, 0.028688021, -0.11389157, 0.037882905, 0.10916393, 0.013862563, -0.15503818, -0.032594033, 0.043459792, 0.15788171, 0.039919734, 0.0098838592, 0.05886168, -0.043810017, -0.26794249, -0.27354071, -0.009807989, -0.00080763787, 0.025751768, -0.04556445, 0.0087472219, -0.061429113, -0.18457051, -0.10759462, 0.035971709, 0.0066657509, -0.14020969, 0.09496662, -0.038925156, -0.058355805, -0.12410968, -0.0074450239, 